{
    "experiment_config": {
        "mode": "simple",
        "num_categories": 5,
        "p": 0.8,
        "num_nodes": 20,
        "motif_dim": 0,
        "num_train_samples": 5000,
        "num_test_samples": 1500,
        "batch_size": 16,
        "in_dim": 5,
        "hidden_dims": [
            5,
            2
        ],
        "lr": 0.01,
        "use_weighting": true,
        "importance": [
            15.0,
            10.0
        ],
        "phase1_epochs": 0,
        "phase2_epochs": 50,
        "device": "cpu",
        "model_type": "GIN",
        "loss": "BCE",
        "pooling": "gm",
        "gm_p": 2.0,
        "log_dir": "runs/T/BCE/2/GIN/small_compression/p_gm=2.0/5/low",
        "file_path": "T/BCE/2/GIN/small_compression/p_gm=2.0/5.0/low",
        "add_graph": false,
        "track_embeddings": false,
        "save": true
    },
    "sparcity": 0.6470893870894227,
    "summary format:": "Key: (Num of active features, Num of accurate feature, Geometry, Collapsed). Loss, s.d. Loss, Count",
    "summary": {
        "(0, 0, 'Failed', 0)": [
            0.651443709821412,
            0.0019271408803206323,
            11
        ],
        "(1, 1, 1, 0)": [
            0.5196967948675156,
            0.0051028946191463065,
            8
        ],
        "(2, 2, 2, 0)": [
            0.38956731708844505,
            0.0,
            1
        ]
    },
    "results": [
        {
            "Num of features": 5,
            "Num of active features": 0,
            "Num of accurate feature": 0,
            "Geometry": "Failed",
            "Collapsed": 0,
            "Loss": 0.650627889474233,
            "Rank": 1,
            "Singular values": [
                3.1622782898921287e-06,
                1.0655779122076728e-22
            ]
        },
        {
            "Num of features": 5,
            "Num of active features": 1,
            "Num of accurate feature": 1,
            "Geometry": 1,
            "Collapsed": 0,
            "Loss": 0.5200059444109599,
            "Rank": 2,
            "Singular values": [
                1.6181375980377197,
                0.5318843722343445
            ]
        },
        {
            "Num of features": 5,
            "Num of active features": 0,
            "Num of accurate feature": 0,
            "Geometry": "Failed",
            "Collapsed": 0,
            "Loss": 0.6491844418843588,
            "Rank": 1,
            "Singular values": [
                3.1622782898921287e-06,
                3.54622322522519e-23
            ]
        },
        {
            "Num of features": 5,
            "Num of active features": 0,
            "Num of accurate feature": 0,
            "Geometry": "Failed",
            "Collapsed": 0,
            "Loss": 0.65186123975118,
            "Rank": 1,
            "Singular values": [
                3.1622780625184532e-06,
                1.8590662123898387e-22
            ]
        },
        {
            "Num of features": 5,
            "Num of active features": 1,
            "Num of accurate feature": 1,
            "Geometry": 1,
            "Collapsed": 0,
            "Loss": 0.5199819954236349,
            "Rank": 2,
            "Singular values": [
                1.7184165716171265,
                0.4024902284145355
            ]
        },
        {
            "Num of features": 5,
            "Num of active features": 1,
            "Num of accurate feature": 1,
            "Geometry": 1,
            "Collapsed": 0,
            "Loss": 0.517198023001353,
            "Rank": 2,
            "Singular values": [
                1.1018660068511963,
                1.9999986307084328e-06
            ]
        },
        {
            "Num of features": 5,
            "Num of active features": 1,
            "Num of accurate feature": 1,
            "Geometry": 1,
            "Collapsed": 0,
            "Loss": 0.5245210789044699,
            "Rank": 2,
            "Singular values": [
                1.3057193756103516,
                1.8805878880812088e-06
            ]
        },
        {
            "Num of features": 5,
            "Num of active features": 1,
            "Num of accurate feature": 1,
            "Geometry": 1,
            "Collapsed": 0,
            "Loss": 0.5083981671333313,
            "Rank": 2,
            "Singular values": [
                3.448615550994873,
                0.7468400597572327
            ]
        },
        {
            "Num of features": 5,
            "Num of active features": 1,
            "Num of accurate feature": 1,
            "Geometry": 1,
            "Collapsed": 0,
            "Loss": 0.5182035889625549,
            "Rank": 2,
            "Singular values": [
                1.1171101331710815,
                1.9999986307084328e-06
            ]
        },
        {
            "Num of features": 5,
            "Num of active features": 0,
            "Num of accurate feature": 0,
            "Geometry": "Failed",
            "Collapsed": 0,
            "Loss": 0.6534272082646688,
            "Rank": 1,
            "Singular values": [
                3.1622780625184532e-06,
                1.2317123975004524e-22
            ]
        },
        {
            "Num of features": 5,
            "Num of active features": 0,
            "Num of accurate feature": 0,
            "Geometry": "Failed",
            "Collapsed": 0,
            "Loss": 0.6499009110132853,
            "Rank": 1,
            "Singular values": [
                3.1622782898921287e-06,
                1.0655779122076728e-22
            ]
        },
        {
            "Num of features": 5,
            "Num of active features": 0,
            "Num of accurate feature": 0,
            "Geometry": "Failed",
            "Collapsed": 0,
            "Loss": 0.6498884088198343,
            "Rank": 1,
            "Singular values": [
                3.1622782898921287e-06,
                1.976128500668078e-22
            ]
        },
        {
            "Num of features": 5,
            "Num of active features": 0,
            "Num of accurate feature": 0,
            "Geometry": "Failed",
            "Collapsed": 0,
            "Loss": 0.6529455633163452,
            "Rank": 1,
            "Singular values": [
                3.1622782898921287e-06,
                3.54622322522519e-23
            ]
        },
        {
            "Num of features": 5,
            "Num of active features": 1,
            "Num of accurate feature": 1,
            "Geometry": 1,
            "Collapsed": 0,
            "Loss": 0.5246838488578797,
            "Rank": 2,
            "Singular values": [
                1.5851950645446777,
                1.9999990854557836e-06
            ]
        },
        {
            "Num of features": 5,
            "Num of active features": 0,
            "Num of accurate feature": 0,
            "Geometry": "Failed",
            "Collapsed": 0,
            "Loss": 0.6510977578163147,
            "Rank": 1,
            "Singular values": [
                3.1622782898921287e-06,
                4.076794787987759e-22
            ]
        },
        {
            "Num of features": 5,
            "Num of active features": 0,
            "Num of accurate feature": 0,
            "Geometry": "Failed",
            "Collapsed": 0,
            "Loss": 0.6544369244575501,
            "Rank": 1,
            "Singular values": [
                3.1622782898921287e-06,
                3.54622322522519e-23
            ]
        },
        {
            "Num of features": 5,
            "Num of active features": 0,
            "Num of accurate feature": 0,
            "Geometry": "Failed",
            "Collapsed": 0,
            "Loss": 0.6485377583503723,
            "Rank": 1,
            "Singular values": [
                3.1622782898921287e-06,
                3.54622322522519e-23
            ]
        },
        {
            "Num of features": 5,
            "Num of active features": 0,
            "Num of accurate feature": 0,
            "Geometry": "Failed",
            "Collapsed": 0,
            "Loss": 0.6539727048873901,
            "Rank": 1,
            "Singular values": [
                3.1622780625184532e-06,
                2.816005734827329e-22
            ]
        },
        {
            "Num of features": 5,
            "Num of active features": 1,
            "Num of accurate feature": 1,
            "Geometry": 1,
            "Collapsed": 0,
            "Loss": 0.5245817122459412,
            "Rank": 2,
            "Singular values": [
                1.8346556425094604,
                1.9517585769790458e-06
            ]
        },
        {
            "Num of features": 5,
            "Num of active features": 2,
            "Num of accurate feature": 2,
            "Geometry": 2,
            "Collapsed": 0,
            "Loss": 0.38956731708844505,
            "Rank": 2,
            "Singular values": [
                2.209388494491577,
                2.0699150562286377
            ]
        }
    ],
    "average embeddings summary": {
        "(0, 0, 'Failed', 0)": {
            "(1, 0, 0, 0, 0)": [
                1.0000002248489182e-06,
                1.0000002248489182e-06
            ],
            "(0, 1, 0, 0, 0)": [
                1.0000001111620804e-06,
                1.0000001111620804e-06
            ],
            "(0, 0, 0, 0, 1)": [
                1.0000002248489182e-06,
                1.0000002248489182e-06
            ],
            "(0, 0, 0, 1, 0)": [
                1.0000002248489182e-06,
                1.0000002248489182e-06
            ],
            "(0, 0, 1, 0, 0)": [
                1.0000002248489182e-06,
                1.0000002248489182e-06
            ]
        },
        "(1, 1, 1, 0)": {
            "(1, 0, 0, 0, 0)": [
                0.2815210223197937,
                0.05204668641090393
            ],
            "(0, 0, 0, 1, 0)": [
                0.28115811944007874,
                0.06288650631904602
            ],
            "(0, 1, 0, 0, 0)": [
                0.2815569341182709,
                0.050203293561935425
            ],
            "(0, 0, 0, 0, 1)": [
                0.2810421288013458,
                0.06518462300300598
            ],
            "(0, 0, 1, 0, 0)": [
                0.25856196880340576,
                1.582535982131958
            ]
        },
        "(2, 2, 2, 0)": {
            "(0, 1, 0, 0, 0)": [
                0.11593952029943466,
                2.100102424621582
            ],
            "(1, 0, 0, 0, 0)": [
                2.161604404449463,
                1.0000002248489182e-06
            ],
            "(0, 0, 0, 0, 1)": [
                0.14109119772911072,
                1.0000001111620804e-06
            ],
            "(0, 0, 0, 1, 0)": [
                0.1408907175064087,
                1.0000001111620804e-06
            ],
            "(0, 0, 1, 0, 0)": [
                0.1725788712501526,
                1.0000002248489182e-06
            ]
        }
    },
    "model summary": {
        "(0, 0, 'Failed', 0)": {
            "convs.0.eps": [
                0.0
            ],
            "convs.0.nn.0.weight": [
                [
                    -0.22065480053424835,
                    0.08626273274421692,
                    0.00495145982131362,
                    0.2064029574394226,
                    0.24430960416793823
                ],
                [
                    -0.19635997712612152,
                    -0.3617679178714752,
                    -0.23009128868579865,
                    0.3554266095161438,
                    0.3789948523044586
                ],
                [
                    0.40792134404182434,
                    0.20833583176136017,
                    0.07364585995674133,
                    0.21946796774864197,
                    -0.16976986825466156
                ],
                [
                    0.19248846173286438,
                    -0.19742798805236816,
                    -0.054966337978839874,
                    0.19886517524719238,
                    -0.3695131838321686
                ],
                [
                    -0.02776644378900528,
                    0.40185925364494324,
                    0.12331399321556091,
                    -0.00949193723499775,
                    -0.3508344888687134
                ]
            ],
            "convs.0.nn.0.bias": [
                -0.17713290452957153,
                -0.12099886685609818,
                0.4256772994995117,
                -0.0433553010225296,
                0.19199788570404053
            ],
            "convs.0.nn.2.weight": [
                [
                    -0.08778132498264313,
                    0.430732399225235,
                    0.15971682965755463,
                    -0.2826385498046875,
                    0.15772631764411926
                ],
                [
                    0.2932032346725464,
                    -0.21313130855560303,
                    -0.14215430617332458,
                    -0.1524800956249237,
                    -0.12117879837751389
                ],
                [
                    0.2535891532897949,
                    0.12195389717817307,
                    0.3494279980659485,
                    -0.31227433681488037,
                    -0.16222397983074188
                ],
                [
                    -0.32961294054985046,
                    0.08387072384357452,
                    0.31656092405319214,
                    -0.06408477574586868,
                    -0.3553118407726288
                ],
                [
                    -0.001937465276569128,
                    0.18896502256393433,
                    -0.31928446888923645,
                    -0.387040913105011,
                    -0.051731739193201065
                ]
            ],
            "convs.0.nn.2.bias": [
                -0.21734492480754852,
                -0.41182053089141846,
                -0.3065003752708435,
                -0.37963128089904785,
                0.033645160496234894
            ],
            "convs.1.eps": [
                0.0
            ],
            "convs.1.nn.0.weight": [
                [
                    0.014659738168120384,
                    0.20697984099388123,
                    -0.27753978967666626,
                    -0.09599505364894867,
                    -0.25401571393013
                ],
                [
                    -0.1971898376941681,
                    -0.3123539686203003,
                    0.3145499527454376,
                    -0.23102222383022308,
                    -0.10523530095815659
                ]
            ],
            "convs.1.nn.0.bias": [
                -0.4127088785171509,
                -0.40518203377723694
            ],
            "convs.1.nn.2.weight": [
                [
                    0.1361844688653946,
                    -0.3104790449142456
                ],
                [
                    -0.28300806879997253,
                    0.44682493805885315
                ]
            ],
            "convs.1.nn.2.bias": [
                -0.281056672334671,
                -0.014782838523387909
            ],
            "lin_out.weight": [
                [
                    0.7014825344085693,
                    -0.11031059920787811
                ],
                [
                    0.08885020762681961,
                    0.33182528614997864
                ],
                [
                    -0.6404132843017578,
                    0.10584008693695068
                ],
                [
                    -1.2074977159500122,
                    -0.4446979761123657
                ],
                [
                    0.050287067890167236,
                    -0.6476653218269348
                ]
            ],
            "lin_out.bias": [
                -0.43100616335868835,
                -0.5401292443275452,
                -0.48844966292381287,
                -0.44408199191093445,
                -0.5120493173599243
            ]
        },
        "(1, 1, 1, 0)": {
            "convs.0.eps": [
                0.060569941997528076
            ],
            "convs.0.nn.0.weight": [
                [
                    0.11137373745441437,
                    -0.20203420519828796,
                    0.8352770805358887,
                    0.87858647108078,
                    0.1421908736228943
                ],
                [
                    0.15801961719989777,
                    0.1509339064359665,
                    0.9052740931510925,
                    0.001632458297535777,
                    0.12202315032482147
                ],
                [
                    -2.74991512298584,
                    -0.14976313710212708,
                    -0.7777873277664185,
                    1.4369322061538696,
                    -2.45253324508667
                ],
                [
                    -0.25996947288513184,
                    -0.33704280853271484,
                    0.1821209192276001,
                    -0.2760663330554962,
                    -0.4067608416080475
                ],
                [
                    0.16980211436748505,
                    0.07339708507061005,
                    -0.7678812146186829,
                    0.24745750427246094,
                    0.0835956409573555
                ]
            ],
            "convs.0.nn.0.bias": [
                -1.040873408317566,
                -1.4704656600952148,
                -0.20514364540576935,
                -0.7864691615104675,
                1.9146459102630615
            ],
            "convs.0.nn.2.weight": [
                [
                    -0.4202476739883423,
                    -0.40905535221099854,
                    -0.3169576823711395,
                    -0.17607428133487701,
                    -0.27836522459983826
                ],
                [
                    0.6873921751976013,
                    0.2011287957429886,
                    -2.607449769973755,
                    -0.12736776471138,
                    -3.079094409942627
                ],
                [
                    -0.10622596740722656,
                    -1.7219659090042114,
                    1.6163787841796875,
                    0.22591207921504974,
                    0.5516085028648376
                ],
                [
                    -0.026473693549633026,
                    -1.7400543689727783,
                    1.5091290473937988,
                    -0.42662835121154785,
                    -0.10662516951560974
                ],
                [
                    -0.12551327049732208,
                    -1.6887949705123901,
                    0.9033978581428528,
                    -0.06767929345369339,
                    0.10332562029361725
                ]
            ],
            "convs.0.nn.2.bias": [
                -0.3615618050098419,
                0.4589616060256958,
                0.12766984105110168,
                0.48099127411842346,
                0.3783462345600128
            ],
            "convs.1.eps": [
                1.5663505792617798
            ],
            "convs.1.nn.0.weight": [
                [
                    0.3083269000053406,
                    0.009660073556005955,
                    -0.01569897122681141,
                    -0.21509809792041779,
                    -0.21470540761947632
                ],
                [
                    -0.2204408049583435,
                    0.803503155708313,
                    -0.41519051790237427,
                    -0.15656350553035736,
                    -0.15760934352874756
                ]
            ],
            "convs.1.nn.0.bias": [
                -0.3637344539165497,
                1.1539205312728882
            ],
            "convs.1.nn.2.weight": [
                [
                    -0.521028459072113,
                    -0.04372788593173027
                ],
                [
                    -0.09416267275810242,
                    0.5533367991447449
                ]
            ],
            "convs.1.nn.2.bias": [
                0.28333011269569397,
                -0.04990071430802345
            ],
            "lin_out.weight": [
                [
                    0.2592589557170868,
                    -0.17201641201972961
                ],
                [
                    0.2114562839269638,
                    -0.2695143222808838
                ],
                [
                    -9.035905838012695,
                    13.933052062988281
                ],
                [
                    -0.31833890080451965,
                    -0.23147688806056976
                ],
                [
                    0.19211532175540924,
                    -0.3080969452857971
                ]
            ],
            "lin_out.bias": [
                -0.4161156415939331,
                -0.3103780150413513,
                -7.139612197875977,
                -0.17194335162639618,
                -0.34573331475257874
            ]
        },
        "(2, 2, 2, 0)": {
            "convs.0.eps": [
                0.01810454949736595
            ],
            "convs.0.nn.0.weight": [
                [
                    1.5191469192504883,
                    -0.39474865794181824,
                    -0.4608861207962036,
                    -0.7410868406295776,
                    -0.7879709601402283
                ],
                [
                    -0.6000857949256897,
                    1.1397353410720825,
                    -0.21910406649112701,
                    0.33762964606285095,
                    0.20134249329566956
                ],
                [
                    -0.5539993643760681,
                    -0.5088284611701965,
                    -0.07501085847616196,
                    -0.19411246478557587,
                    -0.9294660687446594
                ],
                [
                    0.05765395611524582,
                    -1.7365248203277588,
                    -1.8316222429275513,
                    -1.6810215711593628,
                    -1.8445825576782227
                ],
                [
                    -0.9577765464782715,
                    -0.41860219836235046,
                    0.4580095708370209,
                    0.9897069334983826,
                    0.46034297347068787
                ]
            ],
            "convs.0.nn.0.bias": [
                -1.9502503871917725,
                -1.8598569631576538,
                -0.20681555569171906,
                1.4948163032531738,
                1.5070674419403076
            ],
            "convs.0.nn.2.weight": [
                [
                    1.52866792678833,
                    -0.0058295512571930885,
                    -1.3752659559249878,
                    -0.8502070903778076,
                    -0.6730954051017761
                ],
                [
                    -0.511898398399353,
                    2.01777982711792,
                    0.07171720266342163,
                    0.0327058807015419,
                    -1.2092684507369995
                ],
                [
                    -0.12204335629940033,
                    0.05599778890609741,
                    -0.5814700722694397,
                    -0.2866522967815399,
                    -0.3668901324272156
                ],
                [
                    -0.6035671830177307,
                    2.387192726135254,
                    0.10585218667984009,
                    -0.2785220444202423,
                    -1.4902642965316772
                ],
                [
                    -0.4203518033027649,
                    -0.26491373777389526,
                    -0.3932504653930664,
                    -0.17001649737358093,
                    -0.3682919144630432
                ]
            ],
            "convs.0.nn.2.bias": [
                -0.24510839581489563,
                -0.4147947132587433,
                -0.4310193359851837,
                -0.4104534983634949,
                -0.38208022713661194
            ],
            "convs.1.eps": [
                0.7468537092208862
            ],
            "convs.1.nn.0.weight": [
                [
                    0.792023777961731,
                    -0.8224006295204163,
                    -0.23889191448688507,
                    -0.9207889437675476,
                    -0.12107334285974503
                ],
                [
                    -0.2295970320701599,
                    -0.1417340487241745,
                    -0.13588730990886688,
                    -0.023607449606060982,
                    -0.17250557243824005
                ]
            ],
            "convs.1.nn.0.bias": [
                1.3962322473526,
                -0.4705755114555359
            ],
            "convs.1.nn.2.weight": [
                [
                    0.694712221622467,
                    0.5040616393089294
                ],
                [
                    -4.2451958656311035,
                    0.5987216830253601
                ]
            ],
            "convs.1.nn.2.bias": [
                -1.0506747961044312,
                4.273248195648193
            ],
            "lin_out.weight": [
                [
                    12.911291122436523,
                    0.019496703520417213
                ],
                [
                    0.012501189485192299,
                    9.903061866760254
                ],
                [
                    -0.24474693834781647,
                    -0.2528219521045685
                ],
                [
                    -0.20655301213264465,
                    -0.20774491131305695
                ],
                [
                    -0.25450587272644043,
                    -0.3198818564414978
                ]
            ],
            "lin_out.bias": [
                -12.45091438293457,
                -8.786230087280273,
                -0.12671706080436707,
                -0.0748690664768219,
                -0.06149333715438843
            ]
        }
    }
}