{
    "experiment_config": {
        "mode": "simple",
        "num_categories": 5,
        "p": 0.3,
        "num_nodes": 20,
        "motif_dim": 0,
        "num_train_samples": 5000,
        "num_test_samples": 1500,
        "batch_size": 16,
        "in_dim": 5,
        "hidden_dims": [
            5,
            2
        ],
        "lr": 0.01,
        "use_weighting": true,
        "importance": [
            15.0,
            10.0
        ],
        "phase1_epochs": 0,
        "phase2_epochs": 50,
        "device": "cpu",
        "model_type": "GCN",
        "loss": "BCE",
        "pooling": "gm",
        "gm_p": 4.0,
        "log_dir": "runs/T/BCE/2/GCN/small_compression/p_gm=4.0/5/high",
        "file_path": "T/BCE/2/GCN/small_compression/p_gm=4.0/5.0/high",
        "add_graph": false,
        "track_embeddings": false,
        "save": true
    },
    "sparcity": 0.9370393313871229,
    "summary format:": "Key: (Num of active features, Num of accurate feature, Geometry, Collapsed). Loss, s.d. Loss, Count",
    "summary": {
        "(3, 3, 3, 0)": [
            0.1584288941224416,
            0.0,
            1
        ],
        "(3, 3, 'Failed', 0)": [
            0.1795689264223689,
            0.01135584419878445,
            7
        ],
        "(2, 2, 2, 0)": [
            0.2226668138206005,
            0.005784749206841846,
            4
        ],
        "(4, 4, 4, 0)": [
            0.1233226422406733,
            0.015718017593637865,
            8
        ]
    },
    "results": [
        {
            "Num of features": 5,
            "Num of active features": 3,
            "Num of accurate feature": 3,
            "Geometry": 3,
            "Collapsed": 0,
            "Loss": 0.1584288941224416,
            "Rank": 2,
            "Singular values": [
                3.0150039196014404,
                1.9550132751464844
            ]
        },
        {
            "Num of features": 5,
            "Num of active features": 3,
            "Num of accurate feature": 3,
            "Geometry": "Failed",
            "Collapsed": 0,
            "Loss": 0.1797353258927663,
            "Rank": 2,
            "Singular values": [
                2.8573033809661865,
                2.3069047927856445
            ]
        },
        {
            "Num of features": 5,
            "Num of active features": 3,
            "Num of accurate feature": 3,
            "Geometry": "Failed",
            "Collapsed": 0,
            "Loss": 0.19808907071749368,
            "Rank": 2,
            "Singular values": [
                3.9465489387512207,
                3.2747089862823486
            ]
        },
        {
            "Num of features": 5,
            "Num of active features": 2,
            "Num of accurate feature": 2,
            "Geometry": 2,
            "Collapsed": 0,
            "Loss": 0.2164194904168447,
            "Rank": 2,
            "Singular values": [
                4.537445545196533,
                2.8203043937683105
            ]
        },
        {
            "Num of features": 5,
            "Num of active features": 4,
            "Num of accurate feature": 4,
            "Geometry": 4,
            "Collapsed": 0,
            "Loss": 0.11065376764535904,
            "Rank": 2,
            "Singular values": [
                3.0731215476989746,
                2.6548964977264404
            ]
        },
        {
            "Num of features": 5,
            "Num of active features": 4,
            "Num of accurate feature": 4,
            "Geometry": 4,
            "Collapsed": 0,
            "Loss": 0.11580280632774036,
            "Rank": 2,
            "Singular values": [
                3.0513834953308105,
                2.5190834999084473
            ]
        },
        {
            "Num of features": 5,
            "Num of active features": 4,
            "Num of accurate feature": 4,
            "Geometry": 4,
            "Collapsed": 0,
            "Loss": 0.14702139210700987,
            "Rank": 2,
            "Singular values": [
                4.254321098327637,
                2.82718825340271
            ]
        },
        {
            "Num of features": 5,
            "Num of active features": 2,
            "Num of accurate feature": 2,
            "Geometry": 2,
            "Collapsed": 0,
            "Loss": 0.22430961533387503,
            "Rank": 2,
            "Singular values": [
                3.4916868209838867,
                2.580516815185547
            ]
        },
        {
            "Num of features": 5,
            "Num of active features": 4,
            "Num of accurate feature": 4,
            "Geometry": 4,
            "Collapsed": 0,
            "Loss": 0.11189121568202973,
            "Rank": 2,
            "Singular values": [
                3.591646671295166,
                2.036501884460449
            ]
        },
        {
            "Num of features": 5,
            "Num of active features": 3,
            "Num of accurate feature": 3,
            "Geometry": "Failed",
            "Collapsed": 0,
            "Loss": 0.17986601769924163,
            "Rank": 2,
            "Singular values": [
                3.8234527111053467,
                3.262338161468506
            ]
        },
        {
            "Num of features": 5,
            "Num of active features": 4,
            "Num of accurate feature": 4,
            "Geometry": 4,
            "Collapsed": 0,
            "Loss": 0.10145407662789027,
            "Rank": 2,
            "Singular values": [
                2.859997034072876,
                2.0573644638061523
            ]
        },
        {
            "Num of features": 5,
            "Num of active features": 2,
            "Num of accurate feature": 2,
            "Geometry": 2,
            "Collapsed": 0,
            "Loss": 0.23135361218452455,
            "Rank": 2,
            "Singular values": [
                2.8344273567199707,
                2.26064395904541
            ]
        },
        {
            "Num of features": 5,
            "Num of active features": 3,
            "Num of accurate feature": 3,
            "Geometry": "Failed",
            "Collapsed": 0,
            "Loss": 0.18828244107961656,
            "Rank": 2,
            "Singular values": [
                3.250166654586792,
                2.208549976348877
            ]
        },
        {
            "Num of features": 5,
            "Num of active features": 4,
            "Num of accurate feature": 4,
            "Geometry": 4,
            "Collapsed": 0,
            "Loss": 0.14304179638624193,
            "Rank": 2,
            "Singular values": [
                3.3918004035949707,
                2.7898218631744385
            ]
        },
        {
            "Num of features": 5,
            "Num of active features": 4,
            "Num of accurate feature": 4,
            "Geometry": 4,
            "Collapsed": 0,
            "Loss": 0.11971795050303141,
            "Rank": 2,
            "Singular values": [
                4.21450662612915,
                2.2985730171203613
            ]
        },
        {
            "Num of features": 5,
            "Num of active features": 3,
            "Num of accurate feature": 3,
            "Geometry": "Failed",
            "Collapsed": 0,
            "Loss": 0.1637050218184789,
            "Rank": 2,
            "Singular values": [
                2.4384031295776367,
                1.7943710088729858
            ]
        },
        {
            "Num of features": 5,
            "Num of active features": 2,
            "Num of accurate feature": 2,
            "Geometry": 2,
            "Collapsed": 0,
            "Loss": 0.2185845373471578,
            "Rank": 2,
            "Singular values": [
                3.649575710296631,
                2.4461379051208496
            ]
        },
        {
            "Num of features": 5,
            "Num of active features": 3,
            "Num of accurate feature": 3,
            "Geometry": "Failed",
            "Collapsed": 0,
            "Loss": 0.18265155478318532,
            "Rank": 2,
            "Singular values": [
                4.186236381530762,
                2.8075919151306152
            ]
        },
        {
            "Num of features": 5,
            "Num of active features": 3,
            "Num of accurate feature": 3,
            "Geometry": "Failed",
            "Collapsed": 0,
            "Loss": 0.16465305296579996,
            "Rank": 2,
            "Singular values": [
                3.826401472091675,
                2.839806318283081
            ]
        },
        {
            "Num of features": 5,
            "Num of active features": 4,
            "Num of accurate feature": 4,
            "Geometry": 4,
            "Collapsed": 0,
            "Loss": 0.13699813264608382,
            "Rank": 2,
            "Singular values": [
                4.225377082824707,
                2.596334457397461
            ]
        }
    ],
    "average embeddings summary": {
        "(3, 3, 3, 0)": {
            "(0, 0, 0, 1, 0)": [
                -2.3523354530334473,
                0.6283003687858582
            ],
            "(0, 0, 0, 0, 1)": [
                0.9965438842773438,
                0.5469347238540649
            ],
            "(0, 0, 1, 0, 0)": [
                1.0003544092178345,
                0.5476785898208618
            ],
            "(0, 1, 0, 0, 0)": [
                0.8541532754898071,
                1.235755205154419
            ],
            "(1, 0, 0, 0, 0)": [
                0.8988848924636841,
                -1.1517471075057983
            ]
        },
        "(3, 3, 'Failed', 0)": {
            "(0, 0, 0, 0, 1)": [
                1.150055170059204,
                -1.1533169746398926
            ],
            "(0, 1, 0, 0, 0)": [
                2.3156094551086426,
                0.8165369629859924
            ],
            "(0, 0, 0, 1, 0)": [
                -0.5619566440582275,
                0.4958414137363434
            ],
            "(0, 0, 1, 0, 0)": [
                -0.6025251150131226,
                0.5227305889129639
            ],
            "(1, 0, 0, 0, 0)": [
                -0.5697560906410217,
                1.8115977048873901
            ]
        },
        "(2, 2, 2, 0)": {
            "(0, 0, 1, 0, 0)": [
                0.5491796135902405,
                1.12204110622406
            ],
            "(0, 0, 0, 0, 1)": [
                0.5757984519004822,
                1.0906480550765991
            ],
            "(1, 0, 0, 0, 0)": [
                4.2165045738220215,
                0.877862811088562
            ],
            "(0, 0, 0, 1, 0)": [
                0.6341282725334167,
                -2.3199901580810547
            ],
            "(0, 1, 0, 0, 0)": [
                0.5914747714996338,
                0.881492018699646
            ]
        },
        "(4, 4, 4, 0)": {
            "(0, 1, 0, 0, 0)": [
                -0.6953477263450623,
                1.6549696922302246
            ],
            "(0, 0, 0, 0, 1)": [
                -0.7391722798347473,
                -1.9371166229248047
            ],
            "(1, 0, 0, 0, 0)": [
                1.5772455930709839,
                -0.8344478011131287
            ],
            "(0, 0, 1, 0, 0)": [
                -0.6943793892860413,
                -0.8380476236343384
            ],
            "(0, 0, 0, 1, 0)": [
                -1.985925555229187,
                -0.8117438554763794
            ]
        }
    },
    "model summary": {
        "(3, 3, 3, 0)": {
            "convs.0.bias": [
                -1.2618634700775146,
                -1.6868849992752075,
                -1.3685057163238525,
                -0.17634625732898712,
                -0.29413431882858276
            ],
            "convs.0.lin.weight": [
                [
                    3.2553091049194336,
                    0.1812293976545334,
                    0.15317589044570923,
                    -0.09690467268228531,
                    0.23915418982505798
                ],
                [
                    0.6069501042366028,
                    0.46384429931640625,
                    -0.20116935670375824,
                    3.408097743988037,
                    -0.06927940994501114
                ],
                [
                    0.438534140586853,
                    3.0769131183624268,
                    0.0034733451902866364,
                    -0.08031075447797775,
                    0.1371043622493744
                ],
                [
                    -0.31825461983680725,
                    -0.12035403400659561,
                    -0.25562939047813416,
                    -0.21962259709835052,
                    0.16180993616580963
                ],
                [
                    -0.5724464058876038,
                    0.10494301468133926,
                    -1.2116689682006836,
                    1.9124979972839355,
                    -0.3417195677757263
                ]
            ],
            "convs.1.bias": [
                1.0492302179336548,
                0.5228118896484375
            ],
            "convs.1.lin.weight": [
                [
                    -0.4886760711669922,
                    -6.5995354652404785,
                    -1.1650192737579346,
                    -0.731599748134613,
                    -1.9571900367736816
                ],
                [
                    -3.4752416610717773,
                    0.21016427874565125,
                    2.8416428565979004,
                    0.4393925368785858,
                    0.21628567576408386
                ]
            ],
            "lin_out.weight": [
                [
                    0.2119959145784378,
                    -4.348414897918701
                ],
                [
                    0.4231959879398346,
                    9.136113166809082
                ],
                [
                    0.5007280707359314,
                    0.32968515157699585
                ],
                [
                    -4.087893486022949,
                    1.288923740386963
                ],
                [
                    0.5015574097633362,
                    0.24891051650047302
                ]
            ],
            "lin_out.bias": [
                -1.4023652076721191,
                -8.806392669677734,
                -1.9622938632965088,
                -4.009286880493164,
                -1.879386067390442
            ]
        },
        "(3, 3, 'Failed', 0)": {
            "convs.0.bias": [
                -1.0135340690612793,
                -1.2787781953811646,
                -0.23109450936317444,
                -0.8545604348182678,
                -1.4060180187225342
            ],
            "convs.0.lin.weight": [
                [
                    -0.21350358426570892,
                    -0.32359832525253296,
                    -0.11896052956581116,
                    -0.28692927956581116,
                    2.8250584602355957
                ],
                [
                    2.831326723098755,
                    0.2797060012817383,
                    0.11357871443033218,
                    -0.03399161249399185,
                    0.4552769064903259
                ],
                [
                    0.13965164124965668,
                    -0.5965158939361572,
                    -0.7260364294052124,
                    -0.09203457832336426,
                    -0.5000411868095398
                ],
                [
                    0.09150884300470352,
                    1.7216439247131348,
                    0.02551109716296196,
                    0.16634874045848846,
                    2.1684250831604004
                ],
                [
                    0.135260209441185,
                    3.564199209213257,
                    -0.15971150994300842,
                    0.05607600882649422,
                    -1.0240957736968994
                ]
            ],
            "convs.1.bias": [
                -0.705149233341217,
                0.49295297265052795
            ],
            "convs.1.lin.weight": [
                [
                    2.4440865516662598,
                    1.0731977224349976,
                    0.09515094757080078,
                    1.9511791467666626,
                    5.669135093688965
                ],
                [
                    -3.308995485305786,
                    5.315123081207275,
                    -0.6507082581520081,
                    -0.7595901489257812,
                    1.2927721738815308
                ]
            ],
            "lin_out.weight": [
                [
                    -0.6170734763145447,
                    8.019257545471191
                ],
                [
                    5.426010608673096,
                    1.8004953861236572
                ],
                [
                    -0.8893950581550598,
                    -0.2973017394542694
                ],
                [
                    -0.5752711296081543,
                    -0.06845720112323761
                ],
                [
                    0.6760618686676025,
                    -3.5759437084198
                ]
            ],
            "lin_out.bias": [
                -9.661327362060547,
                -9.926998138427734,
                -1.2687379121780396,
                -1.4603568315505981,
                -1.9879474639892578
            ]
        },
        "(2, 2, 2, 0)": {
            "convs.0.bias": [
                1.0745303630828857,
                -1.5401325225830078,
                -1.2301318645477295,
                0.0,
                -2.0958900451660156
            ],
            "convs.0.lin.weight": [
                [
                    -0.4809688329696655,
                    -0.18582969903945923,
                    -2.3219926357269287,
                    -1.6677054166793823,
                    -1.8362548351287842
                ],
                [
                    -0.9531071186065674,
                    -0.16457980871200562,
                    -0.08632368594408035,
                    3.974398612976074,
                    0.2934434115886688
                ],
                [
                    2.686969518661499,
                    0.07956251502037048,
                    0.408382773399353,
                    2.5368916988372803,
                    0.10296041518449783
                ],
                [
                    -0.5286725163459778,
                    -0.48431000113487244,
                    -0.3539528548717499,
                    -0.2715357542037964,
                    -0.01439733151346445
                ],
                [
                    4.519482135772705,
                    0.037032946944236755,
                    -0.045040398836135864,
                    -0.34566110372543335,
                    0.0028043396305292845
                ]
            ],
            "convs.1.bias": [
                -0.07649323344230652,
                1.694759488105774
            ],
            "convs.1.lin.weight": [
                [
                    0.6464794278144836,
                    -0.7062873244285583,
                    1.9702070951461792,
                    0.5627344250679016,
                    6.667544841766357
                ],
                [
                    -1.2650060653686523,
                    -5.544008255004883,
                    -1.2245721817016602,
                    -0.5436018705368042,
                    0.057850733399391174
                ]
            ],
            "lin_out.weight": [
                [
                    5.143895149230957,
                    0.16574282944202423
                ],
                [
                    -0.4367385804653168,
                    0.34508803486824036
                ],
                [
                    -0.6822606921195984,
                    1.0719246864318848
                ],
                [
                    -0.32937437295913696,
                    -6.5706658363342285
                ],
                [
                    -0.46179771423339844,
                    0.8262198567390442
                ]
            ],
            "lin_out.bias": [
                -11.568832397460938,
                -1.2057414054870605,
                -1.8857790231704712,
                -5.949275016784668,
                -1.4440538883209229
            ]
        },
        "(4, 4, 4, 0)": {
            "convs.0.bias": [
                -1.1686996221542358,
                -1.023697018623352,
                -1.2172735929489136,
                -1.3576421737670898,
                -1.2398278713226318
            ],
            "convs.0.lin.weight": [
                [
                    0.18688711524009705,
                    0.38310202956199646,
                    -0.03951280564069748,
                    0.0701039656996727,
                    2.428246259689331
                ],
                [
                    -0.1746455579996109,
                    3.6285860538482666,
                    -0.3046881854534149,
                    -0.26335418224334717,
                    -0.15720605850219727
                ],
                [
                    3.409938097000122,
                    -0.16970239579677582,
                    -0.2490619719028473,
                    0.048412539064884186,
                    0.04013797640800476
                ],
                [
                    0.25488054752349854,
                    -0.017053280025720596,
                    -0.14700797200202942,
                    3.202773332595825,
                    -0.13073524832725525
                ],
                [
                    -0.12230377644300461,
                    0.31427201628685,
                    -0.2548651695251465,
                    -0.24123969674110413,
                    2.800797462463379
                ]
            ],
            "convs.1.bias": [
                -0.728145956993103,
                -0.9235479235649109
            ],
            "convs.1.lin.weight": [
                [
                    0.8289851546287537,
                    0.1865033656358719,
                    4.3561882972717285,
                    -3.8698084354400635,
                    -0.7113401889801025
                ],
                [
                    -2.663301467895508,
                    3.3868353366851807,
                    0.8629382848739624,
                    -0.21979044377803802,
                    -2.6976547241210938
                ]
            ],
            "lin_out.weight": [
                [
                    3.5060477256774902,
                    -0.13604915142059326
                ],
                [
                    -0.34581857919692993,
                    2.849423885345459
                ],
                [
                    -0.17561712861061096,
                    -0.16156956553459167
                ],
                [
                    -8.666296005249023,
                    -0.08133724331855774
                ],
                [
                    0.0772242471575737,
                    -8.640177726745605
                ]
            ],
            "lin_out.bias": [
                -1.6592711210250854,
                -1.267593502998352,
                -1.6845217943191528,
                -11.369019508361816,
                -12.27720832824707
            ]
        }
    }
}