{
    "experiment_config": {
        "mode": "simple",
        "num_categories": 6,
        "p": 0.4,
        "num_nodes": 20,
        "motif_dim": 0,
        "chain_length_min": 2,
        "chain_length_max": 7,
        "num_train_samples": 10000,
        "num_test_samples": 3000,
        "batch_size": 16,
        "in_dim": 6,
        "hidden_dims": [
            8,
            8
        ],
        "lr": 0.01,
        "use_weighting": true,
        "importance": [
            15.0,
            10.0
        ],
        "phase1_epochs": 7,
        "phase2_epochs": 12,
        "num_epochs": 5,
        "device": "cpu",
        "model_type": "GCN",
        "save": true
    },
    "sparcity": 0.9232159992225947,
    "summary": {
        "(4, 2, 4, 0)": [
            0.23566667977968853,
            0.0,
            1
        ],
        "(4, 1, 4, 0)": [
            0.23120419637362163,
            0.0,
            1
        ]
    },
    "model summary": {
        "(4, 2, 4, 0)": {
            "convs.0.bias": [
                1.018492341041565,
                -2.839766502380371,
                -0.17635713517665863,
                0.798006534576416,
                0.5268820524215698,
                1.0247774124145508,
                0.5383533239364624,
                0.6827114224433899
            ],
            "convs.0.lin.weight": [
                [
                    3.566270112991333,
                    1.0257673263549805,
                    3.6997733116149902,
                    -1.1167088747024536,
                    -1.0898716449737549,
                    -1.0385658740997314
                ],
                [
                    0.3019925653934479,
                    0.03190714120864868,
                    0.43460315465927124,
                    0.08296097815036774,
                    6.411190509796143,
                    0.36326509714126587
                ],
                [
                    -0.5639808773994446,
                    0.13159234821796417,
                    -0.0009619795600883663,
                    -0.5411613583564758,
                    -0.4435964822769165,
                    -0.488561749458313
                ],
                [
                    -0.8001695871353149,
                    -0.8296585083007812,
                    5.243010997772217,
                    2.7341389656066895,
                    -0.5622140765190125,
                    -0.6068354249000549
                ],
                [
                    5.3591203689575195,
                    -0.49393877387046814,
                    -0.5471592545509338,
                    -0.6267130374908447,
                    0.009391793981194496,
                    1.5206730365753174
                ],
                [
                    2.750211238861084,
                    0.5412220358848572,
                    -0.9681252241134644,
                    5.944392681121826,
                    -0.8565307855606079,
                    -1.0437999963760376
                ],
                [
                    -0.46416231989860535,
                    -0.433875173330307,
                    -0.5655391216278076,
                    -0.2323182374238968,
                    -0.3630586564540863,
                    6.06602144241333
                ],
                [
                    -0.7590610384941101,
                    6.275196552276611,
                    -0.8267797231674194,
                    -0.6754310727119446,
                    -0.1526857614517212,
                    0.71372389793396
                ]
            ],
            "convs.1.bias": [
                -0.9580877423286438,
                -1.5260324478149414,
                -1.7471113204956055,
                1.4788914918899536,
                -0.5482813715934753,
                -1.8573009967803955,
                0.3550596833229065,
                0.7035845518112183
            ],
            "convs.1.lin.weight": [
                [
                    0.19524815678596497,
                    -8.924501419067383,
                    -0.15738040208816528,
                    0.20835141837596893,
                    -0.307553231716156,
                    0.09209814667701721,
                    -0.7991870045661926,
                    1.4711016416549683
                ],
                [
                    -0.6600171327590942,
                    -4.6483259201049805,
                    0.42899569869041443,
                    -0.5226600766181946,
                    -0.1601370871067047,
                    3.1593098640441895,
                    -1.3688925504684448,
                    -0.32370105385780334
                ],
                [
                    3.2814583778381348,
                    4.041137218475342,
                    -0.7446315884590149,
                    0.2100525051355362,
                    0.4662049412727356,
                    -2.379977226257324,
                    -1.754339575767517,
                    0.6609277725219727
                ],
                [
                    0.4561811685562134,
                    2.1740894317626953,
                    -0.2621391713619232,
                    -3.8254737854003906,
                    -0.03310617059469223,
                    0.8034857511520386,
                    -0.9371668100357056,
                    2.2974581718444824
                ],
                [
                    0.7830712795257568,
                    7.242215156555176,
                    -0.3904638886451721,
                    -0.9224201440811157,
                    -1.56435227394104,
                    1.7976000308990479,
                    -2.251105546951294,
                    0.5113739371299744
                ],
                [
                    -0.47089141607284546,
                    2.3581554889678955,
                    -0.1726147085428238,
                    -2.527362585067749,
                    2.2696454524993896,
                    0.5249461531639099,
                    2.503218412399292,
                    -0.19501717388629913
                ],
                [
                    2.013181686401367,
                    -7.7964253425598145,
                    -0.10629580914974213,
                    -1.6448487043380737,
                    1.1550968885421753,
                    -0.533950686454773,
                    -0.9540393352508545,
                    -0.11586091667413712
                ],
                [
                    1.5521259307861328,
                    1.3015778064727783,
                    0.4748314917087555,
                    -0.9427220225334167,
                    2.3332862854003906,
                    0.9579696655273438,
                    -1.0276278257369995,
                    -3.547414541244507
                ]
            ],
            "lin_out.weight": [
                [
                    0.3841509521007538,
                    0.5312480330467224,
                    0.6126936078071594,
                    -0.14125806093215942,
                    -0.024430619552731514,
                    0.6685072779655457,
                    0.459938108921051,
                    0.5393204689025879
                ],
                [
                    0.7795077562332153,
                    0.5566958785057068,
                    0.5179548859596252,
                    0.1325063556432724,
                    0.2428864985704422,
                    0.42207634449005127,
                    0.08756280690431595,
                    -0.7534141540527344
                ],
                [
                    0.4159795343875885,
                    -0.02713710069656372,
                    0.9290801286697388,
                    -0.936785876750946,
                    -0.13464343547821045,
                    -0.0340711772441864,
                    0.0953601747751236,
                    -0.24102410674095154
                ],
                [
                    0.31072866916656494,
                    1.0654655694961548,
                    -0.32343849539756775,
                    -0.7809628248214722,
                    0.22441290318965912,
                    0.24448032677173615,
                    -0.25679993629455566,
                    -0.04900328069925308
                ],
                [
                    -3.486780881881714,
                    -0.6908772587776184,
                    1.812999963760376,
                    0.034915078431367874,
                    2.9185705184936523,
                    1.3622609376907349,
                    -2.435439109802246,
                    -0.08790283650159836
                ],
                [
                    0.31427106261253357,
                    0.046373315155506134,
                    -0.11965557932853699,
                    -0.47436419129371643,
                    -0.629220187664032,
                    1.0227282047271729,
                    -0.05281701311469078,
                    -0.574462890625
                ]
            ],
            "lin_out.bias": [
                -1.9693176746368408,
                -1.4338730573654175,
                -1.7040083408355713,
                -1.5472859144210815,
                -1.9855234622955322,
                -1.2093123197555542
            ]
        },
        "(4, 1, 4, 0)": {
            "convs.0.bias": [
                0.46702679991722107,
                1.0468783378601074,
                1.1473150253295898,
                1.0558232069015503,
                1.2362555265426636,
                0.8001384139060974,
                0.9896124005317688,
                -0.09667498618364334
            ],
            "convs.0.lin.weight": [
                [
                    -0.4239293932914734,
                    -0.5688547492027283,
                    4.31911039352417,
                    1.827783465385437,
                    -0.5319751501083374,
                    1.764523983001709
                ],
                [
                    6.799413681030273,
                    -1.0186097621917725,
                    -1.0956964492797852,
                    -0.26533108949661255,
                    -1.0795646905899048,
                    2.1371989250183105
                ],
                [
                    1.9353221654891968,
                    5.976691246032715,
                    1.7320005893707275,
                    -1.246886134147644,
                    -1.0995382070541382,
                    -1.2052446603775024
                ],
                [
                    0.1911466419696808,
                    -1.0324690341949463,
                    0.2716681659221649,
                    -0.2770744860172272,
                    5.866702556610107,
                    -1.0221799612045288
                ],
                [
                    -1.2467355728149414,
                    2.7263123989105225,
                    -1.2108920812606812,
                    -1.171855092048645,
                    1.149613618850708,
                    5.8017191886901855
                ],
                [
                    -0.9125800728797913,
                    1.2066476345062256,
                    -0.8394851684570312,
                    5.984027862548828,
                    -0.7984079718589783,
                    -0.8752678036689758
                ],
                [
                    -0.7183617353439331,
                    -0.9677138328552246,
                    3.8835432529449463,
                    -0.9381791353225708,
                    -0.9833300113677979,
                    0.9733002185821533
                ],
                [
                    -0.25588035583496094,
                    -0.405548095703125,
                    0.06627775728702545,
                    -0.2524075210094452,
                    -0.25404155254364014,
                    -0.06820029765367508
                ]
            ],
            "convs.1.bias": [
                1.041960597038269,
                1.2056591510772705,
                -0.12980280816555023,
                2.0735318660736084,
                -0.8335722088813782,
                0.7787491083145142,
                0.28391385078430176,
                -0.45249924063682556
            ],
            "convs.1.lin.weight": [
                [
                    -1.638220191001892,
                    0.555972158908844,
                    1.5337823629379272,
                    -1.2176212072372437,
                    -0.752886950969696,
                    2.954627513885498,
                    -2.490382194519043,
                    0.3170253038406372
                ],
                [
                    -1.6721563339233398,
                    -0.6662225723266602,
                    1.4248069524765015,
                    -1.122067928314209,
                    2.3594088554382324,
                    -2.2852470874786377,
                    0.06832080334424973,
                    -0.18351002037525177
                ],
                [
                    -0.06747740507125854,
                    2.7092576026916504,
                    -3.05479097366333,
                    -1.8782645463943481,
                    1.6415770053863525,
                    0.8084480166435242,
                    -0.4495835304260254,
                    -0.22028139233589172
                ],
                [
                    0.9311271905899048,
                    0.44611579179763794,
                    -2.0818300247192383,
                    -1.985770583152771,
                    0.3457690179347992,
                    0.26711732149124146,
                    2.2076921463012695,
                    0.2618100941181183
                ],
                [
                    0.732521653175354,
                    -1.391083002090454,
                    1.3234068155288696,
                    -3.0674259662628174,
                    1.3157694339752197,
                    1.600960612297058,
                    -0.7933328747749329,
                    -0.2489282637834549
                ],
                [
                    -1.3178045749664307,
                    0.22888068854808807,
                    -1.5793129205703735,
                    2.7282042503356934,
                    -0.10924109816551208,
                    1.4016811847686768,
                    -1.8547617197036743,
                    0.23231124877929688
                ],
                [
                    1.4876118898391724,
                    0.371187299489975,
                    0.9969341158866882,
                    -0.5256531834602356,
                    -3.231861114501953,
                    0.6696169972419739,
                    1.586467981338501,
                    -0.24263449013233185
                ],
                [
                    -1.8857054710388184,
                    3.099926710128784,
                    1.442779779434204,
                    -0.6931918263435364,
                    -1.176714539527893,
                    -1.5473029613494873,
                    0.03263344615697861,
                    -0.02487320266664028
                ]
            ],
            "lin_out.weight": [
                [
                    -0.08923570066690445,
                    -0.4190249741077423,
                    0.4455444812774658,
                    -0.5965253710746765,
                    -0.04870568960905075,
                    -0.137355238199234,
                    0.0800817608833313,
                    0.9025435447692871
                ],
                [
                    0.016960982233285904,
                    0.026703380048274994,
                    -0.25062790513038635,
                    -0.8964501023292542,
                    0.8314350843429565,
                    -0.28242227435112,
                    -0.25151604413986206,
                    0.04005373269319534
                ],
                [
                    -0.8448565602302551,
                    -0.4359454810619354,
                    -0.264110803604126,
                    -0.1975277215242386,
                    0.18603624403476715,
                    -0.444671094417572,
                    0.3620694875717163,
                    -0.05054999887943268
                ],
                [
                    0.13866327702999115,
                    -0.9051374793052673,
                    0.3575626313686371,
                    -0.3563958406448364,
                    0.4345182478427887,
                    0.1437039077281952,
                    0.041165951639413834,
                    -0.31297650933265686
                ],
                [
                    -0.5143777132034302,
                    -0.46618667244911194,
                    -0.030706088989973068,
                    -0.7532113790512085,
                    -0.20497135818004608,
                    0.31434282660484314,
                    -0.40179333090782166,
                    -0.27088621258735657
                ],
                [
                    -0.6765320301055908,
                    -0.08756474405527115,
                    0.914829671382904,
                    -0.10995980352163315,
                    0.4750296473503113,
                    -0.24477925896644592,
                    -0.4961354434490204,
                    -0.021331116557121277
                ]
            ],
            "lin_out.bias": [
                -1.5974738597869873,
                -1.5674629211425781,
                -1.3897463083267212,
                -1.2211244106292725,
                -1.3869290351867676,
                -1.1022307872772217
            ]
        }
    },
    "average embeddings summary": {
        "(4, 2, 4, 0)": {
            "(0, 0, 0, 0, 0, 1)": [
                -0.35983967781066895,
                -1.0998691320419312,
                -2.0134012699127197,
                0.03258657082915306,
                -2.232398509979248,
                0.9680477380752563,
                -0.0590197890996933,
                0.09179681539535522
            ],
            "(0, 0, 1, 0, 0, 0)": [
                0.31856921315193176,
                -0.8746569752693176,
                0.6595746874809265,
                -1.2741787433624268,
                -0.7733733057975769,
                -2.504035711288452,
                0.4887124001979828,
                0.7440140247344971
            ],
            "(1, 0, 0, 0, 0, 0)": [
                -0.1274716556072235,
                0.5149557590484619,
                -0.07912365347146988,
                0.679816484451294,
                -0.49048611521720886,
                0.18944375216960907,
                1.7736703157424927,
                3.351573944091797
            ],
            "(0, 0, 0, 1, 0, 0)": [
                0.08474574983119965,
                1.8954734802246094,
                -2.69355845451355,
                -0.43855953216552734,
                0.3938620686531067,
                -1.5069814920425415,
                -0.5897208452224731,
                1.2404415607452393
            ],
            "(0, 1, 0, 0, 0, 0)": [
                1.0794798135757446,
                0.06346815079450607,
                -0.2944178879261017,
                2.3807477951049805,
                0.2618464529514313,
                -0.9326685667037964,
                0.7590635418891907,
                -1.0331709384918213
            ],
            "(0, 0, 0, 0, 1, 0)": [
                -1.5444328784942627,
                -1.0631928443908691,
                -0.23928043246269226,
                1.0902204513549805,
                0.6908255219459534,
                -0.2893454432487488,
                -0.9276957511901855,
                0.924001932144165
            ]
        },
        "(4, 1, 4, 0)": {
            "(0, 0, 1, 0, 0, 0)": [
                -1.04096257686615,
                0.5289934873580933,
                -2.089663028717041,
                1.5123883485794067,
                -1.0905952453613281,
                -1.168952465057373,
                1.9248911142349243,
                -0.5261962413787842
            ],
            "(1, 0, 0, 0, 0, 0)": [
                1.0335606336593628,
                0.8202257752418518,
                0.62530916929245,
                0.6571648716926575,
                -2.33244252204895,
                0.40900859236717224,
                0.7087323069572449,
                2.9242911338806152
            ],
            "(0, 0, 0, 0, 1, 0)": [
                -0.5940612554550171,
                0.8912631869316101,
                -1.338435173034668,
                -0.14942288398742676,
                -2.882735252380371,
                2.1511478424072266,
                -0.92695152759552,
                -0.6517900824546814
            ],
            "(0, 1, 0, 0, 0, 0)": [
                1.9764431715011597,
                2.5911402702331543,
                -1.875174641609192,
                -0.3085685968399048,
                0.7865914702415466,
                -0.4250219762325287,
                -0.36064413189888,
                0.21424677968025208
            ],
            "(0, 0, 0, 1, 0, 0)": [
                1.8296566009521484,
                -0.6999285817146301,
                0.08499220758676529,
                1.3137508630752563,
                -0.1904589980840683,
                1.1650031805038452,
                0.7274355292320251,
                -1.240901231765747
            ],
            "(0, 0, 0, 0, 0, 1)": [
                -1.277374505996704,
                2.2691328525543213,
                1.5001736879348755,
                2.1719577312469482,
                -0.8931155204772949,
                -0.16075833141803741,
                -1.6379204988479614,
                -0.4349660873413086
            ]
        }
    },
    "results": [
        {
            "Num of features": 6,
            "Num of active features": 4,
            "Num of accurate feature": 2,
            "Geometry": 4,
            "Collapsed": 0,
            "Loss": 0.23566667977968853,
            "Rank": 6,
            "Singular values": [
                4.463714122772217,
                3.521235227584839,
                3.4839329719543457,
                3.244500160217285,
                2.789036512374878,
                2.5403940677642822
            ]
        },
        {
            "Num of features": 6,
            "Num of active features": 4,
            "Num of accurate feature": 1,
            "Geometry": 4,
            "Collapsed": 0,
            "Loss": 0.23120419637362163,
            "Rank": 6,
            "Singular values": [
                5.068816661834717,
                4.081894397735596,
                3.8367905616760254,
                3.7094886302948,
                3.411743640899658,
                2.85861873626709
            ]
        }
    ]
}