{
    "experiment_config": {
        "mode": "simple",
        "num_categories": 10,
        "p": 0.5,
        "num_nodes": 20,
        "motif_dim": 0,
        "chain_length_min": 2,
        "chain_length_max": 7,
        "num_train_samples": 10000,
        "num_test_samples": 3000,
        "batch_size": 16,
        "in_dim": 10,
        "hidden_dims": [
            12,
            7
        ],
        "lr": 0.01,
        "use_weighting": true,
        "importance": [
            15.0,
            10.0
        ],
        "phase1_epochs": 0,
        "phase2_epochs": 80,
        "num_epochs": 5,
        "device": "cpu",
        "model_type": "GCN",
        "save": true
    },
    "sparcity": 0.955515738519077,
    "summary": {
        "(10, 10, 10, 0)": [
            0.028592324358721576,
            0.0,
            1
        ]
    },
    "model summary": {
        "(10, 10, 10, 0)": {
            "convs.0.bias": [
                -3.0346405506134033,
                -1.1217855215072632,
                -2.985407590866089,
                -2.8119146823883057,
                -3.0563864707946777,
                -3.0362637042999268,
                -0.22281533479690552,
                -3.199120283126831,
                -2.799081325531006,
                -3.082651138305664,
                -2.9867594242095947,
                -2.89439058303833
            ],
            "convs.0.lin.weight": [
                [
                    0.1800961047410965,
                    -0.19299441576004028,
                    0.2807513475418091,
                    0.4935043752193451,
                    6.088473320007324,
                    -0.17546872794628143,
                    0.3326699137687683,
                    0.3414192199707031,
                    0.786645233631134,
                    -0.429712176322937
                ],
                [
                    -2.9452826976776123,
                    -0.6841367483139038,
                    -0.8253638744354248,
                    -3.2124762535095215,
                    -3.413064956665039,
                    -3.2155094146728516,
                    -0.7873276472091675,
                    -1.1957502365112305,
                    -3.4915568828582764,
                    2.8354363441467285
                ],
                [
                    0.3386286497116089,
                    0.5702829957008362,
                    6.3929829597473145,
                    0.5799888968467712,
                    -0.2716165781021118,
                    0.6482711434364319,
                    -0.17468267679214478,
                    1.0495374202728271,
                    -0.37258464097976685,
                    1.09486985206604
                ],
                [
                    0.10114087164402008,
                    0.3234458267688751,
                    0.45869556069374084,
                    0.07840575277805328,
                    0.7525030970573425,
                    0.5222446918487549,
                    0.21878331899642944,
                    0.07854621857404709,
                    5.723572254180908,
                    -0.07842730730772018
                ],
                [
                    0.05708629637956619,
                    6.305054664611816,
                    0.5882636904716492,
                    -0.43836355209350586,
                    0.16463761031627655,
                    0.8164597153663635,
                    -0.37889036536216736,
                    -0.05864448472857475,
                    -0.6154996752738953,
                    -0.18298383057117462
                ],
                [
                    0.450055330991745,
                    0.20257103443145752,
                    0.12633666396141052,
                    6.123897552490234,
                    0.12519767880439758,
                    -0.19350816309452057,
                    0.09382916241884232,
                    0.2209131121635437,
                    0.6223341822624207,
                    0.18465793132781982
                ],
                [
                    0.2030140459537506,
                    0.1659279763698578,
                    -0.30011865496635437,
                    0.12705445289611816,
                    -0.025519507005810738,
                    -0.05077650025486946,
                    -0.30528807640075684,
                    0.13037455081939697,
                    0.18459884822368622,
                    -0.6381595730781555
                ],
                [
                    -0.09613682329654694,
                    0.06993576884269714,
                    -0.14990989863872528,
                    0.056293707340955734,
                    0.41138941049575806,
                    -0.20984527468681335,
                    6.5107574462890625,
                    0.40270113945007324,
                    0.06984888017177582,
                    0.508041501045227
                ],
                [
                    -0.009153634309768677,
                    0.028154239058494568,
                    0.21346309781074524,
                    -0.23864758014678955,
                    0.04104369133710861,
                    5.6462249755859375,
                    0.008352991193532944,
                    -0.004625715781003237,
                    -0.28436771035194397,
                    0.04842917621135712
                ],
                [
                    6.468777656555176,
                    -0.12533076107501984,
                    -0.260075181722641,
                    0.003942705225199461,
                    0.5775184631347656,
                    0.9943315386772156,
                    -0.23391930758953094,
                    0.5092202425003052,
                    -0.05813481658697128,
                    0.540010929107666
                ],
                [
                    0.6944006085395813,
                    0.04704217240214348,
                    0.06144867464900017,
                    0.6020739078521729,
                    -0.2029588371515274,
                    0.08019334822893143,
                    0.6350117921829224,
                    0.3502332866191864,
                    0.10399342328310013,
                    5.956103801727295
                ],
                [
                    -0.4708232581615448,
                    0.045725684612989426,
                    0.16430433094501495,
                    0.36861366033554077,
                    0.6030893921852112,
                    -0.25252240896224976,
                    -0.21447139978408813,
                    5.9671244621276855,
                    -0.29426315426826477,
                    0.19873028993606567
                ]
            ],
            "convs.1.bias": [
                0.5285427570343018,
                0.0804174393415451,
                -0.5434010624885559,
                0.7068859338760376,
                0.2229311764240265,
                -0.37463700771331787,
                0.6395173668861389
            ],
            "convs.1.lin.weight": [
                [
                    -1.638589859008789,
                    1.5208271741867065,
                    4.555784225463867,
                    -2.5191574096679688,
                    4.677901268005371,
                    -9.496737480163574,
                    -0.23481163382530212,
                    -5.179427146911621,
                    2.381728172302246,
                    6.332274436950684,
                    1.144189476966858,
                    -3.8319814205169678
                ],
                [
                    4.086504936218262,
                    -2.2106900215148926,
                    3.439514636993408,
                    -6.387152194976807,
                    -3.4568166732788086,
                    -1.9818633794784546,
                    0.35759270191192627,
                    4.528679370880127,
                    7.002106666564941,
                    -2.5426080226898193,
                    -3.9065847396850586,
                    -3.4655516147613525
                ],
                [
                    -8.112268447875977,
                    -1.783509373664856,
                    -4.367678165435791,
                    -6.156768321990967,
                    3.070303440093994,
                    -1.2071119546890259,
                    0.21468935906887054,
                    4.628102779388428,
                    7.0062479972839355,
                    3.055159568786621,
                    2.619502067565918,
                    5.294092655181885
                ],
                [
                    2.3411757946014404,
                    3.893585681915283,
                    -3.85068678855896,
                    -3.2592203617095947,
                    10.261533737182617,
                    2.4754512310028076,
                    -0.2803284525871277,
                    -5.043848514556885,
                    5.884503364562988,
                    -5.751443862915039,
                    -4.18799352645874,
                    3.159567356109619
                ],
                [
                    -3.46624755859375,
                    1.1996495723724365,
                    3.259533166885376,
                    -2.3191068172454834,
                    -1.3650612831115723,
                    4.2777276039123535,
                    -0.01747988536953926,
                    -0.12214330583810806,
                    3.14206862449646,
                    -3.9825096130371094,
                    9.696571350097656,
                    -4.535765171051025
                ],
                [
                    -5.6670241355896,
                    0.8324059844017029,
                    4.416350364685059,
                    2.9846889972686768,
                    6.965729236602783,
                    2.113631248474121,
                    0.1834317147731781,
                    5.20237922668457,
                    -3.234302520751953,
                    -1.5309721231460571,
                    -3.921567440032959,
                    -5.434804916381836
                ],
                [
                    0.3061875104904175,
                    -2.488403558731079,
                    -2.295508623123169,
                    2.506021022796631,
                    -0.34761741757392883,
                    -8.449288368225098,
                    -0.228810116648674,
                    7.813149452209473,
                    -4.9055585861206055,
                    -5.460620403289795,
                    3.5455689430236816,
                    3.1148064136505127
                ]
            ],
            "lin_out.weight": [
                [
                    3.495671510696411,
                    -2.53104567527771,
                    2.69482159614563,
                    -4.782139301300049,
                    -4.540365219116211,
                    -0.8139246106147766,
                    -4.719937324523926
                ],
                [
                    3.3447353839874268,
                    -2.3689582347869873,
                    0.43379583954811096,
                    5.870964527130127,
                    -0.6229246258735657,
                    5.0254316329956055,
                    0.6123298406600952
                ],
                [
                    3.0366930961608887,
                    2.7504618167877197,
                    -3.5397450923919678,
                    -2.243929862976074,
                    2.481854200363159,
                    4.060618877410889,
                    -1.6638789176940918
                ],
                [
                    -9.408562660217285,
                    -2.295596122741699,
                    -0.3710848093032837,
                    0.01908039301633835,
                    2.694464921951294,
                    4.001996994018555,
                    -8.694839477539062
                ],
                [
                    -0.46111157536506653,
                    2.882390260696411,
                    -6.238144874572754,
                    2.776820182800293,
                    -2.1217193603515625,
                    -3.7959084510803223,
                    1.0002659559249878
                ],
                [
                    0.9155433773994446,
                    4.587665557861328,
                    3.029927968978882,
                    1.732669472694397,
                    1.5569756031036377,
                    -1.8948687314987183,
                    -1.699354648590088
                ],
                [
                    -3.191655397415161,
                    4.284775257110596,
                    3.8335886001586914,
                    -4.291130542755127,
                    -0.9373345971107483,
                    4.230574607849121,
                    3.049562931060791
                ],
                [
                    -2.6581344604492188,
                    -3.32975172996521,
                    3.735488176345825,
                    1.1364593505859375,
                    -3.2892446517944336,
                    -4.334489345550537,
                    1.550173044204712
                ],
                [
                    -0.9371236562728882,
                    -4.929121494293213,
                    -3.2571146488189697,
                    -1.817638874053955,
                    -1.4737732410430908,
                    2.375993490219116,
                    1.5857539176940918
                ],
                [
                    1.5693660974502563,
                    -2.777008295059204,
                    0.2136351764202118,
                    -0.3528817594051361,
                    6.422696113586426,
                    -2.706974744796753,
                    3.130685567855835
                ]
            ],
            "lin_out.bias": [
                -1.371274471282959,
                -12.925748825073242,
                -6.757081508636475,
                -1.9248286485671997,
                -14.031011581420898,
                -6.3886518478393555,
                -1.7056992053985596,
                -5.537754058837891,
                -4.556387901306152,
                -12.733524322509766
            ]
        }
    },
    "average embeddings summary": {
        "(10, 10, 10, 0)": {
            "(0, 0, 0, 0, 0, 0, 0, 0, 1, 0)": [
                0.24509279429912567,
                -0.6728684902191162,
                -1.3051643371582031,
                0.31729036569595337,
                -0.044422268867492676,
                0.01535757165402174,
                0.8959504961967468
            ],
            "(0, 0, 0, 0, 0, 0, 0, 1, 0, 0)": [
                0.024613184854388237,
                -0.3863889276981354,
                0.1461287885904312,
                1.1163995265960693,
                -0.35093897581100464,
                -1.0678199529647827,
                1.0272136926651
            ],
            "(0, 0, 0, 0, 1, 0, 0, 0, 0, 0)": [
                0.28342655301094055,
                0.5734468102455139,
                -1.5956388711929321,
                1.0407615900039673,
                -0.2285124659538269,
                -1.090646505355835,
                0.6756122708320618
            ],
            "(0, 1, 0, 0, 0, 0, 0, 0, 0, 0)": [
                1.183830738067627,
                -0.4081474244594574,
                -0.08238665759563446,
                2.193979024887085,
                0.038237497210502625,
                0.605076014995575,
                0.5621569752693176
            ],
            "(1, 0, 0, 0, 0, 0, 0, 0, 0, 0)": [
                1.4808387756347656,
                -0.31099411845207214,
                -0.04777258634567261,
                -0.14116071164608002,
                -0.36309632658958435,
                -0.5946699976921082,
                -0.22218210995197296
            ],
            "(0, 0, 1, 0, 0, 0, 0, 0, 0, 0)": [
                1.2664107084274292,
                0.5884283185005188,
                -1.239340901374817,
                0.07657840847969055,
                0.7583624720573425,
                0.3626514971256256,
                0.27073225378990173
            ],
            "(0, 0, 0, 0, 0, 0, 0, 0, 0, 1)": [
                0.7860569357872009,
                -0.5602347254753113,
                -0.33482691645622253,
                0.4318614900112152,
                1.522580862045288,
                -0.7884942889213562,
                0.8983173370361328
            ],
            "(0, 0, 0, 0, 0, 0, 1, 0, 0, 0)": [
                -0.21634644269943237,
                0.7547418475151062,
                0.14365915954113007,
                -0.016804123297333717,
                0.25807657837867737,
                0.3801110088825226,
                1.7588268518447876
            ],
            "(0, 0, 0, 0, 0, 1, 0, 0, 0, 0)": [
                0.8634530901908875,
                0.9778186082839966,
                0.3562154769897461,
                1.4632062911987305,
                0.6287022829055786,
                -0.7483713030815125,
                0.004697748459875584
            ],
            "(0, 0, 0, 1, 0, 0, 0, 0, 0, 0)": [
                -0.7428705096244812,
                -0.17301352322101593,
                -0.6770458221435547,
                1.038730502128601,
                0.8051735162734985,
                -0.10369116067886353,
                -0.481674462556839
            ]
        }
    },
    "results": [
        {
            "Num of features": 10,
            "Num of active features": 10,
            "Num of accurate feature": 10,
            "Geometry": 10,
            "Collapsed": 0,
            "Loss": 0.028592324358721576,
            "Rank": 7,
            "Singular values": [
                4.226407051086426,
                2.3868863582611084,
                2.281188726425171,
                2.085710048675537,
                1.9729862213134766,
                1.8859901428222656,
                1.7538586854934692
            ]
        }
    ]
}