{
    "experiment_config": {
        "mode": "simple",
        "num_categories": 4,
        "p": 0.2,
        "num_nodes": 20,
        "motif_dim": 0,
        "chain_length_min": 2,
        "chain_length_max": 7,
        "num_train_samples": 10000,
        "num_test_samples": 3000,
        "batch_size": 16,
        "in_dim": 4,
        "hidden_dims": [
            4,
            4,
            2
        ],
        "lr": 0.01,
        "use_weighting": true,
        "importance": [
            15.0,
            10.0
        ],
        "phase1_epochs": 5,
        "phase2_epochs": 8,
        "num_epochs": 5,
        "device": "cpu",
        "model_type": "GCN"
    },
    "sparcity": 0.955515738519077,
    "summary": {
        "(3, 3, 3, 0)": [
            0.12801245281100274,
            0.02068572136759758
        ],
        "(1, 1, 1, 0)": [
            0.24525621008872986,
            0.0
        ],
        "(2, 2, 2, 0)": [
            0.20249510618050892,
            0.0
        ]
    },
    "model summary": {
        "(3, 3, 3, 0)": {
            "convs.0.bias": [
                0.0,
                -1.2778834104537964,
                -1.2956821918487549,
                1.3919779062271118
            ],
            "convs.0.lin.weight": [
                [
                    -0.2607607841491699,
                    -0.13598699867725372,
                    -0.8027368187904358,
                    -0.16720376908779144
                ],
                [
                    -0.17961052060127258,
                    1.9222427606582642,
                    3.480681896209717,
                    4.845733642578125
                ],
                [
                    -0.2740493416786194,
                    4.744375705718994,
                    2.686372756958008,
                    1.9472678899765015
                ],
                [
                    -0.28008997440338135,
                    1.9172909259796143,
                    -2.2084131240844727,
                    2.0887680053710938
                ]
            ],
            "convs.1.bias": [
                -0.6204667091369629,
                -0.15674914419651031,
                0.0,
                1.2123886346817017
            ],
            "convs.1.lin.weight": [
                [
                    -0.24738088250160217,
                    4.460597038269043,
                    1.6297667026519775,
                    -0.6062585711479187
                ],
                [
                    0.5027155876159668,
                    1.5787889957427979,
                    4.418254375457764,
                    -0.8034042119979858
                ],
                [
                    -0.6962719559669495,
                    -0.4750443994998932,
                    -0.6698887944221497,
                    -0.20713499188423157
                ],
                [
                    -0.2606053948402405,
                    4.01891565322876,
                    2.8878626823425293,
                    -7.785633087158203
                ]
            ],
            "convs.2.bias": [
                0.1712990254163742,
                -0.047101087868213654
            ],
            "convs.2.lin.weight": [
                [
                    0.6880470514297485,
                    0.6668061017990112,
                    -0.9459614753723145,
                    -9.4522705078125
                ],
                [
                    -4.166699409484863,
                    4.583235263824463,
                    0.3320518732070923,
                    0.1978093683719635
                ]
            ],
            "lin_out.weight": [
                [
                    0.06849363446235657,
                    -0.08158177882432938
                ],
                [
                    1.0365806818008423,
                    1.9946898221969604
                ],
                [
                    -4.547685623168945,
                    -0.058833520859479904
                ],
                [
                    1.2063130140304565,
                    -2.0682222843170166
                ]
            ],
            "lin_out.bias": [
                -1.5203497409820557,
                -3.5437192916870117,
                -3.4821064472198486,
                -3.669992208480835
            ]
        },
        "(1, 1, 1, 0)": {
            "convs.0.bias": [
                -0.304874449968338,
                -1.62407648563385,
                0.8890056610107422,
                0.9927548170089722
            ],
            "convs.0.lin.weight": [
                [
                    -0.8402437567710876,
                    0.2823337912559509,
                    0.022288862615823746,
                    -0.483574241399765
                ],
                [
                    0.1428501307964325,
                    4.7224440574646,
                    -0.9931081533432007,
                    -0.4008861780166626
                ],
                [
                    0.624589741230011,
                    -1.3219455480575562,
                    0.34743764996528625,
                    -0.1182774007320404
                ],
                [
                    0.4536249041557312,
                    -1.4765452146530151,
                    0.09264539182186127,
                    -0.10967259109020233
                ]
            ],
            "convs.1.bias": [
                -0.17551685869693756,
                -0.05932594835758209,
                0.22117970883846283,
                -0.13917677104473114
            ],
            "convs.1.lin.weight": [
                [
                    -0.027221297845244408,
                    -0.4471670091152191,
                    0.294961154460907,
                    -0.6131675243377686
                ],
                [
                    0.0006463898462243378,
                    -0.732271671295166,
                    -0.4505563974380493,
                    0.010764705017209053
                ],
                [
                    -0.27497532963752747,
                    4.334357738494873,
                    -1.6642208099365234,
                    -1.979145884513855
                ],
                [
                    -0.7092282176017761,
                    -0.4085579216480255,
                    -0.659564197063446,
                    0.16252171993255615
                ]
            ],
            "convs.2.bias": [
                -0.3902841806411743,
                -0.5824010372161865
            ],
            "convs.2.lin.weight": [
                [
                    0.5536395907402039,
                    -0.37124207615852356,
                    2.426285982131958,
                    -0.5938295722007751
                ],
                [
                    -0.3362053334712982,
                    -0.5020329356193542,
                    4.9991559982299805,
                    0.5026358962059021
                ]
            ],
            "lin_out.weight": [
                [
                    -0.048144105821847916,
                    -0.7082006335258484
                ],
                [
                    2.820181131362915,
                    3.196744680404663
                ],
                [
                    -0.7487034797668457,
                    -0.30077260732650757
                ],
                [
                    0.2375783920288086,
                    -0.7028264403343201
                ]
            ],
            "lin_out.bias": [
                -1.4525136947631836,
                -3.782132625579834,
                -1.6598865985870361,
                -1.5093915462493896
            ]
        },
        "(2, 2, 2, 0)": {
            "convs.0.bias": [
                1.0254261493682861,
                -1.734108805656433,
                -1.4005488157272339,
                1.206167221069336
            ],
            "convs.0.lin.weight": [
                [
                    0.8089207410812378,
                    0.4684082567691803,
                    0.06665214896202087,
                    -1.8947808742523193
                ],
                [
                    -0.18303880095481873,
                    -0.5083938837051392,
                    0.016766905784606934,
                    5.151718616485596
                ],
                [
                    3.814702033996582,
                    -0.21450723707675934,
                    -0.20158152282238007,
                    -1.0766839981079102
                ],
                [
                    -1.8772457838058472,
                    0.10910055786371231,
                    0.5093665719032288,
                    -2.0394489765167236
                ]
            ],
            "convs.1.bias": [
                -0.5444093346595764,
                -0.3221435844898224,
                -0.5451515913009644,
                -0.291003555059433
            ],
            "convs.1.lin.weight": [
                [
                    0.009988977573812008,
                    -0.8070480227470398,
                    5.042675495147705,
                    -0.5267319083213806
                ],
                [
                    0.0444607213139534,
                    2.512312889099121,
                    3.774423837661743,
                    -3.0474464893341064
                ],
                [
                    0.3017900288105011,
                    -1.4629729986190796,
                    4.744616985321045,
                    -0.9601106643676758
                ],
                [
                    -3.742020845413208,
                    4.665029525756836,
                    -1.9743304252624512,
                    -2.79612398147583
                ]
            ],
            "convs.2.bias": [
                -1.2854045629501343,
                0.7763998508453369
            ],
            "convs.2.lin.weight": [
                [
                    4.449379920959473,
                    3.7966084480285645,
                    4.364076137542725,
                    -1.040334939956665
                ],
                [
                    1.0044347047805786,
                    -3.8764829635620117,
                    0.7184749841690063,
                    -6.975131511688232
                ]
            ],
            "lin_out.weight": [
                [
                    2.8736672401428223,
                    0.2389494627714157
                ],
                [
                    -0.41726958751678467,
                    0.5918923616409302
                ],
                [
                    -0.42535772919654846,
                    0.43052947521209717
                ],
                [
                    -0.4237351417541504,
                    -3.514265298843384
                ]
            ],
            "lin_out.bias": [
                -4.859219074249268,
                -1.8499647378921509,
                -1.6436350345611572,
                -4.07909631729126
            ]
        }
    },
    "average embeddings summary": {
        "(3, 3, 3, 0)": {
            "(0, 1, 0, 0)": [
                0.8840214014053345,
                2.589937448501587
            ],
            "(0, 0, 0, 1)": [
                1.152298927307129,
                -2.7817583084106445
            ],
            "(1, 0, 0, 0)": [
                0.30436477065086365,
                -0.015599090605974197
            ],
            "(0, 0, 1, 0)": [
                -3.3936123847961426,
                -0.3351520299911499
            ]
        },
        "(1, 1, 1, 0)": {
            "(1, 0, 0, 0)": [
                -0.3529023826122284,
                -0.505379319190979
            ],
            "(0, 0, 1, 0)": [
                -0.37310338020324707,
                -0.5470019578933716
            ],
            "(0, 1, 0, 0)": [
                1.0758209228515625,
                2.4383838176727295
            ],
            "(0, 0, 0, 1)": [
                -0.3682882487773895,
                -0.5370805859565735
            ]
        },
        "(2, 2, 2, 0)": {
            "(0, 0, 1, 0)": [
                -1.0990242958068848,
                0.7614547610282898
            ],
            "(0, 1, 0, 0)": [
                -1.148775577545166,
                0.7412015199661255
            ],
            "(0, 0, 0, 1)": [
                -0.6509049534797668,
                -4.688939571380615
            ],
            "(1, 0, 0, 0)": [
                4.622385501861572,
                0.5041385293006897
            ]
        }
    },
    "results": [
        [
            4,
            3,
            3,
            3,
            0,
            0.14869817417860032
        ],
        [
            4,
            1,
            1,
            1,
            0,
            0.24525621008872986
        ],
        [
            4,
            3,
            3,
            3,
            0,
            0.10732673144340515
        ],
        [
            4,
            2,
            2,
            2,
            0,
            0.20249510618050892
        ]
    ]
}