{
    "experiment_config": {
        "mode": "simple",
        "num_categories": 5,
        "p": 0.8,
        "num_nodes": 20,
        "motif_dim": 0,
        "num_train_samples": 5000,
        "num_test_samples": 1500,
        "batch_size": 16,
        "in_dim": 5,
        "hidden_dims": [
            5,
            5
        ],
        "lr": 0.01,
        "use_weighting": true,
        "importance": [
            15.0,
            10.0
        ],
        "phase1_epochs": 0,
        "phase2_epochs": 50,
        "device": "cpu",
        "model_type": "GCN",
        "loss": "BCE",
        "pooling": "gm",
        "gm_p": 1.0,
        "log_dir": "runs/T/BCE/2/GCN/same/p_gm=1.0/5/low",
        "file_path": "T/BCE/2/GCN/same/p_gm=1.0/5.0/low",
        "add_graph": false,
        "track_embeddings": false,
        "track_singular_values": true,
        "save": true
    },
    "sparcity": 0.6470893870894227,
    "empty_graph_stats": [
        {
            "mean": [
                -0.10922697186470032,
                0.4085901379585266,
                0.18605831265449524,
                -0.3369519114494324,
                0.40868547558784485
            ],
            "std": [
                0.260387122631073,
                0.17150932550430298,
                0.21763309836387634,
                0.2940943241119385,
                0.29292911291122437
            ]
        },
        {
            "mean": [
                0.7726084589958191,
                -0.4513396620750427,
                -0.20383401215076447,
                0.5478479862213135,
                -0.0833749771118164
            ],
            "std": [
                0.28265464305877686,
                0.2589748203754425,
                0.23405040800571442,
                0.3790800869464874,
                0.2631623446941376
            ]
        },
        {
            "mean": [
                0.24988742172718048,
                -0.7488566040992737,
                0.1736389398574829,
                -0.2783271074295044,
                -0.15294966101646423
            ],
            "std": [
                0.27229851484298706,
                0.2746874988079071,
                0.2970825135707855,
                0.2702498435974121,
                0.26403629779815674
            ]
        }
    ],
    "summary format:": "Key: (Num of active features, Num of accurate feature, Geometry, Collapsed). Loss, s.d. Loss, Count",
    "summary": {
        "(4, 3, 4, 0)": [
            0.3536088399489721,
            0.0,
            1
        ],
        "(5, 2, 'Failed', 0)": [
            0.3099181779225667,
            0.0,
            1
        ],
        "(5, 5, 5, 0)": [
            0.14205580838521323,
            0.0,
            1
        ]
    },
    "results": [
        {
            "Num of features": 5,
            "Num of active features": 4,
            "Num of accurate feature": 3,
            "Geometry": 4,
            "Collapsed": 0,
            "Loss": 0.3536088399489721,
            "Rank": 5,
            "Singular values": [
                1.5389301776885986,
                1.4299366474151611,
                1.0817101001739502,
                0.4338494837284088,
                0.00013381500320974737
            ]
        },
        {
            "Num of features": 5,
            "Num of active features": 5,
            "Num of accurate feature": 2,
            "Geometry": "Failed",
            "Collapsed": 0,
            "Loss": 0.3099181779225667,
            "Rank": 5,
            "Singular values": [
                2.0704567432403564,
                1.5174511671066284,
                1.2549500465393066,
                0.8805252313613892,
                0.3837626576423645
            ]
        },
        {
            "Num of features": 5,
            "Num of active features": 5,
            "Num of accurate feature": 5,
            "Geometry": 5,
            "Collapsed": 0,
            "Loss": 0.14205580838521323,
            "Rank": 5,
            "Singular values": [
                1.4903252124786377,
                1.3373545408248901,
                1.3037160634994507,
                1.2169489860534668,
                0.7576330900192261
            ]
        }
    ],
    "average embeddings summary": {
        "(4, 3, 4, 0)": {
            "(1, 0, 0, 0, 0)": [
                -0.14804095029830933,
                0.4602237641811371,
                0.22695595026016235,
                -0.30973997712135315,
                0.479126513004303
            ],
            "(0, 0, 0, 1, 0)": [
                -0.12029795348644257,
                0.45417019724845886,
                0.225226029753685,
                -0.33764129877090454,
                0.486934632062912
            ],
            "(0, 1, 0, 0, 0)": [
                -0.8196983933448792,
                0.3724306523799896,
                0.20888306200504303,
                0.14034482836723328,
                -0.5411390662193298
            ],
            "(0, 0, 1, 0, 0)": [
                0.6771581768989563,
                -0.09716405719518661,
                -0.11737481504678726,
                -1.0777034759521484,
                -0.04494630545377731
            ],
            "(0, 0, 0, 0, 1)": [
                0.02904863841831684,
                -0.14647439122200012,
                -0.8549144268035889,
                0.6463873386383057,
                0.7450159788131714
            ]
        },
        "(5, 2, 'Failed', 0)": {
            "(1, 0, 0, 0, 0)": [
                -0.6179435849189758,
                -0.8988938927650452,
                -0.6726743578910828,
                0.3826442062854767,
                -0.6336462497711182
            ],
            "(0, 0, 0, 1, 0)": [
                0.8000203371047974,
                -0.43607020378112793,
                -0.03333776444196701,
                0.23589976131916046,
                -0.13794438540935516
            ],
            "(0, 0, 1, 0, 0)": [
                0.6336038708686829,
                -0.11224235594272614,
                -0.9408813118934631,
                0.10452292859554291,
                0.8393487334251404
            ],
            "(0, 1, 0, 0, 0)": [
                0.8948379158973694,
                -0.5463908314704895,
                -0.2734837532043457,
                1.0289064645767212,
                -0.041297830641269684
            ],
            "(0, 0, 0, 0, 1)": [
                0.6896931529045105,
                0.5761916637420654,
                -0.40346595644950867,
                0.632568895816803,
                -0.6090332269668579
            ]
        },
        "(5, 5, 5, 0)": {
            "(0, 0, 0, 0, 1)": [
                -0.5459989905357361,
                -0.8940576314926147,
                -0.3973218500614166,
                0.3179430663585663,
                0.13107505440711975
            ],
            "(0, 1, 0, 0, 0)": [
                0.4758266508579254,
                -0.16961835324764252,
                0.2223316729068756,
                0.5629541277885437,
                -0.8502972722053528
            ],
            "(0, 0, 0, 1, 0)": [
                0.3236932158470154,
                -0.3297805190086365,
                0.9262394905090332,
                0.1644262969493866,
                0.819422721862793
            ],
            "(0, 0, 1, 0, 0)": [
                -0.566273033618927,
                0.008512956090271473,
                0.4981672763824463,
                -0.8507871031761169,
                -0.44307994842529297
            ],
            "(1, 0, 0, 0, 0)": [
                0.7971956729888916,
                -0.07784543186426163,
                -0.7511097192764282,
                -0.7452642321586609,
                0.1610535979270935
            ]
        }
    },
    "model summary": {
        "(4, 3, 4, 0)": {
            "convs.0.bias": [
                -1.8722237348556519,
                -1.2641737461090088,
                -2.2636232376098633,
                -0.09961607307195663,
                -2.3288612365722656
            ],
            "convs.0.lin.weight": [
                [
                    0.042433153837919235,
                    3.7221970558166504,
                    -0.01795664057135582,
                    0.12756933271884918,
                    -0.14556103944778442
                ],
                [
                    -0.2051066905260086,
                    2.674436092376709,
                    0.23828376829624176,
                    -0.269302636384964,
                    0.11963550746440887
                ],
                [
                    -0.010054469108581543,
                    0.02246953547000885,
                    0.04791244491934776,
                    0.11978226900100708,
                    4.588440895080566
                ],
                [
                    -0.4324245750904083,
                    -0.10613629221916199,
                    -0.6273863315582275,
                    -0.10270591080188751,
                    0.03345181792974472
                ],
                [
                    0.021375706419348717,
                    -0.012811850756406784,
                    4.690367221832275,
                    -0.034803468734025955,
                    0.14495716989040375
                ]
            ],
            "convs.1.bias": [
                -0.17362599074840546,
                0.5950250029563904,
                0.3810555934906006,
                -0.3788183629512787,
                0.6388341784477234
            ],
            "convs.1.lin.weight": [
                [
                    -4.181947708129883,
                    -2.2370407581329346,
                    1.4339840412139893,
                    -0.4490639865398407,
                    5.408538818359375
                ],
                [
                    -1.7724450826644897,
                    0.8856294751167297,
                    -3.9678914546966553,
                    -0.631580114364624,
                    -3.8125224113464355
                ],
                [
                    0.1357795149087906,
                    -0.7986553311347961,
                    -6.963548183441162,
                    -0.02996150031685829,
                    -2.3403077125549316
                ],
                [
                    3.674884557723999,
                    0.6957628726959229,
                    5.8440260887146,
                    0.5660822987556458,
                    -5.107161521911621
                ],
                [
                    -7.1661458015441895,
                    -2.7997283935546875,
                    1.7827212810516357,
                    -0.06856810301542282,
                    -3.8938891887664795
                ]
            ],
            "lin_out.weight": [
                [
                    0.38260507583618164,
                    -0.21555736660957336,
                    1.1469131708145142,
                    0.43284422159194946,
                    0.3519923985004425
                ],
                [
                    -4.1970415115356445,
                    -0.7275758981704712,
                    0.06190934032201767,
                    2.793827772140503,
                    -8.125691413879395
                ],
                [
                    6.838424205780029,
                    -4.351616859436035,
                    -2.3379294872283936,
                    -5.483312129974365,
                    -5.739728927612305
                ],
                [
                    0.1444767713546753,
                    -0.3948605954647064,
                    1.0453554391860962,
                    0.24484486877918243,
                    0.4218898117542267
                ],
                [
                    1.6962398290634155,
                    -4.415992259979248,
                    -6.676240921020508,
                    6.409420967102051,
                    2.4619743824005127
                ]
            ],
            "lin_out.bias": [
                -0.10201071202754974,
                -0.5137789249420166,
                -0.9672717452049255,
                -0.29547592997550964,
                -0.5813982486724854
            ]
        },
        "(5, 2, 'Failed', 0)": {
            "convs.0.bias": [
                -1.5137077569961548,
                -1.7081011533737183,
                -2.394577741622925,
                0.9144403338432312,
                -2.2931859493255615
            ],
            "convs.0.lin.weight": [
                [
                    3.081202268600464,
                    -0.1400541514158249,
                    -0.14127936959266663,
                    0.04016908258199692,
                    0.3072666525840759
                ],
                [
                    3.6313893795013428,
                    -0.07184536755084991,
                    0.25166621804237366,
                    -0.15606676042079926,
                    -0.2749985158443451
                ],
                [
                    -0.008212409913539886,
                    0.035106394439935684,
                    4.827248573303223,
                    0.10611344128847122,
                    -0.014872984029352665
                ],
                [
                    0.02725326269865036,
                    1.2137682437896729,
                    -0.09183310717344284,
                    -0.9565699100494385,
                    0.08337993919849396
                ],
                [
                    0.12278904765844345,
                    0.09275678545236588,
                    0.06810006499290466,
                    -0.13584329187870026,
                    4.66443395614624
                ]
            ],
            "convs.1.bias": [
                0.7465144395828247,
                -0.30296754837036133,
                0.8395318984985352,
                -2.087948799133301,
                -0.28106689453125
            ],
            "convs.1.lin.weight": [
                [
                    -5.86879301071167,
                    -6.285885810852051,
                    -1.447156310081482,
                    0.319011926651001,
                    -1.0859318971633911
                ],
                [
                    -2.5790369510650635,
                    -1.4836719036102295,
                    2.2011609077453613,
                    -0.27547430992126465,
                    7.00775146484375
                ],
                [
                    -2.7515063285827637,
                    -1.6713179349899292,
                    -5.376220226287842,
                    -0.85688716173172,
                    -1.639914870262146
                ],
                [
                    -1.100380778312683,
                    -0.6340389251708984,
                    -2.716517686843872,
                    2.8824102878570557,
                    0.2341056615114212
                ],
                [
                    -0.6865217685699463,
                    -3.430006980895996,
                    6.125702857971191,
                    0.2162783443927765,
                    -3.598907470703125
                ]
            ],
            "lin_out.weight": [
                [
                    -7.730501651763916,
                    -2.789008617401123,
                    -1.8356215953826904,
                    0.2539675831794739,
                    -2.4959707260131836
                ],
                [
                    -0.3598025441169739,
                    -0.08206833153963089,
                    0.07131055742502213,
                    3.4514682292938232,
                    1.1485780477523804
                ],
                [
                    -2.019636392593384,
                    2.7503082752227783,
                    -5.387907028198242,
                    -1.823048710823059,
                    8.624380111694336
                ],
                [
                    0.39122268557548523,
                    -0.24201670289039612,
                    1.395231008529663,
                    -2.391854763031006,
                    -0.28847503662109375
                ],
                [
                    -1.2022078037261963,
                    10.531170845031738,
                    -1.3595329523086548,
                    0.5972124338150024,
                    -5.017962455749512
                ]
            ],
            "lin_out.bias": [
                -0.4896574020385742,
                -1.28500235080719,
                -0.8369966745376587,
                0.7047038078308105,
                -0.31894657015800476
            ]
        },
        "(5, 5, 5, 0)": {
            "convs.0.bias": [
                -2.270582675933838,
                -2.1373276710510254,
                -2.4646823406219482,
                -2.3224236965179443,
                -2.320998430252075
            ],
            "convs.0.lin.weight": [
                [
                    -0.11304628103971481,
                    4.7022600173950195,
                    -0.06029103696346283,
                    -0.06011973321437836,
                    -0.2080661952495575
                ],
                [
                    0.04626442492008209,
                    -0.0169291403144598,
                    4.281494617462158,
                    0.05176827684044838,
                    -0.03482068330049515
                ],
                [
                    -0.06906584650278091,
                    0.011428814381361008,
                    -0.1818310022354126,
                    -0.02092011272907257,
                    4.94516134262085
                ],
                [
                    -0.013848782517015934,
                    -0.09000910818576813,
                    0.04002007469534874,
                    4.665212154388428,
                    0.12087317556142807
                ],
                [
                    4.633531093597412,
                    0.020351910963654518,
                    -0.12526975572109222,
                    0.02668546698987484,
                    0.02620847150683403
                ]
            ],
            "convs.1.bias": [
                0.2929519712924957,
                -1.1317455768585205,
                0.29163500666618347,
                -0.3582363426685333,
                -0.2553824782371521
            ],
            "convs.1.lin.weight": [
                [
                    1.7968915700912476,
                    -6.182903289794922,
                    -5.544510364532471,
                    0.728068470954895,
                    4.056591510772705
                ],
                [
                    4.293587684631348,
                    6.780555248260498,
                    -0.48931944370269775,
                    3.3319215774536133,
                    5.073219299316406
                ],
                [
                    -0.1525292843580246,
                    2.1698622703552246,
                    -4.562662124633789,
                    4.242857933044434,
                    -6.0489888191223145
                ],
                [
                    5.770031929016113,
                    -4.902433395385742,
                    4.083822250366211,
                    2.837061643600464,
                    -3.2182953357696533
                ],
                [
                    -4.26565408706665,
                    -1.897085189819336,
                    2.1894726753234863,
                    6.174801826477051,
                    2.4264752864837646
                ]
            ],
            "lin_out.weight": [
                [
                    4.77828311920166,
                    5.463039398193359,
                    -7.736866474151611,
                    -3.289555788040161,
                    3.080606460571289
                ],
                [
                    2.426868438720703,
                    5.57794713973999,
                    -0.2925727963447571,
                    7.416685104370117,
                    -6.674914836883545
                ],
                [
                    -6.782424449920654,
                    6.338635444641113,
                    2.464900016784668,
                    -4.525347709655762,
                    -2.236389398574829
                ],
                [
                    0.7606057524681091,
                    3.969261407852173,
                    5.575438976287842,
                    3.3767032623291016,
                    8.5990571975708
                ],
                [
                    -7.190406799316406,
                    -0.3283338248729706,
                    -6.52210807800293,
                    4.722301006317139,
                    3.2684831619262695
                ]
            ],
            "lin_out.bias": [
                -0.9013068079948425,
                -0.4910048842430115,
                -0.6883392930030823,
                -1.083457350730896,
                -0.8159441947937012
            ]
        }
    }
}