{
    "experiment_config": {
        "mode": "tox21",
        "root": "data/Tox21",
        "batch_size": 32,
        "train_split": 0.8,
        "mask_missing": true,
        "use_weighting": false,
        "importance": [
            100.0,
            100.0
        ],
        "hidden_dims": [
            12,
            12,
            12,
            12
        ],
        "num_categories": 12,
        "in_dim": 9,
        "lr": 0.001,
        "model_type": "GCN",
        "loss": "BCE",
        "pooling": "mean",
        "gm_p": 1.0,
        "device": "cpu",
        "phase1_epochs": 0,
        "phase2_epochs": 50,
        "log_dir": "runs/tox21/GCN/mean/[12, 12, 12, 12]",
        "file_path": "tox21/GCN/mean/[12, 12, 12, 12]",
        "save": true,
        "num_nodes": 20,
        "p": 0.8
    },
    "sparcity": 0.8694764120978721,
    "empty graph stats": 0.5239615440368652,
    "singular value ratio": [
        0.0,
        0.0
    ],
    "summary format:": "Key: (Num of active features, Num of accurate feature, Geometry, Collapsed). Loss, s.d. Loss, Count",
    "collapsed percentage": 0.0,
    "summary": {
        "(2, 0, 'Failed', 2)": [
            0.6250543702732433,
            0.0,
            1
        ]
    },
    "results": [
        {
            "Num of features": 12,
            "Num of active features": 2,
            "Num of accurate feature": 0,
            "Geometry": "Failed",
            "Collapsed": 2,
            "Loss": 0.6250543702732433,
            "Rank": 9,
            "Singular values": [
                12.521337509155273,
                1.1023906469345093,
                0.7025935053825378,
                0.1640578955411911,
                0.12337016314268112,
                0.08249726891517639,
                0.0430842749774456,
                0.020868707448244095,
                0.00267123244702816
            ]
        }
    ],
    "average embeddings summary": {
        "(2, 0, 'Failed', 2)": {
            "(0, 0, 0, 1, 0, 0, 0, 0, 0, 0, 0, 0)": [
                0.8901684284210205,
                0.20026862621307373,
                1.4219478368759155,
                0.07318733632564545,
                0.5026420950889587,
                -1.209631085395813,
                0.9434025883674622,
                1.46139395236969,
                -0.6549350619316101,
                1.1877847909927368,
                0.07268939912319183,
                -0.9066596031188965
            ],
            "(0, 0, 0, 0, 0, 0, 0, 1, 0, 0, 0, 0)": [
                1.3316892385482788,
                0.32676029205322266,
                2.1745030879974365,
                0.012725258246064186,
                0.8611096739768982,
                -2.002495527267456,
                1.007458209991455,
                2.113138198852539,
                -0.9547041654586792,
                2.26822829246521,
                -0.3122572600841522,
                -1.165647268295288
            ],
            "(1, 0, 0, 0, 0, 0, 0, 0, 0, 0, 0, 0)": [
                1.588618278503418,
                0.24562790989875793,
                1.7161585092544556,
                0.2293277531862259,
                1.0854228734970093,
                -2.029623508453369,
                1.2314507961273193,
                2.2250423431396484,
                -0.9779056310653687,
                1.8486884832382202,
                0.01234482042491436,
                -1.2994306087493896
            ],
            "(0, 0, 1, 0, 0, 0, 0, 0, 0, 0, 0, 0)": [
                0.8128724694252014,
                0.27060094475746155,
                1.551055908203125,
                0.02056608721613884,
                0.4491860866546631,
                -1.1958247423171997,
                0.8823921084403992,
                1.4490255117416382,
                -0.6397907137870789,
                1.3311794996261597,
                -0.049985792487859726,
                -0.8850245475769043
            ],
            "(0, 0, 0, 0, 0, 0, 1, 0, 0, 0, 0, 0)": [
                0.9671487808227539,
                0.26890259981155396,
                1.4965444803237915,
                0.09500572085380554,
                0.5254763960838318,
                -1.2324789762496948,
                0.9559821486473083,
                1.5470428466796875,
                -0.6835294961929321,
                1.2861372232437134,
                0.04949472099542618,
                -0.9529925584793091
            ],
            "(0, 0, 0, 0, 1, 0, 0, 0, 0, 0, 0, 0)": [
                1.5264892578125,
                0.2578011453151703,
                1.8498495817184448,
                0.1830594837665558,
                1.0079286098480225,
                -1.9825612306594849,
                1.125960350036621,
                2.1517174243927,
                -0.9731802940368652,
                1.880942940711975,
                -0.06712602078914642,
                -1.241806149482727
            ],
            "(0, 0, 0, 0, 0, 0, 0, 0, 0, 0, 1, 0)": [
                1.4141238927841187,
                0.04847971722483635,
                1.2652887105941772,
                0.24840524792671204,
                0.9437336325645447,
                -1.6750305891036987,
                1.1356940269470215,
                1.7970231771469116,
                -0.8527640104293823,
                1.1841931343078613,
                0.24457213282585144,
                -1.1360782384872437
            ],
            "(0, 1, 0, 0, 0, 0, 0, 0, 0, 0, 0, 0)": [
                0.877909779548645,
                0.21935217082500458,
                1.1948790550231934,
                0.09402704238891602,
                0.48535987734794617,
                -1.0921465158462524,
                0.9151408672332764,
                1.2996550798416138,
                -0.6513667702674866,
                0.8677632808685303,
                0.11577800661325455,
                -0.8800806999206543
            ],
            "(0, 0, 0, 0, 0, 0, 0, 0, 0, 1, 0, 0)": [
                1.6826168298721313,
                0.41726040840148926,
                2.408874750137329,
                0.14252059161663055,
                1.063146710395813,
                -2.3660693168640137,
                1.0992847681045532,
                2.5152149200439453,
                -1.150206208229065,
                2.459394693374634,
                -0.333101361989975,
                -1.2912200689315796
            ]
        }
    },
    "model summary": {
        "(2, 0, 'Failed', 2)": {
            "convs.0.bias": [
                0.0,
                0.0,
                0.01638488657772541,
                -0.00326978275552392,
                0.0,
                -0.05059663578867912,
                -0.049332208931446075,
                0.10220178961753845,
                0.07892679423093796,
                -0.0622342973947525,
                0.0,
                0.001408118987455964
            ],
            "convs.0.lin.weight": [
                [
                    -0.46270743012428284,
                    0.2145279347896576,
                    -0.020081117749214172,
                    -0.22436031699180603,
                    -0.42329007387161255,
                    -0.3321502208709717,
                    -0.34357568621635437,
                    0.28869518637657166,
                    0.49131372570991516
                ],
                [
                    -0.42575395107269287,
                    0.5212175250053406,
                    0.2577100992202759,
                    -0.4510866105556488,
                    -0.44185250997543335,
                    -0.16323380172252655,
                    0.17342059314250946,
                    -0.000462480093119666,
                    0.0864475816488266
                ],
                [
                    0.3331834077835083,
                    0.5394818186759949,
                    -0.051765162497758865,
                    -0.17598004639148712,
                    0.20028439164161682,
                    -0.6043238639831543,
                    -0.23415464162826538,
                    0.25046685338020325,
                    0.09831084311008453
                ],
                [
                    -0.41686326265335083,
                    0.6329985857009888,
                    0.20888632535934448,
                    0.45226210355758667,
                    0.3487125337123871,
                    0.039660025388002396,
                    0.3313118815422058,
                    0.361257940530777,
                    -0.1375153511762619
                ],
                [
                    -0.11906147748231888,
                    0.4580523669719696,
                    -0.4706496298313141,
                    -0.3215675950050354,
                    0.13487666845321655,
                    0.29427650570869446,
                    0.3936733305454254,
                    0.006304779555648565,
                    0.10328458249568939
                ],
                [
                    -0.040726374834775925,
                    -0.4403744339942932,
                    0.005790142808109522,
                    -0.039329152554273605,
                    -0.09832718968391418,
                    0.20357465744018555,
                    0.39412322640419006,
                    0.23204629123210907,
                    -0.015733081847429276
                ],
                [
                    -0.11290118843317032,
                    -1.2782479524612427,
                    -0.003664917778223753,
                    0.41824036836624146,
                    -0.07846973091363907,
                    0.40169671177864075,
                    0.29390907287597656,
                    -0.5120433568954468,
                    -0.7084673047065735
                ],
                [
                    0.1652117222547531,
                    0.25479719042778015,
                    -0.5374088287353516,
                    0.10206501185894012,
                    0.16516968607902527,
                    -0.21295824646949768,
                    -0.36609509587287903,
                    -0.7926549911499023,
                    -0.6022505760192871
                ],
                [
                    0.49505236744880676,
                    -0.8601059317588806,
                    -0.4619660973548889,
                    0.2655058205127716,
                    0.047198448330163956,
                    0.2833757698535919,
                    -0.42368340492248535,
                    0.595004141330719,
                    -0.18272484838962555
                ],
                [
                    0.39728453755378723,
                    0.4027353823184967,
                    0.3220716118812561,
                    0.013176330365240574,
                    -0.6184420585632324,
                    -0.21609222888946533,
                    -0.24290327727794647,
                    -0.3050777316093445,
                    -0.2645811438560486
                ],
                [
                    -0.16957955062389374,
                    -0.10926011949777603,
                    -0.14179112017154694,
                    -0.290035218000412,
                    0.02432895079255104,
                    -0.4561522305011749,
                    -0.15577460825443268,
                    -0.18798980116844177,
                    -0.2830384373664856
                ],
                [
                    0.4828317165374756,
                    -1.0264393091201782,
                    0.18072962760925293,
                    -0.2416892796754837,
                    0.5552983283996582,
                    0.33755719661712646,
                    -0.40497541427612305,
                    -0.5317797660827637,
                    -0.4099311828613281
                ]
            ],
            "convs.1.bias": [
                -0.009107187390327454,
                0.013002898544073105,
                0.03145083039999008,
                -0.0784316435456276,
                0.02906615287065506,
                0.049339864403009415,
                0.05296032503247261,
                -0.043580226600170135,
                0.0,
                0.06590817868709564,
                -0.08583711087703705,
                -0.011828949674963951
            ],
            "convs.1.lin.weight": [
                [
                    0.028720438480377197,
                    0.1562817096710205,
                    -0.072841115295887,
                    0.2979462742805481,
                    -0.43353521823883057,
                    -0.07142142951488495,
                    0.454849511384964,
                    0.05021267384290695,
                    0.05860062688589096,
                    -0.46011045575141907,
                    -0.47606122493743896,
                    0.6160814166069031
                ],
                [
                    0.495145320892334,
                    -0.10458463430404663,
                    0.34125927090644836,
                    -0.14347296953201294,
                    0.20353013277053833,
                    0.2153915911912918,
                    -0.47540509700775146,
                    -0.5145058631896973,
                    0.0712580755352974,
                    0.5153306722640991,
                    0.023712992668151855,
                    0.16271786391735077
                ],
                [
                    0.03861123323440552,
                    0.3138200044631958,
                    -0.4250442683696747,
                    -0.07221317291259766,
                    -0.21693092584609985,
                    0.5319256782531738,
                    0.4751032888889313,
                    0.1169755682349205,
                    0.22606199979782104,
                    0.2336273342370987,
                    -0.03108900785446167,
                    0.10803838074207306
                ],
                [
                    0.04887211322784424,
                    0.18283534049987793,
                    -0.4452272355556488,
                    -0.11615372449159622,
                    0.22845983505249023,
                    0.44130218029022217,
                    0.29489409923553467,
                    -0.09191523492336273,
                    0.061799030750989914,
                    0.19030633568763733,
                    0.021987557411193848,
                    0.4116816520690918
                ],
                [
                    0.4943767189979553,
                    -0.3416919708251953,
                    0.07905376702547073,
                    -0.40389886498451233,
                    -0.21816784143447876,
                    -0.21052470803260803,
                    -0.20645631849765778,
                    0.08085828274488449,
                    0.518407940864563,
                    0.3760526478290558,
                    -0.2547141909599304,
                    0.17792321741580963
                ],
                [
                    -0.04472595453262329,
                    -0.37240880727767944,
                    -0.1951919049024582,
                    0.44900980591773987,
                    -0.47319018840789795,
                    0.3332802355289459,
                    0.31680405139923096,
                    -0.5695551037788391,
                    -0.5055557489395142,
                    0.3217093348503113,
                    -0.3465721607208252,
                    0.06792575120925903
                ],
                [
                    0.46137911081314087,
                    -0.45616960525512695,
                    0.3626376688480377,
                    0.4430287778377533,
                    -0.45576220750808716,
                    0.023963073268532753,
                    -0.5808051228523254,
                    0.302010178565979,
                    -0.051980722695589066,
                    0.31815817952156067,
                    -0.22003477811813354,
                    -0.19434863328933716
                ],
                [
                    -0.10431545972824097,
                    0.40520381927490234,
                    -0.059784431010484695,
                    0.028118450194597244,
                    -0.468167245388031,
                    -0.4499051868915558,
                    0.4772976338863373,
                    0.4223727583885193,
                    0.0852944478392601,
                    0.4147469997406006,
                    -0.14685708284378052,
                    -0.09231936186552048
                ],
                [
                    -0.38787204027175903,
                    -0.16747736930847168,
                    -0.49036628007888794,
                    -0.4480658769607544,
                    0.03642547130584717,
                    -0.28641510009765625,
                    -0.2519403100013733,
                    0.20479655265808105,
                    -0.10882699489593506,
                    -0.09017789363861084,
                    -0.2091735601425171,
                    0.39792484045028687
                ],
                [
                    0.34683799743652344,
                    -0.041844725608825684,
                    -0.34581053256988525,
                    -0.18705829977989197,
                    0.4998595714569092,
                    0.060184914618730545,
                    -0.2683432996273041,
                    -0.5281319618225098,
                    -0.3085639476776123,
                    0.27540579438209534,
                    0.42378371953964233,
                    0.5056518316268921
                ],
                [
                    0.03646707534790039,
                    -0.4881853461265564,
                    0.4646243453025818,
                    -0.10563638061285019,
                    -0.29282528162002563,
                    -0.07836714386940002,
                    -0.07417531311511993,
                    0.4710081219673157,
                    0.34279826283454895,
                    -0.017590133473277092,
                    0.3011307120323181,
                    -0.2384270578622818
                ],
                [
                    0.11196190118789673,
                    0.49663233757019043,
                    0.22037743031978607,
                    -0.15766212344169617,
                    0.4296618700027466,
                    0.3928161859512329,
                    0.4586803615093231,
                    0.2113708108663559,
                    -0.37850692868232727,
                    0.039009883999824524,
                    0.15451669692993164,
                    0.4476670026779175
                ]
            ],
            "convs.2.bias": [
                -0.022963330149650574,
                -0.05181029066443443,
                0.031628116965293884,
                -0.03843599930405617,
                -0.012167243286967278,
                -0.043744172900915146,
                -0.009210057556629181,
                0.08584856241941452,
                0.014485235325992107,
                0.013162544928491116,
                0.0395825058221817,
                -0.20336699485778809
            ],
            "convs.2.lin.weight": [
                [
                    0.43012428283691406,
                    -0.4540356993675232,
                    -0.12687119841575623,
                    0.2553500235080719,
                    0.28771865367889404,
                    0.06625080108642578,
                    -0.7164455056190491,
                    0.2854858338832855,
                    0.31480491161346436,
                    -0.1296602189540863,
                    0.02907560020685196,
                    0.47950392961502075
                ],
                [
                    0.33937132358551025,
                    -0.5064530372619629,
                    0.41069555282592773,
                    0.3947484493255615,
                    0.07733407616615295,
                    0.040264226496219635,
                    -0.294055312871933,
                    0.39466944336891174,
                    -0.010617733001708984,
                    -0.37473922967910767,
                    0.33562472462654114,
                    0.18367627263069153
                ],
                [
                    0.4781011939048767,
                    0.11112197488546371,
                    0.2959565222263336,
                    -0.028162851929664612,
                    0.21318845450878143,
                    -0.22148995101451874,
                    -0.22637753188610077,
                    0.3758475184440613,
                    -0.2627100944519043,
                    -0.5514472126960754,
                    -0.3755963444709778,
                    0.12406216561794281
                ],
                [
                    0.6078513860702515,
                    0.008078529499471188,
                    0.20469819009304047,
                    -0.01298829447478056,
                    0.47177818417549133,
                    -0.4819202423095703,
                    0.16017991304397583,
                    0.1490294337272644,
                    -0.05101215839385986,
                    -0.8739641904830933,
                    0.15820468962192535,
                    0.4284857213497162
                ],
                [
                    0.36843371391296387,
                    -0.07315979897975922,
                    0.12607212364673615,
                    -0.22878021001815796,
                    -0.7015822529792786,
                    0.6025593876838684,
                    0.5340352654457092,
                    -0.2068704515695572,
                    -0.31187570095062256,
                    0.4121880531311035,
                    -0.5285460352897644,
                    0.1310366988182068
                ],
                [
                    -0.03384727984666824,
                    0.42412281036376953,
                    -0.331746906042099,
                    0.4686622619628906,
                    0.005226129665970802,
                    0.10249612480401993,
                    -0.6481959819793701,
                    0.3120087683200836,
                    0.18302500247955322,
                    -0.47768738865852356,
                    0.041686028242111206,
                    -0.34633758664131165
                ],
                [
                    -0.14888513088226318,
                    0.08433866500854492,
                    0.24728819727897644,
                    -0.10062605887651443,
                    -0.1034625768661499,
                    -0.22548435628414154,
                    -0.035598695278167725,
                    -0.08708644658327103,
                    0.005501866340637207,
                    0.16739338636398315,
                    -0.32037603855133057,
                    -0.01735542342066765
                ],
                [
                    -0.06917315721511841,
                    0.07597345858812332,
                    0.4129113256931305,
                    -0.27052780985832214,
                    -0.3342702090740204,
                    0.1823122352361679,
                    -0.4395577013492584,
                    0.627466082572937,
                    0.017042040824890137,
                    -0.7079907059669495,
                    -0.30218228697776794,
                    -0.05409431830048561
                ],
                [
                    -0.34606021642684937,
                    0.16872520744800568,
                    0.21836519241333008,
                    -0.16813057661056519,
                    0.13910497725009918,
                    0.32351332902908325,
                    0.2786463499069214,
                    0.11909110844135284,
                    -0.33228135108947754,
                    0.7102893590927124,
                    0.02883719466626644,
                    -0.5833272337913513
                ],
                [
                    -0.0293764378875494,
                    -0.1743304282426834,
                    0.36087360978126526,
                    0.46872657537460327,
                    0.04665122926235199,
                    0.14436115324497223,
                    0.0015349716413766146,
                    -0.4727087616920471,
                    -0.28721916675567627,
                    -0.2767913043498993,
                    0.25582122802734375,
                    0.31786665320396423
                ],
                [
                    -0.15384100377559662,
                    -0.45317935943603516,
                    -0.009582147933542728,
                    0.1771722435951233,
                    -0.0984412357211113,
                    0.49915266036987305,
                    0.4876086413860321,
                    -0.1468573808670044,
                    0.10036325454711914,
                    0.24954824149608612,
                    0.23117122054100037,
                    0.08932920545339584
                ],
                [
                    0.24848639965057373,
                    0.09200940281152725,
                    -0.37224748730659485,
                    0.021266667172312737,
                    0.24788497388362885,
                    -0.22293061017990112,
                    -0.10449137538671494,
                    0.048396944999694824,
                    0.2332618236541748,
                    -0.2652360796928406,
                    0.40433788299560547,
                    -0.38178521394729614
                ]
            ],
            "convs.3.bias": [
                -0.02599201165139675,
                -0.11127758026123047,
                -0.05941956490278244,
                0.067022405564785,
                -0.11681663990020752,
                0.04575300216674805,
                0.22570857405662537,
                0.05987225100398064,
                -0.044476643204689026,
                -0.01509072445333004,
                0.04507606849074364,
                -0.08996832370758057
            ],
            "convs.3.lin.weight": [
                [
                    0.5074903964996338,
                    0.19672739505767822,
                    -0.4504469335079193,
                    0.3683045208454132,
                    0.18206125497817993,
                    -0.1546618938446045,
                    -0.07206831872463226,
                    0.16031593084335327,
                    -0.42431876063346863,
                    0.10214823484420776,
                    0.4098835587501526,
                    -0.3762524127960205
                ],
                [
                    -0.22256340086460114,
                    0.3895556926727295,
                    0.2690431773662567,
                    0.03575712442398071,
                    -0.15326598286628723,
                    -0.4987538456916809,
                    -0.21655279397964478,
                    -0.3944230377674103,
                    -0.07323198020458221,
                    0.24322868883609772,
                    -0.5590775012969971,
                    -0.5618315935134888
                ],
                [
                    0.43387526273727417,
                    0.34485042095184326,
                    0.008892596699297428,
                    0.4355926513671875,
                    -0.27325865626335144,
                    -0.22330054640769958,
                    0.05456390604376793,
                    -0.26710134744644165,
                    0.3272498548030853,
                    0.3036152124404907,
                    -0.24701878428459167,
                    -0.07796230912208557
                ],
                [
                    0.2570934593677521,
                    0.028464356437325478,
                    0.050502266734838486,
                    -0.1456552892923355,
                    0.1959361433982849,
                    -0.1398335099220276,
                    -0.4681299030780792,
                    -0.15063197910785675,
                    0.15495379269123077,
                    -0.11867355555295944,
                    -0.035375095903873444,
                    -0.4277123510837555
                ],
                [
                    0.022712018340826035,
                    0.45839807391166687,
                    0.06151478737592697,
                    -0.04091162607073784,
                    0.36385634541511536,
                    0.3860009014606476,
                    0.0364067517220974,
                    -0.0848669782280922,
                    -0.6443646550178528,
                    -0.15408523380756378,
                    0.1533767282962799,
                    -0.2956201732158661
                ],
                [
                    -0.42833825945854187,
                    -0.10896409302949905,
                    -0.37299999594688416,
                    -0.34322765469551086,
                    -0.5398522615432739,
                    0.30119240283966064,
                    0.41610094904899597,
                    -0.31266722083091736,
                    0.45880797505378723,
                    0.31460389494895935,
                    0.3396192193031311,
                    -0.023741742596030235
                ],
                [
                    -0.2843836843967438,
                    0.31146126985549927,
                    0.17503201961517334,
                    -0.2088366001844406,
                    0.25750038027763367,
                    0.1405387818813324,
                    -0.3837205767631531,
                    0.36175018548965454,
                    -0.021074729040265083,
                    0.2208348661661148,
                    -0.30486154556274414,
                    -0.4108370840549469
                ],
                [
                    0.5422886610031128,
                    0.22419261932373047,
                    0.33338168263435364,
                    0.005815067794173956,
                    0.2469581961631775,
                    -0.2348168045282364,
                    0.091694675385952,
                    0.18218374252319336,
                    0.03333451971411705,
                    0.20693467557430267,
                    -0.5238152146339417,
                    -0.5487093329429626
                ],
                [
                    -0.12260667234659195,
                    -0.13629601895809174,
                    0.3516409397125244,
                    -0.29406973719596863,
                    -0.16591276228427887,
                    0.46771034598350525,
                    -0.3560638427734375,
                    -0.1143847107887268,
                    0.11618340015411377,
                    -0.4559285640716553,
                    0.3154242932796478,
                    -0.3124687671661377
                ],
                [
                    0.6626400947570801,
                    0.06002349406480789,
                    -0.2080971747636795,
                    0.49654680490493774,
                    -0.48025059700012207,
                    0.6052736639976501,
                    0.33121272921562195,
                    0.5024774670600891,
                    -0.6163280606269836,
                    0.3393860161304474,
                    -0.1936827152967453,
                    -0.0024469492491334677
                ],
                [
                    0.04668555036187172,
                    -0.2499067783355713,
                    0.2835281789302826,
                    -0.42769938707351685,
                    0.10605418682098389,
                    0.12889257073402405,
                    -0.24545690417289734,
                    0.2873600423336029,
                    0.4858427941799164,
                    -0.1815938800573349,
                    0.6310876607894897,
                    -0.13658472895622253
                ],
                [
                    0.052051957696676254,
                    0.10744024068117142,
                    -0.35970568656921387,
                    0.019923679530620575,
                    0.14916308224201202,
                    -0.2713450789451599,
                    -0.08294067531824112,
                    -0.34842953085899353,
                    0.4665333032608032,
                    -0.4295886754989624,
                    -0.4784771203994751,
                    0.4454217851161957
                ]
            ],
            "lin_out.weight": [
                [
                    0.28728818893432617,
                    -0.6459812521934509,
                    -0.33902573585510254,
                    -0.12119235843420029,
                    -0.5599535703659058,
                    0.2010200470685959,
                    -0.08645127713680267,
                    -0.3155968487262726,
                    -0.3189101219177246,
                    -0.11246167868375778,
                    0.4285317361354828,
                    -0.16539421677589417
                ],
                [
                    -0.11787723004817963,
                    -0.18600471317768097,
                    -0.8654156923294067,
                    0.4332640767097473,
                    0.22857454419136047,
                    0.3133120834827423,
                    0.2349739670753479,
                    -0.004106680862605572,
                    0.02005784958600998,
                    -0.44447648525238037,
                    0.3717503249645233,
                    -0.22438916563987732
                ],
                [
                    -0.3364720940589905,
                    0.48317331075668335,
                    0.26719874143600464,
                    -0.21253134310245514,
                    -0.1713220775127411,
                    0.8567805886268616,
                    0.22586917877197266,
                    -0.18325386941432953,
                    -0.020475901663303375,
                    -0.168721541762352,
                    0.025094006210565567,
                    -0.03108532726764679
                ],
                [
                    -0.309529572725296,
                    -0.2538725733757019,
                    -0.15993648767471313,
                    -0.33576303720474243,
                    -0.10711313784122467,
                    -0.05696927011013031,
                    -0.3550063967704773,
                    0.3725213408470154,
                    0.08491946756839752,
                    -0.6076884865760803,
                    0.27972084283828735,
                    -0.060113441199064255
                ],
                [
                    0.10152997821569443,
                    0.2688828706741333,
                    -0.18868106603622437,
                    -0.3970567584037781,
                    -0.45807361602783203,
                    -0.03273913636803627,
                    0.2748362421989441,
                    0.20962458848953247,
                    -0.05375530570745468,
                    -0.10422907769680023,
                    0.2868550717830658,
                    0.43174493312835693
                ],
                [
                    0.2579694092273712,
                    -0.3139093518257141,
                    -0.034203942865133286,
                    0.3025353252887726,
                    0.20972782373428345,
                    0.031422726809978485,
                    0.017593102529644966,
                    -0.3723090589046478,
                    0.006776715628802776,
                    -0.4493899345397949,
                    0.5132980346679688,
                    0.5099282264709473
                ],
                [
                    0.008188621141016483,
                    0.09145931899547577,
                    -0.09986177831888199,
                    -0.0774654895067215,
                    -0.3911327123641968,
                    0.07155454158782959,
                    -0.08882804214954376,
                    -0.29109299182891846,
                    0.7647691965103149,
                    0.04713510721921921,
                    0.12606972455978394,
                    -0.1681898832321167
                ],
                [
                    -0.12119662016630173,
                    -0.31920939683914185,
                    -0.25253620743751526,
                    0.09850630164146423,
                    -0.038198214024305344,
                    0.42274802923202515,
                    -0.38620445132255554,
                    0.28692471981048584,
                    0.220930814743042,
                    0.43143972754478455,
                    -0.16199031472206116,
                    0.5197600722312927
                ],
                [
                    -0.4803048372268677,
                    -0.42569079995155334,
                    -0.10873133689165115,
                    -0.7137216925621033,
                    -0.019330764189362526,
                    0.058372750878334045,
                    -0.11564557254314423,
                    -0.5498981475830078,
                    0.08941368013620377,
                    -0.23206068575382233,
                    -0.42984670400619507,
                    0.2862114906311035
                ],
                [
                    0.38856953382492065,
                    0.3224838674068451,
                    -0.1981658637523651,
                    -0.13810230791568756,
                    0.2807510197162628,
                    0.04277278855443001,
                    -0.6752437353134155,
                    -0.22715945541858673,
                    0.08038759976625443,
                    -0.12421762943267822,
                    -0.21110185980796814,
                    0.11904438585042953
                ],
                [
                    -0.03639397397637367,
                    0.14489442110061646,
                    0.20950445532798767,
                    0.0927673950791359,
                    -0.4152417778968811,
                    0.3546777665615082,
                    -0.23389320075511932,
                    -0.057953666895627975,
                    0.13032963871955872,
                    -0.5963764190673828,
                    -0.5171919465065002,
                    0.13286642730236053
                ],
                [
                    -0.6624608039855957,
                    -0.003599961521103978,
                    -0.17500272393226624,
                    0.17905353009700775,
                    -0.33036553859710693,
                    0.0024101778399199247,
                    -0.5141933560371399,
                    -0.49154984951019287,
                    -0.10853197425603867,
                    -0.04186105355620384,
                    0.26105397939682007,
                    0.20836827158927917
                ]
            ],
            "lin_out.bias": [
                0.1794661581516266,
                0.05490081012248993,
                0.10392271727323532,
                -0.08611980080604553,
                -0.19673441350460052,
                0.22156576812267303,
                0.008606109768152237,
                0.08195453882217407,
                -0.21357859671115875,
                -0.05355941876769066,
                0.16977529227733612,
                0.05463555082678795
            ]
        }
    }
}