{
    "experiment_config": {
        "mode": "simple",
        "num_categories": 5,
        "p": 0.3,
        "num_nodes": 20,
        "motif_dim": 0,
        "num_train_samples": 5000,
        "num_test_samples": 1500,
        "batch_size": 16,
        "in_dim": 5,
        "hidden_dims": [
            5,
            2
        ],
        "lr": 0.01,
        "use_weighting": true,
        "importance": [
            15.0,
            10.0
        ],
        "phase1_epochs": 0,
        "phase2_epochs": 50,
        "device": "cpu",
        "model_type": "GCN",
        "loss": "BCE",
        "pooling": "gm",
        "gm_p": 2.0,
        "log_dir": "runs/T/BCE/2/GCN/small_compression/p_gm=2.0/5/high",
        "file_path": "T/BCE/2/GCN/small_compression/p_gm=2.0/5.0/high",
        "add_graph": false,
        "track_embeddings": false,
        "save": true
    },
    "sparcity": 0.9370393313871229,
    "summary format:": "Key: (Num of active features, Num of accurate feature, Geometry, Collapsed). Loss, s.d. Loss, Count",
    "summary": {
        "(0, 0, 'Failed', 0)": [
            0.30011376494169234,
            0.0018362838015851526,
            4
        ],
        "(1, 1, 1, 0)": [
            0.262328953742981,
            0.00212755460500832,
            5
        ],
        "(2, 2, 2, 0)": [
            0.22436676271395248,
            0.00507923846720922,
            11
        ]
    },
    "results": [
        {
            "Num of features": 5,
            "Num of active features": 0,
            "Num of accurate feature": 0,
            "Geometry": "Failed",
            "Collapsed": 0,
            "Loss": 0.30261335412661233,
            "Rank": 1,
            "Singular values": [
                3.1622782898921287e-06,
                3.54622322522519e-23
            ]
        },
        {
            "Num of features": 5,
            "Num of active features": 1,
            "Num of accurate feature": 1,
            "Geometry": 1,
            "Collapsed": 0,
            "Loss": 0.2603875957330068,
            "Rank": 2,
            "Singular values": [
                2.0438601970672607,
                1.958486564035411e-06
            ]
        },
        {
            "Num of features": 5,
            "Num of active features": 1,
            "Num of accurate feature": 1,
            "Geometry": 1,
            "Collapsed": 0,
            "Loss": 0.25984669450918835,
            "Rank": 2,
            "Singular values": [
                2.665339946746826,
                1.939192998179351e-06
            ]
        },
        {
            "Num of features": 5,
            "Num of active features": 1,
            "Num of accurate feature": 1,
            "Geometry": 1,
            "Collapsed": 0,
            "Loss": 0.2651316783428192,
            "Rank": 2,
            "Singular values": [
                2.688706636428833,
                1.6597248304606183e-06
            ]
        },
        {
            "Num of features": 5,
            "Num of active features": 2,
            "Num of accurate feature": 2,
            "Geometry": 2,
            "Collapsed": 0,
            "Loss": 0.22882180837790173,
            "Rank": 2,
            "Singular values": [
                2.8870537281036377,
                2.162602186203003
            ]
        },
        {
            "Num of features": 5,
            "Num of active features": 0,
            "Num of accurate feature": 0,
            "Geometry": "Failed",
            "Collapsed": 0,
            "Loss": 0.30113342491785683,
            "Rank": 1,
            "Singular values": [
                3.1622782898921287e-06,
                1.0655779122076728e-22
            ]
        },
        {
            "Num of features": 5,
            "Num of active features": 0,
            "Num of accurate feature": 0,
            "Geometry": "Failed",
            "Collapsed": 0,
            "Loss": 0.29841555253664653,
            "Rank": 1,
            "Singular values": [
                3.1622782898921287e-06,
                1.976128500668078e-22
            ]
        },
        {
            "Num of features": 5,
            "Num of active features": 2,
            "Num of accurate feature": 2,
            "Geometry": 2,
            "Collapsed": 0,
            "Loss": 0.22647885632514952,
            "Rank": 2,
            "Singular values": [
                1.993274211883545,
                1.822573184967041
            ]
        },
        {
            "Num of features": 5,
            "Num of active features": 1,
            "Num of accurate feature": 1,
            "Geometry": 1,
            "Collapsed": 0,
            "Loss": 0.26181029331684114,
            "Rank": 2,
            "Singular values": [
                2.2997725009918213,
                1.980242586796521e-06
            ]
        },
        {
            "Num of features": 5,
            "Num of active features": 2,
            "Num of accurate feature": 2,
            "Geometry": 2,
            "Collapsed": 0,
            "Loss": 0.22999425721168518,
            "Rank": 2,
            "Singular values": [
                2.6916663646698,
                1.979435920715332
            ]
        },
        {
            "Num of features": 5,
            "Num of active features": 2,
            "Num of accurate feature": 2,
            "Geometry": 2,
            "Collapsed": 0,
            "Loss": 0.2122272089322408,
            "Rank": 2,
            "Singular values": [
                2.034020185470581,
                1.793915867805481
            ]
        },
        {
            "Num of features": 5,
            "Num of active features": 2,
            "Num of accurate feature": 2,
            "Geometry": 2,
            "Collapsed": 0,
            "Loss": 0.22178638883431753,
            "Rank": 2,
            "Singular values": [
                2.1925010681152344,
                1.8409383296966553
            ]
        },
        {
            "Num of features": 5,
            "Num of active features": 0,
            "Num of accurate feature": 0,
            "Geometry": "Failed",
            "Collapsed": 0,
            "Loss": 0.29829272818565367,
            "Rank": 1,
            "Singular values": [
                3.1622782898921287e-06,
                4.076794787987759e-22
            ]
        },
        {
            "Num of features": 5,
            "Num of active features": 2,
            "Num of accurate feature": 2,
            "Geometry": 2,
            "Collapsed": 0,
            "Loss": 0.2220092275540034,
            "Rank": 2,
            "Singular values": [
                2.557981252670288,
                2.3166396617889404
            ]
        },
        {
            "Num of features": 5,
            "Num of active features": 2,
            "Num of accurate feature": 2,
            "Geometry": 2,
            "Collapsed": 0,
            "Loss": 0.22171429856618247,
            "Rank": 2,
            "Singular values": [
                2.2841649055480957,
                1.760295033454895
            ]
        },
        {
            "Num of features": 5,
            "Num of active features": 1,
            "Num of accurate feature": 1,
            "Geometry": 1,
            "Collapsed": 0,
            "Loss": 0.26446850681304934,
            "Rank": 2,
            "Singular values": [
                1.946372628211975,
                1.9880596937582595e-06
            ]
        },
        {
            "Num of features": 5,
            "Num of active features": 2,
            "Num of accurate feature": 2,
            "Geometry": 2,
            "Collapsed": 0,
            "Loss": 0.22571606886386872,
            "Rank": 2,
            "Singular values": [
                3.6693601608276367,
                1.7862133979797363
            ]
        },
        {
            "Num of features": 5,
            "Num of active features": 2,
            "Num of accurate feature": 2,
            "Geometry": 2,
            "Collapsed": 0,
            "Loss": 0.23144931133588156,
            "Rank": 2,
            "Singular values": [
                2.4953813552856445,
                1.8366032838821411
            ]
        },
        {
            "Num of features": 5,
            "Num of active features": 2,
            "Num of accurate feature": 2,
            "Geometry": 2,
            "Collapsed": 0,
            "Loss": 0.22601640530427297,
            "Rank": 2,
            "Singular values": [
                2.2856903076171875,
                2.1298906803131104
            ]
        },
        {
            "Num of features": 5,
            "Num of active features": 2,
            "Num of accurate feature": 2,
            "Geometry": 2,
            "Collapsed": 0,
            "Loss": 0.22182055854797364,
            "Rank": 2,
            "Singular values": [
                1.6523429155349731,
                1.5680618286132812
            ]
        }
    ],
    "average embeddings summary": {
        "(0, 0, 'Failed', 0)": {
            "(0, 0, 1, 0, 0)": [
                1.0000002248489182e-06,
                1.0000002248489182e-06
            ],
            "(1, 0, 0, 0, 0)": [
                1.0000002248489182e-06,
                1.0000002248489182e-06
            ],
            "(0, 0, 0, 1, 0)": [
                1.0000002248489182e-06,
                1.0000002248489182e-06
            ],
            "(0, 1, 0, 0, 0)": [
                1.0000002248489182e-06,
                1.0000002248489182e-06
            ],
            "(0, 0, 0, 0, 1)": [
                1.0000002248489182e-06,
                1.0000002248489182e-06
            ]
        },
        "(1, 1, 1, 0)": {
            "(0, 1, 0, 0, 0)": [
                2.042017698287964,
                1.0000002248489182e-06
            ],
            "(0, 0, 0, 1, 0)": [
                0.039237868040800095,
                1.0000002248489182e-06
            ],
            "(1, 0, 0, 0, 0)": [
                0.018254004418849945,
                1.0000002248489182e-06
            ],
            "(0, 0, 0, 0, 1)": [
                0.05784911662340164,
                1.0000001111620804e-06
            ],
            "(0, 0, 1, 0, 0)": [
                0.04805240035057068,
                1.0000002248489182e-06
            ]
        },
        "(2, 2, 2, 0)": {
            "(0, 0, 0, 1, 0)": [
                0.40879812836647034,
                0.03179004415869713
            ],
            "(0, 0, 0, 0, 1)": [
                0.49468520283699036,
                0.02572285570204258
            ],
            "(0, 0, 1, 0, 0)": [
                0.4533023238182068,
                2.2507753372192383
            ],
            "(1, 0, 0, 0, 0)": [
                2.6708176136016846,
                0.023275138810276985
            ],
            "(0, 1, 0, 0, 0)": [
                0.43484896421432495,
                0.0636507198214531
            ]
        }
    },
    "model summary": {
        "(0, 0, 'Failed', 0)": {
            "convs.0.bias": [
                -0.03204933553934097,
                0.08211182057857513,
                -0.05955365300178528,
                -0.05327919125556946,
                -0.043158158659935
            ],
            "convs.0.lin.weight": [
                [
                    0.004703089129179716,
                    -0.4309873580932617,
                    0.654448390007019,
                    0.4723937213420868,
                    0.8130609393119812
                ],
                [
                    -0.7124383449554443,
                    -0.1874707192182541,
                    0.24643315374851227,
                    -0.20008733868598938,
                    -0.2851178050041199
                ],
                [
                    0.168878436088562,
                    -0.05166909471154213,
                    -0.24288013577461243,
                    0.4296146333217621,
                    0.6813796162605286
                ],
                [
                    -0.2946683466434479,
                    0.07547808438539505,
                    -0.16769282519817352,
                    0.16503986716270447,
                    0.5378929376602173
                ],
                [
                    -0.6913419365882874,
                    -0.006859647110104561,
                    0.6771585941314697,
                    0.20452654361724854,
                    0.5218440890312195
                ]
            ],
            "convs.1.bias": [
                -0.05236835032701492,
                -0.060055021196603775
            ],
            "convs.1.lin.weight": [
                [
                    -0.7601502537727356,
                    -0.10893385112285614,
                    -0.06996993720531464,
                    0.5571378469467163,
                    -0.932629406452179
                ],
                [
                    0.009019807912409306,
                    -0.2729959487915039,
                    -0.5665603876113892,
                    -0.8712797164916992,
                    -0.06576323509216309
                ]
            ],
            "lin_out.weight": [
                [
                    0.8935127258300781,
                    -0.08386442065238953
                ],
                [
                    0.21478065848350525,
                    0.8236978054046631
                ],
                [
                    -0.9067504405975342,
                    0.5339147448539734
                ],
                [
                    -0.8429213762283325,
                    -0.6361969113349915
                ],
                [
                    0.22022220492362976,
                    -1.0405868291854858
                ]
            ],
            "lin_out.bias": [
                -1.327431321144104,
                -1.514036774635315,
                -1.3185731172561646,
                -1.4713937044143677,
                -1.5304450988769531
            ]
        },
        "(1, 1, 1, 0)": {
            "convs.0.bias": [
                -0.43864184617996216,
                -2.328864812850952,
                -0.29144105315208435,
                -0.10482684522867203,
                -1.2042548656463623
            ],
            "convs.0.lin.weight": [
                [
                    -3.1077325344085693,
                    -0.797635018825531,
                    2.6574535369873047,
                    2.624061107635498,
                    2.6686294078826904
                ],
                [
                    -0.5180896520614624,
                    5.393184185028076,
                    0.4109165370464325,
                    -0.2991487681865692,
                    0.6268477439880371
                ],
                [
                    -0.8390212059020996,
                    -0.23518268764019012,
                    0.2689128518104553,
                    -0.6623456478118896,
                    0.096888966858387
                ],
                [
                    0.05949494242668152,
                    -0.3942457437515259,
                    -0.13916249573230743,
                    0.02585119754076004,
                    -0.245965838432312
                ],
                [
                    -0.413981169462204,
                    -0.2685393989086151,
                    -0.560267984867096,
                    -0.9918452501296997,
                    2.5459370613098145
                ]
            ],
            "convs.1.bias": [
                -0.8001090288162231,
                0.0
            ],
            "convs.1.lin.weight": [
                [
                    -1.4978039264678955,
                    6.465709686279297,
                    0.19977375864982605,
                    0.6726581454277039,
                    -4.382376670837402
                ],
                [
                    -0.35887154936790466,
                    -0.681117832660675,
                    -0.5440008640289307,
                    -0.08220594376325607,
                    -0.22681577503681183
                ]
            ],
            "lin_out.weight": [
                [
                    -0.7397161722183228,
                    -1.7815372943878174
                ],
                [
                    7.686820030212402,
                    -5.673424243927002
                ],
                [
                    -0.8109403252601624,
                    -0.29290375113487244
                ],
                [
                    -0.9497719407081604,
                    -2.3267822265625
                ],
                [
                    -0.9975892305374146,
                    -2.853269100189209
                ]
            ],
            "lin_out.bias": [
                -1.2708474397659302,
                -7.509819984436035,
                -1.2313311100006104,
                -1.2714539766311646,
                -1.375832200050354
            ]
        },
        "(2, 2, 2, 0)": {
            "convs.0.bias": [
                -1.5380796194076538,
                -1.6839390993118286,
                -0.5811306834220886,
                -1.5653446912765503,
                1.5359888076782227
            ],
            "convs.0.lin.weight": [
                [
                    0.9241296052932739,
                    0.18662051856517792,
                    3.440462112426758,
                    0.23456858098506927,
                    -0.43445533514022827
                ],
                [
                    3.4120137691497803,
                    0.7306939363479614,
                    0.7482972145080566,
                    -0.008158007636666298,
                    0.10588739067316055
                ],
                [
                    -1.903930902481079,
                    -0.8687613606452942,
                    3.821253538131714,
                    -1.1032352447509766,
                    -0.9485348463058472
                ],
                [
                    4.480772018432617,
                    -0.968119740486145,
                    0.14979073405265808,
                    -0.803398072719574,
                    -1.034665584564209
                ],
                [
                    -4.849053382873535,
                    -0.757845401763916,
                    -2.3377010822296143,
                    -1.3966996669769287,
                    -0.7092921733856201
                ]
            ],
            "convs.1.bias": [
                -1.865688443183899,
                -1.793736457824707
            ],
            "convs.1.lin.weight": [
                [
                    -3.0716986656188965,
                    5.153450012207031,
                    1.9586023092269897,
                    5.495778560638428,
                    1.6852456331253052
                ],
                [
                    5.082516193389893,
                    -0.6592867970466614,
                    4.046987533569336,
                    -0.318158358335495,
                    -5.438327312469482
                ]
            ],
            "lin_out.weight": [
                [
                    7.376936435699463,
                    0.09738948941230774
                ],
                [
                    -0.8611145615577698,
                    -0.7560306191444397
                ],
                [
                    -0.8764296174049377,
                    7.657665252685547
                ],
                [
                    -1.2869950532913208,
                    -0.5096390843391418
                ],
                [
                    -0.9596062898635864,
                    -0.8133249878883362
                ]
            ],
            "lin_out.bias": [
                -10.409744262695312,
                -0.5899715423583984,
                -7.602363109588623,
                -0.42112627625465393,
                -0.5152969360351562
            ]
        }
    }
}