{
    "experiment_config": {
        "mode": "simple",
        "num_categories": 12,
        "p": 0.8,
        "p_count": 0.9,
        "num_nodes": 20,
        "motif_dim": 0,
        "chain_length_min": 2,
        "chain_length_max": 7,
        "num_train_samples": 5000,
        "num_test_samples": 1500,
        "batch_size": 16,
        "in_dim": 12,
        "hidden_dims": [
            12,
            12,
            12
        ],
        "lr": 0.01,
        "use_weighting": true,
        "importance": [
            15.0,
            10.0
        ],
        "phase1_epochs": 0,
        "phase2_epochs": 50,
        "num_epochs": 12,
        "device": "cpu",
        "model_type": "GIN",
        "loss": "MSE",
        "pooling": "max",
        "log_dir": "runs/MSE/3/GIN/same/max/12",
        "file_path": "MSE/3/GIN/same/max/12",
        "add_graph": false,
        "track_embeddings": false,
        "save": true
    },
    "sparcity": 0.9232159992225947,
    "summary format:": "Key: (Num of active features, Num of accurate feature, Geometry, Collapsed). Loss, s.d. Loss, Count",
    "summary": {
        "(12, 0, 'Failed', 9)": [
            0.06214928044875463,
            0.0,
            1
        ]
    },
    "results": [
        {
            "Num of features": 12,
            "Num of active features": 12,
            "Num of accurate feature": 0,
            "Geometry": "Failed",
            "Collapsed": 9,
            "Loss": 0.06214928044875463,
            "Rank": 4,
            "Singular values": [
                0.4018518626689911,
                0.2210390269756317,
                0.20283621549606323,
                0.12165517359972,
                3.844504714578534e-09,
                3.530834957743423e-09,
                1.636919599867781e-09,
                7.540215118950755e-10,
                3.976433904373522e-10,
                2.8093999349110277e-10,
                7.716792482792556e-11,
                7.388703140484989e-18
            ]
        }
    ],
    "average embeddings summary": {
        "(12, 0, 'Failed', 9)": {
            "(0, 0, 1, 0, 0, 0, 0, 0, 0, 0, 0, 0)": [
                -0.028096942231059074,
                0.011463992297649384,
                0.01728692278265953,
                0.005224144551903009,
                -0.0047255614772439,
                -0.0071295201778411865,
                -0.006584832910448313,
                0.0055077760480344296,
                0.027772029861807823,
                -0.02877061627805233,
                -0.015927152708172798,
                -0.0005592852830886841
            ],
            "(0, 0, 0, 0, 0, 0, 0, 0, 0, 1, 0, 0)": [
                -0.028096940368413925,
                0.18470922112464905,
                0.01728692278265953,
                0.005224144551903009,
                -0.0047255614772439,
                -0.0071295201778411865,
                -0.0065848324447870255,
                0.005507775582373142,
                0.027772031724452972,
                -0.02877061814069748,
                -0.015927152708172798,
                -0.0005592852830886841
            ],
            "(0, 0, 0, 0, 0, 0, 0, 1, 0, 0, 0, 0)": [
                -0.028096942231059074,
                0.011463992297649384,
                0.01728692278265953,
                0.005224145017564297,
                -0.004725561942905188,
                -0.0071295201778411865,
                -0.006584832910448313,
                0.0055077760480344296,
                0.027772029861807823,
                0.3896337151527405,
                -0.01592715084552765,
                -0.0005592852830886841
            ],
            "(1, 0, 0, 0, 0, 0, 0, 0, 0, 0, 0, 0)": [
                -0.028096942231059074,
                0.011463991366326809,
                0.01728692278265953,
                0.005224144551903009,
                -0.0047255614772439,
                -0.0071295201778411865,
                -0.0065848333761096,
                0.0055077760480344296,
                0.027772027999162674,
                -0.02877061441540718,
                -0.015927152708172798,
                -0.0005592852830886841
            ],
            "(0, 0, 0, 0, 1, 0, 0, 0, 0, 0, 0, 0)": [
                -0.028096940368413925,
                0.011463993228971958,
                0.01728692278265953,
                0.005224145017564297,
                -0.0047255614772439,
                -0.0071295201778411865,
                -0.0065848324447870255,
                0.005507775582373142,
                0.027772029861807823,
                -0.02877061627805233,
                -0.015927152708172798,
                -0.0005592852830886841
            ],
            "(0, 0, 0, 0, 0, 0, 1, 0, 0, 0, 0, 0)": [
                -0.028096942231059074,
                0.011463993228971958,
                0.01728692278265953,
                0.005224145017564297,
                -0.0047255614772439,
                -0.0071295201778411865,
                -0.006584832910448313,
                0.005507775582373142,
                0.027772029861807823,
                -0.02877061627805233,
                -0.015927152708172798,
                -0.0005592852830886841
            ],
            "(0, 1, 0, 0, 0, 0, 0, 0, 0, 0, 0, 0)": [
                -0.028096942231059074,
                0.011463991366326809,
                0.01728692278265953,
                0.005224144551903009,
                -0.0047255614772439,
                -0.0071295201778411865,
                -0.0065848333761096,
                0.0055077760480344296,
                0.027772027999162674,
                -0.02877061441540718,
                -0.015927152708172798,
                -0.0005592852830886841
            ],
            "(0, 0, 0, 0, 0, 1, 0, 0, 0, 0, 0, 0)": [
                -0.028096942231059074,
                0.011463992297649384,
                0.01728692278265953,
                0.005224144551903009,
                -0.004725561942905188,
                -0.0071295201778411865,
                -0.0065848324447870255,
                0.005507775582373142,
                0.027772031724452972,
                -0.02877061627805233,
                -0.01592715084552765,
                -0.0005592852830886841
            ],
            "(0, 0, 0, 0, 0, 0, 0, 0, 1, 0, 0, 0)": [
                -0.028096942231059074,
                0.011463993228971958,
                0.01728692464530468,
                0.005224145017564297,
                -0.0047255614772439,
                -0.0071295201778411865,
                -0.0065848324447870255,
                0.0055077760480344296,
                0.027772031724452972,
                -0.02877061627805233,
                -0.015927152708172798,
                -0.0005592852830886841
            ],
            "(0, 0, 0, 0, 0, 0, 0, 0, 0, 0, 1, 0)": [
                -0.028096944093704224,
                0.011463992297649384,
                0.01728692278265953,
                0.005224144551903009,
                -0.0047255614772439,
                -0.0071295201778411865,
                -0.006584832910448313,
                0.005507775582373142,
                0.027772029861807823,
                -0.02877061441540718,
                -0.01592715084552765,
                -0.0005592852830886841
            ],
            "(0, 0, 0, 0, 0, 0, 0, 0, 0, 0, 0, 1)": [
                -0.008388454094529152,
                0.011463992297649384,
                0.028718845918774605,
                0.024334866553544998,
                0.007291634567081928,
                0.18349936604499817,
                0.004558479879051447,
                0.027583029121160507,
                0.038433801382780075,
                -0.02877061627805233,
                -0.004164490383118391,
                0.08455521613359451
            ],
            "(0, 0, 0, 1, 0, 0, 0, 0, 0, 0, 0, 0)": [
                -0.028096938505768776,
                0.011463993228971958,
                0.01728692092001438,
                0.005224144551903009,
                -0.0047255614772439,
                -0.0071295201778411865,
                -0.0065848333761096,
                0.0055077760480344296,
                0.027772027999162674,
                -0.02877061255276203,
                -0.015927152708172798,
                -0.0005592852830886841
            ]
        }
    },
    "model summary": {
        "(12, 0, 'Failed', 9)": {
            "convs.0.eps": [
                -0.28625690937042236
            ],
            "convs.0.nn.0.weight": [
                [
                    0.09404682368040085,
                    -0.15171989798545837,
                    -0.018078088760375977,
                    -0.06016630306839943,
                    -0.19712406396865845,
                    0.07040072232484818,
                    -0.25436896085739136,
                    -0.023493919521570206,
                    0.06434737890958786,
                    -0.05707303434610367,
                    -0.426297664642334,
                    -0.15403436124324799
                ],
                [
                    0.04703895375132561,
                    0.024078981950879097,
                    0.05618194490671158,
                    0.02319568581879139,
                    -0.13342879712581635,
                    0.34583598375320435,
                    0.1858396679162979,
                    1.045305609703064,
                    0.19336667656898499,
                    -0.12673377990722656,
                    0.48478853702545166,
                    -0.11335696280002594
                ],
                [
                    0.33678141236305237,
                    -0.07360181212425232,
                    -0.4298878610134125,
                    -0.3184562027454376,
                    0.36484143137931824,
                    1.272208571434021,
                    0.21108274161815643,
                    -0.3147437870502472,
                    -0.07893180847167969,
                    -0.14190150797367096,
                    -0.515302300453186,
                    -0.32386577129364014
                ],
                [
                    -0.17798593640327454,
                    0.5183460116386414,
                    -0.14496712386608124,
                    0.10556061565876007,
                    -0.3178692162036896,
                    -0.03219404071569443,
                    0.3596446216106415,
                    -0.3280022442340851,
                    -0.15421269834041595,
                    -0.2623307406902313,
                    -0.046240802854299545,
                    -0.30464407801628113
                ],
                [
                    -0.47408559918403625,
                    -0.26488739252090454,
                    -0.5833629369735718,
                    -0.4224107265472412,
                    0.08370909839868546,
                    -0.05387203395366669,
                    0.012789353728294373,
                    -0.36516085267066956,
                    -0.3743281364440918,
                    0.8304027915000916,
                    -0.3030964434146881,
                    -0.8470285534858704
                ],
                [
                    -0.34199899435043335,
                    0.4148140847682953,
                    -0.0959596037864685,
                    0.08983155339956284,
                    0.30887770652770996,
                    0.061944715678691864,
                    -0.6615282893180847,
                    -0.5933253169059753,
                    -0.46137160062789917,
                    0.6941667795181274,
                    -0.348915696144104,
                    -0.21204598248004913
                ],
                [
                    -0.08999820798635483,
                    -0.5149713754653931,
                    -0.3516679108142853,
                    -0.19822923839092255,
                    -0.2592926025390625,
                    -0.26818549633026123,
                    0.13419796526432037,
                    -0.18697448074817657,
                    0.09551525861024857,
                    -0.2752091884613037,
                    -0.061525583267211914,
                    0.872478187084198
                ],
                [
                    -0.12642474472522736,
                    -0.21648599207401276,
                    -0.3589329123497009,
                    -0.11521685123443604,
                    0.19044159352779388,
                    -0.09704349935054779,
                    -0.4192393124103546,
                    -0.2778533101081848,
                    -0.20166026055812836,
                    0.5309968590736389,
                    -0.2673235237598419,
                    0.7572675943374634
                ],
                [
                    -0.18443123996257782,
                    0.2649175524711609,
                    -0.0911247506737709,
                    -0.14870411157608032,
                    0.15470662713050842,
                    0.06493238359689713,
                    -0.2890346944332123,
                    -0.21654050052165985,
                    -0.11807499080896378,
                    -0.42503035068511963,
                    0.09739720821380615,
                    0.9841963052749634
                ],
                [
                    -0.1432163417339325,
                    -0.208112433552742,
                    -0.027891403064131737,
                    -0.1439959555864334,
                    0.051691800355911255,
                    -0.14992530643939972,
                    -0.3262154757976532,
                    0.40349382162094116,
                    -0.28646180033683777,
                    0.08043836802244186,
                    0.32426881790161133,
                    0.13807876408100128
                ],
                [
                    0.07980210334062576,
                    -0.32270947098731995,
                    -0.0485641285777092,
                    -0.31574150919914246,
                    -0.1462535560131073,
                    -0.1097702831029892,
                    0.16163130104541779,
                    -0.011747164651751518,
                    0.03377654030919075,
                    -0.14153654873371124,
                    0.21742668747901917,
                    0.7086739540100098
                ],
                [
                    0.32892802357673645,
                    0.07590605318546295,
                    0.5356976389884949,
                    0.3797558844089508,
                    0.5191211700439453,
                    0.15130187571048737,
                    0.2424275428056717,
                    -0.7633305191993713,
                    0.7090920209884644,
                    -0.04799506813287735,
                    0.26542747020721436,
                    0.005201864521950483
                ]
            ],
            "convs.0.nn.0.bias": [
                -0.2986447811126709,
                -0.853447437286377,
                -0.42088812589645386,
                -0.9468836784362793,
                -1.2434260845184326,
                -1.2137688398361206,
                -0.9885550737380981,
                -1.2641557455062866,
                -1.4146819114685059,
                -1.390414834022522,
                -1.1650999784469604,
                1.5220376253128052
            ],
            "convs.0.nn.2.weight": [
                [
                    -0.1635514348745346,
                    -0.08697076141834259,
                    -0.013023612089455128,
                    0.22964124381542206,
                    0.38931602239608765,
                    -0.05579807981848717,
                    0.3435344994068146,
                    -0.24391119182109833,
                    -0.6548240780830383,
                    -0.07192850857973099,
                    0.18524374067783356,
                    -0.4654940366744995
                ],
                [
                    0.1855269968509674,
                    -0.1843852400779724,
                    -0.38716039061546326,
                    -0.2754346430301666,
                    -0.2888186275959015,
                    -0.5266278982162476,
                    0.23977790772914886,
                    -0.13807132840156555,
                    0.010118796490132809,
                    -0.31350982189178467,
                    0.18731673061847687,
                    -0.6507113575935364
                ],
                [
                    -0.13460959494113922,
                    -0.32692351937294006,
                    -0.1744527965784073,
                    -0.0851149931550026,
                    0.12480681389570236,
                    -0.07297471910715103,
                    0.0065704225562512875,
                    -0.23411725461483002,
                    -0.15718494355678558,
                    0.01881416141986847,
                    0.14765651524066925,
                    -0.20205636322498322
                ],
                [
                    0.0063900211825966835,
                    -0.2331990748643875,
                    -0.05362631008028984,
                    -0.07156526297330856,
                    -0.2593346834182739,
                    -0.15506747364997864,
                    0.10324674844741821,
                    -0.19925180077552795,
                    -0.3373943269252777,
                    -0.44211435317993164,
                    -0.4487713873386383,
                    -0.26605698466300964
                ],
                [
                    -0.09592321515083313,
                    0.6667234897613525,
                    -0.4705454409122467,
                    -0.32835620641708374,
                    -0.4803205132484436,
                    0.3840010166168213,
                    -0.6098719835281372,
                    -0.589924156665802,
                    -0.14250734448432922,
                    0.2864139974117279,
                    -0.33011531829833984,
                    -1.6174684762954712
                ],
                [
                    -0.2504369914531708,
                    -0.1064971461892128,
                    0.08614256232976913,
                    -0.11150681227445602,
                    0.8313331007957458,
                    0.7248647212982178,
                    -1.0703517198562622,
                    0.47592419385910034,
                    0.07307936996221542,
                    -0.34342771768569946,
                    -0.3072110414505005,
                    -0.5003595948219299
                ],
                [
                    0.16352933645248413,
                    -0.03979775682091713,
                    -0.5405874848365784,
                    -0.3561638295650482,
                    -0.03644351661205292,
                    -0.059772901237010956,
                    -0.11242778599262238,
                    -0.25582894682884216,
                    0.020359575748443604,
                    -0.0017286046640947461,
                    -0.00010072613076772541,
                    -0.6018375158309937
                ],
                [
                    0.12412910908460617,
                    -0.35388845205307007,
                    -0.7114208340644836,
                    0.5597561597824097,
                    0.5711637735366821,
                    -0.2775251269340515,
                    0.3494091331958771,
                    -0.018383802846074104,
                    -0.7359775304794312,
                    -0.12358396500349045,
                    0.3293871283531189,
                    -0.7902293801307678
                ],
                [
                    0.07297379523515701,
                    -0.18769684433937073,
                    0.18078230321407318,
                    0.1598174124956131,
                    0.3381374180316925,
                    -0.28919339179992676,
                    0.1783534586429596,
                    -0.035611119121313095,
                    -0.4204894006252289,
                    -0.23438794910907745,
                    0.020775893703103065,
                    -0.37189191579818726
                ],
                [
                    -0.28053680062294006,
                    -0.10565612465143204,
                    -0.5288925170898438,
                    -0.6510529518127441,
                    -0.6588128805160522,
                    -1.157396912574768,
                    0.8140503764152527,
                    0.7094568610191345,
                    1.1647794246673584,
                    -0.07849373668432236,
                    0.5172635912895203,
                    -0.37466296553611755
                ],
                [
                    0.1767922192811966,
                    -0.03927959129214287,
                    -0.05629502981901169,
                    0.365364134311676,
                    -0.6230841279029846,
                    0.28531795740127563,
                    0.5425201654434204,
                    0.6111001372337341,
                    0.9405136108398438,
                    0.006997435819357634,
                    0.44215288758277893,
                    -0.3067522943019867
                ],
                [
                    0.01802121475338936,
                    -0.22436602413654327,
                    -0.3221007287502289,
                    0.19047456979751587,
                    -0.18323567509651184,
                    0.08537577092647552,
                    -0.2814103662967682,
                    -0.1978689432144165,
                    0.220584437251091,
                    0.16696180403232574,
                    -0.13917775452136993,
                    -0.3165722191333771
                ]
            ],
            "convs.0.nn.2.bias": [
                -0.49347591400146484,
                -0.20524396002292633,
                -0.24685148894786835,
                0.010465307161211967,
                -0.6334163546562195,
                -1.0322182178497314,
                -0.20045436918735504,
                -0.5544310212135315,
                -0.5515552163124084,
                -1.0640915632247925,
                -0.8236583471298218,
                -0.2020028978586197
            ],
            "convs.1.eps": [
                -0.7439192533493042
            ],
            "convs.1.nn.0.weight": [
                [
                    0.20887315273284912,
                    -0.2107744812965393,
                    -0.09050241857767105,
                    -0.08493339270353317,
                    -0.06562395393848419,
                    -0.012784622609615326,
                    -0.16597937047481537,
                    -0.35431233048439026,
                    -0.1099221333861351,
                    -0.34532082080841064,
                    -0.11871907114982605,
                    -0.09409215301275253
                ],
                [
                    -0.2129783034324646,
                    -0.3788698613643646,
                    -0.07887717336416245,
                    -0.15451675653457642,
                    -1.3606891632080078,
                    0.30567339062690735,
                    0.10050695389509201,
                    -0.34181150794029236,
                    0.07566595077514648,
                    -0.08013084530830383,
                    -0.14964307844638824,
                    -0.2825825810432434
                ],
                [
                    -0.0746438056230545,
                    -0.24971769750118256,
                    0.013990540988743305,
                    -0.18369676172733307,
                    -0.22754298150539398,
                    -0.03326398879289627,
                    -0.4824773669242859,
                    -0.4366176128387451,
                    0.049727912992239,
                    -0.35492101311683655,
                    -0.3500296175479889,
                    -0.37128886580467224
                ],
                [
                    -0.2615622878074646,
                    -0.025635603815317154,
                    -0.027735726907849312,
                    -0.1727858930826187,
                    0.01410900242626667,
                    -0.020850995555520058,
                    -0.35591351985931396,
                    -0.31871283054351807,
                    0.07949251681566238,
                    -0.3753158748149872,
                    0.08758220076560974,
                    -0.4342665374279022
                ],
                [
                    -0.25414401292800903,
                    0.200739324092865,
                    0.22098548710346222,
                    -0.15381218492984772,
                    -0.5565667748451233,
                    -0.1113094761967659,
                    0.08499372750520706,
                    -0.32449039816856384,
                    -0.5247615575790405,
                    -0.31594085693359375,
                    0.11872058361768723,
                    0.20503342151641846
                ],
                [
                    0.003427650313824415,
                    0.09046503156423569,
                    -0.05496338754892349,
                    0.15024299919605255,
                    -0.2841803729534149,
                    0.05855824425816536,
                    0.05853226035833359,
                    -0.2532568871974945,
                    -0.14229319989681244,
                    0.0031439149752259254,
                    -0.27957847714424133,
                    -0.19247177243232727
                ],
                [
                    -0.27326416969299316,
                    0.18400371074676514,
                    0.24395540356636047,
                    -0.21749372780323029,
                    -0.02273375727236271,
                    -0.0030493009835481644,
                    -0.27853497862815857,
                    -0.02199297957122326,
                    -0.1788240224123001,
                    0.010972524993121624,
                    -0.2167307734489441,
                    -0.29754263162612915
                ],
                [
                    -0.09940226376056671,
                    0.25020700693130493,
                    -0.02735213190317154,
                    0.1912866234779358,
                    -0.5243825316429138,
                    -1.1697347164154053,
                    -0.06596629321575165,
                    -0.2194039523601532,
                    -0.04564318805932999,
                    1.1914420127868652,
                    0.4619956612586975,
                    -0.3445744514465332
                ],
                [
                    -0.020864954218268394,
                    -0.5768557786941528,
                    -0.18765218555927277,
                    0.02944669872522354,
                    0.0840383842587471,
                    -0.2712758779525757,
                    -0.23640553653240204,
                    -0.41137200593948364,
                    0.07607700675725937,
                    -0.3733352720737457,
                    0.25041115283966064,
                    -0.1352410763502121
                ],
                [
                    0.024830438196659088,
                    0.072154201567173,
                    0.2626309096813202,
                    -0.02682625502347946,
                    -0.11385831236839294,
                    -0.17896977066993713,
                    0.19013041257858276,
                    -0.0699358880519867,
                    0.054107993841171265,
                    0.33115172386169434,
                    0.35345765948295593,
                    -0.18608205020427704
                ],
                [
                    -0.3960913419723511,
                    -0.10871201008558273,
                    0.09538541734218597,
                    -0.11366501450538635,
                    -1.2952253818511963,
                    -0.8924328088760376,
                    0.09138075262308121,
                    0.22032737731933594,
                    -0.10849551856517792,
                    0.12710757553577423,
                    0.43478479981422424,
                    0.10005331039428711
                ],
                [
                    -0.31768670678138733,
                    -0.11823570728302002,
                    0.05346935987472534,
                    -0.005294567905366421,
                    0.10154374688863754,
                    -0.9861001968383789,
                    0.1681298166513443,
                    0.3266078233718872,
                    -0.18451230227947235,
                    -0.22044187784194946,
                    -0.6265954971313477,
                    0.11777989566326141
                ]
            ],
            "convs.1.nn.0.bias": [
                -0.08843620866537094,
                0.1516583263874054,
                -0.6697242259979248,
                -0.16604872047901154,
                -0.33043429255485535,
                -0.657949686050415,
                -0.36257097125053406,
                -0.3495866060256958,
                -0.5811865925788879,
                -1.7351222038269043,
                0.7274811863899231,
                0.7094826698303223
            ],
            "convs.1.nn.2.weight": [
                [
                    -0.09008296579122543,
                    -0.26862138509750366,
                    -0.25957170128822327,
                    0.1551550030708313,
                    0.059137314558029175,
                    0.02498207800090313,
                    0.2176336795091629,
                    -0.2797327935695648,
                    -0.13526687026023865,
                    -0.044034287333488464,
                    0.035077426582574844,
                    -0.2595435678958893
                ],
                [
                    -0.10507365316152573,
                    -0.0812702551484108,
                    0.2523465156555176,
                    -0.07250785082578659,
                    -0.04134811833500862,
                    0.039089370518922806,
                    -0.2400372475385666,
                    0.8545183539390564,
                    0.2735130488872528,
                    -0.8627538084983826,
                    0.17704704403877258,
                    -0.5577718019485474
                ],
                [
                    0.026143750175833702,
                    -0.04205704480409622,
                    0.18010848760604858,
                    0.20274528861045837,
                    -0.38794755935668945,
                    -0.13239967823028564,
                    0.03815669193863869,
                    -0.03526824712753296,
                    -0.31901389360427856,
                    -0.31182000041007996,
                    -0.18353204429149628,
                    0.036592476069927216
                ],
                [
                    -0.11569776386022568,
                    -0.0503571555018425,
                    -0.33931007981300354,
                    0.020871255546808243,
                    0.0897490382194519,
                    0.07315699756145477,
                    0.1575598120689392,
                    -0.33352524042129517,
                    0.19488103687763214,
                    -0.04572491720318794,
                    -0.4612872004508972,
                    -0.8169587850570679
                ],
                [
                    -0.1594238430261612,
                    -0.14938263595104218,
                    -0.3340073525905609,
                    -0.2605518102645874,
                    0.14839014410972595,
                    0.17545607686042786,
                    -0.22777514159679413,
                    -0.3737547993659973,
                    0.1984913945198059,
                    -0.025944940745830536,
                    -0.5661683082580566,
                    -0.47476667165756226
                ],
                [
                    0.09845643490552902,
                    0.26023268699645996,
                    -0.38585615158081055,
                    -0.2987239956855774,
                    0.21486695110797882,
                    0.010854311287403107,
                    -0.05712952837347984,
                    -0.8920965790748596,
                    -0.42362886667251587,
                    -0.12758168578147888,
                    -0.7508562207221985,
                    -1.855916142463684
                ],
                [
                    0.057550396770238876,
                    -1.498409628868103,
                    -0.08114015311002731,
                    -0.26065894961357117,
                    -0.2552226185798645,
                    0.24150030314922333,
                    0.11460386216640472,
                    -0.17316246032714844,
                    0.2187613695859909,
                    -0.1868075728416443,
                    -1.6745977401733398,
                    0.188792884349823
                ],
                [
                    0.08991935849189758,
                    0.08913841098546982,
                    0.14761488139629364,
                    0.22676700353622437,
                    0.3768734633922577,
                    0.02763846330344677,
                    -0.1352849304676056,
                    -0.4404374957084656,
                    0.3505789339542389,
                    -0.24069517850875854,
                    0.1480518877506256,
                    -0.8631584644317627
                ],
                [
                    0.06137721613049507,
                    0.017172986641526222,
                    0.011908190324902534,
                    0.2585737407207489,
                    -0.1767212152481079,
                    0.13590118288993835,
                    0.15033569931983948,
                    -0.32038572430610657,
                    0.19116292893886566,
                    -0.1431667059659958,
                    -0.23868907988071442,
                    -0.1253352165222168
                ],
                [
                    -0.02530239336192608,
                    -0.2842395007610321,
                    0.21108922362327576,
                    0.2034735530614853,
                    -0.310854434967041,
                    -0.2769634425640106,
                    -0.1754263937473297,
                    0.061776407063007355,
                    -0.1188756451010704,
                    -0.8026701807975769,
                    0.05104966461658478,
                    -0.3389788866043091
                ],
                [
                    0.10076537728309631,
                    -0.17558397352695465,
                    0.17504781484603882,
                    0.06258906424045563,
                    -0.7423796057701111,
                    -0.013873329386115074,
                    0.010995426215231419,
                    -0.4131488502025604,
                    -0.175663024187088,
                    -0.03597547113895416,
                    -0.634983241558075,
                    -0.34009402990341187
                ],
                [
                    0.2122911512851715,
                    -0.11463173478841782,
                    -0.05581438168883324,
                    -0.366015762090683,
                    0.1906442791223526,
                    -0.1356281191110611,
                    -0.17093566060066223,
                    -1.01718008518219,
                    0.32465803623199463,
                    -0.3097511827945709,
                    0.23982639610767365,
                    -1.5521833896636963
                ]
            ],
            "convs.1.nn.2.bias": [
                -0.3569290041923523,
                -0.21288277208805084,
                -0.1444781869649887,
                0.24590663611888885,
                0.008281504735350609,
                0.7699102163314819,
                0.4928085505962372,
                -0.37944620847702026,
                -0.11005628854036331,
                -0.5022555589675903,
                -0.019602790474891663,
                -0.2935875356197357
            ],
            "convs.2.eps": [
                -2.1685917377471924
            ],
            "convs.2.nn.0.weight": [
                [
                    -0.18567651510238647,
                    -0.03943959251046181,
                    -0.2944510281085968,
                    -0.0517590194940567,
                    -0.21482577919960022,
                    0.018237920477986336,
                    -0.044965438544750214,
                    -0.15086933970451355,
                    -0.1372668743133545,
                    0.09064695239067078,
                    -0.10137569904327393,
                    -0.08428110927343369
                ],
                [
                    -0.24352775514125824,
                    -0.4726792573928833,
                    -0.5814506411552429,
                    -1.363949179649353,
                    -1.1451611518859863,
                    0.11994455009698868,
                    -0.1607699692249298,
                    -0.07936429977416992,
                    -0.26427215337753296,
                    0.18529415130615234,
                    -0.02304621785879135,
                    -0.4419081211090088
                ],
                [
                    0.16480423510074615,
                    -0.5921247601509094,
                    0.22015827894210815,
                    -0.5863024592399597,
                    -0.4634994864463806,
                    -0.43594324588775635,
                    0.4038461148738861,
                    -0.18448282778263092,
                    -0.07361318916082382,
                    -0.22847771644592285,
                    -0.0006627896800637245,
                    -0.24082769453525543
                ],
                [
                    -0.13069993257522583,
                    -0.3920329213142395,
                    0.16312207281589508,
                    -0.06039820611476898,
                    -0.021712645888328552,
                    0.04578566178679466,
                    0.27175280451774597,
                    0.021861232817173004,
                    -0.09932077676057816,
                    -0.49622631072998047,
                    -0.8528024554252625,
                    0.04547129571437836
                ],
                [
                    -0.19618919491767883,
                    -0.3137055039405823,
                    0.06642789393663406,
                    -0.18696364760398865,
                    -0.06497165560722351,
                    0.07895181328058243,
                    -0.24469143152236938,
                    -0.15784788131713867,
                    -0.05353114381432533,
                    0.1380443274974823,
                    0.06181449070572853,
                    -0.025262130424380302
                ],
                [
                    0.00605048518627882,
                    -0.2719114124774933,
                    -0.2006649225950241,
                    -0.1510351598262787,
                    -0.0939154177904129,
                    -0.4038403034210205,
                    -0.045465193688869476,
                    -0.303255170583725,
                    0.1889203041791916,
                    0.06042804941534996,
                    -0.30655917525291443,
                    0.06979340314865112
                ],
                [
                    -0.04888717457652092,
                    -0.17297515273094177,
                    -0.42720144987106323,
                    -0.03261144086718559,
                    -0.8056310415267944,
                    0.22115068137645721,
                    -0.032348230481147766,
                    -0.2901131212711334,
                    -0.007623148150742054,
                    -0.17618268728256226,
                    0.01086919754743576,
                    -0.2047063708305359
                ],
                [
                    -0.01609923131763935,
                    -0.12320312857627869,
                    0.06768926233053207,
                    -0.159171462059021,
                    -0.19218440353870392,
                    -0.19359757006168365,
                    0.7940308451652527,
                    -0.8857408761978149,
                    -0.2755834460258484,
                    0.05621219426393509,
                    -0.3665420711040497,
                    -0.6116191744804382
                ],
                [
                    -0.32535749673843384,
                    -0.022049138322472572,
                    -0.49905622005462646,
                    -0.002186226425692439,
                    -0.36085572838783264,
                    -0.0649850144982338,
                    -0.12939102947711945,
                    -0.7886226773262024,
                    -0.027102170512080193,
                    -0.24293583631515503,
                    -0.04548443481326103,
                    -0.478579044342041
                ],
                [
                    0.2410159409046173,
                    -1.1594643592834473,
                    0.09557679295539856,
                    0.05348053574562073,
                    0.12736862897872925,
                    -0.5907471179962158,
                    -0.0035626492463052273,
                    0.19092118740081787,
                    -0.0026445859111845493,
                    -0.3215043842792511,
                    -0.1351393163204193,
                    -0.5265275239944458
                ],
                [
                    -0.04058561474084854,
                    -0.2945462763309479,
                    -0.31934472918510437,
                    0.33998772501945496,
                    0.14974577724933624,
                    1.035454511642456,
                    -0.02366728149354458,
                    -0.728374183177948,
                    -0.12485428899526596,
                    -0.2168198674917221,
                    0.27603018283843994,
                    -0.1811579465866089
                ],
                [
                    -0.1389939934015274,
                    -0.06353593617677689,
                    -0.6159045100212097,
                    -0.08714807033538818,
                    -0.0575394332408905,
                    0.7744364142417908,
                    -0.44364407658576965,
                    0.0013545781839638948,
                    -0.12169104069471359,
                    0.2139338105916977,
                    -0.6723721623420715,
                    0.14849857985973358
                ]
            ],
            "convs.2.nn.0.bias": [
                -0.3098360598087311,
                -0.10181313008069992,
                -0.6892772912979126,
                0.16326065361499786,
                -0.22752563655376434,
                -0.3032473921775818,
                -0.5538488626480103,
                -0.06973959505558014,
                -0.019203534349799156,
                -0.23733852803707123,
                -0.011279011145234108,
                -0.0101605961099267
            ],
            "convs.2.nn.2.weight": [
                [
                    -0.017176052555441856,
                    0.6644477844238281,
                    -0.14022186398506165,
                    -0.12071790546178818,
                    0.27350878715515137,
                    -0.11341293156147003,
                    0.3277251124382019,
                    -0.11451009660959244,
                    -0.06575673818588257,
                    -0.23099350929260254,
                    -0.21888478100299835,
                    -0.15487603843212128
                ],
                [
                    -0.34415602684020996,
                    -0.10673962533473969,
                    -0.5360729694366455,
                    0.04817460849881172,
                    -0.3072430491447449,
                    -0.2063317596912384,
                    0.174570232629776,
                    -0.13862116634845734,
                    -0.04350046068429947,
                    -0.3871179521083832,
                    0.6271994709968567,
                    0.2136034518480301
                ],
                [
                    0.17044982314109802,
                    -0.3541688024997711,
                    -0.617668867111206,
                    -0.07002254575490952,
                    -0.1688220500946045,
                    0.08120924979448318,
                    -0.1220095232129097,
                    -0.12042737752199173,
                    -0.11858066916465759,
                    -0.29797613620758057,
                    0.02464054338634014,
                    -0.19410653412342072
                ],
                [
                    -0.041060831397771835,
                    -0.14673751592636108,
                    -0.3876151442527771,
                    -0.11705651879310608,
                    -0.11090491712093353,
                    0.1518799215555191,
                    -0.14394144713878632,
                    -0.35830339789390564,
                    -0.02593410015106201,
                    -0.06995908915996552,
                    -0.11907735466957092,
                    -0.0038968550506979227
                ],
                [
                    0.1301960051059723,
                    -0.07893382757902145,
                    -0.4878462851047516,
                    -0.0736074224114418,
                    -0.4697144329547882,
                    0.29205307364463806,
                    -0.1526908576488495,
                    -0.25100335478782654,
                    -0.06813944876194,
                    -0.013118641451001167,
                    -0.00965182390064001,
                    -0.049190979450941086
                ],
                [
                    0.19398465752601624,
                    0.12242382019758224,
                    -0.15191563963890076,
                    -1.1676353216171265,
                    0.062093961983919144,
                    -0.04157806187868118,
                    0.10158463567495346,
                    -0.027687352150678635,
                    0.07406847923994064,
                    0.15096360445022583,
                    -0.14078369736671448,
                    -0.02435128577053547
                ],
                [
                    0.04402795061469078,
                    0.614762544631958,
                    -0.1395193487405777,
                    -0.0682547390460968,
                    0.5016155242919922,
                    -0.44225144386291504,
                    0.02859957329928875,
                    -0.22327439486980438,
                    0.14164865016937256,
                    -0.39706313610076904,
                    0.08066494017839432,
                    -0.4705457091331482
                ],
                [
                    0.007693413179367781,
                    -0.16687408089637756,
                    0.2847771644592285,
                    -0.13521477580070496,
                    0.4409841001033783,
                    0.19694699347019196,
                    0.01697414554655552,
                    -0.15393103659152985,
                    -0.12027579545974731,
                    0.10072796046733856,
                    -0.6751105189323425,
                    -0.17350544035434723
                ],
                [
                    -0.1798698604106903,
                    -0.26381364464759827,
                    0.4170720875263214,
                    -0.06530523300170898,
                    0.47464585304260254,
                    -0.1593557745218277,
                    0.14851932227611542,
                    -0.12012679874897003,
                    -0.017337415367364883,
                    -0.4287908673286438,
                    -0.17290209233760834,
                    0.07319279760122299
                ],
                [
                    0.22289131581783295,
                    -0.12087547779083252,
                    -0.1934717893600464,
                    0.1785930097103119,
                    -0.27509304881095886,
                    0.43363943696022034,
                    0.1470152884721756,
                    0.4129469394683838,
                    -0.06302619725465775,
                    -0.18219944834709167,
                    -0.18764172494411469,
                    -0.29475846886634827
                ],
                [
                    -0.024864019826054573,
                    0.2586876153945923,
                    -0.5793688893318176,
                    -0.0720483660697937,
                    0.3821907639503479,
                    0.03959482163190842,
                    0.032087136059999466,
                    -0.14070360362529755,
                    -0.029828691855072975,
                    -0.21966539323329926,
                    -0.09467802196741104,
                    -0.13478752970695496
                ],
                [
                    -0.20629048347473145,
                    -0.34025663137435913,
                    -0.6880560517311096,
                    -0.5213412642478943,
                    0.33496415615081787,
                    -0.159923255443573,
                    0.22855857014656067,
                    -0.05208716168999672,
                    0.09502193331718445,
                    -0.2691819667816162,
                    -0.3815476894378662,
                    0.10097335278987885
                ]
            ],
            "convs.2.nn.2.bias": [
                -0.008388455025851727,
                0.003598974086344242,
                0.028718847781419754,
                0.024334868416190147,
                0.007291634101420641,
                0.18349938094615936,
                0.004558479879051447,
                0.027583029121160507,
                0.038433805108070374,
                -0.057927824556827545,
                -0.004164490383118391,
                0.0845552310347557
            ],
            "lin_out.weight": [
                [
                    0.1340998262166977,
                    -0.075015127658844,
                    0.013834376819431782,
                    0.04127871245145798,
                    0.09013877809047699,
                    -0.3080616891384125,
                    0.088572658598423,
                    0.025741783902049065,
                    0.10835783183574677,
                    -0.17052416503429413,
                    0.002792333485558629,
                    -0.08443930000066757
                ],
                [
                    0.08022687584161758,
                    -0.06283692270517349,
                    -0.028025463223457336,
                    -0.02440965175628662,
                    0.007134007290005684,
                    -0.31972259283065796,
                    -0.02106356993317604,
                    -0.004014356527477503,
                    0.020548731088638306,
                    -0.12527811527252197,
                    0.04165978357195854,
                    -0.1700921654701233
                ],
                [
                    0.1714043915271759,
                    -0.062189456075429916,
                    -0.12547025084495544,
                    -0.038464900106191635,
                    0.04267522320151329,
                    -0.27216625213623047,
                    -0.0006886867340654135,
                    -0.008183167316019535,
                    -0.10318905115127563,
                    -0.15170405805110931,
                    0.12693841755390167,
                    -0.14518669247627258
                ],
                [
                    -0.037737518548965454,
                    0.004883315414190292,
                    -0.014111814089119434,
                    -0.02886444889008999,
                    -0.05752090737223625,
                    -0.2418321818113327,
                    -0.0699649304151535,
                    -0.011138014495372772,
                    0.008609139360487461,
                    -0.13382035493850708,
                    -0.03751266747713089,
                    -0.09034141153097153
                ],
                [
                    0.05231563746929169,
                    -0.10382718592882156,
                    -0.02411198802292347,
                    0.05260781943798065,
                    -0.028839165344834328,
                    -0.25985589623451233,
                    -0.02674650028347969,
                    0.005793878808617592,
                    -0.07428333163261414,
                    -0.12265340238809586,
                    -0.09526166319847107,
                    -0.051579367369413376
                ],
                [
                    0.026302970945835114,
                    -0.08311991393566132,
                    0.016832899302244186,
                    -0.002491854829713702,
                    -0.016483983024954796,
                    -0.18669423460960388,
                    -0.032219741493463516,
                    0.006741994526237249,
                    0.003042645985260606,
                    -0.1375419944524765,
                    -0.0009254447650164366,
                    -0.0992453396320343
                ],
                [
                    0.18694548308849335,
                    -0.07540738582611084,
                    -0.08806362003087997,
                    -0.00973906833678484,
                    0.035182371735572815,
                    -0.3387780487537384,
                    -0.04023886099457741,
                    0.020958825945854187,
                    -0.028803056105971336,
                    -0.15466059744358063,
                    0.07178261876106262,
                    -0.13982358574867249
                ],
                [
                    0.11098423600196838,
                    -0.004371177405118942,
                    0.11960255354642868,
                    -0.03537444770336151,
                    0.08295253664255142,
                    -0.014805595390498638,
                    -0.023031245917081833,
                    0.031063921749591827,
                    0.0571911446750164,
                    2.4077160358428955,
                    0.11614201962947845,
                    -0.027525069192051888
                ],
                [
                    -0.160819411277771,
                    -0.05968884751200676,
                    0.04638545215129852,
                    -0.04595835879445076,
                    -0.07403536885976791,
                    -0.1411120444536209,
                    -0.0027638832107186317,
                    -0.10433795303106308,
                    -0.1051885113120079,
                    -0.22558888792991638,
                    -0.08233122527599335,
                    -0.06779961287975311
                ],
                [
                    -0.05458981916308403,
                    0.6049419641494751,
                    -0.019538065418601036,
                    -0.024961872026324272,
                    -0.022030668333172798,
                    -0.25273841619491577,
                    -0.04046137258410454,
                    -0.023009175434708595,
                    -0.018259048461914062,
                    -0.12266632169485092,
                    -0.03340670466423035,
                    -0.1420847475528717
                ],
                [
                    0.01365850679576397,
                    0.0314980149269104,
                    -0.05658196657896042,
                    -0.03801881894469261,
                    -0.06182127445936203,
                    -0.24680916965007782,
                    -0.07512491941452026,
                    -0.04072803631424904,
                    -0.1385899782180786,
                    -0.11262167990207672,
                    -0.02953842096030712,
                    -0.12780481576919556
                ],
                [
                    0.287659615278244,
                    0.010081752203404903,
                    -0.042047709226608276,
                    0.1637931764125824,
                    0.1170043796300888,
                    4.313657283782959,
                    0.0836399644613266,
                    0.3742939233779907,
                    0.18950523436069489,
                    -0.0015043531311675906,
                    0.18028415739536285,
                    1.837854027748108
                ]
            ],
            "lin_out.bias": [
                0.11967669427394867,
                0.11349543929100037,
                0.11552944779396057,
                0.10578172653913498,
                0.08984395861625671,
                0.12294971197843552,
                0.13346827030181885,
                0.06620058417320251,
                0.11819346249103546,
                0.11956537514925003,
                0.11286027729511261,
                0.03540647029876709
            ]
        }
    }
}