{
    "experiment_config": {
        "mode": "simple",
        "num_categories": 12,
        "p": 0.8,
        "num_nodes": 20,
        "motif_dim": 0,
        "num_train_samples": 5000,
        "num_test_samples": 1500,
        "batch_size": 16,
        "in_dim": 12,
        "hidden_dims": [
            12,
            6
        ],
        "lr": 0.01,
        "use_weighting": true,
        "importance": [
            15.0,
            10.0
        ],
        "phase1_epochs": 0,
        "phase2_epochs": 50,
        "device": "cpu",
        "model_type": "GCN",
        "loss": "BCE",
        "pooling": "max",
        "gm_p": 1.0,
        "log_dir": "runs/T/BCE/2/GCN/small_compression/max/12/high",
        "file_path": "T/BCE/2/GCN/small_compression/max/12/high",
        "add_graph": false,
        "track_embeddings": false,
        "save": true
    },
    "sparcity": 0.9232159992225947,
    "empty_graph_stats": [
        {
            "mean": [
                -1.979836344718933,
                -1.1577237844467163,
                -1.1101317405700684,
                -0.9585110545158386,
                -1.6076667308807373,
                -1.1275825500488281
            ],
            "std": [
                0.8702245950698853,
                0.5410676002502441,
                0.8510159254074097,
                0.9753811359405518,
                1.0824954509735107,
                0.7932460904121399
            ]
        },
        {
            "mean": [
                0.7739518880844116,
                -0.13382574915885925,
                -1.008984088897705,
                0.8586322069168091,
                -1.2268325090408325,
                -1.1488860845565796
            ],
            "std": [
                0.6785991787910461,
                0.6726764440536499,
                0.9727559089660645,
                0.7791756987571716,
                0.8972086310386658,
                0.724542498588562
            ]
        }
    ],
    "summary format:": "Key: (Num of active features, Num of accurate feature, Geometry, Collapsed). Loss, s.d. Loss, Count",
    "summary": {
        "(6, 6, 6, 0)": [
            0.15770604916413625,
            0.0,
            1
        ],
        "(7, 7, 'Failed', 0)": [
            0.14839388366540274,
            0.0,
            1
        ]
    },
    "results": [
        {
            "Num of features": 12,
            "Num of active features": 6,
            "Num of accurate feature": 6,
            "Geometry": 6,
            "Collapsed": 0,
            "Loss": 0.15770604916413625,
            "Rank": 6,
            "Singular values": [
                10.162364959716797,
                3.7587504386901855,
                3.2478253841400146,
                3.2268331050872803,
                2.6906895637512207,
                2.0282516479492188
            ]
        },
        {
            "Num of features": 12,
            "Num of active features": 7,
            "Num of accurate feature": 7,
            "Geometry": "Failed",
            "Collapsed": 0,
            "Loss": 0.14839388366540274,
            "Rank": 6,
            "Singular values": [
                8.170780181884766,
                4.391638278961182,
                4.052554130554199,
                3.456275463104248,
                2.752577304840088,
                1.891461730003357
            ]
        }
    ],
    "average embeddings summary": {
        "(6, 6, 6, 0)": {
            "(0, 0, 0, 0, 0, 0, 0, 1, 0, 0, 0, 0)": [
                -2.377880811691284,
                -1.0935055017471313,
                -1.2479958534240723,
                -1.0808161497116089,
                -1.8769712448120117,
                -1.3290592432022095
            ],
            "(0, 1, 0, 0, 0, 0, 0, 0, 0, 0, 0, 0)": [
                -0.378922700881958,
                -1.0649932622909546,
                -1.3817181587219238,
                -0.9426229000091553,
                -1.4886720180511475,
                -1.2308589220046997
            ],
            "(0, 0, 0, 1, 0, 0, 0, 0, 0, 0, 0, 0)": [
                -2.0975446701049805,
                -1.1619997024536133,
                -1.2765381336212158,
                -1.4055836200714111,
                -1.6161288022994995,
                -1.2571192979812622
            ],
            "(0, 0, 0, 0, 0, 0, 0, 0, 0, 1, 0, 0)": [
                -2.0279998779296875,
                1.5513973236083984,
                -1.0421119928359985,
                -0.9357277154922485,
                -1.5600628852844238,
                -1.5642436742782593
            ],
            "(0, 0, 0, 0, 0, 0, 0, 0, 0, 0, 1, 0)": [
                -1.7635540962219238,
                -1.3898037672042847,
                -1.3780077695846558,
                -1.0336077213287354,
                1.2451207637786865,
                -1.1470433473587036
            ],
            "(0, 0, 0, 0, 1, 0, 0, 0, 0, 0, 0, 0)": [
                -2.151522636413574,
                -1.2250181436538696,
                -1.2948678731918335,
                -1.1480516195297241,
                -1.621546983718872,
                -1.2082178592681885
            ],
            "(0, 0, 1, 0, 0, 0, 0, 0, 0, 0, 0, 0)": [
                -1.8028099536895752,
                -1.3096370697021484,
                -1.3271723985671997,
                -0.9220986366271973,
                -1.5130521059036255,
                2.057833194732666
            ],
            "(0, 0, 0, 0, 0, 1, 0, 0, 0, 0, 0, 0)": [
                -1.9884930849075317,
                -1.2604116201400757,
                -1.1775670051574707,
                -0.9224109053611755,
                -1.7507851123809814,
                -1.1893513202667236
            ],
            "(0, 0, 0, 0, 0, 0, 1, 0, 0, 0, 0, 0)": [
                -2.1704795360565186,
                -1.1669013500213623,
                -1.1148658990859985,
                1.9782872200012207,
                -2.0229828357696533,
                -1.2491753101348877
            ],
            "(1, 0, 0, 0, 0, 0, 0, 0, 0, 0, 0, 0)": [
                0.5855414271354675,
                -0.5630759596824646,
                -1.039794683456421,
                0.6241230368614197,
                -0.4915868639945984,
                -0.17160667479038239
            ],
            "(0, 0, 0, 0, 0, 0, 0, 0, 0, 0, 0, 1)": [
                -2.170992374420166,
                -1.2342853546142578,
                -1.1397026777267456,
                -0.9654832482337952,
                -1.4868394136428833,
                -1.2430322170257568
            ],
            "(0, 0, 0, 0, 0, 0, 0, 0, 1, 0, 0, 0)": [
                -2.15889835357666,
                -1.30150306224823,
                2.282834053039551,
                -0.949775755405426,
                -2.023170232772827,
                -1.2715989351272583
            ]
        },
        "(7, 7, 'Failed', 0)": {
            "(0, 0, 0, 1, 0, 0, 0, 0, 0, 0, 0, 0)": [
                0.7759613990783691,
                3.160797119140625,
                -1.4625053405761719,
                0.5620666742324829,
                -1.0698972940444946,
                -1.136972427368164
            ],
            "(0, 0, 0, 0, 0, 0, 0, 0, 0, 0, 1, 0)": [
                0.7180257439613342,
                -0.14238892495632172,
                -1.1909855604171753,
                0.6555435061454773,
                -1.3338992595672607,
                -1.2265552282333374
            ],
            "(0, 0, 1, 0, 0, 0, 0, 0, 0, 0, 0, 0)": [
                0.7382797002792358,
                -0.35734885931015015,
                -1.0125011205673218,
                4.407743453979492,
                -1.3255029916763306,
                -1.324141025543213
            ],
            "(0, 0, 0, 0, 0, 0, 1, 0, 0, 0, 0, 0)": [
                0.6072531938552856,
                -0.15812818706035614,
                -0.9652721881866455,
                0.6355761289596558,
                2.375457286834717,
                1.5756018161773682
            ],
            "(0, 0, 0, 0, 0, 0, 0, 0, 1, 0, 0, 0)": [
                0.6822482943534851,
                -0.1669873148202896,
                -1.2574801445007324,
                1.018896460533142,
                -0.8682535290718079,
                1.2762641906738281
            ],
            "(1, 0, 0, 0, 0, 0, 0, 0, 0, 0, 0, 0)": [
                4.562021255493164,
                0.28133514523506165,
                -1.0959408283233643,
                0.62325119972229,
                -1.1197489500045776,
                -1.0417068004608154
            ],
            "(0, 1, 0, 0, 0, 0, 0, 0, 0, 0, 0, 0)": [
                0.5845146179199219,
                -0.24694450199604034,
                -1.0291812419891357,
                0.8421924710273743,
                -1.0186448097229004,
                -1.1050426959991455
            ],
            "(0, 0, 0, 0, 0, 1, 0, 0, 0, 0, 0, 0)": [
                0.7483046650886536,
                -0.19509465992450714,
                0.24221153557300568,
                1.4859014749526978,
                1.0524907112121582,
                -1.0890687704086304
            ],
            "(0, 0, 0, 0, 0, 0, 0, 0, 0, 0, 0, 1)": [
                0.7097705006599426,
                -0.3677681088447571,
                -1.0280365943908691,
                0.8701609969139099,
                -1.2960973978042603,
                -1.1395740509033203
            ],
            "(0, 0, 0, 0, 1, 0, 0, 0, 0, 0, 0, 0)": [
                1.7533279657363892,
                -0.08880104124546051,
                -1.0605849027633667,
                0.6827629208564758,
                -1.2259079217910767,
                -1.1044774055480957
            ],
            "(0, 0, 0, 0, 0, 0, 0, 0, 0, 1, 0, 0)": [
                0.545293927192688,
                -0.16413752734661102,
                2.510624408721924,
                0.9288656711578369,
                -1.4710659980773926,
                -1.4022133350372314
            ],
            "(0, 0, 0, 0, 0, 0, 0, 1, 0, 0, 0, 0)": [
                0.750971257686615,
                -0.14995785057544708,
                -0.8679105043411255,
                0.8922399282455444,
                -1.3722047805786133,
                -1.2479737997055054
            ]
        }
    },
    "model summary": {
        "(6, 6, 6, 0)": {
            "convs.0.bias": [
                -0.7137545943260193,
                -0.23490287363529205,
                -1.2048132419586182,
                0.5913342833518982,
                1.1845018863677979,
                0.7660199403762817,
                0.861534833908081,
                0.006795204244554043,
                1.1726776361465454,
                0.04857763275504112,
                -0.1095321998000145,
                1.2424952983856201
            ],
            "convs.0.lin.weight": [
                [
                    -1.6538361310958862,
                    0.3403525948524475,
                    2.170511484146118,
                    0.07088803499937057,
                    0.27108970284461975,
                    0.1767083704471588,
                    3.1054940223693848,
                    0.3713511824607849,
                    -0.713685929775238,
                    0.10943455994129181,
                    -0.4596783220767975,
                    0.03162773698568344
                ],
                [
                    -1.7846899032592773,
                    2.0146167278289795,
                    -0.6955199241638184,
                    -0.20541778206825256,
                    -0.3898530900478363,
                    0.10189320892095566,
                    -1.3748574256896973,
                    -1.087459683418274,
                    -0.8873577117919922,
                    2.123511791229248,
                    -0.8310635685920715,
                    -0.878093957901001
                ],
                [
                    -0.33831703662872314,
                    -0.16259828209877014,
                    2.6858792304992676,
                    0.23212285339832306,
                    0.027927450835704803,
                    -0.048937536776065826,
                    0.1555444449186325,
                    -0.1408315896987915,
                    2.6339972019195557,
                    2.495586395263672,
                    0.06452635675668716,
                    -0.2130001038312912
                ],
                [
                    -1.9003418684005737,
                    -0.6643890738487244,
                    -0.03201640769839287,
                    0.324963241815567,
                    0.09564289450645447,
                    -0.0733104944229126,
                    -1.0280241966247559,
                    -0.14328666031360626,
                    0.5248622894287109,
                    -0.9720758199691772,
                    2.516132116317749,
                    0.26746508479118347
                ],
                [
                    -1.8082942962646484,
                    -1.8273712396621704,
                    -1.4623521566390991,
                    -0.2015332579612732,
                    -0.06921934336423874,
                    -1.1205919981002808,
                    -1.813385009765625,
                    0.09075828641653061,
                    -0.26017314195632935,
                    -2.8567826747894287,
                    -1.0160231590270996,
                    -0.13743284344673157
                ],
                [
                    -1.2133146524429321,
                    -2.021878242492676,
                    1.9083778858184814,
                    0.1982095092535019,
                    -0.2682225704193115,
                    0.0445532351732254,
                    -0.5131633281707764,
                    0.1293693631887436,
                    -1.1313930749893188,
                    0.5920276641845703,
                    -1.1804982423782349,
                    0.004471794702112675
                ],
                [
                    0.041291169822216034,
                    1.1701387166976929,
                    -1.4822816848754883,
                    0.3043951690196991,
                    0.4410138726234436,
                    0.4744512140750885,
                    -1.0513074398040771,
                    1.0002918243408203,
                    1.5243439674377441,
                    -0.8698472380638123,
                    -0.9779431223869324,
                    0.7208043336868286
                ],
                [
                    -0.9840172529220581,
                    -1.0408375263214111,
                    0.22841575741767883,
                    -2.1155340671539307,
                    -1.0930215120315552,
                    -1.2155499458312988,
                    1.5420068502426147,
                    -1.1755162477493286,
                    1.7762662172317505,
                    -1.0362913608551025,
                    -0.9513385891914368,
                    -2.0376882553100586
                ],
                [
                    -2.614701747894287,
                    0.012687195092439651,
                    1.1644482612609863,
                    -0.8115175366401672,
                    -0.10663724690675735,
                    -0.13543753325939178,
                    -1.8441494703292847,
                    -0.16018687188625336,
                    -0.17358073592185974,
                    -1.8534605503082275,
                    -1.8675190210342407,
                    0.10219211876392365
                ],
                [
                    -1.2549052238464355,
                    -1.4285966157913208,
                    -0.8145291805267334,
                    -1.1611659526824951,
                    -1.0389267206192017,
                    -0.39469578862190247,
                    -0.26942354440689087,
                    1.035556674003601,
                    -1.3854095935821533,
                    2.5342705249786377,
                    0.28639400005340576,
                    -0.1509174108505249
                ],
                [
                    2.899606704711914,
                    -2.169173002243042,
                    0.46117880940437317,
                    -0.44291022419929504,
                    -0.2433260977268219,
                    -0.5084258317947388,
                    -0.30151504278182983,
                    -0.40204039216041565,
                    -0.966283917427063,
                    -0.27044013142585754,
                    -1.649163007736206,
                    -0.24364492297172546
                ],
                [
                    -1.9146665334701538,
                    -1.8490960597991943,
                    -1.0520564317703247,
                    -0.04748404771089554,
                    -0.03788777440786362,
                    0.18170958757400513,
                    0.015007108449935913,
                    0.07033183425664902,
                    0.02656460367143154,
                    0.004304405767470598,
                    -1.920346975326538,
                    -0.022947851568460464
                ]
            ],
            "convs.1.bias": [
                -2.510141611099243,
                -2.449824571609497,
                -2.3575432300567627,
                -2.2446706295013428,
                -2.1279308795928955,
                -2.6675102710723877
            ],
            "convs.1.lin.weight": [
                [
                    1.6540218591690063,
                    0.7838124632835388,
                    -0.03412333503365517,
                    0.38039854168891907,
                    -3.3313992023468018,
                    -0.963711142539978,
                    0.8867877125740051,
                    -0.6623983979225159,
                    0.24520151317119598,
                    0.17111670970916748,
                    1.7460711002349854,
                    -2.215620756149292
                ],
                [
                    0.06507115066051483,
                    1.39595365524292,
                    1.2216838598251343,
                    -0.36527693271636963,
                    1.635269284248352,
                    0.2819867730140686,
                    -0.2850952744483948,
                    0.09739495068788528,
                    -1.4982225894927979,
                    1.1354832649230957,
                    1.3057905435562134,
                    0.1468743234872818
                ],
                [
                    0.14738696813583374,
                    -6.234391212463379,
                    3.416189432144165,
                    -0.007178722880780697,
                    0.42927008867263794,
                    -3.130885362625122,
                    1.1904394626617432,
                    0.7519707679748535,
                    -0.2200881987810135,
                    -7.394852161407471,
                    -0.2571238875389099,
                    0.0005799872451461852
                ],
                [
                    2.8697707653045654,
                    0.28228330612182617,
                    -0.12024694681167603,
                    0.3911774158477783,
                    -2.7536630630493164,
                    -0.21555376052856445,
                    0.8170945048332214,
                    0.8530686497688293,
                    -3.1287240982055664,
                    -0.8334240913391113,
                    1.4757657051086426,
                    0.5465068817138672
                ],
                [
                    0.08927136659622192,
                    -1.2380870580673218,
                    -3.9282164573669434,
                    1.897774338722229,
                    -0.9952874183654785,
                    -0.2511935234069824,
                    -0.20344336330890656,
                    -1.5951558351516724,
                    -0.8986174464225769,
                    0.30596253275871277,
                    1.2460222244262695,
                    -2.007236957550049
                ],
                [
                    1.8690757751464844,
                    -5.489986419677734,
                    2.5438082218170166,
                    0.3817049264907837,
                    0.5129338502883911,
                    0.36790141463279724,
                    -0.17770449817180634,
                    -1.7795443534851074,
                    1.022753119468689,
                    -4.4201436042785645,
                    1.6023329496383667,
                    -1.277962327003479
                ]
            ],
            "lin_out.weight": [
                [
                    5.948574542999268,
                    0.8186441659927368,
                    0.11054203659296036,
                    1.1094861030578613,
                    1.069385051727295,
                    0.8156352639198303
                ],
                [
                    2.2227132320404053,
                    -0.6235233545303345,
                    -0.32993677258491516,
                    -0.8187412619590759,
                    -0.5481728911399841,
                    -0.5335263013839722
                ],
                [
                    -0.5181499719619751,
                    -0.2379167079925537,
                    -0.31592172384262085,
                    0.009953275322914124,
                    0.09676122665405273,
                    5.105418682098389
                ],
                [
                    -0.08804243057966232,
                    -0.2898136377334595,
                    -0.23051908612251282,
                    -0.06686364859342575,
                    0.002083331346511841,
                    -0.2218877226114273
                ],
                [
                    -0.24691224098205566,
                    -0.34907352924346924,
                    -0.08736875653266907,
                    -0.09357154369354248,
                    -0.10680291056632996,
                    -0.160383939743042
                ],
                [
                    -0.05107953026890755,
                    -0.38855332136154175,
                    -0.22570841014385223,
                    -0.023166164755821228,
                    -0.0849587544798851,
                    -0.13965106010437012
                ],
                [
                    -0.7999992966651917,
                    -0.0432627871632576,
                    -0.1624172329902649,
                    4.5887250900268555,
                    -0.19149959087371826,
                    -0.3279595375061035
                ],
                [
                    -0.10570530593395233,
                    -0.18627344071865082,
                    -0.29553213715553284,
                    -0.12581638991832733,
                    -0.17646995186805725,
                    -0.1833825260400772
                ],
                [
                    0.14524076879024506,
                    0.07805804163217545,
                    5.002414226531982,
                    -0.09760580956935883,
                    0.16603311896324158,
                    0.035259027034044266
                ],
                [
                    -0.503629744052887,
                    6.9208574295043945,
                    0.1594042032957077,
                    -0.02391311153769493,
                    -0.3656870424747467,
                    -0.1179240494966507
                ],
                [
                    -0.6907542943954468,
                    -0.17781104147434235,
                    0.015796151012182236,
                    0.10498713701963425,
                    7.443739891052246,
                    -0.2876931428909302
                ],
                [
                    0.0030469682533293962,
                    -0.27926763892173767,
                    -0.12755252420902252,
                    -0.18889299035072327,
                    -0.0981743261218071,
                    -0.1400282233953476
                ]
            ],
            "lin_out.bias": [
                1.4539324045181274,
                -2.9087483882904053,
                -5.836056709289551,
                -2.79960036277771,
                -2.945141553878784,
                -2.9841628074645996,
                -7.790334701538086,
                -3.103030204772949,
                -5.476709842681885,
                -2.9585916996002197,
                -3.973745346069336,
                -2.9503955841064453
            ]
        },
        "(7, 7, 'Failed', 0)": {
            "convs.0.bias": [
                -0.3293003737926483,
                -1.2146121263504028,
                -0.02639947086572647,
                0.43623143434524536,
                -1.0992752313613892,
                -0.5341120958328247,
                0.2539843022823334,
                -1.102920413017273,
                -1.3222922086715698,
                1.0077309608459473,
                1.1765977144241333,
                -0.3520238697528839
            ],
            "convs.0.lin.weight": [
                [
                    2.3758292198181152,
                    0.22559966146945953,
                    1.8485370874404907,
                    -1.368593692779541,
                    0.24317984282970428,
                    -1.644453763961792,
                    -0.8958790302276611,
                    0.17113237082958221,
                    -1.5639612674713135,
                    0.8731433153152466,
                    -0.42969176173210144,
                    -0.3994619846343994
                ],
                [
                    -0.006204106844961643,
                    -0.73450767993927,
                    3.013237237930298,
                    0.23312358558177948,
                    -0.5820679068565369,
                    -0.8178391456604004,
                    3.5338211059570312,
                    -0.5980139374732971,
                    -0.6780127286911011,
                    -0.08194103837013245,
                    -0.27621549367904663,
                    -0.7971924543380737
                ],
                [
                    2.0476999282836914,
                    0.6430712342262268,
                    -0.7418307662010193,
                    -0.8283613920211792,
                    1.2699071168899536,
                    -2.080071210861206,
                    2.6233363151550293,
                    0.42854776978492737,
                    -2.1475908756256104,
                    0.9186607003211975,
                    0.6818426251411438,
                    0.1278339922428131
                ],
                [
                    2.847376585006714,
                    -1.7121069431304932,
                    -0.06573876738548279,
                    2.1038777828216553,
                    -1.5828474760055542,
                    -2.1701548099517822,
                    -1.602323293685913,
                    -0.43862810730934143,
                    -0.7837278246879578,
                    0.14342477917671204,
                    -0.8650400042533875,
                    -0.951147735118866
                ],
                [
                    -0.05290953069925308,
                    0.4826686680316925,
                    -0.11159341037273407,
                    2.5061352252960205,
                    0.41699790954589844,
                    2.4003846645355225,
                    2.352576732635498,
                    -0.17118266224861145,
                    -0.36818787455558777,
                    -0.22058901190757751,
                    -0.13685230910778046,
                    0.31556135416030884
                ],
                [
                    1.9100345373153687,
                    0.11026524752378464,
                    1.837799072265625,
                    -0.33463016152381897,
                    0.4319964349269867,
                    2.7828023433685303,
                    -0.007533740252256393,
                    0.06377086788415909,
                    -0.9821596741676331,
                    1.7653579711914062,
                    -1.1336908340454102,
                    0.6885254979133606
                ],
                [
                    0.6374407410621643,
                    0.6003698706626892,
                    -0.17316994071006775,
                    2.4899494647979736,
                    0.4265010356903076,
                    -2.542085886001587,
                    -2.011336088180542,
                    0.28245848417282104,
                    2.030783176422119,
                    -0.7203289866447449,
                    -0.8938937187194824,
                    0.5482780337333679
                ],
                [
                    2.47046160697937,
                    -0.2553757131099701,
                    2.2895455360412598,
                    -0.2106931507587433,
                    -0.4868674576282501,
                    -0.24031978845596313,
                    -0.6549428105354309,
                    0.21181774139404297,
                    2.8203423023223877,
                    0.3459199070930481,
                    0.3646480143070221,
                    0.1058187410235405
                ],
                [
                    0.08083833754062653,
                    0.32906574010849,
                    0.1437481939792633,
                    2.4810667037963867,
                    0.4173647463321686,
                    -0.050417277961969376,
                    0.04084719344973564,
                    -0.02822495810687542,
                    2.616649866104126,
                    2.6242809295654297,
                    0.2927113473415375,
                    -0.021187784150242805
                ],
                [
                    -1.5226937532424927,
                    0.09564980119466782,
                    2.428946018218994,
                    0.12682898342609406,
                    -0.018789075314998627,
                    -4.52568244934082,
                    -1.5570831298828125,
                    0.062293216586112976,
                    -1.4947510957717896,
                    1.5690693855285645,
                    0.14856202900409698,
                    0.02130327932536602
                ],
                [
                    -4.271579742431641,
                    0.03278086334466934,
                    1.404848337173462,
                    0.031869493424892426,
                    1.0620113611221313,
                    -1.8262832164764404,
                    -2.0897469520568848,
                    -0.12030474096536636,
                    -2.5152080059051514,
                    -1.8383630514144897,
                    -0.07701718807220459,
                    -0.141128271818161
                ],
                [
                    -1.1106737852096558,
                    -0.217545285820961,
                    1.4703705310821533,
                    -0.8972928524017334,
                    0.5704625248908997,
                    3.338458299636841,
                    -2.3384361267089844,
                    0.1596052348613739,
                    -0.832007110118866,
                    -1.0675452947616577,
                    -0.2476937472820282,
                    -0.10961402952671051
                ]
            ],
            "convs.1.bias": [
                -1.1443525552749634,
                -2.4752047061920166,
                -2.0022754669189453,
                -1.3305768966674805,
                -1.9134310483932495,
                -1.214559555053711
            ],
            "convs.1.lin.weight": [
                [
                    1.3682993650436401,
                    -2.140899896621704,
                    0.7736377120018005,
                    0.7846336960792542,
                    -0.8017178177833557,
                    1.4791759252548218,
                    0.18462981283664703,
                    1.423205852508545,
                    -1.918271541595459,
                    -3.1263115406036377,
                    3.109816551208496,
                    -1.9181196689605713
                ],
                [
                    2.8462297916412354,
                    -2.2721943855285645,
                    -0.7557869553565979,
                    1.2540735006332397,
                    3.456660747528076,
                    -3.2960410118103027,
                    0.1295643448829651,
                    0.14066225290298462,
                    1.2739365100860596,
                    -0.023232625797390938,
                    0.9503624439239502,
                    -0.9997315406799316
                ],
                [
                    0.7230042219161987,
                    -1.6820745468139648,
                    0.13082122802734375,
                    -0.4914536476135254,
                    0.060919295996427536,
                    0.8845781087875366,
                    -3.4569499492645264,
                    -4.168651580810547,
                    3.5381312370300293,
                    1.4550055265426636,
                    -2.492729663848877,
                    0.8709287047386169
                ],
                [
                    1.092462182044983,
                    2.687870740890503,
                    -3.0351552963256836,
                    -0.6799054145812988,
                    0.7845047116279602,
                    0.4456849694252014,
                    0.9330803155899048,
                    1.315510630607605,
                    -1.5049123764038086,
                    0.6798662543296814,
                    0.0845731720328331,
                    1.1342711448669434
                ],
                [
                    -0.6821610331535339,
                    2.7883288860321045,
                    1.2036969661712646,
                    -2.283625602722168,
                    1.0730514526367188,
                    -0.325806587934494,
                    1.6184394359588623,
                    -1.0408108234405518,
                    -1.3549425601959229,
                    -1.450684905052185,
                    -2.0087335109710693,
                    1.959968090057373
                ],
                [
                    0.9056670069694519,
                    2.4432778358459473,
                    0.6978239417076111,
                    -2.4536945819854736,
                    0.28681522607803345,
                    -0.47323888540267944,
                    0.723319947719574,
                    2.046396017074585,
                    1.6467176675796509,
                    -2.8816347122192383,
                    0.05111289024353027,
                    0.090683713555336
                ]
            ],
            "lin_out.weight": [
                [
                    4.624003887176514,
                    -0.18995821475982666,
                    0.007945703342556953,
                    -0.08191297948360443,
                    0.12634159624576569,
                    -0.08440530300140381
                ],
                [
                    -0.1243598610162735,
                    -0.3388659954071045,
                    -0.13926729559898376,
                    -0.3396061062812805,
                    -0.06794778257608414,
                    -0.3230414092540741
                ],
                [
                    -0.32675933837890625,
                    0.13885529339313507,
                    -0.18644362688064575,
                    3.532672882080078,
                    -0.4243951737880707,
                    0.4645162522792816
                ],
                [
                    -0.10625709593296051,
                    4.389535427093506,
                    -0.09101590514183044,
                    -0.05327688902616501,
                    -0.04228365421295166,
                    -0.11214224249124527
                ],
                [
                    0.38625526428222656,
                    -0.2925369143486023,
                    -0.1684032529592514,
                    -0.07108753174543381,
                    -0.1621619462966919,
                    -0.10252925753593445
                ],
                [
                    -0.12301618605852127,
                    -0.20897944271564484,
                    0.3823501765727997,
                    0.3463653028011322,
                    3.161525249481201,
                    -3.325207233428955
                ],
                [
                    -0.1224929541349411,
                    0.1788385808467865,
                    -0.4894508719444275,
                    -0.906809389591217,
                    2.829389810562134,
                    1.3283218145370483
                ],
                [
                    -0.26754030585289,
                    -0.11692643165588379,
                    -0.2697112262248993,
                    -0.28717342019081116,
                    -0.026288878172636032,
                    -0.19581815600395203
                ],
                [
                    -0.06954323500394821,
                    -0.1617898792028427,
                    -0.036029569804668427,
                    0.030394548550248146,
                    -2.860344171524048,
                    4.468995094299316
                ],
                [
                    -0.30516788363456726,
                    -0.17422248423099518,
                    4.544726371765137,
                    -0.6205529570579529,
                    -0.5600106120109558,
                    0.3017961382865906
                ],
                [
                    -0.2660948634147644,
                    -0.20846034586429596,
                    -0.052975818514823914,
                    -0.3562617599964142,
                    -0.09001444280147552,
                    -0.02232283353805542
                ],
                [
                    -0.0867161676287651,
                    -0.27889391779899597,
                    -0.12263494729995728,
                    -0.16221246123313904,
                    -0.05900988727807999,
                    -0.2828853726387024
                ]
            ],
            "lin_out.bias": [
                -14.02807331085205,
                -1.9208446741104126,
                -10.939677238464355,
                -8.373939514160156,
                -2.6972105503082275,
                -4.876503944396973,
                -5.000750541687012,
                -1.6824630498886108,
                -4.560279846191406,
                -5.373213291168213,
                -1.644775152206421,
                -1.8969112634658813
            ]
        }
    }
}