{
    "experiment_config": {
        "mode": "tox21",
        "root": "data/Tox21",
        "batch_size": 32,
        "train_split": 0.8,
        "mask_missing": true,
        "use_weighting": false,
        "importance": [
            100.0,
            100.0
        ],
        "hidden_dims": [
            20,
            20
        ],
        "num_categories": 12,
        "in_dim": 9,
        "lr": 0.001,
        "model_type": "GCN",
        "loss": "BCE",
        "pooling": "mean",
        "gm_p": 1.0,
        "device": "cpu",
        "phase1_epochs": 0,
        "phase2_epochs": 50,
        "log_dir": "runs/tox21/GCN/mean/[20, 20]",
        "file_path": "tox21/GCN/mean/[20, 20]",
        "save": true,
        "num_nodes": 20,
        "p": 0.8
    },
    "sparcity": 0.8694764120978721,
    "empty graph stats": 0.4131861627101898,
    "singular value ratio": [
        0.0,
        0.0
    ],
    "summary format:": "Key: (Num of active features, Num of accurate feature, Geometry, Collapsed). Loss, s.d. Loss, Count",
    "collapsed percentage": 0.0,
    "summary": {
        "(3, 1, 'Failed', 2)": [
            0.6337504890057948,
            0.0,
            1
        ]
    },
    "results": [
        {
            "Num of features": 12,
            "Num of active features": 3,
            "Num of accurate feature": 1,
            "Geometry": "Failed",
            "Collapsed": 2,
            "Loss": 0.6337504890057948,
            "Rank": 9,
            "Singular values": [
                14.68728256225586,
                1.475003957748413,
                1.1977901458740234,
                0.5952602624893188,
                0.15749108791351318,
                0.06469161063432693,
                0.034365467727184296,
                0.014658619649708271,
                0.006180558819323778
            ]
        }
    ],
    "average embeddings summary": {
        "(3, 1, 'Failed', 2)": {
            "(0, 0, 0, 1, 0, 0, 0, 0, 0, 0, 0, 0)": [
                -0.8990369439125061,
                -0.5951724052429199,
                0.6365171670913696,
                0.393388032913208,
                1.4701298475265503,
                0.6501221060752869,
                0.1389852911233902,
                0.40360721945762634,
                1.0136945247650146,
                -1.0226962566375732,
                -2.1745779514312744,
                -0.306041955947876,
                -1.2396537065505981,
                0.1850876808166504,
                0.91292804479599,
                0.004482487682253122,
                0.828454315662384,
                -1.2169309854507446,
                -1.1057524681091309,
                0.006587151437997818
            ],
            "(0, 0, 0, 0, 0, 0, 0, 1, 0, 0, 0, 0)": [
                -1.1495524644851685,
                -0.8667606711387634,
                0.59981769323349,
                0.8407604694366455,
                2.0919909477233887,
                1.074583649635315,
                -0.0559183806180954,
                0.9125866889953613,
                1.0819758176803589,
                -1.0661684274673462,
                -2.9612157344818115,
                -0.9143560528755188,
                -1.603538155555725,
                0.4242245554924011,
                1.3018897771835327,
                0.009236585348844528,
                0.9319254755973816,
                -1.4713020324707031,
                -1.2734962701797485,
                0.3221814036369324
            ],
            "(1, 0, 0, 0, 0, 0, 0, 0, 0, 0, 0, 0)": [
                -0.7328790426254272,
                -0.6857377290725708,
                0.5818255543708801,
                0.7426892518997192,
                1.8902744054794312,
                1.012279748916626,
                -0.08449713885784149,
                1.27422297000885,
                1.3992972373962402,
                -1.225175142288208,
                -2.7090904712677,
                -0.43500930070877075,
                -1.5620793104171753,
                0.21621552109718323,
                1.2761625051498413,
                -0.0005662447074428201,
                0.8965223431587219,
                -1.0125787258148193,
                -1.5955772399902344,
                -0.012635978870093822
            ],
            "(0, 0, 1, 0, 0, 0, 0, 0, 0, 0, 0, 0)": [
                -1.018040657043457,
                -0.6729482412338257,
                0.6531139016151428,
                0.44294473528862,
                1.4988266229629517,
                0.630645751953125,
                0.21985413134098053,
                0.34282466769218445,
                0.9948635101318359,
                -0.9998900294303894,
                -2.2327632904052734,
                -0.4072395861148834,
                -1.2270076274871826,
                0.26570600271224976,
                0.9304755926132202,
                -0.0350191704928875,
                0.8501840829849243,
                -1.2576171159744263,
                -1.0407726764678955,
                0.10184057056903839
            ],
            "(0, 0, 0, 0, 0, 0, 1, 0, 0, 0, 0, 0)": [
                -0.9503343105316162,
                -0.6720796227455139,
                0.6247338056564331,
                0.5183957815170288,
                1.4187448024749756,
                0.5561540126800537,
                0.41360753774642944,
                0.5080841779708862,
                1.1898605823516846,
                -1.0504273176193237,
                -2.1365602016448975,
                -0.19009293615818024,
                -1.186227798461914,
                0.28453338146209717,
                0.9686269164085388,
                -0.1284942924976349,
                0.849907398223877,
                -0.9713996052742004,
                -1.1929889917373657,
                -0.004380423575639725
            ],
            "(0, 0, 0, 0, 1, 0, 0, 0, 0, 0, 0, 0)": [
                -0.8897799849510193,
                -0.7209126949310303,
                0.6038918495178223,
                0.8166142106056213,
                2.0227558612823486,
                1.0161411762237549,
                -0.07881078869104385,
                1.2210421562194824,
                1.3479822874069214,
                -1.290156602859497,
                -2.8631560802459717,
                -0.618974506855011,
                -1.5732166767120361,
                0.3206787407398224,
                1.3040697574615479,
                -0.03241080790758133,
                0.917405903339386,
                -1.1582462787628174,
                -1.561598777770996,
                0.13350893557071686
            ],
            "(0, 0, 0, 0, 0, 0, 0, 0, 0, 0, 1, 0)": [
                -0.5693694949150085,
                -0.4848211109638214,
                0.5515801906585693,
                0.5184791088104248,
                1.676798939704895,
                0.8397671580314636,
                -0.09986599534749985,
                1.0655616521835327,
                1.3799920082092285,
                -1.2540631294250488,
                -2.3752872943878174,
                -0.18410027027130127,
                -1.404742956161499,
                0.12631146609783173,
                1.1156973838806152,
                0.039642930030822754,
                0.8163001537322998,
                -0.9525870084762573,
                -1.55068039894104,
                -0.1604827642440796
            ],
            "(0, 1, 0, 0, 0, 0, 0, 0, 0, 0, 0, 0)": [
                -0.9103806614875793,
                -0.551885187625885,
                0.6257866621017456,
                0.48057821393013,
                1.3298238515853882,
                0.4180682897567749,
                0.5187070369720459,
                0.4830797612667084,
                1.2773833274841309,
                -1.197324275970459,
                -2.000680446624756,
                0.002512978157028556,
                -1.1028202772140503,
                0.2712824046611786,
                0.9081497192382812,
                -0.20161008834838867,
                0.8451137542724609,
                -0.8475127220153809,
                -1.2882965803146362,
                -0.09170994907617569
            ],
            "(0, 0, 0, 0, 0, 0, 0, 0, 0, 1, 0, 0)": [
                -1.1045353412628174,
                -0.8669655919075012,
                0.5698329210281372,
                1.144316554069519,
                2.4085025787353516,
                1.1997891664505005,
                -0.04532024636864662,
                1.4905292987823486,
                1.4322751760482788,
                -1.378408432006836,
                -3.3322784900665283,
                -0.9127734303474426,
                -1.7524489164352417,
                0.5314766764640808,
                1.5484799146652222,
                -0.09738744050264359,
                0.9963362812995911,
                -1.2701104879379272,
                -1.7038390636444092,
                0.3108033239841461
            ]
        }
    },
    "model summary": {
        "(3, 1, 'Failed', 2)": {
            "convs.0.bias": [
                -0.06866679340600967,
                -0.042101722210645676,
                0.0,
                -0.01552070677280426,
                0.0,
                -0.1039951741695404,
                0.0,
                0.0,
                0.045087188482284546,
                -0.057648662477731705,
                0.0,
                0.01512125600129366,
                -0.03734173998236656,
                -0.046872079372406006,
                -0.11471524089574814,
                0.013378339819610119,
                -0.015085949562489986,
                0.0,
                -0.1350117325782776,
                0.0
            ],
            "convs.0.lin.weight": [
                [
                    0.1867566853761673,
                    -1.1445056200027466,
                    0.2476491630077362,
                    0.28882044553756714,
                    0.5876433849334717,
                    0.6067308783531189,
                    0.32375070452690125,
                    -0.5974918007850647,
                    -0.6344630718231201
                ],
                [
                    -0.018370041623711586,
                    1.1756528615951538,
                    -0.09769435226917267,
                    0.2020745873451233,
                    0.09910893440246582,
                    -0.5913559794425964,
                    0.27700039744377136,
                    -0.5433861613273621,
                    -0.09072766453027725
                ],
                [
                    -0.2352219671010971,
                    0.42355817556381226,
                    0.3062708377838135,
                    -0.08587370812892914,
                    0.0019827329088002443,
                    0.3914282023906708,
                    -0.2958446145057678,
                    -0.17956902086734772,
                    -0.3234620988368988
                ],
                [
                    -0.3856954574584961,
                    -0.08838316798210144,
                    0.2784089744091034,
                    0.21646803617477417,
                    0.3011348247528076,
                    -0.4500958025455475,
                    -0.20812483131885529,
                    -0.10197216272354126,
                    -0.08427637070417404
                ],
                [
                    -0.36234667897224426,
                    0.09430674463510513,
                    -0.1852138489484787,
                    -0.44531840085983276,
                    -0.31287363171577454,
                    -0.22210641205310822,
                    0.21686908602714539,
                    0.4305219054222107,
                    -0.2962692379951477
                ],
                [
                    0.23967991769313812,
                    0.6978176236152649,
                    -0.22775064408779144,
                    0.17762310802936554,
                    -0.6017879843711853,
                    -0.5653848648071289,
                    0.03462548553943634,
                    -0.45448559522628784,
                    0.042854081839323044
                ],
                [
                    -0.11264097690582275,
                    -0.23661041259765625,
                    -0.45409440994262695,
                    -0.11115140467882156,
                    -0.2446943074464798,
                    -0.012521863915026188,
                    -0.43496671319007874,
                    0.24005679786205292,
                    -0.25047633051872253
                ],
                [
                    -0.17040923237800598,
                    -0.25517743825912476,
                    -0.031606439501047134,
                    -0.34303581714630127,
                    -0.0674639418721199,
                    -0.15520986914634705,
                    -0.1795908808708191,
                    -0.4110924303531647,
                    -0.3104078769683838
                ],
                [
                    0.376238077878952,
                    -0.6138162016868591,
                    -0.10885901004076004,
                    -0.40786799788475037,
                    -0.018676120787858963,
                    0.04845826327800751,
                    0.4820435643196106,
                    -0.7114991545677185,
                    -0.7307823300361633
                ],
                [
                    0.29561755061149597,
                    0.17777815461158752,
                    0.16483935713768005,
                    -0.06046318635344505,
                    0.4705137312412262,
                    -0.42646467685699463,
                    0.29643934965133667,
                    -0.5589356422424316,
                    -0.365259051322937
                ],
                [
                    -0.08161424100399017,
                    -0.3293458819389343,
                    -0.1303112953901291,
                    0.12349005043506622,
                    0.07896315306425095,
                    0.07931999117136002,
                    -0.08822586387395859,
                    0.016246739774942398,
                    -0.087062768638134
                ],
                [
                    0.3001387417316437,
                    -1.0287989377975464,
                    -0.1843835711479187,
                    0.29436635971069336,
                    -0.1430957019329071,
                    0.6590972542762756,
                    0.08414498716592789,
                    -0.06092238053679466,
                    -0.17597904801368713
                ],
                [
                    0.3742416203022003,
                    0.7884761691093445,
                    -0.1528392732143402,
                    0.286303848028183,
                    -0.17191317677497864,
                    -0.6861922144889832,
                    -0.1669524908065796,
                    0.8417374491691589,
                    0.5464656352996826
                ],
                [
                    -0.24598513543605804,
                    0.577966034412384,
                    -0.3766418397426605,
                    0.3923890292644501,
                    0.16855156421661377,
                    0.07784074544906616,
                    0.48087018728256226,
                    -0.782217264175415,
                    0.26117759943008423
                ],
                [
                    0.21766923367977142,
                    -1.3587417602539062,
                    -0.14824819564819336,
                    0.3389257490634918,
                    0.26238197088241577,
                    -0.019514840096235275,
                    0.31535524129867554,
                    0.06913496553897858,
                    -0.311764121055603
                ],
                [
                    -0.03695153817534447,
                    0.9374074935913086,
                    0.2693728506565094,
                    0.35712161660194397,
                    0.11755863577127457,
                    -0.19635266065597534,
                    -0.3848959505558014,
                    -0.38811227679252625,
                    0.040782030671834946
                ],
                [
                    -0.18406736850738525,
                    1.2390080690383911,
                    -0.1916930079460144,
                    0.4097720682621002,
                    0.27887287735939026,
                    0.14360778033733368,
                    -0.2708621323108673,
                    -0.7093075513839722,
                    0.6793969869613647
                ],
                [
                    -0.4283021092414856,
                    0.1137855276465416,
                    -0.31544333696365356,
                    -0.20033572614192963,
                    0.43749216198921204,
                    0.44355905055999756,
                    -0.097594253718853,
                    0.3552416265010834,
                    -0.15158872306346893
                ],
                [
                    0.22218485176563263,
                    -1.1032435894012451,
                    -0.0675157755613327,
                    0.3017977476119995,
                    0.07519888132810593,
                    0.6169699430465698,
                    -0.22438691556453705,
                    -0.15168945491313934,
                    -0.5926650166511536
                ],
                [
                    -0.17300359904766083,
                    -0.06861824542284012,
                    0.10230648517608643,
                    -0.07479396462440491,
                    -0.05385842174291611,
                    -0.2522850036621094,
                    0.10211453586816788,
                    -0.062254536896944046,
                    -0.19368088245391846
                ]
            ],
            "convs.1.bias": [
                0.10357589274644852,
                0.010558855719864368,
                0.02425256185233593,
                -0.0017156442627310753,
                0.0002886956208385527,
                -0.011376818642020226,
                -0.03196629136800766,
                0.030226239934563637,
                0.09886667877435684,
                0.04465024918317795,
                -0.02297813817858696,
                0.06661371886730194,
                -0.08900108188390732,
                -0.021399900317192078,
                -0.028981707990169525,
                -0.023845335468649864,
                -0.0501115657389164,
                -0.019821345806121826,
                -0.04279785603284836,
                0.03817193955183029
            ],
            "convs.1.lin.weight": [
                [
                    -0.18783187866210938,
                    0.4697714149951935,
                    0.33242011070251465,
                    0.10746843367815018,
                    -0.30846819281578064,
                    -0.046509239822626114,
                    -0.1615932285785675,
                    0.328512966632843,
                    -0.20184732973575592,
                    0.26158562302589417,
                    0.306057870388031,
                    -0.29380542039871216,
                    -0.2003704309463501,
                    0.11986710131168365,
                    -0.025731893256306648,
                    0.3166535794734955,
                    0.12762291729450226,
                    -0.29795074462890625,
                    -0.13325101137161255,
                    -0.2913922667503357
                ],
                [
                    -0.33623912930488586,
                    -0.05839455500245094,
                    0.35259735584259033,
                    0.3327735662460327,
                    -0.07537273317575455,
                    -0.2367781400680542,
                    0.37573084235191345,
                    -0.34903910756111145,
                    0.00408053258433938,
                    0.40947338938713074,
                    -0.24522417783737183,
                    -0.3194408714771271,
                    0.19915920495986938,
                    0.16887357831001282,
                    0.03919524699449539,
                    0.0778874009847641,
                    0.6904579997062683,
                    -0.06748318672180176,
                    -0.16997791826725006,
                    -0.1841941475868225
                ],
                [
                    0.20810489356517792,
                    0.2005840390920639,
                    0.3635307252407074,
                    0.2444455474615097,
                    0.2279607355594635,
                    0.237433522939682,
                    -0.17420393228530884,
                    -0.3253946602344513,
                    -0.09753533452749252,
                    -0.23530897498130798,
                    0.011239610612392426,
                    0.1341593712568283,
                    -0.009558964520692825,
                    -0.012993493117392063,
                    0.15997645258903503,
                    -0.38198310136795044,
                    -0.13738368451595306,
                    0.11293143779039383,
                    -0.32611319422721863,
                    -0.24940653145313263
                ],
                [
                    0.3419030010700226,
                    -0.36264488101005554,
                    -0.2146742343902588,
                    0.016392694786190987,
                    0.3604465126991272,
                    -0.24207018315792084,
                    0.23360490798950195,
                    -0.2950166165828705,
                    0.2748153507709503,
                    -0.1434822827577591,
                    -0.10963834822177887,
                    0.08210943639278412,
                    -0.19148732721805573,
                    -0.23478396236896515,
                    0.09374721348285675,
                    -0.31820449233055115,
                    -0.05895084887742996,
                    0.1298954337835312,
                    0.32554134726524353,
                    0.03560250252485275
                ],
                [
                    0.20607534050941467,
                    0.08283594995737076,
                    0.3157423138618469,
                    -0.2682992219924927,
                    -0.07190867513418198,
                    -0.23527641594409943,
                    -0.029491545632481575,
                    -0.33610156178474426,
                    0.36980897188186646,
                    0.1953454613685608,
                    0.2997578978538513,
                    0.1795332431793213,
                    -0.09815847128629684,
                    -0.07704926282167435,
                    -0.2078067511320114,
                    0.006924421526491642,
                    0.137888103723526,
                    0.31801241636276245,
                    0.2878081798553467,
                    -0.3171215355396271
                ],
                [
                    -0.16523632407188416,
                    0.12269892543554306,
                    0.3446359634399414,
                    -0.33512231707572937,
                    0.3645975589752197,
                    -0.02029891312122345,
                    -0.011603888124227524,
                    -0.3665716350078583,
                    0.19339987635612488,
                    0.08487895131111145,
                    -0.13405364751815796,
                    0.2748853266239166,
                    -0.4181203246116638,
                    0.2917894124984741,
                    0.1593952775001526,
                    0.2620996832847595,
                    0.432988703250885,
                    -0.37937477231025696,
                    0.2003387063741684,
                    0.3647010326385498
                ],
                [
                    0.0547233410179615,
                    -0.16201844811439514,
                    0.23977556824684143,
                    -0.22279831767082214,
                    -0.17422249913215637,
                    -0.404212087392807,
                    -0.19540047645568848,
                    0.09950191527605057,
                    -0.21071231365203857,
                    -0.29877355694770813,
                    0.10820303112268448,
                    0.17430239915847778,
                    0.19468647241592407,
                    -0.5996139049530029,
                    0.14624647796154022,
                    -0.030123010277748108,
                    -0.7123323082923889,
                    -0.12385455518960953,
                    0.3949614465236664,
                    0.3424071669578552
                ],
                [
                    0.433549165725708,
                    -0.048847746104002,
                    -0.009471593424677849,
                    -0.10697418451309204,
                    -0.2024509310722351,
                    -0.2697778046131134,
                    -0.35275590419769287,
                    -0.10130950063467026,
                    0.31715792417526245,
                    -0.036404989659786224,
                    -0.23016051948070526,
                    -0.23134827613830566,
                    -0.4260926842689514,
                    0.4374719262123108,
                    0.17027895152568817,
                    -0.1191532090306282,
                    -0.7029575705528259,
                    0.021770194172859192,
                    0.07034343481063843,
                    0.07343661040067673
                ],
                [
                    0.12352587282657623,
                    -0.17846399545669556,
                    -0.33131512999534607,
                    0.1395941525697708,
                    -0.027196548879146576,
                    -0.31427714228630066,
                    -0.3117966949939728,
                    -0.11010835319757462,
                    -0.3028918206691742,
                    0.37323492765426636,
                    0.10987478494644165,
                    0.38782963156700134,
                    -0.31856346130371094,
                    -0.15808860957622528,
                    0.05632379651069641,
                    0.3292919993400574,
                    -0.7167587280273438,
                    0.003220280632376671,
                    -0.13448981940746307,
                    0.23793603479862213
                ],
                [
                    -0.1758808046579361,
                    0.23537315428256989,
                    -0.29992619156837463,
                    -0.17895682156085968,
                    -0.21249619126319885,
                    0.13277648389339447,
                    0.07909044623374939,
                    0.18447445333003998,
                    -0.10173192620277405,
                    -0.26797476410865784,
                    -0.24034270644187927,
                    0.3751959502696991,
                    -0.21224017441272736,
                    -0.18195614218711853,
                    -0.32260367274284363,
                    0.38023266196250916,
                    0.19888640940189362,
                    -0.16178719699382782,
                    0.4056442379951477,
                    0.2556290328502655
                ],
                [
                    0.006311572156846523,
                    -0.2188795804977417,
                    -0.22752751410007477,
                    -0.21649326384067535,
                    0.10859279334545135,
                    0.05127490311861038,
                    -0.19735728204250336,
                    -0.08755101263523102,
                    -0.23112717270851135,
                    -0.3243448734283447,
                    0.07675989717245102,
                    -0.2929973304271698,
                    0.36212584376335144,
                    -0.0003336815279908478,
                    -0.2471005916595459,
                    0.14891041815280914,
                    0.2727905809879303,
                    0.01523461565375328,
                    -0.3047519624233246,
                    0.040629997849464417
                ],
                [
                    0.20460239052772522,
                    0.18193267285823822,
                    -0.2715102732181549,
                    -0.19834114611148834,
                    0.18611665070056915,
                    -0.42851272225379944,
                    -0.3662545382976532,
                    -0.11265598982572556,
                    -0.5544231534004211,
                    -0.12184920907020569,
                    0.1509193778038025,
                    0.009873644448816776,
                    0.21658220887184143,
                    0.014855990186333656,
                    -0.3050769865512848,
                    0.01176156010478735,
                    0.35629191994667053,
                    -0.19310487806797028,
                    0.14787928760051727,
                    0.33913734555244446
                ],
                [
                    0.04977163299918175,
                    0.0666348859667778,
                    -0.030062617734074593,
                    0.3538948595523834,
                    -0.25436297059059143,
                    0.12681426107883453,
                    -0.2702362537384033,
                    -0.24648819863796234,
                    -0.09081530570983887,
                    -0.07718554139137268,
                    0.30068114399909973,
                    -0.4049008786678314,
                    0.2459147870540619,
                    -0.522864580154419,
                    -0.027172958478331566,
                    -0.10559318214654922,
                    -0.28276944160461426,
                    -0.0342387929558754,
                    -0.22634348273277283,
                    0.17929519712924957
                ],
                [
                    0.26589247584342957,
                    -0.21702000498771667,
                    -0.05253278836607933,
                    0.286308616399765,
                    0.302950382232666,
                    -0.11649814993143082,
                    -0.31313183903694153,
                    0.265148788690567,
                    0.17729321122169495,
                    0.03331786021590233,
                    0.20752303302288055,
                    -0.09078364819288254,
                    0.1960790753364563,
                    -0.4094139039516449,
                    -0.35295912623405457,
                    0.0027834230568259954,
                    -0.6981331706047058,
                    -0.29035285115242004,
                    0.30928030610084534,
                    -0.23193292319774628
                ],
                [
                    0.26760736107826233,
                    -0.3722337484359741,
                    -0.3557114005088806,
                    0.16830098628997803,
                    0.05591461434960365,
                    0.02541578747332096,
                    0.14139233529567719,
                    -0.33059537410736084,
                    0.06715276837348938,
                    0.06717889755964279,
                    -0.28988251090049744,
                    0.0684833973646164,
                    -0.2813619375228882,
                    -0.04881715029478073,
                    0.08526043593883514,
                    0.21297922730445862,
                    -0.03748014569282532,
                    0.3731444180011749,
                    0.19752822816371918,
                    -0.11477092653512955
                ],
                [
                    0.2920680344104767,
                    0.11585818976163864,
                    0.042291734367609024,
                    0.3610842525959015,
                    0.14201977849006653,
                    0.3183988928794861,
                    0.2255699336528778,
                    0.21869482100009918,
                    -0.011439481750130653,
                    -0.12882813811302185,
                    -0.09591587632894516,
                    -0.11861538887023926,
                    0.023830736055970192,
                    0.1565222591161728,
                    -0.39191851019859314,
                    0.18310542404651642,
                    0.5214641690254211,
                    -0.16019396483898163,
                    -0.01195333618670702,
                    0.27618908882141113
                ],
                [
                    -0.2674519419670105,
                    0.20364846289157867,
                    0.13018375635147095,
                    -0.03198850899934769,
                    -0.014027928002178669,
                    -0.042095910757780075,
                    0.22202429175376892,
                    -0.2893501818180084,
                    -0.2059289813041687,
                    0.2328227162361145,
                    -0.007253468967974186,
                    0.13359715044498444,
                    -0.07241262495517731,
                    0.18643079698085785,
                    0.24193692207336426,
                    -0.16316433250904083,
                    -0.4171827733516693,
                    0.2859381139278412,
                    0.24520906805992126,
                    0.29274702072143555
                ],
                [
                    0.24376101791858673,
                    -0.28665533661842346,
                    -0.085564985871315,
                    -0.07949527353048325,
                    -0.11741713434457779,
                    -0.2305360585451126,
                    0.36496660113334656,
                    -0.3256272077560425,
                    -0.3624829947948456,
                    -0.008254040963947773,
                    -0.12727151811122894,
                    0.06116995960474014,
                    -0.29567751288414,
                    -0.1950182020664215,
                    0.06769244372844696,
                    -0.21611790359020233,
                    -0.5764208436012268,
                    -0.35141757130622864,
                    -0.1143779382109642,
                    0.22626681625843048
                ],
                [
                    -0.4189036190509796,
                    0.18739935755729675,
                    -0.14371803402900696,
                    0.04295070096850395,
                    -0.14331179857254028,
                    0.4180302321910858,
                    0.1868334859609604,
                    -0.07579102367162704,
                    -0.1888057291507721,
                    0.09674335271120071,
                    0.3448791801929474,
                    0.23809729516506195,
                    -0.04840903356671333,
                    -0.41264960169792175,
                    -0.1069711372256279,
                    0.01964704506099224,
                    0.1295427531003952,
                    0.32369932532310486,
                    -0.013279970735311508,
                    -0.37035495042800903
                ],
                [
                    0.23776665329933167,
                    -0.05096210166811943,
                    -0.2849535346031189,
                    -0.31536680459976196,
                    -0.2451505810022354,
                    0.19712340831756592,
                    0.12048090249300003,
                    -0.05289263278245926,
                    0.33448001742362976,
                    -0.12602150440216064,
                    -0.005135578569024801,
                    0.11342314630746841,
                    0.06272268295288086,
                    -0.25110340118408203,
                    -0.22610719501972198,
                    -0.4079561233520508,
                    -0.5611177682876587,
                    -0.0009576951852068305,
                    -0.13611947000026703,
                    0.031489163637161255
                ]
            ],
            "lin_out.weight": [
                [
                    0.012400849722325802,
                    0.31705522537231445,
                    -0.07587237656116486,
                    -0.00091221381444484,
                    0.08786104619503021,
                    -0.03510228171944618,
                    -0.1941085159778595,
                    -0.5779390931129456,
                    0.052731554955244064,
                    0.006787855178117752,
                    0.42683663964271545,
                    -0.025334997102618217,
                    -0.2887495160102844,
                    -0.2401004582643509,
                    -0.5513155460357666,
                    0.5295372605323792,
                    0.16584277153015137,
                    -0.17775893211364746,
                    -0.007229268550872803,
                    -0.1742597073316574
                ],
                [
                    0.27211686968803406,
                    0.4606812596321106,
                    0.07880597561597824,
                    -0.2721083164215088,
                    -0.2530694603919983,
                    0.07623933255672455,
                    -0.22619584202766418,
                    -0.23206156492233276,
                    -0.28065308928489685,
                    0.2889494299888611,
                    0.15825751423835754,
                    0.3816811442375183,
                    -0.3548594117164612,
                    -0.33196142315864563,
                    0.25258827209472656,
                    0.2884061336517334,
                    -0.3671705424785614,
                    -0.1602732241153717,
                    0.24465523660182953,
                    -0.566588819026947
                ],
                [
                    -0.35742929577827454,
                    0.1661142110824585,
                    -0.056977298110723495,
                    0.06140106916427612,
                    -0.09790490567684174,
                    -0.29514622688293457,
                    0.5677952766418457,
                    -0.49480903148651123,
                    0.23454385995864868,
                    0.05923512950539589,
                    0.12758253514766693,
                    0.48830732703208923,
                    0.136957049369812,
                    -0.02643849328160286,
                    0.10187681019306183,
                    -0.5738939642906189,
                    0.2167026251554489,
                    0.10714083164930344,
                    0.5131089091300964,
                    0.02552429400384426
                ],
                [
                    -0.08218362927436829,
                    -0.22327524423599243,
                    -0.08975087106227875,
                    -0.4805973470211029,
                    -0.3291139304637909,
                    0.06337999552488327,
                    0.12288789451122284,
                    -0.2490084320306778,
                    -0.0386187769472599,
                    -0.34778982400894165,
                    0.28323376178741455,
                    0.3428182303905487,
                    -0.12453582882881165,
                    -0.10983871668577194,
                    0.10650162398815155,
                    0.2415926605463028,
                    0.14440235495567322,
                    0.2831147313117981,
                    0.11180343478918076,
                    -0.15039031207561493
                ],
                [
                    0.2010185271501541,
                    0.3550800085067749,
                    0.12950308620929718,
                    -0.334677517414093,
                    0.0005942682037129998,
                    0.2418481707572937,
                    -0.14506126940250397,
                    -0.30331525206565857,
                    -0.018645750358700752,
                    -0.07994889467954636,
                    -0.03563081845641136,
                    -0.24066203832626343,
                    0.12988045811653137,
                    0.37006261944770813,
                    -0.11404837667942047,
                    -0.05589887127280235,
                    0.25688502192497253,
                    0.18140941858291626,
                    0.30911731719970703,
                    -0.2057662159204483
                ],
                [
                    -0.07255368679761887,
                    0.37229591608047485,
                    -0.27907681465148926,
                    -0.39977768063545227,
                    -0.012716480530798435,
                    -0.2895790636539459,
                    -0.21971701085567474,
                    -0.2916170358657837,
                    -0.21891695261001587,
                    -0.11771310120820999,
                    -0.22023418545722961,
                    0.35021620988845825,
                    0.43862655758857727,
                    -0.13941247761249542,
                    -0.15334968268871307,
                    0.21101856231689453,
                    -0.26273834705352783,
                    -0.012343449518084526,
                    -0.20973655581474304,
                    -0.3479098975658417
                ],
                [
                    0.02160358615219593,
                    -0.028003936633467674,
                    0.2445034384727478,
                    0.2091332972049713,
                    -0.38510042428970337,
                    -0.4035841226577759,
                    0.3784465491771698,
                    -0.34591805934906006,
                    0.09578464925289154,
                    0.16474032402038574,
                    -0.13071823120117188,
                    -0.16817179322242737,
                    0.23017369210720062,
                    0.12617674469947815,
                    -0.025910941883921623,
                    -0.00969178881496191,
                    0.031849391758441925,
                    0.31987762451171875,
                    -0.06563322991132736,
                    -0.14082975685596466
                ],
                [
                    -0.18699803948402405,
                    0.05584106594324112,
                    -0.41402965784072876,
                    -0.2927897870540619,
                    -0.2694999575614929,
                    -0.021619070321321487,
                    -0.1544947326183319,
                    -0.38854026794433594,
                    -0.22289016842842102,
                    0.3467176556587219,
                    0.0305666234344244,
                    -0.40978819131851196,
                    -0.13426491618156433,
                    -0.1254684031009674,
                    0.19783397018909454,
                    0.13743941485881805,
                    0.011737045831978321,
                    0.19951562583446503,
                    -0.02760159596800804,
                    0.15983371436595917
                ],
                [
                    -0.1766081154346466,
                    0.23895984888076782,
                    -0.318543016910553,
                    -0.1965675801038742,
                    -0.01560039259493351,
                    -0.11730323731899261,
                    0.19533637166023254,
                    -0.24523745477199554,
                    -0.48925670981407166,
                    0.10819708555936813,
                    0.30365049839019775,
                    -0.21051235496997833,
                    0.39612847566604614,
                    0.17981308698654175,
                    -0.16372226178646088,
                    0.1663876473903656,
                    0.028488393872976303,
                    -0.2695797383785248,
                    0.41124263405799866,
                    0.01817239448428154
                ],
                [
                    -0.2040282040834427,
                    0.058496128767728806,
                    -0.17069579660892487,
                    0.061118233948946,
                    0.19623345136642456,
                    0.17166735231876373,
                    0.35748136043548584,
                    -0.019214145839214325,
                    0.10370342433452606,
                    -0.09867950528860092,
                    0.19702985882759094,
                    0.0022837333381175995,
                    0.08996310085058212,
                    0.19455386698246002,
                    -0.14849518239498138,
                    -0.18744516372680664,
                    -0.6313648223876953,
                    0.48315495252609253,
                    0.0582866407930851,
                    -0.03336421400308609
                ],
                [
                    -0.10765136033296585,
                    -0.18708378076553345,
                    -0.2212943434715271,
                    0.011864346452057362,
                    -0.028114501386880875,
                    -0.11014415323734283,
                    0.10433780401945114,
                    -0.8206669688224792,
                    -0.37027478218078613,
                    0.15271955728530884,
                    0.18254996836185455,
                    0.42186954617500305,
                    -0.030231596902012825,
                    0.5065337419509888,
                    -0.21222364902496338,
                    -0.5617349147796631,
                    0.08253736793994904,
                    0.08417639881372452,
                    -0.10376705229282379,
                    -0.15558835864067078
                ],
                [
                    0.11153861880302429,
                    0.21677178144454956,
                    -0.01448657363653183,
                    0.0269858967512846,
                    0.15521889925003052,
                    0.10546521097421646,
                    -0.322358101606369,
                    -0.9265674352645874,
                    -0.5121251940727234,
                    -0.0792921856045723,
                    0.25416049361228943,
                    -0.1389479786157608,
                    0.34682053327560425,
                    -0.3404083251953125,
                    0.1847544014453888,
                    0.03792534023523331,
                    0.007800650782883167,
                    -0.01915830187499523,
                    0.23324435949325562,
                    0.11223305761814117
                ]
            ],
            "lin_out.bias": [
                0.09544982016086578,
                0.13593745231628418,
                0.1523163765668869,
                -0.027896614745259285,
                0.17562125623226166,
                0.13734115660190582,
                -0.1268797367811203,
                0.16547514498233795,
                0.005627674516290426,
                -0.060739677399396896,
                0.07755043357610703,
                -0.30699217319488525
            ]
        }
    }
}