{
    "experiment_config": {
        "mode": "simple",
        "num_categories": 5,
        "p": 0.3,
        "num_nodes": 20,
        "motif_dim": 0,
        "num_train_samples": 5000,
        "num_test_samples": 1500,
        "batch_size": 16,
        "in_dim": 5,
        "hidden_dims": [
            5,
            2
        ],
        "lr": 0.01,
        "use_weighting": true,
        "importance": [
            15.0,
            10.0
        ],
        "phase1_epochs": 0,
        "phase2_epochs": 50,
        "device": "cpu",
        "model_type": "GCN",
        "loss": "BCE",
        "pooling": "gm",
        "gm_p": 0.3,
        "log_dir": "runs/T/BCE/2/GCN/small_compression/p_gm=0.3/5/high",
        "file_path": "T/BCE/2/GCN/small_compression/p_gm=0.3/5.0/high",
        "add_graph": false,
        "track_embeddings": false,
        "save": true
    },
    "sparcity": 0.9370393313871229,
    "summary format:": "Key: (Num of active features, Num of accurate feature, Geometry, Collapsed). Loss, s.d. Loss, Count",
    "summary": {
        "(2, 1, 'Failed', 0)": [
            0.23191502145926157,
            0.0,
            1
        ],
        "(3, 3, 'Failed', 0)": [
            0.17745235256895875,
            0.018893815843690275,
            11
        ],
        "(3, 2, 'Failed', 0)": [
            0.21473013023535412,
            0.0,
            1
        ],
        "(2, 2, 'Failed', 0)": [
            0.2082883644580841,
            0.023164855215272392,
            5
        ],
        "(4, 2, 'Failed', 2)": [
            0.19138973089059194,
            0.0,
            1
        ],
        "(4, 3, 'Failed', 2)": [
            0.1950704558690389,
            0.0,
            1
        ]
    },
    "results": [
        {
            "Num of features": 5,
            "Num of active features": 2,
            "Num of accurate feature": 1,
            "Geometry": "Failed",
            "Collapsed": 0,
            "Loss": 0.23191502145926157,
            "Rank": 2,
            "Singular values": [
                6.339315891265869,
                1.6232028007507324
            ]
        },
        {
            "Num of features": 5,
            "Num of active features": 3,
            "Num of accurate feature": 3,
            "Geometry": "Failed",
            "Collapsed": 0,
            "Loss": 0.18051838787396748,
            "Rank": 2,
            "Singular values": [
                5.588898658752441,
                1.104146122932434
            ]
        },
        {
            "Num of features": 5,
            "Num of active features": 3,
            "Num of accurate feature": 2,
            "Geometry": "Failed",
            "Collapsed": 0,
            "Loss": 0.21473013023535412,
            "Rank": 2,
            "Singular values": [
                8.561988830566406,
                1.8114043474197388
            ]
        },
        {
            "Num of features": 5,
            "Num of active features": 2,
            "Num of accurate feature": 2,
            "Geometry": "Failed",
            "Collapsed": 0,
            "Loss": 0.24100968476136525,
            "Rank": 2,
            "Singular values": [
                12.973684310913086,
                2.0995841026306152
            ]
        },
        {
            "Num of features": 5,
            "Num of active features": 3,
            "Num of accurate feature": 3,
            "Geometry": "Failed",
            "Collapsed": 0,
            "Loss": 0.16912724765141804,
            "Rank": 2,
            "Singular values": [
                8.1978120803833,
                1.7750600576400757
            ]
        },
        {
            "Num of features": 5,
            "Num of active features": 2,
            "Num of accurate feature": 2,
            "Geometry": "Failed",
            "Collapsed": 0,
            "Loss": 0.21173230918248495,
            "Rank": 2,
            "Singular values": [
                10.793352127075195,
                1.5073580741882324
            ]
        },
        {
            "Num of features": 5,
            "Num of active features": 3,
            "Num of accurate feature": 3,
            "Geometry": "Failed",
            "Collapsed": 0,
            "Loss": 0.16177576053142548,
            "Rank": 2,
            "Singular values": [
                7.491813659667969,
                1.901813268661499
            ]
        },
        {
            "Num of features": 5,
            "Num of active features": 3,
            "Num of accurate feature": 3,
            "Geometry": "Failed",
            "Collapsed": 0,
            "Loss": 0.19387386274337767,
            "Rank": 2,
            "Singular values": [
                6.803722381591797,
                1.8870490789413452
            ]
        },
        {
            "Num of features": 5,
            "Num of active features": 3,
            "Num of accurate feature": 3,
            "Geometry": "Failed",
            "Collapsed": 0,
            "Loss": 0.19633438869317374,
            "Rank": 2,
            "Singular values": [
                9.545534133911133,
                1.8650271892547607
            ]
        },
        {
            "Num of features": 5,
            "Num of active features": 2,
            "Num of accurate feature": 2,
            "Geometry": "Failed",
            "Collapsed": 0,
            "Loss": 0.17214505974451702,
            "Rank": 2,
            "Singular values": [
                10.142939567565918,
                1.6211192607879639
            ]
        },
        {
            "Num of features": 5,
            "Num of active features": 2,
            "Num of accurate feature": 2,
            "Geometry": "Failed",
            "Collapsed": 0,
            "Loss": 0.22040520997842153,
            "Rank": 2,
            "Singular values": [
                11.496992111206055,
                1.910701036453247
            ]
        },
        {
            "Num of features": 5,
            "Num of active features": 3,
            "Num of accurate feature": 3,
            "Geometry": "Failed",
            "Collapsed": 0,
            "Loss": 0.20879897157351177,
            "Rank": 2,
            "Singular values": [
                7.910307884216309,
                1.4791080951690674
            ]
        },
        {
            "Num of features": 5,
            "Num of active features": 3,
            "Num of accurate feature": 3,
            "Geometry": "Failed",
            "Collapsed": 0,
            "Loss": 0.15304461699724198,
            "Rank": 2,
            "Singular values": [
                7.00150728225708,
                1.728398084640503
            ]
        },
        {
            "Num of features": 5,
            "Num of active features": 3,
            "Num of accurate feature": 3,
            "Geometry": "Failed",
            "Collapsed": 0,
            "Loss": 0.1512200624148051,
            "Rank": 2,
            "Singular values": [
                9.133749961853027,
                1.3894199132919312
            ]
        },
        {
            "Num of features": 5,
            "Num of active features": 3,
            "Num of accurate feature": 3,
            "Geometry": "Failed",
            "Collapsed": 0,
            "Loss": 0.15858850570519764,
            "Rank": 2,
            "Singular values": [
                7.0357184410095215,
                1.814537525177002
            ]
        },
        {
            "Num of features": 5,
            "Num of active features": 3,
            "Num of accurate feature": 3,
            "Geometry": "Failed",
            "Collapsed": 0,
            "Loss": 0.18339786060651142,
            "Rank": 2,
            "Singular values": [
                8.23864459991455,
                2.384108304977417
            ]
        },
        {
            "Num of features": 5,
            "Num of active features": 2,
            "Num of accurate feature": 2,
            "Geometry": "Failed",
            "Collapsed": 0,
            "Loss": 0.1961495586236318,
            "Rank": 2,
            "Singular values": [
                11.638031959533691,
                1.795106291770935
            ]
        },
        {
            "Num of features": 5,
            "Num of active features": 4,
            "Num of accurate feature": 2,
            "Geometry": "Failed",
            "Collapsed": 2,
            "Loss": 0.19138973089059194,
            "Rank": 2,
            "Singular values": [
                4.5198564529418945,
                1.103879690170288
            ]
        },
        {
            "Num of features": 5,
            "Num of active features": 4,
            "Num of accurate feature": 3,
            "Geometry": "Failed",
            "Collapsed": 2,
            "Loss": 0.1950704558690389,
            "Rank": 2,
            "Singular values": [
                8.438475608825684,
                1.2417913675308228
            ]
        },
        {
            "Num of features": 5,
            "Num of active features": 3,
            "Num of accurate feature": 3,
            "Geometry": "Failed",
            "Collapsed": 0,
            "Loss": 0.19529621346791584,
            "Rank": 2,
            "Singular values": [
                5.94402551651001,
                1.78534996509552
            ]
        }
    ],
    "average embeddings summary": {
        "(2, 1, 'Failed', 0)": {
            "(0, 0, 1, 0, 0)": [
                -2.8918073177337646,
                -0.7893761992454529
            ],
            "(0, 1, 0, 0, 0)": [
                -1.9003421068191528,
                -0.6575239300727844
            ],
            "(0, 0, 0, 0, 1)": [
                -2.6241462230682373,
                -2.004621744155884
            ],
            "(1, 0, 0, 0, 0)": [
                -1.0664782524108887,
                -2.126333713531494
            ],
            "(0, 0, 0, 1, 0)": [
                -2.896092176437378,
                -2.200394868850708
            ]
        },
        "(3, 3, 'Failed', 0)": {
            "(0, 1, 0, 0, 0)": [
                2.044717311859131,
                1.7242629528045654
            ],
            "(0, 0, 1, 0, 0)": [
                2.0019021034240723,
                1.737371802330017
            ],
            "(1, 0, 0, 0, 0)": [
                3.110173463821411,
                1.6077526807785034
            ],
            "(0, 0, 0, 0, 1)": [
                2.18068265914917,
                0.2817697525024414
            ],
            "(0, 0, 0, 1, 0)": [
                0.9049605131149292,
                0.602604866027832
            ]
        },
        "(3, 2, 'Failed', 0)": {
            "(1, 0, 0, 0, 0)": [
                2.9533956050872803,
                -3.4387214183807373
            ],
            "(0, 0, 0, 1, 0)": [
                1.359914779663086,
                -4.046727180480957
            ],
            "(0, 0, 0, 0, 1)": [
                2.9659409523010254,
                -3.4003472328186035
            ],
            "(0, 0, 1, 0, 0)": [
                1.339676022529602,
                -1.4238096475601196
            ],
            "(0, 1, 0, 0, 0)": [
                3.015516757965088,
                -2.1311140060424805
            ]
        },
        "(2, 2, 'Failed', 0)": {
            "(0, 0, 0, 0, 1)": [
                3.841829299926758,
                2.288397789001465
            ],
            "(0, 0, 0, 1, 0)": [
                1.911903977394104,
                4.578132152557373
            ],
            "(0, 0, 1, 0, 0)": [
                4.222301959991455,
                4.849584102630615
            ],
            "(0, 1, 0, 0, 0)": [
                4.189616680145264,
                5.134688854217529
            ],
            "(1, 0, 0, 0, 0)": [
                4.352450847625732,
                4.8893351554870605
            ]
        },
        "(4, 2, 'Failed', 2)": {
            "(1, 0, 0, 0, 0)": [
                1.2712708711624146,
                -1.2821191549301147
            ],
            "(0, 0, 0, 1, 0)": [
                0.43644222617149353,
                -1.4272645711898804
            ],
            "(0, 0, 0, 0, 1)": [
                2.6332919597625732,
                -2.336583375930786
            ],
            "(0, 0, 1, 0, 0)": [
                0.5016148090362549,
                -0.44000738859176636
            ],
            "(0, 1, 0, 0, 0)": [
                1.7480565309524536,
                -0.5151249170303345
            ]
        },
        "(4, 3, 'Failed', 2)": {
            "(0, 0, 1, 0, 0)": [
                1.2810566425323486,
                -0.9536356329917908
            ],
            "(1, 0, 0, 0, 0)": [
                3.4389712810516357,
                -2.502331256866455
            ],
            "(0, 0, 0, 1, 0)": [
                1.3203057050704956,
                -2.559169292449951
            ],
            "(0, 0, 0, 0, 1)": [
                3.577008008956909,
                -4.0496673583984375
            ],
            "(0, 1, 0, 0, 0)": [
                2.9834542274475098,
                -2.3922486305236816
            ]
        }
    },
    "model summary": {
        "(2, 1, 'Failed', 0)": {
            "convs.0.bias": [
                -0.0879942774772644,
                0.0,
                0.7851843237876892,
                0.5028529763221741,
                -0.8126115798950195
            ],
            "convs.0.lin.weight": [
                [
                    -0.09927402436733246,
                    -0.23664149641990662,
                    0.06187165156006813,
                    -0.04409001022577286,
                    -0.40920117497444153
                ],
                [
                    -0.20700058341026306,
                    -0.6092345714569092,
                    -0.6912704110145569,
                    -0.6120956540107727,
                    -0.6323201060295105
                ],
                [
                    -0.887771487236023,
                    -0.567899763584137,
                    3.03904390335083,
                    2.9848711490631104,
                    0.3813077509403229
                ],
                [
                    2.838615655899048,
                    -0.8214061856269836,
                    -0.7763651609420776,
                    2.1573829650878906,
                    0.3986896276473999
                ],
                [
                    2.3439581394195557,
                    2.2090039253234863,
                    2.1352486610412598,
                    1.2274154424667358,
                    0.1743929535150528
                ]
            ],
            "convs.1.bias": [
                -1.0848896503448486,
                -0.5351131558418274
            ],
            "convs.1.lin.weight": [
                [
                    0.4435926079750061,
                    -0.48432719707489014,
                    -2.017641305923462,
                    0.37619566917419434,
                    3.0001606941223145
                ],
                [
                    0.21656274795532227,
                    -0.3685320317745209,
                    0.0646963119506836,
                    -2.533705472946167,
                    3.0730385780334473
                ]
            ],
            "lin_out.weight": [
                [
                    3.804845094680786,
                    -1.9174412488937378
                ],
                [
                    1.2413164377212524,
                    2.6803529262542725
                ],
                [
                    -1.6273493766784668,
                    2.606776714324951
                ],
                [
                    -1.246544599533081,
                    -1.3565254211425781
                ],
                [
                    -0.45605456829071045,
                    -0.4527268707752228
                ]
            ],
            "lin_out.bias": [
                1.836544394493103,
                4.077454566955566,
                -2.1865530014038086,
                -6.97915506362915,
                -3.4971818923950195
            ]
        },
        "(3, 3, 'Failed', 0)": {
            "convs.0.bias": [
                0.820877730846405,
                0.0,
                -1.4399381875991821,
                -1.8996212482452393,
                -1.7143346071243286
            ],
            "convs.0.lin.weight": [
                [
                    0.4148801565170288,
                    1.5907639265060425,
                    1.8097606897354126,
                    -0.22352808713912964,
                    -0.04766746982932091
                ],
                [
                    -0.3346635699272156,
                    -0.09906741231679916,
                    -0.4144931435585022,
                    -0.1876956969499588,
                    -0.7390386462211609
                ],
                [
                    0.22413095831871033,
                    0.03901021182537079,
                    0.4401787519454956,
                    -0.5191912055015564,
                    3.642609119415283
                ],
                [
                    5.548072814941406,
                    -0.26003822684288025,
                    -0.016162337735295296,
                    -1.1181799173355103,
                    -0.7575812339782715
                ],
                [
                    0.666161060333252,
                    -0.2116553634405136,
                    -0.1019836813211441,
                    3.6492221355438232,
                    -0.02155662700533867
                ]
            ],
            "convs.1.bias": [
                2.346303701400757,
                0.23396876454353333
            ],
            "convs.1.lin.weight": [
                [
                    -0.30403757095336914,
                    -0.0795149877667427,
                    0.4039861261844635,
                    8.952528953552246,
                    -5.807434558868408
                ],
                [
                    1.4008756875991821,
                    -0.7915962934494019,
                    -5.810948848724365,
                    0.19187185168266296,
                    -4.18328857421875
                ]
            ],
            "lin_out.weight": [
                [
                    3.566458225250244,
                    0.04279192164540291
                ],
                [
                    -0.8356297612190247,
                    1.9041707515716553
                ],
                [
                    -0.7336351871490479,
                    2.1183578968048096
                ],
                [
                    -6.434274196624756,
                    -1.3579336404800415
                ],
                [
                    3.751796007156372,
                    -10.692357063293457
                ]
            ],
            "lin_out.bias": [
                -9.890483856201172,
                -2.375556230545044,
                -3.08708119392395,
                10.799983024597168,
                -1.1909937858581543
            ]
        },
        "(3, 2, 'Failed', 0)": {
            "convs.0.bias": [
                -0.6092715859413147,
                -0.1121712252497673,
                -1.9606834650039673,
                0.8556817770004272,
                1.5268663167953491
            ],
            "convs.0.lin.weight": [
                [
                    0.740198016166687,
                    2.8703372478485107,
                    1.9480503797531128,
                    -0.9914354681968689,
                    0.5535892844200134
                ],
                [
                    -0.5656217336654663,
                    -0.563023567199707,
                    -0.13510094583034515,
                    0.09014929831027985,
                    -0.4951261579990387
                ],
                [
                    -0.03140230104327202,
                    0.4260789752006531,
                    -1.2222613096237183,
                    4.49064302444458,
                    0.39017927646636963
                ],
                [
                    1.152997612953186,
                    -1.3286035060882568,
                    -1.852209210395813,
                    -0.5845857262611389,
                    1.0036627054214478
                ],
                [
                    0.6684582829475403,
                    0.8734081983566284,
                    -2.3523178100585938,
                    -0.03528403863310814,
                    0.5468169450759888
                ]
            ],
            "convs.1.bias": [
                -0.6918074488639832,
                -0.24605882167816162
            ],
            "convs.1.lin.weight": [
                [
                    -0.9609972834587097,
                    0.03079860657453537,
                    -5.530599594116211,
                    -0.6439998745918274,
                    2.828864097595215
                ],
                [
                    2.218263626098633,
                    0.569412887096405,
                    -11.016817092895508,
                    -1.9531928300857544,
                    -1.1245646476745605
                ]
            ],
            "lin_out.weight": [
                [
                    0.8006976246833801,
                    -0.45033907890319824
                ],
                [
                    3.2896273136138916,
                    2.6004860401153564
                ],
                [
                    -2.67356014251709,
                    2.120316743850708
                ],
                [
                    -7.187324523925781,
                    -3.9721896648406982
                ],
                [
                    0.8343139290809631,
                    -0.26108089089393616
                ]
            ],
            "lin_out.bias": [
                -4.879512786865234,
                -3.5155282020568848,
                8.84093952178955,
                -0.2471364140510559,
                -4.252129077911377
            ]
        },
        "(2, 2, 'Failed', 0)": {
            "convs.0.bias": [
                1.2905158996582031,
                0.9845154285430908,
                -0.27957797050476074,
                1.5369304418563843,
                -0.10635031759738922
            ],
            "convs.0.lin.weight": [
                [
                    -0.12451180070638657,
                    1.9606664180755615,
                    -0.26125863194465637,
                    0.5391428470611572,
                    -1.939894676208496
                ],
                [
                    0.4399169981479645,
                    0.4813500642776489,
                    -0.09940193593502045,
                    -1.5446730852127075,
                    2.184976816177368
                ],
                [
                    0.08421039581298828,
                    -0.3644142150878906,
                    -0.6286956667900085,
                    -0.043793193995952606,
                    -0.4807145297527313
                ],
                [
                    0.4521009624004364,
                    0.4338703751564026,
                    0.10492804646492004,
                    -2.3209848403930664,
                    -2.426961898803711
                ],
                [
                    -0.35699063539505005,
                    0.06225359067320824,
                    -0.522051215171814,
                    -0.07270815223455429,
                    0.03480974957346916
                ]
            ],
            "convs.1.bias": [
                -0.8112589716911316,
                0.35810139775276184
            ],
            "convs.1.lin.weight": [
                [
                    -0.5028015375137329,
                    1.221740961074829,
                    0.11043621599674225,
                    3.347752571105957,
                    -0.3387596905231476
                ],
                [
                    2.1883816719055176,
                    -0.9501340985298157,
                    0.696440577507019,
                    2.047499179840088,
                    0.17479731142520905
                ]
            ],
            "lin_out.weight": [
                [
                    0.7123905420303345,
                    0.07279845327138901
                ],
                [
                    0.31160083413124084,
                    1.144676923751831
                ],
                [
                    0.29561007022857666,
                    0.024672402068972588
                ],
                [
                    -4.6937360763549805,
                    1.8318395614624023
                ],
                [
                    0.9536412954330444,
                    -3.4727554321289062
                ]
            ],
            "lin_out.bias": [
                -4.729669094085693,
                -7.75189208984375,
                -3.2118194103240967,
                5.642590045928955,
                6.782224178314209
            ]
        },
        "(4, 2, 'Failed', 2)": {
            "convs.0.bias": [
                0.5244773030281067,
                -0.20833417773246765,
                -3.0655784606933594,
                0.7137905955314636,
                -1.4394367933273315
            ],
            "convs.0.lin.weight": [
                [
                    -0.19975151121616364,
                    -0.7617536783218384,
                    1.279642105102539,
                    2.215707778930664,
                    -0.368550568819046
                ],
                [
                    -0.10226507484912872,
                    0.20753739774227142,
                    -0.14370028674602509,
                    -0.40823647379875183,
                    -0.28720882534980774
                ],
                [
                    -0.1612115502357483,
                    -0.060181405395269394,
                    -0.8964033722877502,
                    0.31317979097366333,
                    7.321633815765381
                ],
                [
                    -0.13820421695709229,
                    3.2065062522888184,
                    0.08253251016139984,
                    -1.5690609216690063,
                    0.6824468374252319
                ],
                [
                    -0.06627271324396133,
                    2.9230079650878906,
                    3.518688201904297,
                    -0.22400686144828796,
                    -0.2837795913219452
                ]
            ],
            "convs.1.bias": [
                0.3660238981246948,
                -0.8270347118377686
            ],
            "convs.1.lin.weight": [
                [
                    -0.82060706615448,
                    -0.3416801989078522,
                    12.954977989196777,
                    2.1836867332458496,
                    -3.101280689239502
                ],
                [
                    -0.8359339833259583,
                    -0.011094578541815281,
                    -11.55894660949707,
                    -0.07540293782949448,
                    5.030994415283203
                ]
            ],
            "lin_out.weight": [
                [
                    0.07502959668636322,
                    -0.16587118804454803
                ],
                [
                    3.066589593887329,
                    4.937219619750977
                ],
                [
                    -4.084169387817383,
                    5.545238971710205
                ],
                [
                    -3.7571399211883545,
                    -1.9359455108642578
                ],
                [
                    2.02087140083313,
                    -2.7460081577301025
                ]
            ],
            "lin_out.bias": [
                -1.9498035907745361,
                -2.4115378856658936,
                6.097943305969238,
                -1.1458582878112793,
                -8.70279598236084
            ]
        },
        "(4, 3, 'Failed', 2)": {
            "convs.0.bias": [
                -1.2599780559539795,
                -1.3058282136917114,
                -1.4962457418441772,
                1.034506916999817,
                -2.4750823974609375
            ],
            "convs.0.lin.weight": [
                [
                    0.0859277993440628,
                    0.02891453355550766,
                    2.7916836738586426,
                    0.006742116529494524,
                    0.5241702198982239
                ],
                [
                    0.18051916360855103,
                    -0.13226738572120667,
                    3.2010397911071777,
                    0.01578872837126255,
                    0.011777080595493317
                ],
                [
                    0.5275428891181946,
                    0.13718067109584808,
                    -0.555061936378479,
                    3.716158390045166,
                    -0.08061816543340683
                ],
                [
                    2.465010643005371,
                    0.20493537187576294,
                    -0.06802122294902802,
                    0.20073865354061127,
                    0.49191197752952576
                ],
                [
                    -0.6617358326911926,
                    -1.3525439500808716,
                    -1.3244924545288086,
                    -0.15527461469173431,
                    6.090639591217041
                ]
            ],
            "convs.1.bias": [
                0.4693929851055145,
                -2.1614131927490234
            ],
            "convs.1.lin.weight": [
                [
                    -1.8690959215164185,
                    -5.279119968414307,
                    -6.097978115081787,
                    2.121765613555908,
                    3.7198991775512695
                ],
                [
                    2.9393320083618164,
                    4.209507942199707,
                    -1.4447519779205322,
                    -0.1679556965827942,
                    -16.678577423095703
                ]
            ],
            "lin_out.weight": [
                [
                    2.2653164863586426,
                    1.5288522243499756
                ],
                [
                    0.886294960975647,
                    0.6624104380607605
                ],
                [
                    -1.1678634881973267,
                    5.989040374755859
                ],
                [
                    -7.999741077423096,
                    -4.890165328979492
                ],
                [
                    0.16585741937160492,
                    -3.6418910026550293
                ]
            ],
            "lin_out.bias": [
                -3.6911461353302,
                -2.026559829711914,
                12.364980697631836,
                0.313344806432724,
                -12.313776969909668
            ]
        }
    }
}