{
    "experiment_config": {
        "mode": "count",
        "num_categories": 3,
        "p": 0.3,
        "p_count": 0.9,
        "num_nodes": 20,
        "num_train_samples": 5000,
        "num_test_samples": 1500,
        "batch_size": 4,
        "in_dim": 2,
        "hidden_dims": [
            2,
            2
        ],
        "lr": 0.01,
        "use_weighting": true,
        "importance": [
            15.0,
            10.0
        ],
        "phase1_epochs": 0,
        "phase2_epochs": 15,
        "device": "cpu",
        "model_type": "GIN",
        "loss": "BCE",
        "pooling": "mean",
        "gm_p": 1.0,
        "log_dir": "runs/T/count/GIN/mean/2",
        "file_path": "T/count/GIN/mean/2",
        "add_graph": false,
        "track_embeddings": false,
        "track_singular_values": true,
        "save": true
    },
    "sparcity": 0.6808312700694682,
    "empty graph stats": [
        null,
        null,
        null,
        null,
        null,
        null,
        null,
        null,
        null,
        null,
        null,
        null,
        null,
        null,
        null,
        null,
        null,
        null,
        null,
        null
    ],
    "singular value ratio": [
        30.160969597952707,
        11.776808874947685
    ],
    "summary format:": "Key: (Num of active features, Num of accurate feature, Geometry, Collapsed). Loss, s.d. Loss, Count",
    "collapsed percentage": 20.0,
    "summary": {
        "(0, 0, 'Failed', 0)": [
            0.6108120398765956,
            0.004573865464566405,
            13
        ],
        "(3, 3, 3, 0)": [
            0.00263754177433384,
            0.0,
            1
        ],
        "(3, 3, 'Failed', 0)": [
            0.00864218035630733,
            0.006878208951888056,
            3
        ],
        "(2, 2, 2, 0)": [
            0.20861753013499706,
            0.06135552546985195,
            3
        ]
    },
    "results": [
        {
            "Num of features": 3,
            "Num of active features": 0,
            "Num of accurate feature": 0,
            "Geometry": "Failed",
            "Collapsed": 0,
            "Loss": 0.6089869023958842,
            "Rank": 1,
            "Singular values": [
                0.010063165798783302,
                1.3940348875252084e-10
            ]
        },
        {
            "Num of features": 3,
            "Num of active features": 0,
            "Num of accurate feature": 0,
            "Geometry": "Failed",
            "Collapsed": 0,
            "Loss": 0.6094476669629415,
            "Rank": 1,
            "Singular values": [
                0.22065946459770203,
                1.4419666571896528e-09
            ]
        },
        {
            "Num of features": 3,
            "Num of active features": 0,
            "Num of accurate feature": 0,
            "Geometry": "Failed",
            "Collapsed": 0,
            "Loss": 0.608971844514211,
            "Rank": 1,
            "Singular values": [
                0.012698772363364697,
                1.6544020320363728e-10
            ]
        },
        {
            "Num of features": 3,
            "Num of active features": 3,
            "Num of accurate feature": 3,
            "Geometry": 3,
            "Collapsed": 0,
            "Loss": 0.00263754177433384,
            "Rank": 2,
            "Singular values": [
                36.578338623046875,
                10.238884925842285
            ]
        },
        {
            "Num of features": 3,
            "Num of active features": 3,
            "Num of accurate feature": 3,
            "Geometry": "Failed",
            "Collapsed": 0,
            "Loss": 0.006379031720031587,
            "Rank": 2,
            "Singular values": [
                8.870400428771973,
                6.100620269775391
            ]
        },
        {
            "Num of features": 3,
            "Num of active features": 0,
            "Num of accurate feature": 0,
            "Geometry": "Failed",
            "Collapsed": 0,
            "Loss": 0.6044924828211466,
            "Rank": 1,
            "Singular values": [
                0.205526202917099,
                2.255152453667364e-10
            ]
        },
        {
            "Num of features": 3,
            "Num of active features": 0,
            "Num of accurate feature": 0,
            "Geometry": "Failed",
            "Collapsed": 0,
            "Loss": 0.613285525004069,
            "Rank": 1,
            "Singular values": [
                0.07008983939886093,
                3.771994383505728e-10
            ]
        },
        {
            "Num of features": 3,
            "Num of active features": 0,
            "Num of accurate feature": 0,
            "Geometry": "Failed",
            "Collapsed": 0,
            "Loss": 0.6098792502085368,
            "Rank": 1,
            "Singular values": [
                0.34160271286964417,
                8.133918427688513e-09
            ]
        },
        {
            "Num of features": 3,
            "Num of active features": 3,
            "Num of accurate feature": 3,
            "Geometry": "Failed",
            "Collapsed": 0,
            "Loss": 0.0015808762873127577,
            "Rank": 2,
            "Singular values": [
                41.97410202026367,
                33.1988639831543
            ]
        },
        {
            "Num of features": 3,
            "Num of active features": 3,
            "Num of accurate feature": 3,
            "Geometry": "Failed",
            "Collapsed": 0,
            "Loss": 0.017966633061577645,
            "Rank": 2,
            "Singular values": [
                10.459334373474121,
                5.537381172180176
            ]
        },
        {
            "Num of features": 3,
            "Num of active features": 0,
            "Num of accurate feature": 0,
            "Geometry": "Failed",
            "Collapsed": 0,
            "Loss": 0.6221428004900614,
            "Rank": 1,
            "Singular values": [
                0.0011182159651070833,
                5.91144286299361e-11
            ]
        },
        {
            "Num of features": 3,
            "Num of active features": 0,
            "Num of accurate feature": 0,
            "Geometry": "Failed",
            "Collapsed": 0,
            "Loss": 0.6043766856193542,
            "Rank": 1,
            "Singular values": [
                0.4152664840221405,
                1.6976788030920176e-10
            ]
        },
        {
            "Num of features": 3,
            "Num of active features": 0,
            "Num of accurate feature": 0,
            "Geometry": "Failed",
            "Collapsed": 0,
            "Loss": 0.6083661955197652,
            "Rank": 1,
            "Singular values": [
                0.20074522495269775,
                6.999214985370372e-09
            ]
        },
        {
            "Num of features": 3,
            "Num of active features": 2,
            "Num of accurate feature": 2,
            "Geometry": 2,
            "Collapsed": 0,
            "Loss": 0.17697609095275402,
            "Rank": 2,
            "Singular values": [
                21.482521057128906,
                1.9411301612854004
            ]
        },
        {
            "Num of features": 3,
            "Num of active features": 0,
            "Num of accurate feature": 0,
            "Geometry": "Failed",
            "Collapsed": 0,
            "Loss": 0.6133276300430298,
            "Rank": 1,
            "Singular values": [
                0.02826821804046631,
                2.549383759653523e-10
            ]
        },
        {
            "Num of features": 3,
            "Num of active features": 0,
            "Num of accurate feature": 0,
            "Geometry": "Failed",
            "Collapsed": 0,
            "Loss": 0.6087696437835693,
            "Rank": 1,
            "Singular values": [
                0.05093519389629364,
                1.328841592318497e-09
            ]
        },
        {
            "Num of features": 3,
            "Num of active features": 2,
            "Num of accurate feature": 2,
            "Geometry": 2,
            "Collapsed": 0,
            "Loss": 0.1544677898635467,
            "Rank": 2,
            "Singular values": [
                25.995641708374023,
                1.6444029808044434
            ]
        },
        {
            "Num of features": 3,
            "Num of active features": 2,
            "Num of accurate feature": 2,
            "Geometry": 2,
            "Collapsed": 0,
            "Loss": 0.29440870958869053,
            "Rank": 2,
            "Singular values": [
                65.76644897460938,
                23.776378631591797
            ]
        },
        {
            "Num of features": 3,
            "Num of active features": 0,
            "Num of accurate feature": 0,
            "Geometry": "Failed",
            "Collapsed": 0,
            "Loss": 0.6160536052385966,
            "Rank": 1,
            "Singular values": [
                0.022407319396734238,
                1.556274458262247e-18
            ]
        },
        {
            "Num of features": 3,
            "Num of active features": 0,
            "Num of accurate feature": 0,
            "Geometry": "Failed",
            "Collapsed": 0,
            "Loss": 0.612456285794576,
            "Rank": 1,
            "Singular values": [
                0.005208911839872599,
                1.1786004464053867e-11
            ]
        }
    ],
    "average embeddings summary": {
        "(0, 0, 'Failed', 0)": {
            "(0, 1, 0)": [
                0.004832464270293713,
                0.0032253782264888287
            ],
            "(1, 0, 0)": [
                0.004832463804632425,
                0.003225377993658185
            ],
            "(0, 0, 1)": [
                0.004832463804632425,
                0.0032253777608275414
            ]
        },
        "(3, 3, 3, 0)": {
            "(1, 0, 0)": [
                3.054935932159424,
                0.32812216877937317
            ],
            "(0, 1, 0)": [
                -20.243432998657227,
                29.76715660095215
            ],
            "(0, 0, 1)": [
                -4.838910102844238,
                -10.680541038513184
            ]
        },
        "(3, 3, 'Failed', 0)": {
            "(0, 0, 1)": [
                -1.2340288162231445,
                -1.6349908113479614
            ],
            "(1, 0, 0)": [
                5.7081732749938965,
                1.8361871242523193
            ],
            "(0, 1, 0)": [
                -1.8265310525894165,
                8.509671211242676
            ]
        },
        "(2, 2, 2, 0)": {
            "(1, 0, 0)": [
                2.357882499694824,
                0.5408111214637756
            ],
            "(0, 1, 0)": [
                -18.627674102783203,
                9.664053916931152
            ],
            "(0, 0, 1)": [
                -3.2051620483398438,
                2.959284543991089
            ]
        }
    },
    "model summary": {
        "(0, 0, 'Failed', 0)": {
            "convs.0.eps": [
                -0.12746591866016388
            ],
            "convs.0.nn.0.weight": [
                [
                    -0.3469160199165344,
                    0.32649898529052734
                ],
                [
                    0.3852727711200714,
                    0.4534290134906769
                ]
            ],
            "convs.0.nn.0.bias": [
                -0.3271956741809845,
                0.452156126499176
            ],
            "convs.0.nn.2.weight": [
                [
                    0.2321176677942276,
                    0.46523091197013855
                ],
                [
                    0.0804293155670166,
                    0.4456576704978943
                ]
            ],
            "convs.0.nn.2.bias": [
                -0.21782390773296356,
                -0.07641889154911041
            ],
            "convs.1.eps": [
                -0.13110677897930145
            ],
            "convs.1.nn.0.weight": [
                [
                    -0.2617391347885132,
                    0.04048074409365654
                ],
                [
                    0.42278197407722473,
                    -0.6935818791389465
                ]
            ],
            "convs.1.nn.0.bias": [
                -0.08761811256408691,
                0.16506068408489227
            ],
            "convs.1.nn.2.weight": [
                [
                    -0.005251242779195309,
                    -0.6324032545089722
                ],
                [
                    -0.49491196870803833,
                    -0.4208180606365204
                ]
            ],
            "convs.1.nn.2.bias": [
                0.004832465201616287,
                0.0032253768295049667
            ],
            "lin_out.weight": [
                [
                    -0.040095821022987366,
                    -0.04678422957658768
                ],
                [
                    -0.05278053507208824,
                    -0.059320900589227676
                ],
                [
                    -0.02510102093219757,
                    -0.03648451343178749
                ]
            ],
            "lin_out.bias": [
                -0.4882374107837677,
                -0.3365057408809662,
                -1.3853662014007568
            ]
        },
        "(3, 3, 3, 0)": {
            "convs.0.eps": [
                -0.9889264106750488
            ],
            "convs.0.nn.0.weight": [
                [
                    1.234544277191162,
                    -1.1184691190719604
                ],
                [
                    -0.2620809078216553,
                    -0.17698168754577637
                ]
            ],
            "convs.0.nn.0.bias": [
                0.02980455383658409,
                -0.419299840927124
            ],
            "convs.0.nn.2.weight": [
                [
                    -0.5928580164909363,
                    0.28834402561187744
                ],
                [
                    0.9791314601898193,
                    -0.23141856491565704
                ]
            ],
            "convs.0.nn.2.bias": [
                1.5349996089935303,
                -0.1410069316625595
            ],
            "convs.1.eps": [
                -3.687483787536621
            ],
            "convs.1.nn.0.weight": [
                [
                    1.4900695085525513,
                    -0.25636258721351624
                ],
                [
                    1.5618234872817993,
                    -1.9219015836715698
                ]
            ],
            "convs.1.nn.0.bias": [
                2.865837335586548,
                0.48326537013053894
            ],
            "convs.1.nn.2.weight": [
                [
                    -0.4471991956233978,
                    -0.20073527097702026
                ],
                [
                    -0.740471601486206,
                    1.649761438369751
                ]
            ],
            "convs.1.nn.2.bias": [
                3.1170239448547363,
                0.4309273958206177
            ],
            "lin_out.weight": [
                [
                    2.3532140254974365,
                    0.31635287404060364
                ],
                [
                    -0.6174216866493225,
                    0.35363900661468506
                ],
                [
                    -0.5426066517829895,
                    -0.8856437802314758
                ]
            ],
            "lin_out.bias": [
                1.3358873128890991,
                -6.201520919799805,
                -4.432775974273682
            ]
        },
        "(3, 3, 'Failed', 0)": {
            "convs.0.eps": [
                -0.9976086020469666
            ],
            "convs.0.nn.0.weight": [
                [
                    1.3018462657928467,
                    -1.145459532737732
                ],
                [
                    -0.19860850274562836,
                    -0.40841829776763916
                ]
            ],
            "convs.0.nn.0.bias": [
                0.6652665734291077,
                0.274152934551239
            ],
            "convs.0.nn.2.weight": [
                [
                    -0.40967586636543274,
                    -0.47034144401550293
                ],
                [
                    -0.44913217425346375,
                    -0.6879875063896179
                ]
            ],
            "convs.0.nn.2.bias": [
                -0.6467750668525696,
                1.275123119354248
            ],
            "convs.1.eps": [
                -2.093085765838623
            ],
            "convs.1.nn.0.weight": [
                [
                    0.20782871544361115,
                    -0.550009548664093
                ],
                [
                    0.5993943214416504,
                    0.5729871988296509
                ]
            ],
            "convs.1.nn.0.bias": [
                2.96242356300354,
                -5.023433208465576
            ],
            "convs.1.nn.2.weight": [
                [
                    2.674527645111084,
                    -0.06512108445167542
                ],
                [
                    1.4731087684631348,
                    1.6332247257232666
                ]
            ],
            "convs.1.nn.2.bias": [
                -1.4042414426803589,
                -2.0812742710113525
            ],
            "lin_out.weight": [
                [
                    2.818140983581543,
                    -0.4508956968784332
                ],
                [
                    -1.5495141744613647,
                    2.345167636871338
                ],
                [
                    -1.7224737405776978,
                    -2.061086416244507
                ]
            ],
            "lin_out.bias": [
                -3.149888277053833,
                -5.557942867279053,
                0.16555002331733704
            ]
        },
        "(2, 2, 2, 0)": {
            "convs.0.eps": [
                -0.6222373247146606
            ],
            "convs.0.nn.0.weight": [
                [
                    0.005602159071713686,
                    -0.7048370838165283
                ],
                [
                    1.238793969154358,
                    -1.0716698169708252
                ]
            ],
            "convs.0.nn.0.bias": [
                -0.34460678696632385,
                0.6691650152206421
            ],
            "convs.0.nn.2.weight": [
                [
                    0.35232776403427124,
                    0.5609928965568542
                ],
                [
                    0.5206709504127502,
                    -0.9071317911148071
                ]
            ],
            "convs.0.nn.2.bias": [
                -2.211256504058838,
                1.5167911052703857
            ],
            "convs.1.eps": [
                -3.3528528213500977
            ],
            "convs.1.nn.0.weight": [
                [
                    -0.16920658946037292,
                    -0.06901272386312485
                ],
                [
                    -0.3867496848106384,
                    1.0237109661102295
                ]
            ],
            "convs.1.nn.0.bias": [
                -0.4773772060871124,
                1.6481298208236694
            ],
            "convs.1.nn.2.weight": [
                [
                    -0.3803372383117676,
                    -0.9290717244148254
                ],
                [
                    -0.3333818018436432,
                    0.40390387177467346
                ]
            ],
            "convs.1.nn.2.bias": [
                2.4180707931518555,
                0.5146448016166687
            ],
            "lin_out.weight": [
                [
                    3.9993574619293213,
                    -5.022759914398193
                ],
                [
                    -1.888258457183838,
                    -0.3511243462562561
                ],
                [
                    -0.012985306791961193,
                    -0.18948853015899658
                ]
            ],
            "lin_out.bias": [
                -2.202579975128174,
                -9.289270401000977,
                -0.6737998723983765
            ]
        }
    }
}