{
    "experiment_config": {
        "mode": "tox21",
        "root": "data/Tox21",
        "batch_size": 32,
        "train_split": 0.8,
        "mask_missing": true,
        "use_weighting": false,
        "importance": [
            100.0,
            100.0
        ],
        "hidden_dims": [
            12,
            12
        ],
        "num_categories": 12,
        "in_dim": 9,
        "lr": 0.001,
        "model_type": "GCN",
        "loss": "BCE",
        "pooling": "mean",
        "gm_p": 1.0,
        "device": "cpu",
        "phase1_epochs": 0,
        "phase2_epochs": 50,
        "log_dir": "runs/tox21/GCN/mean/[12, 12]",
        "file_path": "tox21/GCN/mean/[12, 12]",
        "save": true,
        "num_nodes": 20,
        "p": 0.8
    },
    "sparcity": 0.8694764120978721,
    "empty graph stats": 0.45699095726013184,
    "singular value ratio": [
        0.0,
        0.0
    ],
    "summary format:": "Key: (Num of active features, Num of accurate feature, Geometry, Collapsed). Loss, s.d. Loss, Count",
    "collapsed percentage": 0.0,
    "summary": {
        "(2, 0, 'Failed', 2)": [
            0.6235697803559241,
            0.0,
            1
        ]
    },
    "results": [
        {
            "Num of features": 12,
            "Num of active features": 2,
            "Num of accurate feature": 0,
            "Geometry": "Failed",
            "Collapsed": 2,
            "Loss": 0.6235697803559241,
            "Rank": 9,
            "Singular values": [
                10.477259635925293,
                1.436687707901001,
                0.6537764072418213,
                0.4840310215950012,
                0.20485706627368927,
                0.014703121967613697,
                0.01154696848243475,
                0.006269343197345734,
                0.0014291559346020222
            ]
        }
    ],
    "average embeddings summary": {
        "(2, 0, 'Failed', 2)": {
            "(0, 0, 0, 1, 0, 0, 0, 0, 0, 0, 0, 0)": [
                -1.4479036331176758,
                -1.430935263633728,
                0.07013610750436783,
                -0.45077618956565857,
                -0.29187533259391785,
                -0.6479070782661438,
                0.07259901612997055,
                -0.44212546944618225,
                -1.2899528741836548,
                -0.7646830081939697,
                -0.7162474989891052,
                0.423262357711792
            ],
            "(0, 0, 0, 0, 0, 0, 0, 1, 0, 0, 0, 0)": [
                -1.9309813976287842,
                -2.2611591815948486,
                0.45163893699645996,
                -0.3143758177757263,
                -0.36329615116119385,
                -0.7732186317443848,
                0.018607690930366516,
                0.009186780080199242,
                -1.1698216199874878,
                -1.3648808002471924,
                -1.0831420421600342,
                0.5752525329589844
            ],
            "(1, 0, 0, 0, 0, 0, 0, 0, 0, 0, 0, 0)": [
                -2.1559157371520996,
                -2.1714582443237305,
                0.5552170872688293,
                -0.5539642572402954,
                -0.29466816782951355,
                -0.6111254692077637,
                -0.2947305142879486,
                -0.3070142865180969,
                -1.5227348804473877,
                -1.0220812559127808,
                -1.3037792444229126,
                0.6746946573257446
            ],
            "(0, 0, 1, 0, 0, 0, 0, 0, 0, 0, 0, 0)": [
                -1.3852765560150146,
                -1.448944091796875,
                0.06373188644647598,
                -0.3858965337276459,
                -0.3269306719303131,
                -0.680997371673584,
                0.15902386605739594,
                -0.3780689835548401,
                -1.2130738496780396,
                -0.8248573541641235,
                -0.6536325216293335,
                0.4204266369342804
            ],
            "(0, 0, 0, 0, 0, 0, 1, 0, 0, 0, 0, 0)": [
                -1.5309104919433594,
                -1.504630208015442,
                0.19534717500209808,
                -0.5165318846702576,
                -0.4161979556083679,
                -0.5579388737678528,
                -0.01820756494998932,
                -0.5653235912322998,
                -1.370896816253662,
                -0.6395105719566345,
                -0.7127646207809448,
                0.585900604724884
            ],
            "(0, 0, 0, 0, 1, 0, 0, 0, 0, 0, 0, 0)": [
                -2.056260585784912,
                -2.190246105194092,
                0.5238779187202454,
                -0.4402530789375305,
                -0.29870274662971497,
                -0.7036103010177612,
                -0.08084938675165176,
                -0.26190346479415894,
                -1.46559476852417,
                -1.1337414979934692,
                -1.276971697807312,
                0.6465104222297668
            ],
            "(0, 0, 0, 0, 0, 0, 0, 0, 0, 0, 1, 0)": [
                -1.8196237087249756,
                -1.6544537544250488,
                0.27134329080581665,
                -0.5382492542266846,
                -0.14774183928966522,
                -0.6342487335205078,
                -0.11259089410305023,
                -0.554111897945404,
                -1.6195321083068848,
                -0.7658399939537048,
                -1.1745790243148804,
                0.4882439374923706
            ],
            "(0, 1, 0, 0, 0, 0, 0, 0, 0, 0, 0, 0)": [
                -1.3920080661773682,
                -1.342280387878418,
                0.18081122636795044,
                -0.4934602379798889,
                -0.47191980481147766,
                -0.5354061126708984,
                0.13592566549777985,
                -0.8015486598014832,
                -1.4858472347259521,
                -0.4380105435848236,
                -0.6234392523765564,
                0.6674862504005432
            ],
            "(0, 0, 0, 0, 0, 0, 0, 0, 0, 1, 0, 0)": [
                -2.3380661010742188,
                -2.7013230323791504,
                0.8122560381889343,
                -0.3640275299549103,
                -0.45764389634132385,
                -0.7526758909225464,
                -0.06267033517360687,
                -0.10384203493595123,
                -1.4633315801620483,
                -1.3944804668426514,
                -1.4318029880523682,
                0.8666085600852966
            ]
        }
    },
    "model summary": {
        "(2, 0, 'Failed', 2)": {
            "convs.0.bias": [
                -0.03965845704078674,
                -0.03534023091197014,
                0.03463957458734512,
                -0.03984347730875015,
                0.0,
                -0.06387656182050705,
                -0.08910437673330307,
                -0.09255893528461456,
                0.008877421729266644,
                0.0,
                0.010752102360129356,
                -0.011619524098932743
            ],
            "convs.0.lin.weight": [
                [
                    -0.10135110467672348,
                    0.5664660930633545,
                    0.4230618178844452,
                    0.36607158184051514,
                    0.2589772939682007,
                    -0.5438355207443237,
                    0.08700382709503174,
                    0.3458481729030609,
                    -0.09649151563644409
                ],
                [
                    0.0454074963927269,
                    0.11533105373382568,
                    -0.4320773184299469,
                    -0.3726102411746979,
                    0.06403374671936035,
                    -0.4920346438884735,
                    -0.07126206904649734,
                    0.14137910306453705,
                    0.030303023755550385
                ],
                [
                    0.3754108250141144,
                    -0.9014312624931335,
                    -0.5831020474433899,
                    -0.06349015235900879,
                    0.43090349435806274,
                    0.028203526511788368,
                    0.16832184791564941,
                    0.07269811630249023,
                    0.005277977325022221
                ],
                [
                    0.07928846776485443,
                    1.2582560777664185,
                    -0.21072936058044434,
                    0.35390612483024597,
                    -0.5887177586555481,
                    -0.8748714327812195,
                    -0.06924664974212646,
                    -0.15269017219543457,
                    0.5377761125564575
                ],
                [
                    -0.3011215627193451,
                    0.46448126435279846,
                    -0.27661845088005066,
                    -0.08116818219423294,
                    0.26887011528015137,
                    0.4728884994983673,
                    -0.09997694194316864,
                    -0.20408976078033447,
                    -0.24805308878421783
                ],
                [
                    0.09859680384397507,
                    0.1572706252336502,
                    -0.5322709679603577,
                    -0.622910737991333,
                    0.41378968954086304,
                    0.29176273941993713,
                    -0.5718135833740234,
                    0.5290125012397766,
                    -0.35692495107650757
                ],
                [
                    0.23372754454612732,
                    -0.6252990365028381,
                    0.3626241385936737,
                    0.38444942235946655,
                    0.370736300945282,
                    0.9453812837600708,
                    0.3813199996948242,
                    -0.3506266474723816,
                    -0.7363938093185425
                ],
                [
                    -0.12468599528074265,
                    -1.1699976921081543,
                    -0.22982262074947357,
                    0.4091971814632416,
                    -0.1104387417435646,
                    0.5248575806617737,
                    0.5228509902954102,
                    -1.2224127054214478,
                    -0.8988864421844482
                ],
                [
                    0.14242224395275116,
                    -0.02221493050456047,
                    -0.47981685400009155,
                    -0.26145482063293457,
                    0.5814546942710876,
                    0.07498090714216232,
                    -0.27345553040504456,
                    0.0670853778719902,
                    -0.011860078200697899
                ],
                [
                    -0.0329197496175766,
                    -0.07881882786750793,
                    -0.2670920491218567,
                    0.18247120082378387,
                    0.43920838832855225,
                    -0.2622365355491638,
                    -0.4458397328853607,
                    0.4466938376426697,
                    -0.41285693645477295
                ],
                [
                    0.43431833386421204,
                    1.2488737106323242,
                    0.35958755016326904,
                    -0.36758196353912354,
                    -0.027269914746284485,
                    -0.3816309869289398,
                    0.19995814561843872,
                    -0.5597658753395081,
                    0.5421253442764282
                ],
                [
                    0.31432056427001953,
                    -0.7998364567756653,
                    0.03298007324337959,
                    -0.2057294100522995,
                    0.37202176451683044,
                    0.060440100729465485,
                    0.19618791341781616,
                    0.8456935286521912,
                    0.14405283331871033
                ]
            ],
            "convs.1.bias": [
                0.0021083832252770662,
                -0.06645795702934265,
                0.11088109016418457,
                0.042438261210918427,
                0.02200273424386978,
                -0.07774268835783005,
                0.03966118022799492,
                -0.03314165398478508,
                -0.041777268052101135,
                0.035730328410863876,
                0.025690672919154167,
                -0.07045277208089828
            ],
            "convs.1.lin.weight": [
                [
                    -0.11879181116819382,
                    -0.06063535809516907,
                    -0.24741864204406738,
                    0.36986464262008667,
                    0.21610283851623535,
                    -0.08668842911720276,
                    -0.47251057624816895,
                    -0.4870072305202484,
                    -0.09863138198852539,
                    -0.05422627925872803,
                    0.31246253848075867,
                    0.3721623718738556
                ],
                [
                    0.22145946323871613,
                    0.09041915088891983,
                    -0.6125818490982056,
                    0.4203553795814514,
                    0.42271023988723755,
                    -0.30450135469436646,
                    -0.3427666127681732,
                    -0.7718414068222046,
                    -0.5778911709785461,
                    -0.46095454692840576,
                    0.38825181126594543,
                    -0.08127237111330032
                ],
                [
                    -0.02923448383808136,
                    -0.12669935822486877,
                    0.42777249217033386,
                    -0.5498116612434387,
                    0.36516135931015015,
                    0.07875022292137146,
                    -0.0007653587381355464,
                    0.4862626791000366,
                    -0.37186869978904724,
                    0.365913450717926,
                    -0.31462040543556213,
                    0.22044694423675537
                ],
                [
                    -0.27959099411964417,
                    0.19044959545135498,
                    0.27447938919067383,
                    -0.15232032537460327,
                    -0.18173784017562866,
                    -0.4457654356956482,
                    0.06817583739757538,
                    -0.31181421875953674,
                    -0.1897234171628952,
                    0.11312633752822876,
                    0.19069144129753113,
                    -0.17854908108711243
                ],
                [
                    0.014980204403400421,
                    -0.46506550908088684,
                    -0.4691230356693268,
                    -0.08510231226682663,
                    -0.18108832836151123,
                    -0.4414544403553009,
                    -0.04656956344842911,
                    -0.05024515092372894,
                    -0.30592963099479675,
                    0.45068293809890747,
                    0.5809459090232849,
                    -0.39647403359413147
                ],
                [
                    0.22606804966926575,
                    -0.3632127344608307,
                    0.04488677531480789,
                    -0.036439623683691025,
                    -0.049474358558654785,
                    -0.12925033271312714,
                    -0.22986193001270294,
                    0.20713120698928833,
                    0.19542163610458374,
                    -0.40165066719055176,
                    -0.24614377319812775,
                    0.1863989681005478
                ],
                [
                    -0.2330285608768463,
                    0.10554482042789459,
                    0.020592007786035538,
                    -0.01117473840713501,
                    -0.07440024614334106,
                    0.0022766748443245888,
                    -0.20281270146369934,
                    -0.3750142753124237,
                    -0.2503315508365631,
                    -0.1672736406326294,
                    0.42228350043296814,
                    0.3971295952796936
                ],
                [
                    -0.4576246738433838,
                    0.4190523624420166,
                    0.2955857813358307,
                    0.10510290414094925,
                    0.2945377230644226,
                    0.18270395696163177,
                    0.15050995349884033,
                    0.2844944894313812,
                    -0.45370298624038696,
                    -0.3429839015007019,
                    0.07897978276014328,
                    -0.3636210858821869
                ],
                [
                    -0.3141312599182129,
                    -0.08261517435312271,
                    0.12739500403404236,
                    0.3389338552951813,
                    0.2125442624092102,
                    -0.4135081470012665,
                    -0.4401768147945404,
                    0.38902923464775085,
                    0.45060494542121887,
                    0.1762496829032898,
                    0.03988486900925636,
                    0.3838628828525543
                ],
                [
                    0.5182056427001953,
                    0.15461204946041107,
                    -0.12191743403673172,
                    -0.02252430096268654,
                    0.26589131355285645,
                    -0.3831113278865814,
                    -0.31471148133277893,
                    -0.3311726748943329,
                    -0.5599474310874939,
                    -0.12490928173065186,
                    -0.18118254840373993,
                    0.15540432929992676
                ],
                [
                    0.1911478042602539,
                    0.37135419249534607,
                    0.4338022470474243,
                    0.5687902569770813,
                    -0.34154272079467773,
                    -0.3710576593875885,
                    -0.3344554901123047,
                    -0.3685150146484375,
                    0.2396426945924759,
                    -0.4137040376663208,
                    -0.2840760350227356,
                    0.15545111894607544
                ],
                [
                    0.22921623289585114,
                    0.24678437411785126,
                    0.5805941820144653,
                    -0.2777424156665802,
                    0.008723556995391846,
                    0.19973230361938477,
                    -0.008091670460999012,
                    0.20049113035202026,
                    0.08304080367088318,
                    -0.4711395502090454,
                    -0.5215731263160706,
                    0.28117334842681885
                ]
            ],
            "lin_out.weight": [
                [
                    -0.37349933385849,
                    0.6732319593429565,
                    -0.4885628819465637,
                    0.05305967107415199,
                    0.3251148760318756,
                    -0.45652085542678833,
                    0.14825443923473358,
                    0.28147101402282715,
                    -0.08954420685768127,
                    0.28109505772590637,
                    0.15641549229621887,
                    -0.4186136722564697
                ],
                [
                    0.3082122504711151,
                    0.16876624524593353,
                    -0.8110482096672058,
                    -0.17889322340488434,
                    0.4611453413963318,
                    0.15767182409763336,
                    -0.3701327443122864,
                    0.049176860600709915,
                    -0.1861511766910553,
                    0.3558666706085205,
                    -0.34109294414520264,
                    -1.028255820274353
                ],
                [
                    0.31935542821884155,
                    0.30178767442703247,
                    -0.3373711407184601,
                    0.41412490606307983,
                    -0.5354903936386108,
                    0.13661114871501923,
                    0.2526327967643738,
                    -0.28711265325546265,
                    -0.5822624564170837,
                    0.26946309208869934,
                    0.49104219675064087,
                    0.21619610488414764
                ],
                [
                    0.3966042697429657,
                    0.33465152978897095,
                    -0.44535958766937256,
                    -0.32492414116859436,
                    0.20684579014778137,
                    -0.2590823471546173,
                    -0.20348654687404633,
                    -0.3042605221271515,
                    0.08874595165252686,
                    0.36088988184928894,
                    -0.10498758405447006,
                    0.3978899419307709
                ],
                [
                    -0.25376853346824646,
                    -0.2939050793647766,
                    -0.5064941048622131,
                    0.02323152683675289,
                    0.41534796357154846,
                    0.19471389055252075,
                    0.3126300275325775,
                    -0.2038789838552475,
                    0.2053675800561905,
                    0.34215977787971497,
                    0.18364040553569794,
                    -0.18938307464122772
                ],
                [
                    0.026968764141201973,
                    0.7233354449272156,
                    -0.11818418651819229,
                    -0.27949920296669006,
                    0.4379706382751465,
                    0.4622890055179596,
                    0.2553604245185852,
                    -0.3725143373012543,
                    -0.21038763225078583,
                    -0.11522156745195389,
                    -0.1999615877866745,
                    -0.25043198466300964
                ],
                [
                    0.5451298356056213,
                    0.00643170578405261,
                    0.07657092809677124,
                    -0.1957291215658188,
                    0.08806651830673218,
                    0.07966946810483932,
                    0.3253456652164459,
                    0.1861644834280014,
                    -0.22462062537670135,
                    0.49644947052001953,
                    0.21229471266269684,
                    0.10709770768880844
                ],
                [
                    0.2795639634132385,
                    0.12358170002698898,
                    -0.19895027577877045,
                    0.40372520685195923,
                    0.5880535840988159,
                    -0.13269878923892975,
                    0.017375512048602104,
                    0.17037132382392883,
                    0.08701685070991516,
                    -0.24775849282741547,
                    -0.065481998026371,
                    -0.004024955444037914
                ],
                [
                    0.3413181006908417,
                    0.3066193163394928,
                    -0.7742015719413757,
                    0.17915591597557068,
                    0.03646455332636833,
                    0.09420537203550339,
                    0.552797794342041,
                    0.21136698126792908,
                    0.3936147093772888,
                    0.12220931798219681,
                    0.2866986393928528,
                    -0.36091920733451843
                ],
                [
                    -0.020609498023986816,
                    0.29614368081092834,
                    0.09088034182786942,
                    0.5779474973678589,
                    -0.15143796801567078,
                    0.30732354521751404,
                    -0.028217775747179985,
                    -0.10981861501932144,
                    0.3187255263328552,
                    0.47707292437553406,
                    -0.32187044620513916,
                    0.24468834698200226
                ],
                [
                    0.40383556485176086,
                    0.22021158039569855,
                    -0.22493669390678406,
                    0.10910716652870178,
                    -0.21651607751846313,
                    -0.0777168944478035,
                    -0.101755291223526,
                    -0.5680868029594421,
                    0.2948243021965027,
                    0.027704738080501556,
                    0.5927504301071167,
                    -0.17627447843551636
                ],
                [
                    0.33862176537513733,
                    0.37816888093948364,
                    -0.6865410804748535,
                    0.1467227339744568,
                    0.2566954791545868,
                    0.2610558867454529,
                    0.08013918250799179,
                    0.29233768582344055,
                    0.20469330251216888,
                    -0.25119489431381226,
                    0.41089320182800293,
                    -0.09756609052419662
                ]
            ],
            "lin_out.bias": [
                0.007933803834021091,
                -0.15189532935619354,
                -0.18220993876457214,
                -0.00022824615007266402,
                -0.19781439006328583,
                0.0013973626773804426,
                0.0763569250702858,
                -0.1387633979320526,
                -0.09194012731313705,
                -0.047517742961645126,
                0.33685868978500366,
                0.13538073003292084
            ]
        }
    }
}