{
    "experiment_config": {
        "mode": "simple",
        "num_categories": 7,
        "p": 0.8,
        "p_count": 0.9,
        "num_nodes": 20,
        "motif_dim": 0,
        "chain_length_min": 2,
        "chain_length_max": 7,
        "num_train_samples": 5000,
        "num_test_samples": 1500,
        "batch_size": 16,
        "in_dim": 7,
        "hidden_dims": [
            12,
            3
        ],
        "lr": 0.01,
        "use_weighting": true,
        "importance": [
            15.0,
            10.0
        ],
        "phase1_epochs": 0,
        "phase2_epochs": 50,
        "num_epochs": 12,
        "device": "cpu",
        "model_type": "GIN",
        "pooling": "mean",
        "log_dir": "runs/GIN/simple/small/mean/7",
        "add_graph": false,
        "track_embeddings": false,
        "save": true
    },
    "sparcity": 0.7964733762648115,
    "summary format:": "Key: (Num of active features, Num of accurate feature, Geometry, Collapsed). Loss, s.d. Loss, Count",
    "summary": {
        "(0, 0, 'Failed', 0)": [
            0.5166499129931132,
            0.0,
            1
        ]
    },
    "results": [
        {
            "Num of features": 7,
            "Num of active features": 0,
            "Num of accurate feature": 0,
            "Geometry": "Failed",
            "Collapsed": 0,
            "Loss": 0.5166499129931132,
            "Rank": 1,
            "Singular values": [
                0.1389029324054718,
                3.1535101197022186e-09,
                1.307962405050489e-09
            ]
        }
    ],
    "average embeddings summary": {
        "(0, 0, 'Failed', 0)": {
            "(1, 0, 0, 0, 0, 0, 0)": [
                -0.03158995881676674,
                0.018462717533111572,
                -0.03764959052205086
            ],
            "(0, 0, 1, 0, 0, 0, 0)": [
                -0.03158995881676674,
                0.018462717533111572,
                -0.03764958679676056
            ],
            "(0, 0, 0, 0, 0, 0, 1)": [
                -0.03158995881676674,
                0.018462717533111572,
                -0.03764959052205086
            ],
            "(0, 0, 0, 1, 0, 0, 0)": [
                -0.03158996254205704,
                0.018462717533111572,
                -0.03764959052205086
            ],
            "(0, 0, 0, 0, 1, 0, 0)": [
                -0.03158995881676674,
                0.018462717533111572,
                -0.03764959052205086
            ],
            "(0, 0, 0, 0, 0, 1, 0)": [
                -0.03158995881676674,
                0.018462717533111572,
                -0.03764959052205086
            ],
            "(0, 1, 0, 0, 0, 0, 0)": [
                -0.03158995881676674,
                0.018462717533111572,
                -0.03764959052205086
            ]
        }
    },
    "model summary": {
        "(0, 0, 'Failed', 0)": {
            "convs.0.eps": [
                -0.06865894794464111
            ],
            "convs.0.nn.0.weight": [
                [
                    0.11381595581769943,
                    -0.24334116280078888,
                    -0.23393522202968597,
                    -0.053831007331609726,
                    -0.11979122459888458,
                    0.45581087470054626,
                    0.18715748190879822
                ],
                [
                    -0.36592116951942444,
                    -0.2964651584625244,
                    -0.2096388339996338,
                    -0.21803461015224457,
                    -0.3145298659801483,
                    0.2229001671075821,
                    -0.44537538290023804
                ],
                [
                    -0.16607661545276642,
                    0.2558876872062683,
                    0.22405557334423065,
                    0.18499939143657684,
                    -0.21988970041275024,
                    -0.019785339012742043,
                    0.22711025178432465
                ],
                [
                    -0.16799232363700867,
                    -0.30894580483436584,
                    -0.2873259484767914,
                    0.029879745095968246,
                    -0.1818608194589615,
                    -0.09985464066267014,
                    0.05404520034790039
                ],
                [
                    0.23693297803401947,
                    -0.29351305961608887,
                    -0.281686395406723,
                    0.17272129654884338,
                    -0.38263019919395447,
                    -0.4200892746448517,
                    0.12528888881206512
                ],
                [
                    0.07665447890758514,
                    0.2519616186618805,
                    -0.047558192163705826,
                    0.08444231003522873,
                    0.20105239748954773,
                    -0.2961907982826233,
                    0.11413664370775223
                ],
                [
                    -0.19556543231010437,
                    -0.13025425374507904,
                    -0.334983766078949,
                    -0.009643862955272198,
                    -0.3695964515209198,
                    0.041172441095113754,
                    -0.02335348166525364
                ],
                [
                    0.3756653964519501,
                    0.22027748823165894,
                    0.05158890038728714,
                    0.3942885100841522,
                    -0.2642478346824646,
                    0.22817331552505493,
                    0.19168402254581451
                ],
                [
                    -0.21077944338321686,
                    0.031873323023319244,
                    0.3797478675842285,
                    0.2891589105129242,
                    -0.017863096669316292,
                    0.20491185784339905,
                    0.21632124483585358
                ],
                [
                    0.42980360984802246,
                    0.3942340016365051,
                    0.44432035088539124,
                    0.19376800954341888,
                    0.2583939731121063,
                    0.43699222803115845,
                    -0.065009705722332
                ],
                [
                    -0.3202509582042694,
                    0.2804360091686249,
                    0.20393630862236023,
                    -0.3050185441970825,
                    0.10485593974590302,
                    -0.13282427191734314,
                    0.2117787003517151
                ],
                [
                    0.04447990283370018,
                    0.39558082818984985,
                    0.1656387597322464,
                    -0.01668570563197136,
                    -0.008128546178340912,
                    0.3071354329586029,
                    0.41922104358673096
                ]
            ],
            "convs.0.nn.0.bias": [
                0.16684482991695404,
                0.18510256707668304,
                -0.1544298231601715,
                -0.3223671019077301,
                0.019656218588352203,
                -0.4390960931777954,
                -0.07603929936885834,
                -0.10511977970600128,
                0.08320622891187668,
                -0.06910120695829391,
                0.2526153028011322,
                0.41114065051078796
            ],
            "convs.0.nn.2.weight": [
                [
                    0.0468984916806221,
                    -0.1412484347820282,
                    0.20028218626976013,
                    -0.21317170560359955,
                    -0.08799708634614944,
                    0.15658064186573029,
                    -0.11941801011562347,
                    0.1493784338235855,
                    0.1695510298013687,
                    0.3210926055908203,
                    0.08758106827735901,
                    0.11129381507635117
                ],
                [
                    -0.23802639544010162,
                    -0.12305258959531784,
                    0.06433708965778351,
                    0.26201286911964417,
                    -0.1329440176486969,
                    0.08228626847267151,
                    4.838433596887626e-05,
                    0.18818974494934082,
                    0.029173070564866066,
                    -0.2716567814350128,
                    -0.1448005884885788,
                    -0.15255030989646912
                ],
                [
                    -0.034163832664489746,
                    0.20787203311920166,
                    0.15586307644844055,
                    0.0605560801923275,
                    0.015780309215188026,
                    -0.19488875567913055,
                    0.16798315942287445,
                    -0.31992077827453613,
                    0.16410301625728607,
                    -0.27407535910606384,
                    0.1898498237133026,
                    -0.22165770828723907
                ],
                [
                    0.02164376527070999,
                    -0.19721929728984833,
                    0.1901460438966751,
                    0.16936124861240387,
                    -0.171039417386055,
                    0.2461431324481964,
                    -0.0808950662612915,
                    0.035858023911714554,
                    -0.03486652299761772,
                    0.14574648439884186,
                    -0.20836332440376282,
                    -0.22552834451198578
                ],
                [
                    -0.3280230760574341,
                    -0.17647120356559753,
                    -0.012659652158617973,
                    -0.035121966153383255,
                    0.18343563377857208,
                    0.014293619431555271,
                    -0.037441834807395935,
                    -0.2661809027194977,
                    0.17980892956256866,
                    -0.19678084552288055,
                    0.14698007702827454,
                    -0.049876049160957336
                ],
                [
                    -0.10378661006689072,
                    -0.08614280074834824,
                    0.16322708129882812,
                    0.03392334282398224,
                    -0.10096359252929688,
                    0.007528546266257763,
                    0.26576870679855347,
                    0.34698525071144104,
                    0.262882262468338,
                    -0.020354917272925377,
                    0.02059914916753769,
                    0.15808790922164917
                ],
                [
                    -0.28933265805244446,
                    0.160925030708313,
                    -0.17211617529392242,
                    0.2559978663921356,
                    -0.1332821398973465,
                    0.10101491212844849,
                    -0.15537947416305542,
                    -0.1590740978717804,
                    -0.17806151509284973,
                    0.11024533957242966,
                    -0.04697278514504433,
                    -0.2065235823392868
                ],
                [
                    -0.01599174551665783,
                    -0.17184123396873474,
                    0.20808127522468567,
                    0.05123089253902435,
                    -0.1479596048593521,
                    0.1880694329738617,
                    -0.2106742411851883,
                    0.18596698343753815,
                    -0.05503346771001816,
                    0.11813245713710785,
                    -0.1655716747045517,
                    -0.22289039194583893
                ],
                [
                    0.05140434578061104,
                    -0.02582208253443241,
                    0.03539924696087837,
                    -0.25198453664779663,
                    -0.12719208002090454,
                    -0.32159677147865295,
                    0.015602579340338707,
                    0.061049848794937134,
                    -0.2532517910003662,
                    0.15020999312400818,
                    0.13395649194717407,
                    -0.25304558873176575
                ],
                [
                    0.036516427993774414,
                    -0.041737474501132965,
                    -0.1842004507780075,
                    -0.2892068326473236,
                    0.19054697453975677,
                    -0.2154608517885208,
                    0.07116654515266418,
                    0.14696991443634033,
                    0.05771761015057564,
                    -0.23183897137641907,
                    -0.05589698627591133,
                    -0.29230576753616333
                ],
                [
                    -0.33509233593940735,
                    0.041349973529577255,
                    0.19914834201335907,
                    -0.06595800071954727,
                    -0.3722267150878906,
                    -0.15119026601314545,
                    0.17569680511951447,
                    -0.2709479033946991,
                    -0.1724432110786438,
                    -0.19431252777576447,
                    0.20087136328220367,
                    -0.2181595116853714
                ],
                [
                    -0.1630605161190033,
                    0.06842509657144547,
                    0.3190740942955017,
                    0.07294262945652008,
                    0.22389209270477295,
                    0.09262240678071976,
                    0.26723751425743103,
                    -0.05172545090317726,
                    0.34966620802879333,
                    -0.14134037494659424,
                    0.07540646195411682,
                    0.20292048156261444
                ]
            ],
            "convs.0.nn.2.bias": [
                0.1945907473564148,
                -0.1677519679069519,
                -0.18208280205726624,
                -0.2752682864665985,
                -0.15861612558364868,
                0.32307058572769165,
                0.07573156803846359,
                -0.17054638266563416,
                -0.15317708253860474,
                -0.2660859227180481,
                0.01405196264386177,
                -0.06685344129800797
            ],
            "convs.1.eps": [
                -0.017633574083447456
            ],
            "convs.1.nn.0.weight": [
                [
                    -0.29562684893608093,
                    0.03186318650841713,
                    0.016589730978012085,
                    -0.2621168792247772,
                    0.15749958157539368,
                    -0.10200361907482147,
                    0.08955833315849304,
                    -0.2631552219390869,
                    0.08687631040811539,
                    0.1836952120065689,
                    -0.022092273458838463,
                    -0.21915645897388458
                ],
                [
                    -0.23530298471450806,
                    0.12649716436862946,
                    -0.107490174472332,
                    0.02968716248869896,
                    -0.18133653700351715,
                    -0.30788636207580566,
                    -0.18290606141090393,
                    -0.04677237570285797,
                    0.10867337137460709,
                    0.015348549000918865,
                    0.030782727524638176,
                    -0.11465594172477722
                ],
                [
                    -0.24583932757377625,
                    -0.04243774339556694,
                    -0.17318086326122284,
                    0.11203090101480484,
                    -0.20493043959140778,
                    -0.21064981818199158,
                    -0.10644835978746414,
                    0.2624555230140686,
                    -0.25582680106163025,
                    0.03219309821724892,
                    -0.11541271209716797,
                    -0.024097980931401253
                ]
            ],
            "convs.1.nn.0.bias": [
                0.053778067231178284,
                -0.017614660784602165,
                0.13299258053302765
            ],
            "convs.1.nn.2.weight": [
                [
                    0.09807842969894409,
                    0.2391805499792099,
                    0.48860037326812744
                ],
                [
                    -0.06074061617255211,
                    0.43027904629707336,
                    0.3706795573234558
                ],
                [
                    0.12615342438220978,
                    0.4396895170211792,
                    0.45340240001678467
                ]
            ],
            "convs.1.nn.2.bias": [
                -0.03158996254205704,
                0.018462717533111572,
                -0.037649594247341156
            ],
            "lin_out.weight": [
                [
                    -0.10716532915830612,
                    0.021394891664385796,
                    -0.11769565939903259
                ],
                [
                    -0.06390099972486496,
                    -0.05104965716600418,
                    -0.08428850769996643
                ],
                [
                    -0.07078585028648376,
                    0.018936865031719208,
                    -0.09761714935302734
                ],
                [
                    -0.11674262583255768,
                    0.06194744259119034,
                    -0.06237751245498657
                ],
                [
                    -0.04792594537138939,
                    0.025142740458250046,
                    -0.033446814864873886
                ],
                [
                    -0.11462477594614029,
                    -0.00022126929252408445,
                    -0.04303468018770218
                ],
                [
                    -0.08916139602661133,
                    0.034204717725515366,
                    -0.22084498405456543
                ]
            ],
            "lin_out.bias": [
                -1.0263222455978394,
                -1.0600188970565796,
                -1.088447093963623,
                -1.1616911888122559,
                -1.091365098953247,
                -1.130728840827942,
                -1.1512254476547241
            ]
        }
    }
}