{
    "experiment_config": {
        "mode": "simple",
        "num_categories": 3,
        "p": 0.18,
        "num_nodes": 20,
        "motif_dim": 0,
        "num_train_samples": 5000,
        "num_test_samples": 1500,
        "batch_size": 16,
        "in_dim": 3,
        "hidden_dims": [
            3,
            2
        ],
        "lr": 0.01,
        "use_weighting": true,
        "importance": [
            15.0,
            10.0
        ],
        "phase1_epochs": 0,
        "phase2_epochs": 50,
        "device": "cpu",
        "model_type": "GCN",
        "loss": "BCE",
        "pooling": "mean",
        "gm_p": 1.0,
        "log_dir": "runs/T/BCE/2/GCN/small_compression/mean/3",
        "file_path": "T/BCE/2/GCN/small_compression/mean/3",
        "add_graph": false,
        "track_embeddings": false,
        "track_singular_values": true,
        "get_elements": true,
        "save": true
    },
    "sparcity": 0.9370393313871229,
    "empty_graph_stats": [
        {
            "mean": [
                0.34508436918258667,
                0.05606864020228386
            ],
            "std": [
                0.2809586822986603,
                0.48406365513801575
            ]
        },
        {
            "mean": [
                0.02608638070523739,
                0.7594811320304871
            ],
            "std": [
                0.5025580525398254,
                0.3291970193386078
            ]
        },
        {
            "mean": [
                0.014884634874761105,
                0.3289737403392792
            ],
            "std": [
                0.13743336498737335,
                0.20544379949569702
            ]
        },
        {
            "mean": [
                0.1303061544895172,
                0.643257737159729
            ],
            "std": [
                0.5141361951828003,
                0.1410703957080841
            ]
        },
        {
            "mean": [
                -0.2575260102748871,
                -0.6166296601295471
            ],
            "std": [
                0.20242908596992493,
                0.38264068961143494
            ]
        },
        {
            "mean": [
                0.30960118770599365,
                0.57321697473526
            ],
            "std": [
                0.08681338280439377,
                0.08143854886293411
            ]
        },
        {
            "mean": [
                -0.651391863822937,
                -0.45064204931259155
            ],
            "std": [
                0.3819383978843689,
                0.20116111636161804
            ]
        },
        {
            "mean": [
                -0.013922400772571564,
                -0.07792956382036209
            ],
            "std": [
                0.1549433171749115,
                0.1677478849887848
            ]
        },
        {
            "mean": [
                -0.9776477217674255,
                0.37493327260017395
            ],
            "std": [
                0.8241459131240845,
                0.4193359315395355
            ]
        },
        {
            "mean": [
                0.38676217198371887,
                0.472019761800766
            ],
            "std": [
                0.2701398432254791,
                0.2029794454574585
            ]
        }
    ],
    "summary format:": "Key: (Num of active features, Num of accurate feature, Geometry, Collapsed). Loss, s.d. Loss, Count",
    "summary": {
        "(1, 0, 1, 0)": [
            0.3644117356141408,
            0.0,
            1
        ],
        "(3, 2, 'Failed', 0)": [
            0.31402470570802693,
            0.029782031815020992,
            4
        ],
        "(3, 3, 3, 0)": [
            0.16150501141614382,
            0.03991715752399529,
            3
        ],
        "(1, 1, 1, 0)": [
            0.29980917286872866,
            0.0,
            1
        ],
        "(3, 3, 'Failed', 0)": [
            0.26241457017262776,
            0.0,
            1
        ]
    },
    "results": [
        {
            "Num of features": 3,
            "Num of active features": 1,
            "Num of accurate feature": 0,
            "Geometry": 1,
            "Collapsed": 0,
            "Loss": 0.3644117356141408,
            "Rank": 2,
            "Singular values": [
                1.0021387338638306,
                0.46753987669944763
            ]
        },
        {
            "Num of features": 3,
            "Num of active features": 3,
            "Num of accurate feature": 2,
            "Geometry": "Failed",
            "Collapsed": 0,
            "Loss": 0.31095473806063334,
            "Rank": 2,
            "Singular values": [
                1.6316676139831543,
                1.0299464464187622
            ]
        },
        {
            "Num of features": 3,
            "Num of active features": 3,
            "Num of accurate feature": 3,
            "Geometry": 3,
            "Collapsed": 0,
            "Loss": 0.16670141077041625,
            "Rank": 2,
            "Singular values": [
                1.1768989562988281,
                1.0997205972671509
            ]
        },
        {
            "Num of features": 3,
            "Num of active features": 3,
            "Num of accurate feature": 2,
            "Geometry": "Failed",
            "Collapsed": 0,
            "Loss": 0.30954232494036354,
            "Rank": 2,
            "Singular values": [
                1.3187648057937622,
                0.7165654897689819
            ]
        },
        {
            "Num of features": 3,
            "Num of active features": 3,
            "Num of accurate feature": 3,
            "Geometry": 3,
            "Collapsed": 0,
            "Loss": 0.20758758076032002,
            "Rank": 2,
            "Singular values": [
                1.4170747995376587,
                1.409018874168396
            ]
        },
        {
            "Num of features": 3,
            "Num of active features": 1,
            "Num of accurate feature": 1,
            "Geometry": 1,
            "Collapsed": 0,
            "Loss": 0.29980917286872866,
            "Rank": 2,
            "Singular values": [
                1.0409890413284302,
                0.31926605105400085
            ]
        },
        {
            "Num of features": 3,
            "Num of active features": 3,
            "Num of accurate feature": 2,
            "Geometry": "Failed",
            "Collapsed": 0,
            "Loss": 0.2760286268393199,
            "Rank": 2,
            "Singular values": [
                1.5924676656723022,
                1.3418221473693848
            ]
        },
        {
            "Num of features": 3,
            "Num of active features": 3,
            "Num of accurate feature": 3,
            "Geometry": 3,
            "Collapsed": 0,
            "Loss": 0.11022604271769523,
            "Rank": 2,
            "Singular values": [
                1.4247918128967285,
                1.3501627445220947
            ]
        },
        {
            "Num of features": 3,
            "Num of active features": 3,
            "Num of accurate feature": 2,
            "Geometry": "Failed",
            "Collapsed": 0,
            "Loss": 0.3595731329917908,
            "Rank": 2,
            "Singular values": [
                2.1926651000976562,
                0.8259779810905457
            ]
        },
        {
            "Num of features": 3,
            "Num of active features": 3,
            "Num of accurate feature": 3,
            "Geometry": "Failed",
            "Collapsed": 0,
            "Loss": 0.26241457017262776,
            "Rank": 2,
            "Singular values": [
                1.7048131227493286,
                0.7731007933616638
            ]
        }
    ],
    "average embeddings summary": {
        "(1, 0, 1, 0)": {
            "(1, 0, 0)": [
                0.4173479974269867,
                0.18057163059711456
            ],
            "(0, 0, 1)": [
                -0.18980903923511505,
                -0.8654992580413818
            ],
            "(0, 1, 0)": [
                0.4332607388496399,
                0.20798766613006592
            ]
        },
        "(3, 2, 'Failed', 0)": {
            "(0, 0, 1)": [
                -0.33713048696517944,
                0.5424337387084961
            ],
            "(0, 1, 0)": [
                0.898219108581543,
                1.3243781328201294
            ],
            "(1, 0, 0)": [
                0.8060863018035889,
                -0.3235540986061096
            ]
        },
        "(3, 3, 3, 0)": {
            "(1, 0, 0)": [
                0.9102323055267334,
                -0.28037720918655396
            ],
            "(0, 1, 0)": [
                0.008074425160884857,
                0.9957887530326843
            ],
            "(0, 0, 1)": [
                -0.740456759929657,
                -0.3839344382286072
            ]
        },
        "(1, 1, 1, 0)": {
            "(0, 1, 0)": [
                0.3297155499458313,
                0.5920860171318054
            ],
            "(0, 0, 1)": [
                -0.5103572607040405,
                -0.19597561657428741
            ],
            "(1, 0, 0)": [
                0.3113735020160675,
                0.57487952709198
            ]
        },
        "(3, 3, 'Failed', 0)": {
            "(0, 1, 0)": [
                0.23678329586982727,
                0.7393404841423035
            ],
            "(1, 0, 0)": [
                1.3654757738113403,
                -0.11918435245752335
            ],
            "(0, 0, 1)": [
                -0.976902961730957,
                -0.26136869192123413
            ]
        }
    },
    "model summary": {
        "(1, 0, 1, 0)": {
            "convs.0.bias": [
                0.0,
                0.2738664448261261,
                0.0
            ],
            "convs.0.lin.weight": [
                [
                    -0.17998433113098145,
                    -0.8708640336990356,
                    -0.19551801681518555
                ],
                [
                    -2.6905674934387207,
                    -3.0619072914123535,
                    3.751166820526123
                ],
                [
                    -0.507353663444519,
                    -0.9299246072769165,
                    -0.38491928577423096
                ]
            ],
            "convs.1.bias": [
                0.9221952557563782,
                1.050372838973999
            ],
            "convs.1.lin.weight": [
                [
                    -0.5681499242782593,
                    -1.5420054197311401,
                    0.8545286655426025
                ],
                [
                    0.44432660937309265,
                    -2.6567211151123047,
                    -0.7004321813583374
                ]
            ],
            "lin_out.weight": [
                [
                    -0.3682878017425537,
                    1.3010547161102295
                ],
                [
                    -0.6978339552879333,
                    1.499437928199768
                ],
                [
                    -1.8139970302581787,
                    -3.1552839279174805
                ]
            ],
            "lin_out.bias": [
                -0.8647186756134033,
                -0.7623538970947266,
                -1.7211378812789917
            ]
        },
        "(3, 2, 'Failed', 0)": {
            "convs.0.bias": [
                -0.09442075341939926,
                -2.2501423358917236,
                0.6626342535018921
            ],
            "convs.0.lin.weight": [
                [
                    0.0026699162553995848,
                    -0.6968681812286377,
                    -0.3062191307544708
                ],
                [
                    4.9065752029418945,
                    0.582577109336853,
                    -0.2963044047355652
                ],
                [
                    0.06813240796327591,
                    4.2382426261901855,
                    -2.992995500564575
                ]
            ],
            "convs.1.bias": [
                -1.7729370594024658,
                -0.3110664188861847
            ],
            "convs.1.lin.weight": [
                [
                    -0.8764049410820007,
                    6.645008087158203,
                    2.2200582027435303
                ],
                [
                    0.801293134689331,
                    -8.183768272399902,
                    1.389086127281189
                ]
            ],
            "lin_out.weight": [
                [
                    7.237004280090332,
                    -12.220930099487305
                ],
                [
                    1.8827112913131714,
                    3.3482441902160645
                ],
                [
                    -2.1157150268554688,
                    0.4114086925983429
                ]
            ],
            "lin_out.bias": [
                -3.205059766769409,
                -4.3483710289001465,
                -0.7940137386322021
            ]
        },
        "(3, 3, 3, 0)": {
            "convs.0.bias": [
                -0.9875195622444153,
                -2.304046392440796,
                -2.351107597351074
            ],
            "convs.0.lin.weight": [
                [
                    -0.12198014557361603,
                    4.277723789215088,
                    -0.09853267669677734
                ],
                [
                    -0.578490674495697,
                    0.6642434597015381,
                    4.97804069519043
                ],
                [
                    4.964807510375977,
                    0.907364010810852,
                    0.5988251566886902
                ]
            ],
            "convs.1.bias": [
                0.00880775973200798,
                0.1836118996143341
            ],
            "convs.1.lin.weight": [
                [
                    0.03310490772128105,
                    -6.08389949798584,
                    7.290287017822266
                ],
                [
                    2.4543840885162354,
                    -5.6333537101745605,
                    -5.066190242767334
                ]
            ],
            "lin_out.weight": [
                [
                    10.014479637145996,
                    -6.325675010681152
                ],
                [
                    -0.14681261777877808,
                    6.1211771965026855
                ],
                [
                    -9.00953197479248,
                    -7.160760402679443
                ]
            ],
            "lin_out.bias": [
                -2.324702024459839,
                -3.1837918758392334,
                -3.4724841117858887
            ]
        },
        "(1, 1, 1, 0)": {
            "convs.0.bias": [
                -2.2232820987701416,
                0.0,
                0.0
            ],
            "convs.0.lin.weight": [
                [
                    -0.03864208236336708,
                    0.08678557723760605,
                    4.618618965148926
                ],
                [
                    -0.616581916809082,
                    -0.22063684463500977,
                    -0.43954741954803467
                ],
                [
                    -0.5810179710388184,
                    -0.2861877679824829,
                    -0.5895079374313354
                ]
            ],
            "convs.1.bias": [
                0.3329145610332489,
                0.5950867533683777
            ],
            "convs.1.lin.weight": [
                [
                    -7.569059371948242,
                    0.5207042098045349,
                    0.4142438769340515
                ],
                [
                    -7.100437164306641,
                    -0.372146874666214,
                    -0.5968689322471619
                ]
            ],
            "lin_out.weight": [
                [
                    1.9761395454406738,
                    0.38295868039131165
                ],
                [
                    1.7345882654190063,
                    0.793475329875946
                ],
                [
                    -13.598010063171387,
                    -19.36263084411621
                ]
            ],
            "lin_out.bias": [
                -1.5477324724197388,
                -1.6824820041656494,
                -1.198448657989502
            ]
        },
        "(3, 3, 'Failed', 0)": {
            "convs.0.bias": [
                -1.9940195083618164,
                0.9519599080085754,
                -1.402255654335022
            ],
            "convs.0.lin.weight": [
                [
                    0.5832746028900146,
                    0.12407121807336807,
                    4.431824207305908
                ],
                [
                    -3.328643798828125,
                    -1.4605071544647217,
                    -0.0674322322010994
                ],
                [
                    5.36958646774292,
                    -0.3323236107826233,
                    0.36464765667915344
                ]
            ],
            "convs.1.bias": [
                -0.6047033667564392,
                2.38067889213562
            ],
            "convs.1.lin.weight": [
                [
                    -11.210765838623047,
                    1.0176715850830078,
                    4.099646091461182
                ],
                [
                    -5.869612216949463,
                    -2.232478618621826,
                    -3.391136407852173
                ]
            ],
            "lin_out.weight": [
                [
                    6.5580339431762695,
                    -9.29662036895752
                ],
                [
                    -0.7967404723167419,
                    5.448766231536865
                ],
                [
                    -6.945545673370361,
                    -7.804531574249268
                ]
            ],
            "lin_out.bias": [
                -4.631904602050781,
                -2.3326609134674072,
                -2.7675206661224365
            ]
        }
    }
}