{
    "experiment_config": {
        "mode": "tox21",
        "root": "data/Tox21",
        "batch_size": 32,
        "train_split": 0.8,
        "mask_missing": true,
        "use_weighting": false,
        "importance": [
            100.0,
            100.0
        ],
        "hidden_dims": [
            24,
            24
        ],
        "num_categories": 12,
        "in_dim": 9,
        "lr": 0.001,
        "model_type": "GIN",
        "loss": "BCE",
        "pooling": "mean",
        "gm_p": 1.0,
        "device": "cpu",
        "phase1_epochs": 0,
        "phase2_epochs": 50,
        "log_dir": "runs/tox21/GIN/mean/[24, 24]",
        "file_path": "tox21/GIN/mean/[24, 24]",
        "save": true,
        "num_nodes": 20,
        "p": 0.8
    },
    "sparcity": 0.8694764120978721,
    "empty graph stats": 0.4200100600719452,
    "singular value ratio": [
        0.0,
        0.0
    ],
    "summary format:": "Key: (Num of active features, Num of accurate feature, Geometry, Collapsed). Loss, s.d. Loss, Count",
    "collapsed percentage": 0.0,
    "summary": {
        "(5, 0, 'Failed', 4)": [
            0.6412594341612482,
            0.0,
            1
        ],
        "(6, 0, 'Failed', 0)": [
            0.6165305484424938,
            0.0,
            1
        ]
    },
    "results": [
        {
            "Num of features": 12,
            "Num of active features": 5,
            "Num of accurate feature": 0,
            "Geometry": "Failed",
            "Collapsed": 4,
            "Loss": 0.6412594341612482,
            "Rank": 9,
            "Singular values": [
                16.836896896362305,
                1.594525694847107,
                0.8138851523399353,
                0.6071752905845642,
                0.266179621219635,
                0.168706014752388,
                0.11009688675403595,
                0.08871682733297348,
                0.0348738431930542
            ]
        },
        {
            "Num of features": 12,
            "Num of active features": 6,
            "Num of accurate feature": 0,
            "Geometry": "Failed",
            "Collapsed": 0,
            "Loss": 0.6165305484424938,
            "Rank": 9,
            "Singular values": [
                9.722663879394531,
                2.0500147342681885,
                0.851624608039856,
                0.671485960483551,
                0.32163432240486145,
                0.2509603798389435,
                0.09396906197071075,
                0.045770879834890366,
                0.039591941982507706
            ]
        }
    ],
    "average embeddings summary": {
        "(5, 0, 'Failed', 4)": {
            "(0, 0, 0, 1, 0, 0, 0, 0, 0, 0, 0, 0)": [
                -0.31261327862739563,
                -0.946712076663971,
                1.314424991607666,
                0.8464698195457458,
                -0.31858009099960327,
                0.12640146911144257,
                -1.1094701290130615,
                -0.22351258993148804,
                0.08907616138458252,
                -1.5893455743789673,
                1.5574169158935547,
                0.39318156242370605,
                -0.7254765629768372,
                -0.2692219316959381,
                1.295041561126709,
                -0.8575067520141602,
                -0.34759315848350525,
                0.8672201037406921,
                0.5427035093307495,
                -0.6833274364471436,
                0.153279647231102,
                -1.2701945304870605,
                1.162781000137329,
                -1.7157715559005737
            ],
            "(0, 0, 0, 0, 0, 0, 0, 1, 0, 0, 0, 0)": [
                -0.374162495136261,
                -1.4969631433486938,
                1.6561858654022217,
                1.6279706954956055,
                0.012791728600859642,
                0.04066786170005798,
                -1.6277903318405151,
                0.17261584103107452,
                0.37715938687324524,
                -1.939366340637207,
                1.9960944652557373,
                0.2461244910955429,
                -1.2543359994888306,
                0.00027394318021833897,
                1.4009969234466553,
                -0.8791289329528809,
                -0.41373834013938904,
                1.0733681917190552,
                0.5879964828491211,
                -1.0700416564941406,
                -0.1017073318362236,
                -1.5827033519744873,
                1.392021894454956,
                -2.3051798343658447
            ],
            "(1, 0, 0, 0, 0, 0, 0, 0, 0, 0, 0, 0)": [
                -0.3208900988101959,
                -1.3909026384353638,
                1.6403748989105225,
                1.407971978187561,
                -0.453610897064209,
                0.37012290954589844,
                -1.7681477069854736,
                -0.42703837156295776,
                0.47351473569869995,
                -2.027578830718994,
                1.799764633178711,
                0.36065158247947693,
                -1.2493374347686768,
                -0.07679425925016403,
                1.7239768505096436,
                -1.28109610080719,
                -0.49869123101234436,
                1.0934908390045166,
                0.5966745018959045,
                -0.9419394731521606,
                -0.24084720015525818,
                -1.6509727239608765,
                1.732511281967163,
                -2.29323148727417
            ],
            "(0, 0, 1, 0, 0, 0, 0, 0, 0, 0, 0, 0)": [
                -0.22061975300312042,
                -0.9531112909317017,
                1.22933030128479,
                0.7998791933059692,
                -0.34797582030296326,
                0.11667430400848389,
                -1.0201213359832764,
                -0.06121126562356949,
                0.14751362800598145,
                -1.4138492345809937,
                1.485081434249878,
                0.3880089819431305,
                -0.6962555050849915,
                -0.22345495223999023,
                1.1841850280761719,
                -0.726912796497345,
                -0.3775002360343933,
                0.8700791001319885,
                0.5867469906806946,
                -0.6390627026557922,
                0.06122604012489319,
                -1.172369360923767,
                1.0797723531723022,
                -1.6981858015060425
            ],
            "(0, 0, 0, 0, 0, 0, 1, 0, 0, 0, 0, 0)": [
                -0.06384913623332977,
                -1.0302271842956543,
                1.2344439029693604,
                0.930666446685791,
                -0.6737708449363708,
                0.3139319121837616,
                -1.1777660846710205,
                -0.2216920256614685,
                0.24237234890460968,
                -1.6792666912078857,
                1.6805179119110107,
                0.5301324129104614,
                -0.8613081574440002,
                -0.24586600065231323,
                1.4682023525238037,
                -1.052244782447815,
                -0.4098811149597168,
                1.019805669784546,
                0.6864804625511169,
                -0.659318208694458,
                0.04236885905265808,
                -1.4459590911865234,
                1.3338072299957275,
                -2.0090105533599854
            ],
            "(0, 0, 0, 0, 1, 0, 0, 0, 0, 0, 0, 0)": [
                -0.30523258447647095,
                -1.5684305429458618,
                1.700466275215149,
                1.6071405410766602,
                -0.38774099946022034,
                0.33652010560035706,
                -1.8644219636917114,
                -0.265594482421875,
                0.4707197844982147,
                -2.1579296588897705,
                2.1039535999298096,
                0.3943547010421753,
                -1.38401460647583,
                -0.06042361631989479,
                1.7794541120529175,
                -1.2934528589248657,
                -0.49658745527267456,
                1.2232240438461304,
                0.6348356008529663,
                -1.0543538331985474,
                -0.1988975554704666,
                -1.7880779504776,
                1.7498682737350464,
                -2.5359597206115723
            ],
            "(0, 0, 0, 0, 0, 0, 0, 0, 0, 0, 1, 0)": [
                -0.4140439033508301,
                -1.3125290870666504,
                1.6979568004608154,
                1.1497761011123657,
                -0.5409337878227234,
                0.28361788392066956,
                -1.7500300407409668,
                -0.6255795359611511,
                0.188009575009346,
                -1.9948368072509766,
                1.7767820358276367,
                0.4525796175003052,
                -1.1370717287063599,
                -0.3101626932621002,
                1.8750869035720825,
                -1.417508602142334,
                -0.3602563738822937,
                1.1781010627746582,
                0.45733749866485596,
                -0.8240123391151428,
                -0.014104979112744331,
                -1.6771814823150635,
                1.6231106519699097,
                -2.0880062580108643
            ],
            "(0, 1, 0, 0, 0, 0, 0, 0, 0, 0, 0, 0)": [
                -0.1214958056807518,
                -0.8821666836738586,
                1.1742984056472778,
                0.8356252312660217,
                -0.7265418767929077,
                0.3226935565471649,
                -1.2478086948394775,
                -0.4382416605949402,
                0.2753664255142212,
                -1.6744439601898193,
                1.554564356803894,
                0.46499791741371155,
                -0.9318879246711731,
                -0.2609763443470001,
                1.5300030708312988,
                -1.1470654010772705,
                -0.327222615480423,
                0.9914875030517578,
                0.5318129062652588,
                -0.5974649786949158,
                0.0006367762689478695,
                -1.5503531694412231,
                1.3888064622879028,
                -1.8894314765930176
            ],
            "(0, 0, 0, 0, 0, 0, 0, 0, 0, 1, 0, 0)": [
                -0.31489747762680054,
                -1.6726878881454468,
                1.6757241487503052,
                1.8106896877288818,
                -0.15697744488716125,
                0.17453262209892273,
                -1.835590124130249,
                0.1250617355108261,
                0.5534853339195251,
                -2.0640528202056885,
                2.26605224609375,
                0.29818686842918396,
                -1.4721200466156006,
                0.02224845625460148,
                1.5983123779296875,
                -1.0607101917266846,
                -0.445984423160553,
                1.2360602617263794,
                0.6343256831169128,
                -1.098751187324524,
                -0.2295091301202774,
                -1.7721949815750122,
                1.5819406509399414,
                -2.6629350185394287
            ]
        },
        "(6, 0, 'Failed', 0)": {
            "(0, 0, 0, 1, 0, 0, 0, 0, 0, 0, 0, 0)": [
                -0.04312470182776451,
                0.9769772887229919,
                -0.08630335330963135,
                -0.30927860736846924,
                0.31673362851142883,
                -0.19500954449176788,
                0.4491863250732422,
                -0.26786482334136963,
                0.14473320543766022,
                -0.06429512053728104,
                -0.6635158658027649,
                0.3576126992702484,
                1.0948418378829956,
                0.04020145907998085,
                0.5523306727409363,
                -0.25622639060020447,
                0.33583906292915344,
                0.704799473285675,
                0.4277810752391815,
                0.30682840943336487,
                1.1040023565292358,
                -0.1437460482120514,
                -0.14795278012752533,
                0.2664414942264557
            ],
            "(0, 0, 0, 0, 0, 0, 0, 1, 0, 0, 0, 0)": [
                -0.2637220621109009,
                1.2447395324707031,
                -0.29157644510269165,
                -0.6700514554977417,
                0.30945342779159546,
                -0.2405926138162613,
                0.887164831161499,
                0.21155314147472382,
                0.3036893308162689,
                -0.6847781538963318,
                -0.5629429817199707,
                0.6011855006217957,
                1.580053687095642,
                0.14475466310977936,
                0.5714082717895508,
                -0.8972059488296509,
                0.49313613772392273,
                1.1408989429473877,
                0.2175406813621521,
                -0.1432800143957138,
                1.5881602764129639,
                -0.1378633826971054,
                0.20893412828445435,
                0.8296251893043518
            ],
            "(1, 0, 0, 0, 0, 0, 0, 0, 0, 0, 0, 0)": [
                -0.005012691020965576,
                1.4582493305206299,
                -0.039151400327682495,
                -0.5804644823074341,
                0.34241923689842224,
                -0.24984034895896912,
                1.3399863243103027,
                -0.13235051929950714,
                0.49064141511917114,
                -0.5529718995094299,
                -1.0235979557037354,
                0.8246892094612122,
                1.5533746480941772,
                0.17375323176383972,
                0.8463422656059265,
                -0.7852753400802612,
                0.6771708726882935,
                1.150465726852417,
                0.4926389753818512,
                -0.030928349122405052,
                1.853379487991333,
                -0.28743594884872437,
                0.4193611145019531,
                0.433723509311676
            ],
            "(0, 0, 1, 0, 0, 0, 0, 0, 0, 0, 0, 0)": [
                -0.07564153522253036,
                1.019240140914917,
                -0.25496968626976013,
                -0.23750090599060059,
                0.31152892112731934,
                -0.25697624683380127,
                0.4302106201648712,
                -0.302548348903656,
                0.15608833730220795,
                -0.11199639737606049,
                -0.7179772257804871,
                0.32291632890701294,
                1.101127028465271,
                0.12206382304430008,
                0.5311156511306763,
                -0.2123355120420456,
                0.35507920384407043,
                0.6842175126075745,
                0.4039967954158783,
                0.29736989736557007,
                1.010776162147522,
                -0.07116274535655975,
                -0.10990606248378754,
                0.2514247000217438
            ],
            "(0, 0, 0, 0, 0, 0, 1, 0, 0, 0, 0, 0)": [
                0.023579148575663567,
                1.2892510890960693,
                -0.3050938844680786,
                -0.19225506484508514,
                0.19811111688613892,
                -0.4594222903251648,
                0.7050588130950928,
                -0.3081788420677185,
                0.3102990388870239,
                -0.11796996742486954,
                -0.9566230773925781,
                0.31921303272247314,
                1.30269455909729,
                0.3049343228340149,
                0.5018168091773987,
                -0.4039250612258911,
                0.45481282472610474,
                0.7332649230957031,
                0.45994263887405396,
                0.37503141164779663,
                1.2896273136138916,
                -0.027088169008493423,
                0.07008549571037292,
                0.10254453867673874
            ],
            "(0, 0, 0, 0, 1, 0, 0, 0, 0, 0, 0, 0)": [
                -0.10926590859889984,
                1.4621005058288574,
                -0.16953395307064056,
                -0.6191490292549133,
                0.3141555190086365,
                -0.2657347619533539,
                1.193557858467102,
                0.028251470997929573,
                0.4138350188732147,
                -0.626532256603241,
                -0.9112663865089417,
                0.7254669070243835,
                1.6186583042144775,
                0.2082425355911255,
                0.7919225096702576,
                -0.8505231738090515,
                0.6405853033065796,
                1.1486469507217407,
                0.4013379216194153,
                -0.08656004071235657,
                1.7540191411972046,
                -0.24588842689990997,
                0.3907299339771271,
                0.5746402144432068
            ],
            "(0, 0, 0, 0, 0, 0, 0, 0, 0, 0, 1, 0)": [
                -0.14273793995380402,
                1.2289667129516602,
                -0.06879551708698273,
                -0.5537159442901611,
                0.4344520568847656,
                -0.14200791716575623,
                0.843987762928009,
                -0.37335383892059326,
                0.34236547350883484,
                -0.33506113290786743,
                -1.0296686887741089,
                0.7037797570228577,
                1.3304929733276367,
                0.06294266134500504,
                0.8692371845245361,
                -0.31032997369766235,
                0.5841345191001892,
                0.9236009120941162,
                0.506704568862915,
                0.15712153911590576,
                1.3183612823486328,
                -0.2594977617263794,
                0.1531120091676712,
                0.33591052889823914
            ],
            "(0, 1, 0, 0, 0, 0, 0, 0, 0, 0, 0, 0)": [
                -0.005924511235207319,
                1.183049201965332,
                -0.32646602392196655,
                -0.19404521584510803,
                0.14233815670013428,
                -0.4337793290615082,
                0.4877401888370514,
                -0.4894573986530304,
                0.23107191920280457,
                0.06411739438772202,
                -1.023230791091919,
                0.24591095745563507,
                1.1833159923553467,
                0.2682967185974121,
                0.4829460680484772,
                -0.1493391990661621,
                0.4856887459754944,
                0.5375462174415588,
                0.4720788598060608,
                0.5360783934593201,
                0.944299042224884,
                -0.045956578105688095,
                -0.0027304356917738914,
                -0.03819071501493454
            ],
            "(0, 0, 0, 0, 0, 0, 0, 0, 0, 1, 0, 0)": [
                -0.1447523683309555,
                1.4543631076812744,
                -0.1973780244588852,
                -0.7771013975143433,
                0.10419843345880508,
                -0.30638381838798523,
                1.1973016262054443,
                0.44785448908805847,
                0.2601906657218933,
                -0.7623343467712402,
                -0.5751034617424011,
                0.5659816861152649,
                1.6766506433486938,
                0.22752933204174042,
                0.6382170915603638,
                -1.2666237354278564,
                0.6411970257759094,
                1.1384469270706177,
                0.2456474006175995,
                -0.177577406167984,
                1.9075871706008911,
                -0.23081167042255402,
                0.39116770029067993,
                0.8166802525520325
            ]
        }
    },
    "model summary": {
        "(5, 0, 'Failed', 4)": {
            "convs.0.eps": [
                -0.03227652981877327
            ],
            "convs.0.nn.0.weight": [
                [
                    -0.2101546674966812,
                    0.12104371935129166,
                    0.19842851161956787,
                    0.1579774171113968,
                    -0.3588349521160126,
                    -0.47404715418815613,
                    0.2661421597003937,
                    0.3123491108417511,
                    -0.20409879088401794
                ],
                [
                    -0.09796142578125,
                    0.4711909890174866,
                    0.14945173263549805,
                    -0.09385451674461365,
                    0.3835224509239197,
                    0.04487290605902672,
                    0.060976915061473846,
                    -0.1209670677781105,
                    0.5151196122169495
                ],
                [
                    0.06790759414434433,
                    -0.5931763052940369,
                    -0.07595744729042053,
                    -0.151641383767128,
                    0.2499612718820572,
                    0.07205397635698318,
                    0.2780756950378418,
                    -0.266470342874527,
                    0.1042746752500534
                ],
                [
                    0.0943194255232811,
                    0.3815564513206482,
                    -0.22099396586418152,
                    -0.2051914930343628,
                    0.76998370885849,
                    0.8532489538192749,
                    -0.25031328201293945,
                    -0.3171822428703308,
                    -0.00850007962435484
                ],
                [
                    -0.09227478504180908,
                    0.30086082220077515,
                    0.036217618733644485,
                    0.1504763513803482,
                    -0.14682631194591522,
                    0.14673849940299988,
                    -0.14559109508991241,
                    -0.17329148948192596,
                    -0.24242877960205078
                ],
                [
                    -0.2381228655576706,
                    0.30132266879081726,
                    0.3250753879547119,
                    -0.3300911784172058,
                    -0.08245599269866943,
                    -0.29628047347068787,
                    -0.3010346591472626,
                    0.2804238498210907,
                    -0.12812849879264832
                ],
                [
                    -0.3004966378211975,
                    -0.5139226913452148,
                    0.19787780940532684,
                    0.08704648166894913,
                    0.1606810986995697,
                    0.049646101891994476,
                    0.1787119358778,
                    0.24685883522033691,
                    0.2247796654701233
                ],
                [
                    -0.06325992196798325,
                    0.3082166910171509,
                    -0.030665596947073936,
                    -0.28337156772613525,
                    0.0785265788435936,
                    -0.030530214309692383,
                    0.13037244975566864,
                    -0.16437053680419922,
                    0.26976582407951355
                ],
                [
                    0.21081838011741638,
                    0.11277053505182266,
                    -0.2966557443141937,
                    -0.0955188050866127,
                    -0.25863391160964966,
                    0.30337271094322205,
                    0.17470422387123108,
                    -0.44219622015953064,
                    -0.1607511043548584
                ],
                [
                    0.13709354400634766,
                    -0.5505756735801697,
                    0.1603507548570633,
                    -0.21804173290729523,
                    0.0212284866720438,
                    0.10661733150482178,
                    -0.31601712107658386,
                    -0.172372967004776,
                    -0.010877963155508041
                ],
                [
                    -0.0413840226829052,
                    -0.12813572585582733,
                    0.18235501646995544,
                    -0.11447922885417938,
                    0.05627473443746567,
                    0.036109328269958496,
                    -0.3021845817565918,
                    -0.11281752586364746,
                    -0.04865972325205803
                ],
                [
                    0.1221911832690239,
                    -0.1797008514404297,
                    -0.48903417587280273,
                    -0.2855900526046753,
                    -0.3084908723831177,
                    0.4429455101490021,
                    -0.01876920834183693,
                    -0.05666026845574379,
                    -0.10976757109165192
                ],
                [
                    -0.039624106138944626,
                    -0.5031918287277222,
                    -0.35270312428474426,
                    0.21740607917308807,
                    0.3703424036502838,
                    0.7224582433700562,
                    0.24156427383422852,
                    -0.18085548281669617,
                    -0.37296319007873535
                ],
                [
                    -0.09370999038219452,
                    0.09978663921356201,
                    -0.24041759967803955,
                    -0.24491581320762634,
                    0.3252568244934082,
                    -0.2412930727005005,
                    -0.051729798316955566,
                    -0.2899027466773987,
                    -0.13909849524497986
                ],
                [
                    0.13144882023334503,
                    -0.28692781925201416,
                    -0.055874213576316833,
                    0.1090884804725647,
                    -0.061612818390131,
                    0.26350948214530945,
                    -0.21222811937332153,
                    -0.23947888612747192,
                    -0.0006881217123009264
                ],
                [
                    -0.12838433682918549,
                    0.2228183001279831,
                    -0.3305208683013916,
                    0.32224029302597046,
                    0.05681696534156799,
                    0.13897773623466492,
                    -0.14697811007499695,
                    0.138391375541687,
                    0.2076118290424347
                ],
                [
                    -0.25964146852493286,
                    -0.13801062107086182,
                    0.182900071144104,
                    -0.16655755043029785,
                    0.21975144743919373,
                    -0.08343605697154999,
                    -0.1107984408736229,
                    -0.022881150245666504,
                    -0.23438744246959686
                ],
                [
                    -0.2573777437210083,
                    0.28243744373321533,
                    0.2585100829601288,
                    0.1542259007692337,
                    -0.05482127517461777,
                    -0.42466774582862854,
                    0.2818092703819275,
                    -0.5201699137687683,
                    0.08264593034982681
                ],
                [
                    -0.0988832339644432,
                    0.18294720351696014,
                    0.14528238773345947,
                    -0.1177697628736496,
                    -0.16366514563560486,
                    -0.0079625453799963,
                    -0.014950355514883995,
                    -0.2998332977294922,
                    -0.30317267775535583
                ],
                [
                    -0.05222184583544731,
                    -0.1047029197216034,
                    -0.3699444532394409,
                    0.27777495980262756,
                    0.2870846390724182,
                    0.21635954082012177,
                    0.12793724238872528,
                    -0.30825990438461304,
                    -0.020495813339948654
                ],
                [
                    0.019584042951464653,
                    0.0673408955335617,
                    0.1943906545639038,
                    -0.32922837138175964,
                    0.11426790058612823,
                    0.14626674354076385,
                    -0.2454518973827362,
                    -0.23199865221977234,
                    0.05348607152700424
                ],
                [
                    0.10486967116594315,
                    -0.15792392194271088,
                    -0.15757045149803162,
                    0.014138852246105671,
                    0.05598042160272598,
                    -0.12234104424715042,
                    -0.17306584119796753,
                    0.509332001209259,
                    0.44874170422554016
                ],
                [
                    -0.08097004145383835,
                    0.31237632036209106,
                    0.12191992998123169,
                    -0.025996597483754158,
                    -0.3606247305870056,
                    -0.28378617763519287,
                    -0.08080598711967468,
                    0.19065271317958832,
                    -0.06291718035936356
                ],
                [
                    -0.04397892579436302,
                    -0.21682104468345642,
                    -0.19957557320594788,
                    -0.12714052200317383,
                    -0.24531757831573486,
                    0.036107540130615234,
                    0.3007758557796478,
                    0.2391461282968521,
                    0.23582349717617035
                ]
            ],
            "convs.0.nn.0.bias": [
                -0.0028406879864633083,
                0.03506032004952431,
                0.24207359552383423,
                0.507583737373352,
                -0.017067020758986473,
                -0.2439441680908203,
                -0.154255673289299,
                0.15169696509838104,
                -0.07911362498998642,
                -0.11571591347455978,
                -0.18211838603019714,
                0.09431108087301254,
                -0.032303906977176666,
                -0.25360438227653503,
                0.18248072266578674,
                0.029185989871621132,
                0.1508702039718628,
                0.13789963722229004,
                -0.21986445784568787,
                -0.14905115962028503,
                0.2915976047515869,
                -0.32252687215805054,
                -0.010997233912348747,
                -0.12148124724626541
            ],
            "convs.0.nn.2.weight": [
                [
                    0.0690695270895958,
                    0.1330479085445404,
                    0.11727973073720932,
                    -0.01909320056438446,
                    0.04288067668676376,
                    -0.1508975476026535,
                    0.2840968370437622,
                    -0.165519118309021,
                    0.022001374512910843,
                    -0.21691174805164337,
                    -0.026087550446391106,
                    0.14099237322807312,
                    0.1139921098947525,
                    0.1820254772901535,
                    0.06316131353378296,
                    -0.13291926681995392,
                    -0.1624341905117035,
                    0.11932922899723053,
                    -0.1838497519493103,
                    -0.03125540912151337,
                    0.15731757879257202,
                    -0.0011733263963833451,
                    -0.015972159802913666,
                    0.11148615926504135
                ],
                [
                    0.09228526800870895,
                    0.23370276391506195,
                    -0.221944659948349,
                    -0.20615552365779877,
                    -0.0034625164698809385,
                    -0.02072690613567829,
                    -0.27867037057876587,
                    0.0696876272559166,
                    -0.5110809206962585,
                    0.19510489702224731,
                    -0.1595659703016281,
                    -0.07825661450624466,
                    -0.4992620050907135,
                    -0.12006324529647827,
                    -0.023225577548146248,
                    0.038230422884225845,
                    -0.09445369988679886,
                    0.1841733455657959,
                    -0.07831000536680222,
                    -0.17378923296928406,
                    -0.07502388954162598,
                    -0.06260736286640167,
                    0.02741350792348385,
                    -0.11995315551757812
                ],
                [
                    -0.0292966365814209,
                    0.33514687418937683,
                    0.06732926517724991,
                    -0.06261569261550903,
                    0.10569936782121658,
                    0.15639686584472656,
                    0.034343380481004715,
                    0.02733965590596199,
                    0.09197275340557098,
                    -0.15783412754535675,
                    0.02376396954059601,
                    0.23513387143611908,
                    0.16569608449935913,
                    -0.04486548900604248,
                    -0.1514977216720581,
                    0.15795981884002686,
                    -0.00789578165858984,
                    0.16512440145015717,
                    0.10985346883535385,
                    0.14604665338993073,
                    -0.1826488971710205,
                    0.0168877225369215,
                    0.03173114359378815,
                    -0.16656389832496643
                ],
                [
                    -0.0031265930738300085,
                    0.0796462893486023,
                    0.026339424774050713,
                    -0.14785386621952057,
                    -0.0691576600074768,
                    -0.06427974998950958,
                    -0.2905885875225067,
                    -0.16167736053466797,
                    -0.4261423945426941,
                    -0.062036048620939255,
                    0.13185535371303558,
                    0.06934982538223267,
                    -0.4430432915687561,
                    0.11767668277025223,
                    -0.19493240118026733,
                    -0.09774614125490189,
                    0.08202986419200897,
                    0.17307797074317932,
                    0.05958912894129753,
                    0.009113872423768044,
                    -0.19532856345176697,
                    0.013074973598122597,
                    0.2240387201309204,
                    0.08896694332361221
                ],
                [
                    -0.18590128421783447,
                    0.11237889528274536,
                    0.08811765164136887,
                    -0.588411271572113,
                    0.18338294327259064,
                    0.029253363609313965,
                    0.3508314788341522,
                    -0.055463749915361404,
                    -0.22163745760917664,
                    -0.01695811189711094,
                    -0.07428989559412003,
                    -0.08841762691736221,
                    -0.05624902620911598,
                    -0.11467453837394714,
                    -0.003638525726273656,
                    0.09394663572311401,
                    0.09954793751239777,
                    -0.07652196288108826,
                    -0.07294714450836182,
                    0.2274993509054184,
                    -0.06795046478509903,
                    0.23065003752708435,
                    -0.1814206838607788,
                    -0.0029746838845312595
                ],
                [
                    -0.19171297550201416,
                    0.04743293672800064,
                    0.0523235984146595,
                    0.004920042585581541,
                    0.0771840438246727,
                    0.11335184425115585,
                    -0.015231030061841011,
                    0.09165361523628235,
                    0.07154657691717148,
                    0.4334000051021576,
                    -0.12247386574745178,
                    0.09632965177297592,
                    -0.3495335876941681,
                    0.20009006559848785,
                    0.15029379725456238,
                    -0.1429487019777298,
                    -0.12918290495872498,
                    -0.4604549705982208,
                    0.038739096373319626,
                    -0.4099594056606293,
                    -0.14904755353927612,
                    0.11386837065219879,
                    0.12557265162467957,
                    -0.14004039764404297
                ],
                [
                    0.009892569854855537,
                    -0.1531827598810196,
                    -0.13084733486175537,
                    0.14819182455539703,
                    -0.05760224908590317,
                    0.15429185330867767,
                    -0.013677554205060005,
                    0.027207912877202034,
                    0.015114427544176579,
                    -0.23325198888778687,
                    -0.1622466892004013,
                    0.10553766041994095,
                    -0.12143128365278244,
                    -0.10540980845689774,
                    -0.09827163070440292,
                    0.07968149334192276,
                    0.1034025326371193,
                    -0.02465137466788292,
                    -0.2029677778482437,
                    -0.0967513918876648,
                    0.167750746011734,
                    0.08418464660644531,
                    0.140882670879364,
                    0.13011682033538818
                ],
                [
                    0.11081144958734512,
                    -0.200972318649292,
                    0.0030880249105393887,
                    -0.07217372953891754,
                    -0.09147057682275772,
                    0.11896584928035736,
                    -0.20218315720558167,
                    0.08537005633115768,
                    -0.15473197400569916,
                    0.08669734746217728,
                    0.14221465587615967,
                    -0.07024150341749191,
                    0.03647221252322197,
                    0.059195779263973236,
                    -0.1058947890996933,
                    0.13199159502983093,
                    0.08905210345983505,
                    0.01931491307914257,
                    -0.15538790822029114,
                    -0.1371619701385498,
                    -0.12666931748390198,
                    -0.11135029792785645,
                    0.17404292523860931,
                    -0.07001572847366333
                ],
                [
                    0.28793081641197205,
                    0.23887568712234497,
                    -0.04850252717733383,
                    -0.26178044080734253,
                    -0.08757159858942032,
                    0.06047462299466133,
                    0.10485117137432098,
                    -0.05984978750348091,
                    -0.30597034096717834,
                    -0.054791342467069626,
                    -0.14863239228725433,
                    0.014278481714427471,
                    -0.48480314016342163,
                    0.08838479965925217,
                    -0.043462205678224564,
                    0.04870442673563957,
                    0.14987747371196747,
                    0.19920951128005981,
                    -0.05840722471475601,
                    -0.013197064399719238,
                    -0.08548636734485626,
                    -0.07453759014606476,
                    0.1283700317144394,
                    0.054036758840084076
                ],
                [
                    -0.0978027731180191,
                    0.20267218351364136,
                    0.09808472543954849,
                    0.31973230838775635,
                    0.42027807235717773,
                    -0.13729488849639893,
                    0.19731950759887695,
                    -0.1512201875448227,
                    0.1353760063648224,
                    0.3372674882411957,
                    0.14702723920345306,
                    0.006324872374534607,
                    0.22089754045009613,
                    -0.14112310111522675,
                    0.12827423214912415,
                    -0.001654117600992322,
                    -0.0014160877326503396,
                    -0.11225910484790802,
                    -0.09164045751094818,
                    0.1341697871685028,
                    0.045179761946201324,
                    0.008144089952111244,
                    -0.005962745752185583,
                    0.18073102831840515
                ],
                [
                    -0.1388808786869049,
                    0.10971098393201828,
                    -0.106329046189785,
                    0.22371259331703186,
                    0.14803141355514526,
                    0.06967759877443314,
                    0.10367179661989212,
                    0.0052095092833042145,
                    -0.08299047499895096,
                    0.1127217561006546,
                    -0.08230454474687576,
                    -0.12525016069412231,
                    0.13660912215709686,
                    0.12125205248594284,
                    0.03895243629813194,
                    0.24272000789642334,
                    0.05577957257628441,
                    0.1348215788602829,
                    -0.12787319719791412,
                    0.18980415165424347,
                    0.20953291654586792,
                    0.10767423361539841,
                    -0.08868595957756042,
                    0.08202841877937317
                ],
                [
                    0.15249839425086975,
                    0.07145754992961884,
                    -0.09879477322101593,
                    0.21020188927650452,
                    0.029620284214615822,
                    -0.0735611766576767,
                    -0.20500388741493225,
                    -0.12177055329084396,
                    0.2275325208902359,
                    0.06852134317159653,
                    -0.0891786590218544,
                    0.13003048300743103,
                    0.2465590238571167,
                    0.12936490774154663,
                    0.08463631570339203,
                    -0.10804733633995056,
                    0.16287297010421753,
                    -0.04338844493031502,
                    -0.11483730375766754,
                    -0.07387013733386993,
                    -0.022464774549007416,
                    -0.021332280710339546,
                    0.011598006822168827,
                    -0.13605725765228271
                ],
                [
                    -0.04165801405906677,
                    0.20806793868541718,
                    0.10884125530719757,
                    -0.00719426991418004,
                    0.35660237073898315,
                    -0.03720533102750778,
                    0.13020995259284973,
                    0.17894847691059113,
                    0.10978417843580246,
                    -0.2776964604854584,
                    -0.006972033064812422,
                    0.15607193112373352,
                    0.2602790594100952,
                    0.13539651036262512,
                    -0.044843025505542755,
                    0.28102752566337585,
                    -0.039948008954524994,
                    -0.08720861375331879,
                    -0.07299413532018661,
                    0.12384124845266342,
                    0.00878161285072565,
                    -0.16091756522655487,
                    0.06841053813695908,
                    0.0664248913526535
                ],
                [
                    0.03486352413892746,
                    -0.2651742994785309,
                    0.0636913925409317,
                    0.6178829073905945,
                    0.22231097519397736,
                    0.04084725305438042,
                    -0.15176324546337128,
                    0.10213471204042435,
                    -0.09996594488620758,
                    0.21878209710121155,
                    -0.0022581482771784067,
                    0.265445351600647,
                    -0.18618789315223694,
                    0.1980096995830536,
                    0.1282392144203186,
                    0.19742371141910553,
                    -0.17057374119758606,
                    -0.21660065650939941,
                    0.19112059473991394,
                    0.10844182223081589,
                    -0.139045849442482,
                    0.17007297277450562,
                    0.0711885616183281,
                    0.14848053455352783
                ],
                [
                    0.16995805501937866,
                    -0.05224119871854782,
                    0.12509290874004364,
                    0.270033597946167,
                    0.003520758356899023,
                    0.16844555735588074,
                    0.22045986354351044,
                    0.14462684094905853,
                    -0.037375014275312424,
                    0.1295771449804306,
                    -0.09200996160507202,
                    0.9088955521583557,
                    0.12751774489879608,
                    -0.07592731714248657,
                    -0.18102209270000458,
                    -0.09603048861026764,
                    0.09851622581481934,
                    -0.08305227756500244,
                    0.13974076509475708,
                    0.10670798271894455,
                    0.19728046655654907,
                    0.23075473308563232,
                    -0.04311279579997063,
                    -0.0867219790816307
                ],
                [
                    0.09306219965219498,
                    0.11596435308456421,
                    -0.015397651121020317,
                    -0.000903380336239934,
                    0.3440660834312439,
                    0.17344628274440765,
                    -0.04569261148571968,
                    -0.1630934327840805,
                    0.19712182879447937,
                    -0.20817546546459198,
                    0.01816590316593647,
                    0.3998495638370514,
                    0.09981650859117508,
                    0.19574172794818878,
                    -0.013993941247463226,
                    0.6539763808250427,
                    0.17592686414718628,
                    -0.3138704299926758,
                    -0.07006433606147766,
                    -0.12418657541275024,
                    0.006581105757504702,
                    -0.30708619952201843,
                    0.04565689340233803,
                    -0.04189390689134598
                ],
                [
                    0.1520908623933792,
                    -0.24602912366390228,
                    0.06233963370323181,
                    0.10055454075336456,
                    0.07139115780591965,
                    -0.029940418899059296,
                    -0.07126566767692566,
                    -0.10450214147567749,
                    -0.18427413702011108,
                    0.0831674188375473,
                    0.0398133210837841,
                    -0.04082277789711952,
                    -0.20152601599693298,
                    0.0647350549697876,
                    0.1502927541732788,
                    -0.07057813555002213,
                    -0.17757637798786163,
                    -0.09839329868555069,
                    0.10593781620264053,
                    -0.20658044517040253,
                    -0.045310862362384796,
                    0.16559459269046783,
                    -0.00931868702173233,
                    0.12356384098529816
                ],
                [
                    0.09674079716205597,
                    -0.08051833510398865,
                    0.07848607748746872,
                    -0.05866510421037674,
                    -0.043834373354911804,
                    0.123845174908638,
                    0.07169569283723831,
                    0.09407699108123779,
                    -0.15219761431217194,
                    -0.025219039991497993,
                    -0.03612224757671356,
                    0.03413233160972595,
                    0.18203476071357727,
                    -0.0870562419295311,
                    0.13094863295555115,
                    0.01529005914926529,
                    0.15806512534618378,
                    0.03141326829791069,
                    -0.14072206616401672,
                    -0.021238872781395912,
                    -0.11460454016923904,
                    -0.16941748559474945,
                    0.17061449587345123,
                    0.014674865640699863
                ],
                [
                    -0.08616776019334793,
                    -0.011152743361890316,
                    -0.10677917301654816,
                    0.035025957971811295,
                    0.11818251013755798,
                    0.09446656703948975,
                    0.03130133077502251,
                    0.054083433002233505,
                    -0.08457335084676743,
                    -0.10637220740318298,
                    -0.0997907891869545,
                    -0.33325666189193726,
                    0.1639561951160431,
                    0.13494354486465454,
                    0.16648434102535248,
                    -0.13048653304576874,
                    0.16987624764442444,
                    0.12330316007137299,
                    0.11998391151428223,
                    0.13906419277191162,
                    -0.004492109175771475,
                    0.10899942368268967,
                    -0.04032180458307266,
                    -0.1826973259449005
                ],
                [
                    0.0460686981678009,
                    -0.16547024250030518,
                    -0.0906314104795456,
                    0.00914508756250143,
                    0.17968429625034332,
                    -0.1105242446064949,
                    -0.02860954776406288,
                    0.04116324707865715,
                    -0.11440103501081467,
                    -0.05756441131234169,
                    0.160385400056839,
                    -0.02620038576424122,
                    0.11283142119646072,
                    -0.15609484910964966,
                    -0.15392529964447021,
                    0.07189873605966568,
                    0.0007715664687566459,
                    -0.15328995883464813,
                    -0.15431423485279083,
                    -0.16966332495212555,
                    -0.11114881187677383,
                    0.05680723115801811,
                    0.16943250596523285,
                    0.12059113383293152
                ],
                [
                    -0.5849667191505432,
                    0.007525662425905466,
                    0.23466628789901733,
                    -0.09509886801242828,
                    -0.03144819661974907,
                    0.05515327677130699,
                    -0.3575896620750427,
                    -0.08757736533880234,
                    0.06165994331240654,
                    0.13284718990325928,
                    0.1431218832731247,
                    -0.3397309482097626,
                    -0.1710054725408554,
                    -0.009086175821721554,
                    0.20782066881656647,
                    -0.6519124507904053,
                    -0.16994890570640564,
                    0.02524232491850853,
                    -0.1418112963438034,
                    -0.15314707159996033,
                    -0.1696794033050537,
                    0.002737724920734763,
                    -0.16689157485961914,
                    -0.0060928151942789555
                ],
                [
                    -0.06132475286722183,
                    -0.016860341653227806,
                    -0.1919742077589035,
                    0.6189908981323242,
                    0.5048127174377441,
                    0.1807847023010254,
                    0.039347175508737564,
                    0.06414718180894852,
                    0.20852762460708618,
                    0.2769199013710022,
                    -0.04675085097551346,
                    0.7713686227798462,
                    0.0067589543759822845,
                    -0.12603293359279633,
                    -0.06450708210468292,
                    0.1643686294555664,
                    0.19855788350105286,
                    -0.03514433279633522,
                    -0.155945286154747,
                    0.14642691612243652,
                    -0.19688144326210022,
                    -0.051137302070856094,
                    -0.047932304441928864,
                    0.03186194226145744
                ],
                [
                    0.08222755044698715,
                    0.18130670487880707,
                    -0.12768536806106567,
                    -0.2468906044960022,
                    -0.2022973895072937,
                    0.006267189048230648,
                    -0.11458811908960342,
                    0.06017756089568138,
                    -0.1017719954252243,
                    -0.06637123227119446,
                    -0.10275956988334656,
                    -0.056092239916324615,
                    -0.36594438552856445,
                    0.06160803139209747,
                    0.12689179182052612,
                    -0.08754131942987442,
                    0.13874393701553345,
                    -0.03290883079171181,
                    0.09160740673542023,
                    0.02081228792667389,
                    0.0141696035861969,
                    0.2908596694469452,
                    0.12032820284366608,
                    0.01265869289636612
                ],
                [
                    -0.20027083158493042,
                    -0.12080848962068558,
                    0.01068707276135683,
                    0.5326977372169495,
                    0.19741952419281006,
                    -0.07411814481019974,
                    0.12812544405460358,
                    0.17630435526371002,
                    0.24537499248981476,
                    0.251876562833786,
                    -0.1453755795955658,
                    0.5057199001312256,
                    0.17917831242084503,
                    -0.11148955672979355,
                    0.1289588063955307,
                    0.21267341077327728,
                    0.02081029675900936,
                    -0.11728625744581223,
                    -0.17505334317684174,
                    0.047116968780756,
                    -0.041144248098134995,
                    -0.07744716107845306,
                    0.17458617687225342,
                    0.10311394184827805
                ]
            ],
            "convs.0.nn.2.bias": [
                -0.21943534910678864,
                0.09821108728647232,
                -0.08577334135770798,
                -0.16134685277938843,
                0.2226075679063797,
                0.13255617022514343,
                -0.16495120525360107,
                -0.17942138016223907,
                -0.04224930703639984,
                0.03578208014369011,
                0.07228923588991165,
                -0.04566991329193115,
                0.22460661828517914,
                0.08438102900981903,
                0.06518354266881943,
                0.10673902928829193,
                0.2066134810447693,
                -0.060802850872278214,
                0.059344515204429626,
                -0.08532140403985977,
                0.15153074264526367,
                0.0027982471510767937,
                -0.0696321353316307,
                0.06609334796667099
            ],
            "convs.1.eps": [
                0.10863669961690903
            ],
            "convs.1.nn.0.weight": [
                [
                    -0.00840369425714016,
                    0.3010512590408325,
                    0.007402003277093172,
                    0.3049318492412567,
                    -0.3332675099372864,
                    0.2248883992433548,
                    0.018395032733678818,
                    0.10379259288311005,
                    0.43014687299728394,
                    0.0049108415842056274,
                    -0.15866196155548096,
                    -0.07761570811271667,
                    -0.23217575252056122,
                    0.20009471476078033,
                    -0.055785346776247025,
                    -0.28652065992355347,
                    -0.009320261888206005,
                    -0.03568282723426819,
                    -0.191675066947937,
                    0.17446847259998322,
                    0.2415555864572525,
                    -0.03829812631011009,
                    0.2725844979286194,
                    0.002723939251154661
                ],
                [
                    -0.09556850790977478,
                    0.03380769118666649,
                    0.005489884875714779,
                    -0.014262932352721691,
                    0.15991148352622986,
                    0.05229254439473152,
                    0.0075071994215250015,
                    -0.07135359197854996,
                    -0.08741245418787003,
                    0.09553663432598114,
                    0.025476861745119095,
                    -0.2548865079879761,
                    0.07784374058246613,
                    -0.19918644428253174,
                    0.1135314479470253,
                    0.050892915576696396,
                    -0.11592405289411545,
                    -0.18293090164661407,
                    -0.22440055012702942,
                    0.1807565540075302,
                    -0.06325112283229828,
                    -0.0979343131184578,
                    -0.18223817646503448,
                    0.04375540092587471
                ],
                [
                    0.08830900490283966,
                    -0.04004361107945442,
                    -0.16361112892627716,
                    -0.045874714851379395,
                    0.043218374252319336,
                    0.22023603320121765,
                    0.105295829474926,
                    -0.10184696316719055,
                    -0.028167597949504852,
                    0.018591875210404396,
                    0.17367364466190338,
                    -0.051653116941452026,
                    0.10559903830289841,
                    0.07026999443769455,
                    -0.159936785697937,
                    0.12844224274158478,
                    -0.008506856858730316,
                    -0.19448089599609375,
                    -0.040087226778268814,
                    -0.09921291470527649,
                    -0.1459963023662567,
                    0.19091084599494934,
                    0.056322671473026276,
                    -0.013189192861318588
                ],
                [
                    0.08291702717542648,
                    -0.26307350397109985,
                    -0.11104772984981537,
                    0.1953868716955185,
                    -0.44203612208366394,
                    0.1689136028289795,
                    -0.08632016181945801,
                    0.17689649760723114,
                    -0.28905221819877625,
                    0.22747579216957092,
                    -0.22560283541679382,
                    -0.0855809897184372,
                    0.039568398147821426,
                    -0.09266810119152069,
                    0.08557911217212677,
                    0.7434043288230896,
                    -0.26292383670806885,
                    -0.16866427659988403,
                    -0.25064027309417725,
                    0.0715867131948471,
                    -0.06538058817386627,
                    0.4364384710788727,
                    -0.42039942741394043,
                    0.020113453269004822
                ],
                [
                    0.05511918291449547,
                    -0.10487962514162064,
                    -0.1287369579076767,
                    -0.1951611489057541,
                    -0.23507367074489594,
                    -0.17219184339046478,
                    0.09489613026380539,
                    -0.05427791550755501,
                    0.22077354788780212,
                    -0.10504908859729767,
                    -0.03196542710065842,
                    0.18264296650886536,
                    0.038894832134246826,
                    0.18950119614601135,
                    0.23716962337493896,
                    0.056312158703804016,
                    0.2619597315788269,
                    0.020714381709694862,
                    -0.0643714964389801,
                    0.09870657324790955,
                    -0.3212054967880249,
                    0.1655554622411728,
                    0.12457586079835892,
                    0.21540628373622894
                ],
                [
                    -0.001965270610526204,
                    -0.17745311558246613,
                    0.1404748558998108,
                    -0.23095673322677612,
                    0.23891179263591766,
                    0.1411966234445572,
                    -0.08889061212539673,
                    0.09975555539131165,
                    0.003826914355158806,
                    0.11435350775718689,
                    -0.07027651369571686,
                    -0.2003123015165329,
                    0.05464993044734001,
                    0.06853029131889343,
                    0.2315865159034729,
                    0.0011640404118224978,
                    0.13719181716442108,
                    0.12912671267986298,
                    -0.0226302333176136,
                    -0.09387572109699249,
                    -0.14164051413536072,
                    0.3055708408355713,
                    -0.19832301139831543,
                    0.05564185604453087
                ],
                [
                    0.21088770031929016,
                    -0.36252695322036743,
                    0.06995786726474762,
                    -0.29802921414375305,
                    0.08907654881477356,
                    -0.3129490911960602,
                    0.03288961201906204,
                    0.077341727912426,
                    0.08768931776285172,
                    0.08124420791864395,
                    -0.12085366249084473,
                    -0.04489314183592796,
                    0.2742137014865875,
                    -0.1985752433538437,
                    -0.014363599941134453,
                    0.09766039997339249,
                    -0.2159690409898758,
                    0.11997728794813156,
                    0.11466217786073685,
                    -0.12634247541427612,
                    0.024364788085222244,
                    -0.25369054079055786,
                    -0.05771007388830185,
                    0.15632349252700806
                ],
                [
                    0.07261409610509872,
                    0.25193437933921814,
                    0.05899052321910858,
                    0.31310778856277466,
                    0.055148884654045105,
                    -0.36842644214630127,
                    -0.20536187291145325,
                    -0.025603266432881355,
                    0.36753302812576294,
                    -0.05965752899646759,
                    0.19421382248401642,
                    -0.05996440723538399,
                    -0.026202896609902382,
                    0.0026117111556231976,
                    0.11988654732704163,
                    0.2491786628961563,
                    0.14381997287273407,
                    0.0689786896109581,
                    0.13009878993034363,
                    0.17170238494873047,
                    -0.2542600929737091,
                    0.04154074564576149,
                    -0.07063166052103043,
                    -0.2045409083366394
                ],
                [
                    0.09626010060310364,
                    -0.0845942422747612,
                    0.07691217958927155,
                    -0.19178186357021332,
                    -0.240070179104805,
                    -0.3067614734172821,
                    0.1628446727991104,
                    0.022351784631609917,
                    0.0708262249827385,
                    0.05234905332326889,
                    -0.11340586841106415,
                    0.10849203914403915,
                    0.06699705868959427,
                    0.09958028048276901,
                    -0.011435616761446,
                    0.09532526135444641,
                    0.039881013333797455,
                    -0.2243189662694931,
                    0.05709345266222954,
                    -0.0755905732512474,
                    -0.08023647964000702,
                    0.37669312953948975,
                    -0.24564367532730103,
                    0.12846176326274872
                ],
                [
                    -0.1708989292383194,
                    -0.3520020544528961,
                    0.26695516705513,
                    -0.21285785734653473,
                    -0.13626781105995178,
                    0.03969528153538704,
                    -0.1295343041419983,
                    -0.11502601206302643,
                    0.06389155238866806,
                    0.16853708028793335,
                    0.20542533695697784,
                    0.19588683545589447,
                    0.286575585603714,
                    0.07000754773616791,
                    0.011324143037199974,
                    0.09142056107521057,
                    -0.332351416349411,
                    0.19717343151569366,
                    -0.1201677992939949,
                    0.1598491370677948,
                    -0.11954934895038605,
                    0.0699639767408371,
                    -0.3190566599369049,
                    -0.06503807753324509
                ],
                [
                    -0.21608492732048035,
                    -0.19380320608615875,
                    0.028117934241890907,
                    0.1042206734418869,
                    -0.05342543125152588,
                    -0.15465644001960754,
                    0.20011873543262482,
                    -0.09521979093551636,
                    0.10677178204059601,
                    -0.193635493516922,
                    -0.04045835882425308,
                    -0.08299688249826431,
                    -0.10245973616838455,
                    0.1494223177433014,
                    -0.19888043403625488,
                    -0.20089076459407806,
                    0.14053970575332642,
                    -0.08958587795495987,
                    0.028620246797800064,
                    0.14599160850048065,
                    0.06126394122838974,
                    -0.16400542855262756,
                    -0.05804741755127907,
                    -0.08029064536094666
                ],
                [
                    -0.013663521967828274,
                    -0.2571924328804016,
                    0.07760263234376907,
                    -0.09142901748418808,
                    0.0021266492549329996,
                    -0.09737759828567505,
                    -0.11919864267110825,
                    -0.03005724772810936,
                    0.07345656305551529,
                    0.2554878890514374,
                    0.18312278389930725,
                    0.17475010454654694,
                    0.2317054569721222,
                    0.16233623027801514,
                    0.018367378041148186,
                    -0.06661980599164963,
                    0.03846457228064537,
                    -0.169313445687294,
                    -0.060374949127435684,
                    0.16550305485725403,
                    -0.13628888130187988,
                    0.10787201672792435,
                    -0.2151743471622467,
                    0.2216016799211502
                ],
                [
                    0.13285385072231293,
                    -0.17104817926883698,
                    0.20014764368534088,
                    0.05218111351132393,
                    0.3085276186466217,
                    -0.0653805211186409,
                    0.024164916947484016,
                    0.16359761357307434,
                    -0.0213472880423069,
                    0.07220189273357391,
                    -0.08348134160041809,
                    0.012654486112296581,
                    0.20301055908203125,
                    0.10710731148719788,
                    0.13026800751686096,
                    0.18050263822078705,
                    -0.05409311130642891,
                    -0.1623704731464386,
                    0.11454986035823822,
                    -0.03032520040869713,
                    -0.273917019367218,
                    0.05849798023700714,
                    0.1716870665550232,
                    -0.11340252310037613
                ],
                [
                    0.07742223888635635,
                    -0.13415083289146423,
                    -0.037698157131671906,
                    -0.5994424819946289,
                    0.37496885657310486,
                    0.08807694911956787,
                    0.042770352214574814,
                    0.11646309494972229,
                    0.22257407009601593,
                    -0.13691569864749908,
                    0.18696226179599762,
                    -0.1593865007162094,
                    -0.3050999939441681,
                    -0.10221607238054276,
                    0.043817535042762756,
                    -0.0874064564704895,
                    0.20356039702892303,
                    -0.12379796802997589,
                    0.059580251574516296,
                    -0.10529723763465881,
                    0.29998597502708435,
                    -0.1127496063709259,
                    -0.007749433629214764,
                    -0.002389121800661087
                ],
                [
                    -0.0024868128821253777,
                    -0.062149807810783386,
                    -0.1697842925786972,
                    0.09208346903324127,
                    -0.026492716744542122,
                    0.025133054703474045,
                    -0.005682722665369511,
                    -0.1766175925731659,
                    0.016930261626839638,
                    0.034656234085559845,
                    0.1549520343542099,
                    -0.18090790510177612,
                    0.08952321112155914,
                    -0.1296994835138321,
                    -0.07898886501789093,
                    0.11877557635307312,
                    -0.04218903183937073,
                    -0.006814870052039623,
                    0.11773642897605896,
                    0.14421714842319489,
                    0.2133139818906784,
                    -0.11130837351083755,
                    -0.197976753115654,
                    -0.21800163388252258
                ],
                [
                    0.0006292492616921663,
                    0.45669546723365784,
                    0.1517120897769928,
                    0.19234977662563324,
                    -0.11399568617343903,
                    0.17631685733795166,
                    0.1538350135087967,
                    -0.622936487197876,
                    0.4619796872138977,
                    -0.13832932710647583,
                    -0.10968997329473495,
                    -0.2278609722852707,
                    -0.17022159695625305,
                    -0.04948486387729645,
                    -0.26516997814178467,
                    0.09563344717025757,
                    -0.10450205206871033,
                    -0.21501871943473816,
                    0.08961321413516998,
                    0.0260696392506361,
                    0.32578426599502563,
                    0.11064129322767258,
                    0.0673503652215004,
                    -0.053796377032995224
                ],
                [
                    0.10939235985279083,
                    -0.19413094222545624,
                    -0.07139454782009125,
                    -0.04678567498922348,
                    -0.07660847157239914,
                    0.20321571826934814,
                    -0.023369725793600082,
                    0.045793548226356506,
                    0.1517096906900406,
                    0.0135109918192029,
                    0.1815260648727417,
                    -0.016249364241957664,
                    0.1267063468694687,
                    0.16528788208961487,
                    -0.1398640275001526,
                    -0.14918625354766846,
                    -0.24822679162025452,
                    0.07469949871301651,
                    -0.017299531027674675,
                    0.05269690975546837,
                    -0.22202815115451813,
                    0.3147079348564148,
                    -0.16583360731601715,
                    -0.05481090396642685
                ],
                [
                    -0.22365811467170715,
                    0.19060193002223969,
                    -0.08221548050642014,
                    -0.07537669688463211,
                    -0.06106164678931236,
                    0.055135127156972885,
                    -0.020277515053749084,
                    0.1155320554971695,
                    0.03944467008113861,
                    -0.10962872952222824,
                    -0.22943952679634094,
                    -0.08981071412563324,
                    -0.2173987627029419,
                    0.14091862738132477,
                    -0.029597265645861626,
                    0.01606842689216137,
                    0.02097897231578827,
                    -0.09674658626317978,
                    -0.23448942601680756,
                    -0.056311748921871185,
                    0.014558934606611729,
                    -0.02428528480231762,
                    -0.16757622361183167,
                    -0.00669509544968605
                ],
                [
                    -0.12106496840715408,
                    0.10915162414312363,
                    -0.19789756834506989,
                    0.017441757023334503,
                    0.022410046309232712,
                    -0.02733725495636463,
                    0.027686212211847305,
                    0.18001602590084076,
                    0.2952362596988678,
                    -0.26358771324157715,
                    -0.2313714176416397,
                    0.05293407663702965,
                    -0.004598484840244055,
                    0.1927647888660431,
                    -0.004688462242484093,
                    -0.20857609808444977,
                    0.1284768432378769,
                    -0.053928352892398834,
                    -0.1810886114835739,
                    0.17500244081020355,
                    0.043714143335819244,
                    0.02754405327141285,
                    0.30864429473876953,
                    -0.058612123131752014
                ],
                [
                    0.08892662823200226,
                    -0.20129230618476868,
                    -0.10649321973323822,
                    -0.1492488831281662,
                    -0.015839101746678352,
                    0.2804657220840454,
                    0.11091417819261551,
                    0.008137619122862816,
                    0.14380720257759094,
                    0.06438836455345154,
                    0.09197539836168289,
                    -0.11218607425689697,
                    0.154011532664299,
                    0.19422076642513275,
                    0.18803372979164124,
                    -0.2655901610851288,
                    0.1640978306531906,
                    -0.1071239486336708,
                    0.18024614453315735,
                    -0.01667742244899273,
                    0.25721198320388794,
                    -0.20943470299243927,
                    -0.03408341482281685,
                    -0.07984745502471924
                ],
                [
                    0.08180972188711166,
                    0.14610430598258972,
                    -0.05939621478319168,
                    -0.018713168799877167,
                    0.13346028327941895,
                    -0.11456643044948578,
                    -0.08498356491327286,
                    -0.13339054584503174,
                    -0.2517111897468567,
                    -0.12855707108974457,
                    -0.20730678737163544,
                    -0.17906375229358673,
                    0.13735124468803406,
                    -0.22080624103546143,
                    0.09214408695697784,
                    -0.06299345940351486,
                    0.10647633671760559,
                    -0.16011831164360046,
                    -0.2564117908477783,
                    -0.16871704161167145,
                    0.17930486798286438,
                    -0.14376409351825714,
                    0.030522137880325317,
                    -0.0976758599281311
                ],
                [
                    -0.18506957590579987,
                    -0.09044080972671509,
                    0.019291946664452553,
                    -0.09912409633398056,
                    0.5895282030105591,
                    -0.07986967265605927,
                    0.07499821484088898,
                    -0.062191192060709,
                    0.10947246849536896,
                    0.0019807815551757812,
                    0.08879444748163223,
                    -0.23235784471035004,
                    -0.13908207416534424,
                    -0.08596090227365494,
                    0.08961097151041031,
                    0.1494559943675995,
                    -0.12175589054822922,
                    0.08651398867368698,
                    -0.11639506369829178,
                    -0.19734936952590942,
                    -0.008038188330829144,
                    -0.14414368569850922,
                    0.12218936532735825,
                    0.1413194239139557
                ],
                [
                    0.12963050603866577,
                    -0.11947423219680786,
                    0.009281388483941555,
                    -0.08400649577379227,
                    0.2078191041946411,
                    -0.1060258001089096,
                    0.14359527826309204,
                    0.06438122689723969,
                    -0.06226817145943642,
                    -0.026456372812390327,
                    -0.19532829523086548,
                    -0.003712526522576809,
                    0.0313141830265522,
                    -0.007056056521832943,
                    -0.1377594918012619,
                    -0.01915792189538479,
                    0.08862392604351044,
                    -0.20780502259731293,
                    -0.0649319663643837,
                    -0.07143262773752213,
                    0.02805909514427185,
                    0.1004733294248581,
                    0.03430572524666786,
                    -0.1158464252948761
                ],
                [
                    -0.055527787655591965,
                    -0.08549842983484268,
                    0.014327816665172577,
                    -0.07014855742454529,
                    0.029281197115778923,
                    0.10231588780879974,
                    0.21038712561130524,
                    0.11469467729330063,
                    0.04215385392308235,
                    0.07198260724544525,
                    -0.034092504531145096,
                    0.19791708886623383,
                    0.2829892039299011,
                    0.04336227476596832,
                    0.15055137872695923,
                    0.07250192761421204,
                    -0.22633570432662964,
                    -0.19460095465183258,
                    0.1726134866476059,
                    -0.1504470854997635,
                    -0.24247194826602936,
                    0.022107098251581192,
                    -0.03357652574777603,
                    0.02180399000644684
                ]
            ],
            "convs.1.nn.0.bias": [
                -0.08286187797784805,
                -0.24947629868984222,
                -0.17318347096443176,
                0.07100747525691986,
                -0.08171886205673218,
                -0.04051199182868004,
                -0.06659256666898727,
                0.09700728952884674,
                0.19270192086696625,
                0.1482495814561844,
                -0.22799205780029297,
                0.03867858275771141,
                -0.05921114236116409,
                0.08700712025165558,
                -0.11815385520458221,
                0.07865101844072342,
                0.23513449728488922,
                -0.2486424446105957,
                -0.18833310902118683,
                -0.1737813651561737,
                0.10373984277248383,
                -0.03074248693883419,
                -0.18945565819740295,
                0.10695575922727585
            ],
            "convs.1.nn.2.weight": [
                [
                    0.0700898990035057,
                    0.2255561798810959,
                    0.0013167381985113025,
                    0.10744231939315796,
                    0.13781648874282837,
                    -0.02030079998075962,
                    0.006437488831579685,
                    -0.10261574387550354,
                    0.06606757640838623,
                    -0.04165883734822273,
                    -0.07242736965417862,
                    -0.13519395887851715,
                    0.11382336914539337,
                    0.3327076733112335,
                    0.1287115514278412,
                    -0.48348990082740784,
                    -0.013012833893299103,
                    0.00792884174734354,
                    -0.023017676547169685,
                    0.06843842566013336,
                    -0.03986929729580879,
                    -0.16893114149570465,
                    0.08196858316659927,
                    -0.049872275441884995
                ],
                [
                    0.11932298541069031,
                    0.09006179869174957,
                    -0.14868596196174622,
                    -0.05950862169265747,
                    -0.1515348255634308,
                    -0.16592226922512054,
                    -0.22802945971488953,
                    -0.11566530913114548,
                    -0.17146363854408264,
                    -0.0595550574362278,
                    -0.06809772551059723,
                    -0.19828231632709503,
                    0.18254558742046356,
                    0.11872610449790955,
                    -0.04194213077425957,
                    0.31818315386772156,
                    -0.10507550090551376,
                    0.19120648503303528,
                    -0.16646240651607513,
                    0.025871414691209793,
                    -0.05368560552597046,
                    0.10093220323324203,
                    -0.14658592641353607,
                    -0.005719109904021025
                ],
                [
                    0.08168885856866837,
                    0.12927089631557465,
                    0.12754935026168823,
                    -0.15365970134735107,
                    0.0022361092269420624,
                    0.12297942489385605,
                    -0.06802520155906677,
                    0.14189594984054565,
                    0.18350261449813843,
                    0.143967866897583,
                    -0.11423729360103607,
                    0.13366875052452087,
                    -0.0052750748582184315,
                    -0.10054045915603638,
                    0.0127857131883502,
                    -0.022986741736531258,
                    0.16489015519618988,
                    0.20998385548591614,
                    -0.2955813407897949,
                    0.014006572775542736,
                    0.07740411907434464,
                    -0.11906931549310684,
                    -0.16078250110149384,
                    0.17130118608474731
                ],
                [
                    0.11345789581537247,
                    -0.0409245491027832,
                    0.0957837924361229,
                    -0.017940541729331017,
                    0.098334401845932,
                    0.015464505180716515,
                    0.2200956642627716,
                    -0.20833972096443176,
                    -0.09690797328948975,
                    0.2878543734550476,
                    0.1141655445098877,
                    0.37217041850090027,
                    -0.14540746808052063,
                    0.10002987086772919,
                    -0.12696661055088043,
                    -0.04384713992476463,
                    0.1487864851951599,
                    0.13644368946552277,
                    -0.26575756072998047,
                    -0.12183179706335068,
                    -0.08309361338615417,
                    0.22812187671661377,
                    -0.18975411355495453,
                    -0.025360694155097008
                ],
                [
                    0.20222969353199005,
                    0.08312729001045227,
                    0.19759699702262878,
                    0.1522035300731659,
                    -0.1362178772687912,
                    -0.27006855607032776,
                    -0.07854451984167099,
                    -0.04943381994962692,
                    -0.010102941654622555,
                    0.09875475615262985,
                    0.02230248786509037,
                    0.10637520998716354,
                    -0.013428141362965107,
                    -0.21993005275726318,
                    0.12662528455257416,
                    0.3364368975162506,
                    -0.0010575607884675264,
                    0.0738738626241684,
                    0.09094665199518204,
                    -0.20122691988945007,
                    -0.15341921150684357,
                    0.04422709718346596,
                    0.07219189405441284,
                    0.050774890929460526
                ],
                [
                    -0.06819295138120651,
                    0.05465850234031677,
                    0.09732649475336075,
                    -0.11598847061395645,
                    0.04332740232348442,
                    -0.13345251977443695,
                    0.22404047846794128,
                    -0.02259684167802334,
                    -0.05438088998198509,
                    0.10107652842998505,
                    0.09306797385215759,
                    -0.11472219228744507,
                    0.1556629091501236,
                    0.15260881185531616,
                    0.14231254160404205,
                    -0.2178266942501068,
                    -0.1781543493270874,
                    0.03154348209500313,
                    0.05823624134063721,
                    -0.06088462844491005,
                    -0.11064848303794861,
                    -0.055123213678598404,
                    -0.021463477984070778,
                    -0.02010439895093441
                ],
                [
                    -0.034217558801174164,
                    -0.06507015973329544,
                    0.10359084606170654,
                    -0.12186211347579956,
                    0.09603072702884674,
                    -0.19979460537433624,
                    -0.1864267736673355,
                    0.010163477621972561,
                    0.04523887857794762,
                    -0.23360246419906616,
                    0.0818953663110733,
                    0.10761259496212006,
                    -0.013798846863210201,
                    0.16546492278575897,
                    -0.09966682642698288,
                    0.05653505399823189,
                    -0.21265137195587158,
                    0.1245042160153389,
                    0.15950337052345276,
                    0.00034390020300634205,
                    0.12097900360822678,
                    -0.010569768026471138,
                    -0.18014764785766602,
                    -0.1629684865474701
                ],
                [
                    0.16590195894241333,
                    0.07223623245954514,
                    -0.14690306782722473,
                    0.14054210484027863,
                    0.3022628724575043,
                    0.19511549174785614,
                    -0.23771502077579498,
                    -0.22539328038692474,
                    0.1321815699338913,
                    -0.15678179264068604,
                    0.11246120184659958,
                    0.2736361026763916,
                    -0.22156527638435364,
                    -0.06901022046804428,
                    -0.04678327217698097,
                    -0.25079506635665894,
                    0.12592247128486633,
                    -0.03354726731777191,
                    0.10018277168273926,
                    0.1462859809398651,
                    0.027296923100948334,
                    -0.007436859887093306,
                    -0.09036509692668915,
                    0.09413944184780121
                ],
                [
                    -0.190519317984581,
                    -0.08042817562818527,
                    0.2262047827243805,
                    -0.21196329593658447,
                    -0.1928398609161377,
                    0.009708906523883343,
                    0.03440837189555168,
                    -0.1054496243596077,
                    -0.1772022545337677,
                    0.12840218842029572,
                    0.16084718704223633,
                    0.14362213015556335,
                    -0.15558578073978424,
                    0.2140853852033615,
                    -0.05806199461221695,
                    -0.207063689827919,
                    -0.08601483702659607,
                    0.16187837719917297,
                    0.22595423460006714,
                    0.043295517563819885,
                    0.04930146783590317,
                    -0.1689937859773636,
                    0.20167449116706848,
                    0.234934002161026
                ],
                [
                    -0.019425425678491592,
                    0.11558281630277634,
                    -0.17085254192352295,
                    0.013793672434985638,
                    -0.10295306146144867,
                    0.03803767263889313,
                    -0.27265334129333496,
                    -0.004073138814419508,
                    -0.021268365904688835,
                    -0.26545941829681396,
                    -0.1222502589225769,
                    0.005610547494143248,
                    -0.07162017375230789,
                    -0.11962136626243591,
                    -0.14060774445533752,
                    -0.13149763643741608,
                    -0.02602207101881504,
                    0.10447602719068527,
                    -0.10395170003175735,
                    0.2432875633239746,
                    0.11579278856515884,
                    -0.3346174657344818,
                    0.07391048222780228,
                    -0.26010626554489136
                ],
                [
                    -0.4166681468486786,
                    -0.1192820593714714,
                    -0.05162340775132179,
                    0.4424334764480591,
                    0.17203304171562195,
                    -0.10539489984512329,
                    0.21376873552799225,
                    0.1707252860069275,
                    0.22294344007968903,
                    0.01753467135131359,
                    -0.05962558463215828,
                    0.1062917709350586,
                    0.060305774211883545,
                    0.10209203511476517,
                    0.09349972009658813,
                    -0.14340481162071228,
                    -0.09084238857030869,
                    0.05668118596076965,
                    0.09228407591581345,
                    -0.05393191799521446,
                    0.15413980185985565,
                    0.016326218843460083,
                    -0.1929377168416977,
                    0.25728243589401245
                ],
                [
                    0.13252821564674377,
                    0.19151422381401062,
                    0.10158023983240128,
                    -0.23592537641525269,
                    0.14667804539203644,
                    0.11164677888154984,
                    0.19051559269428253,
                    0.032397422939538956,
                    0.13799434900283813,
                    0.01343424804508686,
                    0.13568317890167236,
                    0.09402750432491302,
                    -0.0842030942440033,
                    0.37866345047950745,
                    -0.056108471006155014,
                    -0.08333837240934372,
                    -0.20682528614997864,
                    -0.08146190643310547,
                    0.31133484840393066,
                    0.1408492922782898,
                    0.021227307617664337,
                    -0.12342654168605804,
                    -0.06877799332141876,
                    -0.24707339704036713
                ],
                [
                    -0.035446301102638245,
                    -0.011011380702257156,
                    -0.07356967031955719,
                    -0.01044854149222374,
                    0.15480893850326538,
                    -0.12753932178020477,
                    -0.18844352662563324,
                    0.10222591459751129,
                    0.0021122293546795845,
                    0.0027929050847887993,
                    0.1378473937511444,
                    -0.15197132527828217,
                    0.02185041457414627,
                    0.06987138837575912,
                    -0.08249355107545853,
                    0.13174591958522797,
                    -0.16095198690891266,
                    -0.038947898894548416,
                    0.21798494458198547,
                    -0.06415463238954544,
                    0.12443841248750687,
                    -0.10004588216543198,
                    0.14461468160152435,
                    -0.17826054990291595
                ],
                [
                    0.28319093585014343,
                    -0.18996381759643555,
                    -0.08106323331594467,
                    -0.049090370535850525,
                    -0.058560218662023544,
                    -0.00920628197491169,
                    -0.09173785895109177,
                    -0.2368476837873459,
                    0.044267717748880386,
                    0.16576658189296722,
                    -0.060827162116765976,
                    -0.04322018101811409,
                    0.12682518362998962,
                    -0.005667766090482473,
                    0.21246778964996338,
                    -0.20486456155776978,
                    -0.045467082411050797,
                    0.1158587858080864,
                    0.22575584053993225,
                    -0.10506901890039444,
                    -0.034311551600694656,
                    -0.010402615182101727,
                    -0.1431412547826767,
                    0.04331253096461296
                ],
                [
                    -0.12705805897712708,
                    0.051302578300237656,
                    0.09662499278783798,
                    0.010903357528150082,
                    -0.05339137464761734,
                    0.02764197066426277,
                    0.15102621912956238,
                    0.2392217069864273,
                    0.14905215799808502,
                    0.07460040599107742,
                    0.00427728658542037,
                    -0.02950217016041279,
                    0.15773971378803253,
                    0.04954322427511215,
                    -0.005586571060121059,
                    -0.2377549558877945,
                    0.07094013690948486,
                    0.04210984706878662,
                    -0.6508732438087463,
                    0.07694791257381439,
                    0.1687811017036438,
                    -0.026677899062633514,
                    0.0795016959309578,
                    0.035827599465847015
                ],
                [
                    0.47105953097343445,
                    0.16981177031993866,
                    -0.22894641757011414,
                    -0.14673779904842377,
                    0.002773469081148505,
                    -0.08245918899774551,
                    -0.09747538715600967,
                    -0.15277855098247528,
                    0.13951584696769714,
                    -0.18093283474445343,
                    -0.04157082363963127,
                    0.098565474152565,
                    -0.17621614038944244,
                    -0.21168027818202972,
                    -0.18638122081756592,
                    -0.022528143599629402,
                    -0.2034088522195816,
                    0.10146624594926834,
                    0.21665741503238678,
                    0.07712889462709427,
                    0.1481831669807434,
                    0.019709935411810875,
                    -0.10807434469461441,
                    0.006780277471989393
                ],
                [
                    -0.2543352544307709,
                    0.018942110240459442,
                    0.1015215590596199,
                    0.2914597690105438,
                    -0.11084863543510437,
                    0.21079467236995697,
                    -0.17056673765182495,
                    0.18567436933517456,
                    -0.02057427167892456,
                    -0.00578140327706933,
                    -0.08404626697301865,
                    -0.059702370315790176,
                    -0.1014857217669487,
                    -0.09868746250867844,
                    -0.0618777722120285,
                    0.13465404510498047,
                    0.004161583259701729,
                    -0.1512802094221115,
                    -0.04323028773069382,
                    -0.1438986212015152,
                    -0.13921964168548584,
                    0.07136550545692444,
                    0.1149326041340828,
                    -0.07550486922264099
                ],
                [
                    -0.14809450507164001,
                    0.16042985022068024,
                    0.0005067787715233862,
                    0.11579323559999466,
                    0.09916986525058746,
