{
    "experiment_config": {
        "mode": "simple",
        "num_categories": 12,
        "p": 0.8,
        "num_nodes": 20,
        "motif_dim": 0,
        "num_train_samples": 5000,
        "num_test_samples": 1500,
        "batch_size": 16,
        "in_dim": 12,
        "hidden_dims": [
            12,
            12
        ],
        "lr": 0.01,
        "use_weighting": true,
        "importance": [
            15.0,
            10.0
        ],
        "phase1_epochs": 0,
        "phase2_epochs": 50,
        "device": "cpu",
        "model_type": "GCN",
        "loss": "BCE",
        "pooling": "gm",
        "gm_p": 1.0,
        "log_dir": "runs/SD/BCE/2/GCN/same/p_gm=3.0/12/high",
        "file_path": "SD/BCE/2/GCN/same/p_gm=3.0/12/high",
        "add_graph": false,
        "track_embeddings": false,
        "track_singular_values": true,
        "get_elements": false,
        "save": true
    },
    "sparcity": 0.9232159992225947,
    "empty_graph_stats": 0.22018109261989594,
    "summary format:": "Key: (Num of active features, Num of accurate feature, Geometry, Collapsed). Loss, s.d. Loss, Count",
    "collapsed percentage": 0.0,
    "summary": {
        "(12, 12, 'Failed', 0)": [
            0.034949426038811605,
            0.0018684283739099832,
            4
        ],
        "(10, 9, 'Failed', 0)": [
            0.10281019028027852,
            0.0,
            1
        ]
    },
    "results": [
        {
            "Num of features": 12,
            "Num of active features": 12,
            "Num of accurate feature": 12,
            "Geometry": "Failed",
            "Collapsed": 0,
            "Loss": 0.03240615273018678,
            "Rank": 12,
            "Singular values": [
                7.776975154876709,
                2.014338254928589,
                1.8133653402328491,
                1.7442017793655396,
                1.683312177658081,
                1.6586813926696777,
                1.560944676399231,
                1.5321959257125854,
                1.4872760772705078,
                1.3753201961517334,
                1.3028744459152222,
                1.2707198858261108
            ]
        },
        {
            "Num of features": 12,
            "Num of active features": 12,
            "Num of accurate feature": 12,
            "Geometry": "Failed",
            "Collapsed": 0,
            "Loss": 0.035525499654312925,
            "Rank": 12,
            "Singular values": [
                7.220363140106201,
                2.163560628890991,
                1.8838410377502441,
                1.7761608362197876,
                1.7026609182357788,
                1.6590263843536377,
                1.6288036108016968,
                1.548869252204895,
                1.5199230909347534,
                1.4972398281097412,
                1.431680679321289,
                1.2823090553283691
            ]
        },
        {
            "Num of features": 12,
            "Num of active features": 10,
            "Num of accurate feature": 9,
            "Geometry": "Failed",
            "Collapsed": 0,
            "Loss": 0.10281019028027852,
            "Rank": 11,
            "Singular values": [
                5.9458794593811035,
                1.6833282709121704,
                1.5368993282318115,
                1.4475549459457397,
                1.3720871210098267,
                1.3296960592269897,
                1.202512502670288,
                1.0667403936386108,
                0.9741033911705017,
                0.7955835461616516,
                0.51955246925354,
                1.6001317248992564e-07
            ]
        },
        {
            "Num of features": 12,
            "Num of active features": 12,
            "Num of accurate feature": 12,
            "Geometry": "Failed",
            "Collapsed": 0,
            "Loss": 0.03754997689028581,
            "Rank": 12,
            "Singular values": [
                7.372108459472656,
                2.1697018146514893,
                1.993929386138916,
                1.8132232427597046,
                1.7374837398529053,
                1.6193054914474487,
                1.5874592065811157,
                1.4658759832382202,
                1.4150007963180542,
                1.3531337976455688,
                1.28132963180542,
                1.224038004875183
            ]
        },
        {
            "Num of features": 12,
            "Num of active features": 12,
            "Num of accurate feature": 12,
            "Geometry": "Failed",
            "Collapsed": 0,
            "Loss": 0.0343160748804609,
            "Rank": 12,
            "Singular values": [
                7.145483493804932,
                1.9046940803527832,
                1.873460054397583,
                1.7793972492218018,
                1.6824665069580078,
                1.6575440168380737,
                1.602198839187622,
                1.594360113143921,
                1.5351051092147827,
                1.4876952171325684,
                1.3425873517990112,
                1.182626485824585
            ]
        }
    ],
    "average embeddings summary": {
        "(12, 12, 'Failed', 0)": {
            "(0, 0, 0, 0, 0, 1, 0, 0, 0, 0, 0, 0)": [
                0.2608945667743683,
                -0.20820285379886627,
                0.8773219585418701,
                1.1933870315551758,
                1.1107656955718994,
                0.30883750319480896,
                1.1170189380645752,
                0.0789799839258194,
                -0.03929555043578148,
                -0.23864062130451202,
                -1.3331973552703857,
                0.5704017877578735
            ],
            "(0, 0, 0, 0, 0, 0, 0, 0, 0, 0, 0, 1)": [
                -0.9451161623001099,
                -0.6272260546684265,
                0.004239755682647228,
                0.6458464860916138,
                1.342124581336975,
                0.4242396950721741,
                0.22964036464691162,
                0.5852516293525696,
                0.7308381795883179,
                -0.7916240096092224,
                -1.0810649394989014,
                0.691515326499939
            ],
            "(0, 0, 0, 0, 0, 0, 0, 0, 1, 0, 0, 0)": [
                -0.37640130519866943,
                -0.15050560235977173,
                0.727329432964325,
                0.2101171612739563,
                1.9855151176452637,
                0.47883912920951843,
                1.0901439189910889,
                1.002419352531433,
                -0.490633100271225,
                -0.3791956603527069,
                0.1709575206041336,
                0.6840934157371521
            ],
            "(0, 0, 0, 0, 0, 0, 1, 0, 0, 0, 0, 0)": [
                0.23514719307422638,
                -0.7852035164833069,
                0.6234236359596252,
                0.5909347534179688,
                0.4543507993221283,
                1.3133283853530884,
                0.3982190489768982,
                1.0352922677993774,
                0.2655523121356964,
                -0.018205862492322922,
                -0.45633023977279663,
                1.4163423776626587
            ],
            "(1, 0, 0, 0, 0, 0, 0, 0, 0, 0, 0, 0)": [
                -0.38519904017448425,
                0.17840947210788727,
                0.8460711240768433,
                0.9914532899856567,
                1.4568413496017456,
                0.8486474752426147,
                0.5059387683868408,
                0.5557197332382202,
                0.8690018057823181,
                0.5413321256637573,
                -0.46000784635543823,
                0.5248253345489502
            ],
            "(0, 0, 0, 0, 1, 0, 0, 0, 0, 0, 0, 0)": [
                0.35801005363464355,
                -0.09996093809604645,
                0.04478118568658829,
                1.0917030572891235,
                0.6793468594551086,
                1.0914244651794434,
                1.0099012851715088,
                1.4258947372436523,
                0.5831274390220642,
                -0.46031883358955383,
                -0.42237281799316406,
                -0.5988491177558899
            ],
            "(0, 0, 1, 0, 0, 0, 0, 0, 0, 0, 0, 0)": [
                0.3117194175720215,
                0.760083794593811,
                0.17158889770507812,
                0.26739728450775146,
                1.124488115310669,
                0.7574558854103088,
                0.5569488406181335,
                1.0227274894714355,
                0.5725713968276978,
                -0.36833542585372925,
                -0.9567832946777344,
                1.0588161945343018
            ],
            "(0, 0, 0, 0, 0, 0, 0, 0, 0, 0, 1, 0)": [
                -0.15050776302814484,
                -0.13110791146755219,
                -0.2249099761247635,
                0.39900800585746765,
                1.5313056707382202,
                1.543591856956482,
                1.2432423830032349,
                0.17288735508918762,
                -0.00105896289460361,
                0.21133187413215637,
                -0.9754376411437988,
                0.5910676717758179
            ],
            "(0, 0, 0, 1, 0, 0, 0, 0, 0, 0, 0, 0)": [
                0.10453067719936371,
                -0.47791966795921326,
                0.9406633973121643,
                -0.361592173576355,
                1.5266426801681519,
                0.6342965960502625,
                0.40518689155578613,
                1.0420185327529907,
                0.48459091782569885,
                0.1893959492444992,
                -1.4846442937850952,
                0.007841099984943867
            ],
            "(0, 0, 0, 0, 0, 0, 0, 1, 0, 0, 0, 0)": [
                -0.19474747776985168,
                -0.1222577840089798,
                0.05431341007351875,
                1.1038285493850708,
                1.403026819229126,
                0.35012680292129517,
                0.24335703253746033,
                1.5255383253097534,
                -0.3119545876979828,
                0.49719101190567017,
                -1.1283785104751587,
                0.5477025508880615
            ],
            "(0, 0, 0, 0, 0, 0, 0, 0, 0, 1, 0, 0)": [
                0.571033239364624,
                -0.26236873865127563,
                0.31621789932250977,
                0.8354811072349548,
                2.2877678871154785,
                1.0751851797103882,
                -0.20067036151885986,
                0.23632369935512543,
                0.09513070434331894,
                -0.3092555105686188,
                -0.5225412249565125,
                0.4234687089920044
            ],
            "(0, 1, 0, 0, 0, 0, 0, 0, 0, 0, 0, 0)": [
                0.6279494762420654,
                -0.6336196064949036,
                -0.23814444243907928,
                0.49163147807121277,
                1.8438551425933838,
                -0.08097706735134125,
                1.0840412378311157,
                0.6669874787330627,
                0.9975972175598145,
                0.30303487181663513,
                -0.3185535669326782,
                0.7946593761444092
            ]
        },
        "(10, 9, 'Failed', 0)": {
            "(0, 0, 0, 0, 0, 0, 0, 0, 1, 0, 0, 0)": [
                0.05174471065402031,
                0.3183805048465729,
                -1.2280696630477905,
                -0.3286917507648468,
                -0.1390240490436554,
                0.26220110058784485,
                -0.7992364764213562,
                0.10702325403690338,
                0.8214009404182434,
                -0.24319465458393097,
                -0.20560875535011292,
                0.9143266081809998
            ],
            "(0, 0, 0, 0, 0, 0, 1, 0, 0, 0, 0, 0)": [
                -0.3013966977596283,
                0.31484779715538025,
                -0.8353189826011658,
                -1.2748372554779053,
                -0.01186449732631445,
                0.37412136793136597,
                -0.9610859155654907,
                -0.24784238636493683,
                0.3752027153968811,
                -0.2234904170036316,
                0.2938682734966278,
                0.2544363737106323
            ],
            "(0, 0, 0, 0, 0, 0, 0, 0, 0, 0, 1, 0)": [
                -0.3371158242225647,
                0.1636868566274643,
                -0.7230039238929749,
                -0.8737660646438599,
                -0.19617681205272675,
                0.46164390444755554,
                -0.7856503129005432,
                -0.5020286440849304,
                0.4870026111602783,
                -0.48326313495635986,
                0.012786807492375374,
                0.3272053897380829
            ],
            "(0, 0, 1, 0, 0, 0, 0, 0, 0, 0, 0, 0)": [
                -0.07458943128585815,
                0.260242223739624,
                -0.11989559233188629,
                -0.512485682964325,
                -0.7927324175834656,
                0.9559887647628784,
                -1.0655663013458252,
                -0.20373831689357758,
                0.9001399874687195,
                -0.6739131212234497,
                0.48101115226745605,
                0.17747023701667786
            ],
            "(0, 0, 0, 0, 0, 0, 0, 0, 0, 1, 0, 0)": [
                -0.13030795753002167,
                -0.3185218274593353,
                -1.0795013904571533,
                -1.0650005340576172,
                -0.1304052770137787,
                0.6027685403823853,
                -0.9718071818351746,
                -0.5695347189903259,
                0.6964048743247986,
                0.2220596969127655,
                0.014555626548826694,
                -0.25196561217308044
            ],
            "(0, 0, 0, 0, 1, 0, 0, 0, 0, 0, 0, 0)": [
                -0.6136818528175354,
                0.5677742958068848,
                -0.9911643266677856,
                -0.49100151658058167,
                -1.0420266389846802,
                0.26664528250694275,
                -1.0099461078643799,
                -0.32550734281539917,
                -0.2932749092578888,
                -0.2367408573627472,
                -0.35818395018577576,
                0.10453987121582031
            ],
            "(0, 0, 0, 0, 0, 0, 0, 0, 0, 0, 0, 1)": [
                -0.5582452416419983,
                0.511955201625824,
                -0.3851674199104309,
                -0.26807600259780884,
                0.4232458472251892,
                0.6139498353004456,
                -1.124087929725647,
                -1.146395206451416,
                0.1528540700674057,
                -0.12705644965171814,
                0.09802629053592682,
                0.5282562375068665
            ],
            "(0, 0, 0, 1, 0, 0, 0, 0, 0, 0, 0, 0)": [
                -0.35703244805336,
                0.2975243031978607,
                -0.14071041345596313,
                -1.1802057027816772,
                -0.32361266016960144,
                -0.3007030189037323,
                -0.9511444568634033,
                -0.7232880592346191,
                0.7271149754524231,
                -0.08105477690696716,
                -0.08238589018583298,
                0.6832070350646973
            ],
            "(0, 0, 0, 0, 0, 0, 0, 1, 0, 0, 0, 0)": [
                -0.12796783447265625,
                -0.23990026116371155,
                -0.7444866895675659,
                -0.7318304181098938,
                -0.32360416650772095,
                -0.10406403988599777,
                -1.0319280624389648,
                -0.7944760918617249,
                0.08789549767971039,
                -0.5738943219184875,
                0.48772162199020386,
                0.8756228685379028
            ],
            "(0, 1, 0, 0, 0, 0, 0, 0, 0, 0, 0, 0)": [
                -0.8862072229385376,
                -0.19783002138137817,
                -0.4032749831676483,
                -0.6133058667182922,
                0.28029894828796387,
                -0.14004109799861908,
                -1.7274686098098755,
                0.155004620552063,
                0.49760568141937256,
                -1.022019386291504,
                -0.24195276200771332,
                -0.05142175778746605
            ],
            "(1, 0, 0, 0, 0, 0, 0, 0, 0, 0, 0, 0)": [
                0.3721798360347748,
                0.4070813059806824,
                -0.39111679792404175,
                -1.0137343406677246,
                0.04602363333106041,
                0.3517983853816986,
                -1.1194788217544556,
                -0.606274425983429,
                0.12180998176336288,
                -0.7632294297218323,
                -0.3562767505645752,
                0.14732490479946136
            ],
            "(0, 0, 0, 0, 0, 1, 0, 0, 0, 0, 0, 0)": [
                -0.26272618770599365,
                -0.08413656055927277,
                -0.6992255449295044,
                -0.6745648384094238,
                -0.2827775776386261,
                0.4569319188594818,
                -0.679229736328125,
                -0.7686466574668884,
                0.5952577590942383,
                -0.5500874519348145,
                -0.23311209678649902,
                0.3163689970970154
            ]
        }
    },
    "model summary": {
        "(12, 12, 'Failed', 0)": {
            "convs.0.bias": [
                -2.456059694290161,
                -2.275860548019409,
                -2.773414373397827,
                -2.2546136379241943,
                -2.5538110733032227,
                -2.3364763259887695,
                -2.2931666374206543,
                -2.633396625518799,
                -2.43507719039917,
                -2.005061388015747,
                -2.2237091064453125,
                -2.305846691131592
            ],
            "convs.0.lin.weight": [
                [
                    0.02506224811077118,
                    -0.00953173078596592,
                    0.16244779527187347,
                    0.10217858850955963,
                    0.14027364552021027,
                    -0.008109337650239468,
                    0.07307014614343643,
                    0.24505558609962463,
                    -0.2618330717086792,
                    0.0038493257015943527,
                    4.888871192932129,
                    0.056394077837467194
                ],
                [
                    -0.14272230863571167,
                    0.018583709374070168,
                    0.1774519681930542,
                    0.08521583676338196,
                    5.298365116119385,
                    -0.13768361508846283,
                    0.4274580180644989,
                    -0.10003431141376495,
                    0.4384332299232483,
                    0.02691497653722763,
                    -0.16838951408863068,
                    -0.0260506309568882
                ],
                [
                    0.5457693338394165,
                    0.036672428250312805,
                    0.05350259318947792,
                    0.5553216338157654,
                    -0.020099565386772156,
                    -0.16289526224136353,
                    -0.07097256928682327,
                    -0.07472483068704605,
                    0.33128857612609863,
                    5.7688751220703125,
                    0.5416894555091858,
                    -0.229224294424057
                ],
                [
                    -0.11770365387201309,
                    5.143064975738525,
                    -0.5459792017936707,
                    0.08919377624988556,
                    0.06283320486545563,
                    -0.0534970685839653,
                    0.3484550416469574,
                    -0.2580142319202423,
                    0.3023303747177124,
                    -0.12901070713996887,
                    -0.3108213245868683,
                    0.1619434356689453
                ],
                [
                    0.12012840807437897,
                    -0.12843531370162964,
                    -0.08101753145456314,
                    0.373369425535202,
                    -0.06004427745938301,
                    0.42140522599220276,
                    0.014712394215166569,
                    5.228199005126953,
                    0.01894534006714821,
                    0.4421752989292145,
                    0.17399460077285767,
                    -0.06955329328775406
                ],
                [
                    0.13214372098445892,
                    0.6052778959274292,
                    -0.04227500781416893,
                    5.358875751495361,
                    0.5420526266098022,
                    -0.027713879942893982,
                    0.060196004807949066,
                    0.29855942726135254,
                    0.05549844354391098,
                    0.4556107521057129,
                    0.005074025131762028,
                    -0.06943327188491821
                ],
                [
                    -0.38310420513153076,
                    -0.4249250292778015,
                    -0.04715616628527641,
                    -0.4160670042037964,
                    -0.4858405888080597,
                    -0.09794444590806961,
                    -0.202943816781044,
                    -0.3335298001766205,
                    5.433559894561768,
                    -0.19149023294448853,
                    -0.398022323846817,
                    -0.32270485162734985
                ],
                [
                    -0.21353383362293243,
                    -0.22547712922096252,
                    -0.3089437484741211,
                    -0.2410859912633896,
                    -0.27411675453186035,
                    5.6022162437438965,
                    0.17651095986366272,
                    0.17660480737686157,
                    -0.3420198857784271,
                    -0.13023494184017181,
                    -0.09063161164522171,
                    -0.021416643634438515
                ],
                [
                    0.366099089384079,
                    -0.02370295859873295,
                    -0.2948461174964905,
                    0.31520959734916687,
                    0.38671091198921204,
                    -0.3454439342021942,
                    -0.3490098714828491,
                    -0.0771733969449997,
                    -0.10169916599988937,
                    -0.016567479819059372,
                    -0.33184319734573364,
                    5.42938756942749
                ],
                [
                    4.734798431396484,
                    -0.08147697895765305,
                    -0.6146978735923767,
                    -0.02808961272239685,
                    -0.33602428436279297,
                    -0.15317462384700775,
                    -0.24911998212337494,
                    -0.9891760945320129,
                    -0.1856343299150467,
                    -0.5770667791366577,
                    -0.1248038038611412,
                    -0.5495917201042175
                ],
                [
                    0.16587881743907928,
                    0.018756704404950142,
                    4.927707195281982,
                    -0.059782858937978745,
                    -0.19962704181671143,
                    0.33881616592407227,
                    0.11907435208559036,
                    -0.18908122181892395,
                    0.06811883300542831,
                    -0.16614578664302826,
                    -0.11166291683912277,
                    -0.04109809547662735
                ],
                [
                    0.08764688670635223,
                    0.1821097731590271,
                    -0.2331131398677826,
                    -0.4396951496601105,
                    -0.023545589298009872,
                    -0.4059313237667084,
                    5.372931003570557,
                    -0.6187955737113953,
                    -0.6368024349212646,
                    0.0739361122250557,
                    -0.23726479709148407,
                    -0.317692369222641
                ]
            ],
            "convs.1.bias": [
                0.05924651026725769,
                -0.212855726480484,
                0.3867475986480713,
                0.744353175163269,
                1.687890648841858,
                0.8993322253227234,
                0.770501434803009,
                0.9087879657745361,
                0.36363697052001953,
                -0.09084457904100418,
                -0.8897697925567627,
                0.6854832768440247
            ],
            "convs.1.lin.weight": [
                [
                    -2.406679630279541,
                    1.9410924911499023,
                    3.619684934616089,
                    3.7043261528015137,
                    -1.418785810470581,
                    0.2732161581516266,
                    -2.8872275352478027,
                    1.7646726369857788,
                    -6.88748836517334,
                    -3.444340705871582,
                    1.813650369644165,
                    1.3242559432983398
                ],
                [
                    1.0892698764801025,
                    0.8042021989822388,
                    -0.49058422446250916,
                    -2.6588637828826904,
                    0.8626114130020142,
                    -1.6863629817962646,
                    0.301998108625412,
                    0.21342016756534576,
                    -2.5865790843963623,
                    3.183459758758545,
                    7.046564102172852,
                    -3.708916187286377
                ],
                [
                    -5.967068672180176,
                    -2.070167064666748,
                    -0.6613507866859436,
                    -3.9732275009155273,
                    -2.7634055614471436,
                    3.2114670276641846,
                    2.5835821628570557,
                    3.66332745552063,
                    -2.608417272567749,
                    3.72845721244812,
                    -1.6464937925338745,
                    1.4881387948989868
                ],
                [
                    -3.443307876586914,
                    2.112370252609253,
                    1.195412039756775,
                    -1.1374061107635498,
                    3.3651349544525146,
                    -6.295583248138428,
                    -3.247718572616577,
                    3.8890321254730225,
                    -0.3842273950576782,
                    2.4135844707489014,
                    -3.2816314697265625,
                    -0.7059000134468079
                ],
                [
                    -1.2936657667160034,
                    -5.392712116241455,
                    5.025905609130859,
                    1.457869052886963,
                    -1.861046314239502,
                    -0.3069291114807129,
                    2.866486072540283,
                    -3.9641523361206055,
                    -1.5383000373840332,
                    -1.1105732917785645,
                    -2.951192855834961,
                    -7.850257396697998
                ],
                [
                    6.724738121032715,
                    1.631510615348816,
                    2.0042154788970947,
                    -6.019136905670166,
                    -3.5242841243743896,
                    -1.2358675003051758,
                    -2.66733980178833,
                    -4.101228713989258,
                    -2.8280446529388428,
                    0.007199153769761324,
                    -1.1815237998962402,
                    3.047252655029297
                ],
                [
                    5.35774040222168,
                    1.7103986740112305,
                    -6.836116790771484,
                    2.029054641723633,
                    -3.9032323360443115,
                    -1.8421229124069214,
                    2.4948575496673584,
                    2.9355602264404297,
                    -3.3186609745025635,
                    -1.9173998832702637,
                    -1.2816214561462402,
                    -2.136249303817749
                ],
                [
                    -6.37045955657959,
                    3.475942373275757,
                    -4.344747543334961,
                    -1.4011876583099365,
                    5.2193779945373535,
                    0.806582510471344,
                    0.7311062216758728,
                    -6.07628059387207,
                    -2.193432331085205,
                    -2.757364511489868,
                    0.9623940587043762,
                    1.188934564590454
                ],
                [
                    -3.059122085571289,
                    1.4337539672851562,
                    -1.8401439189910889,
                    4.027282238006592,
                    -5.071530342102051,
                    0.5619405508041382,
                    -5.42683744430542,
                    -3.0642151832580566,
                    2.7116947174072266,
                    4.094473838806152,
                    1.3546193838119507,
                    -0.4194951355457306
                ],
                [
                    3.344571590423584,
                    -2.5739710330963135,
                    -1.4412081241607666,
                    2.528132677078247,
                    4.7834978103637695,
                    1.5467051267623901,
                    -2.0097947120666504,
                    -1.1974244117736816,
                    -5.103852272033691,
                    5.049041748046875,
                    -2.353064775466919,
                    0.46780791878700256
                ],
                [
                    -1.4548406600952148,
                    2.734398365020752,
                    2.350687026977539,
                    3.0114784240722656,
                    -2.2188994884490967,
                    -3.8665332794189453,
                    6.916461944580078,
                    -3.9139091968536377,
                    -1.6509853601455688,
                    3.3838093280792236,
                    -1.1768189668655396,
                    2.8467328548431396
                ],
                [
                    -0.31971463561058044,
                    -7.680832862854004,
                    -1.5619784593582153,
                    1.0651271343231201,
                    -0.7766436338424683,
                    -3.759664297103882,
                    0.035814184695482254,
                    -0.7521758675575256,
                    0.10690513253211975,
                    -0.983401358127594,
                    2.842061758041382,
                    5.362977981567383
                ]
            ],
            "lin_out.weight": [
                [
                    -3.982652425765991,
                    3.706120729446411,
                    3.065216064453125,
                    1.9221254587173462,
                    -1.3837782144546509,
                    -0.34253162145614624,
                    -2.2465004920959473,
                    -2.3270046710968018,
                    3.5830068588256836,
                    5.55257511138916,
                    3.228264808654785,
                    -1.7398695945739746
                ],
                [
                    3.5552361011505127,
                    -3.0596437454223633,
                    -4.417605400085449,
                    -1.5566033124923706,
                    0.05998539924621582,
                    -6.853793621063232,
                    1.6368521451950073,
                    -1.571495771408081,
                    3.914700984954834,
                    3.387317180633545,
                    3.1798295974731445,
                    0.016567980870604515
                ],
                [
                    2.5106115341186523,
                    9.482372283935547,
                    -2.397038221359253,
                    -4.366352558135986,
                    -2.146691083908081,
                    -1.8234378099441528,
                    -1.6928339004516602,
                    -0.017969517037272453,
                    0.5367595553398132,
                    -2.836764097213745,
                    -0.7067102193832397,
                    3.0010364055633545
                ],
                [
                    0.7336594462394714,
                    -1.924682855606079,
                    3.478854179382324,
                    -8.057862281799316,
                    -0.7808712124824524,
                    -1.7475903034210205,
                    -2.6485562324523926,
                    -0.42424649000167847,
                    0.11273227632045746,
                    1.9439066648483276,
                    -2.9451940059661865,
                    -5.290830612182617
                ],
                [
                    2.940176010131836,
                    1.5254324674606323,
                    -2.4290523529052734,
                    0.7719561457633972,
                    -5.372788429260254,
                    1.4790140390396118,
                    0.7910551428794861,
                    2.824657440185547,
                    0.9458373188972473,
                    -3.9144396781921387,
                    3.0532209873199463,
                    -9.99251937866211
                ],
                [
                    2.4514923095703125,
                    0.23210923373699188,
                    3.0341150760650635,
                    3.6626129150390625,
                    -3.7009663581848145,
                    -4.460456371307373,
                    2.307067632675171,
                    -6.367817401885986,
                    -4.1436638832092285,
                    -1.060881495475769,
                    -2.126803398132324,
                    -0.901989221572876
                ],
                [
                    1.5581939220428467,
                    -4.857198238372803,
                    1.7062628269195557,
                    -1.2010035514831543,
                    -5.980366230010986,
                    2.101719379425049,
                    -2.557011127471924,
                    0.6203201413154602,
                    -1.4136799573898315,
                    0.8848518133163452,
                    3.0396831035614014,
                    4.375350475311279
                ],
                [
                    -1.7859357595443726,
                    0.7660097479820251,
                    -4.763205051422119,
                    2.506450891494751,
                    -1.684686541557312,
                    -3.810641288757324,
                    -4.285944938659668,
                    3.2319588661193848,
                    -6.366302490234375,
                    6.295277118682861,
                    -1.1067240238189697,
                    -1.3643643856048584
                ],
                [
                    -3.5456221103668213,
                    0.33008185029029846,
                    2.623995065689087,
                    -3.9757750034332275,
                    1.2025519609451294,
                    -3.749598264694214,
                    1.7831521034240723,
                    0.22368662059307098,
                    -6.834257125854492,
                    -2.437926769256592,
                    7.842076301574707,
                    -0.9671522974967957
                ],
                [
                    4.57569694519043,
                    -0.27281978726387024,
                    -1.5509897470474243,
                    0.6452158689498901,
                    2.238163709640503,
                    1.4289814233779907,
                    -7.514228820800781,
                    -5.13546085357666,
                    -2.4757862091064453,
                    -1.7272719144821167,
                    2.883211374282837,
                    -2.0465891361236572
                ],
                [
                    -2.412842273712158,
                    0.9051510095596313,
                    -5.605438232421875,
                    -3.743302822113037,
                    -1.693624496459961,
                    4.115473747253418,
                    2.603741407394409,
                    -4.797185897827148,
                    -2.1851131916046143,
                    3.23927640914917,
                    0.18141058087348938,
                    -0.7422685027122498
                ],
                [
                    -7.57144021987915,
                    -3.0762829780578613,
                    -3.793900966644287,
                    -0.914210319519043,
                    -2.02410888671875,
                    -2.9897689819335938,
                    -3.359846353530884,
                    -2.914746046066284,
                    2.2022430896759033,
                    -6.83344030380249,
                    -0.7527750134468079,
                    -0.6176812648773193
                ]
            ],
            "lin_out.bias": [
                -0.8616152405738831,
                -1.4994560480117798,
                -0.8078906536102295,
                -1.3317612409591675,
                -1.5218888521194458,
                -1.2522261142730713,
                -1.329295039176941,
                -0.7356786131858826,
                -1.1115472316741943,
                -0.9020984768867493,
                -0.9931761622428894,
                -1.2779974937438965
            ]
        },
        "(10, 9, 'Failed', 0)": {
            "convs.0.bias": [
                -0.09649903327226639,
                -2.3560290336608887,
                -1.488743543624878,
                -1.4465911388397217,
                -2.1530563831329346,
                -2.45056414604187,
                -1.0967464447021484,
                -0.19357454776763916,
                -2.5921683311462402,
                -1.4594391584396362,
                -2.4006659984588623,
                -1.0857219696044922
            ],
            "convs.0.lin.weight": [
                [
                    -0.2198386788368225,
                    -0.4781491160392761,
                    -0.41280633211135864,
                    -0.30637240409851074,
                    -0.12216996401548386,
                    -0.1809859275817871,
                    -0.05125465989112854,
                    -0.13194608688354492,
                    -0.06116906926035881,
                    -0.4850248694419861,
                    -0.4545799493789673,
                    -0.1739386022090912
                ],
                [
                    -0.20626699924468994,
                    -0.5648103952407837,
                    -0.27746814489364624,
                    -0.3532750606536865,
                    5.276716709136963,
                    -0.22342801094055176,
                    0.16125833988189697,
                    -0.26673275232315063,
                    -0.03480545058846474,
                    -0.3003420829772949,
                    -0.12237638980150223,
                    0.14276519417762756
                ],
                [
                    2.337184429168701,
                    -0.09832872450351715,
                    -0.013797816820442677,
                    3.946366548538208,
                    -0.2823580801486969,
                    -0.237296000123024,
                    -0.01871899887919426,
                    3.6518588066101074,
                    0.02603796310722828,
                    -0.0956561490893364,
                    -0.10759758204221725,
                    -0.34430843591690063
                ],
                [
                    3.7807767391204834,
                    -0.26139959692955017,
                    -0.22945666313171387,
                    3.810170888900757,
                    0.05331582576036453,
                    -0.17604726552963257,
                    -0.05904432013630867,
                    2.2752645015716553,
                    -0.1769515573978424,
                    -0.26673412322998047,
                    0.05301186442375183,
                    -0.12874877452850342
                ],
                [
                    -0.1748303920030594,
                    4.793792247772217,
                    0.2898758053779602,
                    -0.05595969408750534,
                    -0.03243044763803482,
                    0.30969902873039246,
                    0.2443430870771408,
                    -0.01769065484404564,
                    -0.25650566816329956,
                    0.2372104376554489,
                    -0.2826683521270752,
                    -0.008541709743440151
                ],
                [
                    0.20541912317276,
                    -0.18962328135967255,
                    5.224421977996826,
                    -0.23829412460327148,
                    -0.11514366418123245,
                    -0.10872341692447662,
                    -0.13135629892349243,
                    -0.6128084063529968,
                    -0.3182143568992615,
                    -0.0842844769358635,
                    0.2857203781604767,
                    0.07383066415786743
                ],
                [
                    -0.1267801970243454,
                    -0.1375916451215744,
                    -0.23030011355876923,
                    -0.09642480313777924,
                    -0.16777318716049194,
                    1.73758864402771,
                    2.8368937969207764,
                    -0.09344329684972763,
                    -0.21488673985004425,
                    4.871951580047607,
                    -0.3746291697025299,
                    -0.13655774295330048
                ],
                [
                    -0.07026783376932144,
                    0.13694477081298828,
                    -0.486494779586792,
                    -0.3084927499294281,
                    -0.40252387523651123,
                    -0.16708499193191528,
                    0.17388418316841125,
                    -0.5804154276847839,
                    0.04793377220630646,
                    -0.5312288403511047,
                    -0.2795090675354004,
                    -0.2543661594390869
                ],
                [
                    0.032945096492767334,
                    0.20821687579154968,
                    0.10515329986810684,
                    0.250108927488327,
                    -0.20005756616592407,
                    0.05306735634803772,
                    0.0585743673145771,
                    0.15929356217384338,
                    5.2185139656066895,
                    0.10242342203855515,
                    -0.1416337639093399,
                    0.6460362672805786
                ],
                [
                    3.52516770362854,
                    -0.2820051312446594,
                    -0.05281093716621399,
                    2.3058478832244873,
                    -0.18241636455059052,
                    -0.3109470307826996,
                    -0.2242107093334198,
                    3.71091890335083,
                    -0.22297528386116028,
                    -0.20652122795581818,
                    -0.2295989841222763,
                    -0.27996209263801575
                ],
                [
                    -0.44587135314941406,
                    -0.11775202304124832,
                    0.3909379243850708,
                    -0.16391143202781677,
                    -0.3206074833869934,
                    -0.022789711132645607,
                    -0.05847723409533501,
                    -0.16159865260124207,
                    -0.31381097435951233,
                    -0.25241708755493164,
                    -0.0815570205450058,
                    5.163875579833984
                ],
                [
                    -0.16869980096817017,
                    -0.17485901713371277,
                    -0.22732952237129211,
                    -0.3362123668193817,
                    -0.17206837236881256,
                    2.73994779586792,
                    1.63315749168396,
                    -0.20864789187908173,
                    -0.2573336064815521,
                    4.689902305603027,
                    -0.3244873881340027,
                    -0.23041343688964844
                ]
            ],
            "convs.1.bias": [
                -0.5491330027580261,
                0.3919963240623474,
                -0.6617757678031921,
                -0.8921674489974976,
                -0.1548384577035904,
                0.4650399684906006,
                -0.4929843246936798,
                -0.421114444732666,
                0.43091845512390137,
                -0.9665923714637756,
                -0.015866247937083244,
                0.6224490404129028
            ],
            "convs.1.lin.weight": [
                [
                    0.2774534821510315,
                    -2.2685084342956543,
                    -2.7348875999450684,
                    2.0229315757751465,
                    -4.160389423370361,
                    1.9292402267456055,
                    0.2925986647605896,
                    -0.3603473901748657,
                    3.8885281085968018,
                    3.3449854850769043,
                    -2.3208634853363037,
                    0.5663906931877136
                ],
                [
                    0.022862114012241364,
                    2.4505417346954346,
                    -2.1921184062957764,
                    3.1821532249450684,
                    -2.935135841369629,
                    0.6314359903335571,
                    1.5786323547363281,
                    0.5083522200584412,
                    1.331430196762085,
                    -1.4566795825958252,
                    2.649204969406128,
                    -3.415832757949829
                ],
                [
                    0.35101908445358276,
                    -2.0229125022888184,
                    0.5159308910369873,
                    3.5940959453582764,
                    2.234248161315918,
                    4.7579851150512695,
                    -1.4689258337020874,
                    -0.10501165688037872,
                    -4.904874801635742,
                    -2.278515577316284,
                    2.4004318714141846,
                    0.23552966117858887
                ],
                [
                    -0.20542341470718384,
                    3.0064620971679688,
                    0.1888916939496994,
                    -2.2453696727752686,
                    2.2706656455993652,
                    3.410212755203247,
                    -3.3802883625030518,
                    0.15766440331935883,
                    5.7045578956604,
                    1.7869871854782104,
                    5.812514305114746,
                    3.1683857440948486
                ],
                [
                    -0.15969333052635193,
                    -6.496208190917969,
                    -2.196540355682373,
                    0.7257400751113892,
                    2.9467883110046387,
                    -5.034254550933838,
                    1.5724422931671143,
                    -0.5593753457069397,
                    0.8036561012268066,
                    1.3177694082260132,
                    5.011049747467041,
                    -1.5452382564544678
                ],
                [
                    0.16773900389671326,
                    -0.7130267024040222,
                    -4.127302646636963,
                    -0.37500619888305664,
                    -4.045623302459717,
                    4.503855228424072,
                    0.15732534229755402,
                    -0.2770986258983612,
                    -1.562680959701538,
                    1.7435635328292847,
                    2.5531716346740723,
                    0.5784568190574646
                ],
                [
                    -0.371970534324646,
                    -1.6871328353881836,
                    -0.09756875783205032,
                    -0.7512967586517334,
                    -6.812406539916992,
                    -2.2718653678894043,
                    -2.118990898132324,
                    0.1350439488887787,
                    -0.30104607343673706,
                    -1.219317078590393,
                    -2.803493022918701,
                    1.46909499168396
                ],
                [
                    -0.04483813792467117,
                    1.0484710931777954,
                    -1.333364486694336,
                    -0.0747925341129303,
                    4.816812515258789,
                    2.348869562149048,
                    2.901860237121582,
                    -0.5385863780975342,
                    5.664884090423584,
                    -0.3426569998264313,
                    -5.288980484008789,
                    -3.3577651977539062
                ],
                [
                    -0.2845238447189331,
                    -5.22305965423584,
                    1.2997812032699585,
                    1.403954029083252,
                    0.5730116963386536,
                    3.5569570064544678,
                    -1.082944393157959,
                    -0.00035506559652276337,
                    3.4163858890533447,
                    -4.19788122177124,
                    -2.168541669845581,
                    1.927128553390503
                ],
                [
                    0.04146692529320717,
                    2.4552831649780273,
                    2.725140333175659,
                    1.0257056951522827,
                    -3.4620587825775146,
                    -1.2281259298324585,
                    3.147876501083374,
                    0.17678362131118774,
                    2.614206552505493,
                    -3.408841848373413,
                    3.7444863319396973,
                    -0.591993510723114
                ],
                [
                    -0.44991862773895264,
                    -2.559997081756592,
                    2.866173505783081,
                    -3.848752975463867,
                    -1.6608431339263916,
                    3.992654800415039,
                    2.9248409271240234,
                    0.21185541152954102,
                    -2.276735544204712,
                    1.1920663118362427,
                    0.7291828393936157,
                    -3.0906994342803955
                ],
                [
                    -0.03910927101969719,
                    -2.455824613571167,
                    3.6499645709991455,
                    -2.0541868209838867,
                    -2.94136381149292,
                    -1.4123362302780151,
                    -1.6483432054519653,
                    -0.25404319167137146,
                    5.391201019287109,
                    -0.457846999168396,
                    0.7147781848907471,
                    -0.48268362879753113
                ]
            ],
            "lin_out.weight": [
                [
                    6.132225513458252,
                    1.9137746095657349,
                    1.8229259252548218,
                    -0.2809652090072632,
                    2.4361138343811035,
                    1.8239672183990479,
                    0.5269825458526611,
                    0.5314094424247742,
                    -2.742785692214966,
                    -2.4349279403686523,
                    -4.145725727081299,
                    -3.3326454162597656
                ],
                [
                    -3.1044697761535645,
                    -3.8515894412994385,
                    2.663574695587158,
                    2.4350967407226562,
                    3.371830463409424,
                    -4.2975544929504395,
                    -1.6901366710662842,
                    5.0322136878967285,
                    -0.054780274629592896,
                    -2.2135138511657715,
                    -1.1334724426269531,
                    -2.921994209289551
                ],
                [
                    2.734281301498413,
                    0.5379819869995117,
                    5.488088130950928,
                    3.3771467208862305,
                    -4.378841400146484,
                    3.37037992477417,
                    0.5350956916809082,
                    3.221439838409424,
                    2.303220748901367,
                    -0.09020154178142548,
                    6.629483699798584,
                    -1.7387264966964722
                ],
                [
                    -1.1669108867645264,
                    1.1958898305892944,
                    4.179953098297119,
                    -1.6568926572799683,
                    -0.9656566381454468,
                    -4.227969646453857,
                    1.518013596534729,
                    -0.2537550926208496,
                    2.98226261138916,
                    3.6255087852478027,
                    -1.2650482654571533,
                    0.9155319929122925
                ],
                [
                    -1.8404709100723267,
                    2.0984294414520264,
                    -0.2986590266227722,
                    3.7337779998779297,
                    -7.1277923583984375,
                    -1.9809459447860718,
                    0.9785251021385193,
                    1.7344566583633423,
                    -7.018820285797119,
                    2.9677178859710693,
                    -4.7385125160217285,
                    -3.561436653137207
                ],
                [
                    0.03961046040058136,
                    -4.1057257652282715,
                    1.1241536140441895,
                    2.7468082904815674,
                    -1.4134604930877686,
                    0.23790399730205536,
                    3.454698324203491,
                    -2.991798162460327,
                    1.2711825370788574,
                    -2.3816051483154297,
                    -4.861669540405273,
                    0.46334293484687805
                ],
                [
                    -0.25361335277557373,
                    3.1150856018066406,
                    -0.217557892203331,
                    -3.1775624752044678,
                    1.9740403890609741,
                    -0.8381069898605347,
                    0.509869396686554,
                    3.623995542526245,
                    -2.203206777572632,
                    2.0459156036376953,
                    4.687211036682129,
                    -1.1630067825317383
                ],
                [
                    0.9838902950286865,
                    -5.285905838012695,
                    -1.5572521686553955,
                    1.9575015306472778,
                    -0.1041131466627121,
                    -1.5288890600204468,
                    1.0175849199295044,
                    -0.6333549618721008,
                    -4.048349380493164,
                    -1.2006851434707642,
                    5.687248229980469,
                    1.978518009185791
                ],
                [
                    5.0468645095825195,
                    0.7773349285125732,
                    -2.854480028152466,
                    6.9963178634643555,
                    2.235633134841919,
                    -2.6625936031341553,
                    1.7547053098678589,
                    6.502335548400879,
                    2.1112990379333496,
                    3.6577017307281494,
                    -2.779890298843384,
                    4.482594966888428
                ],
                [
                    0.8186295628547668,
                    -2.415210485458374,
                    -0.19600462913513184,
                    -0.1842585951089859,
                    0.7603000998497009,
                    -0.31897851824760437,
                    0.7610937356948853,
                    0.05910709127783775,
                    0.24749648571014404,
                    2.0328705310821533,
                    -0.19595485925674438,
                    -1.7982895374298096
                ],
                [
                    -0.6353768706321716,
                    0.2408699244260788,
                    -0.10166814923286438,
                    -0.7001718282699585,
                    0.6298940777778625,
                    0.255582332611084,
                    1.6925461292266846,
                    -0.08319501578807831,
                    -0.14567632973194122,
                    -0.509016752243042,
                    0.17486129701137543,
                    0.16793277859687805
                ],
                [
                    -1.9008790254592896,
                    3.535862922668457,
                    3.402285575866699,
                    6.6563615798950195,
                    6.817997932434082,
                    1.6303956508636475,
                    -0.1385994851589203,
                    -3.336991548538208,
                    -3.4993340969085693,
                    5.821203231811523,
                    1.8980927467346191,
                    -0.2458559274673462
                ]
            ],
            "lin_out.bias": [
                -1.0448954105377197,
                -1.2362083196640015,
                -1.7198938131332397,
                -1.0552903413772583,
                -1.5952609777450562,
                -0.9986936450004578,
                -1.0742372274398804,
                -1.1402064561843872,
                -1.2805930376052856,
                -1.1448829174041748,
                -1.336185097694397,
                -1.6288293600082397
            ]
        }
    }
}