{
    "experiment_config": {
        "mode": "tox21",
        "root": "data/Tox21",
        "batch_size": 32,
        "train_split": 0.8,
        "mask_missing": true,
        "use_weighting": false,
        "importance": [
            100.0,
            100.0
        ],
        "hidden_dims": [
            12,
            6
        ],
        "num_categories": 12,
        "in_dim": 9,
        "lr": 0.001,
        "model_type": "GCN",
        "loss": "BCE",
        "pooling": "mean",
        "gm_p": 1.0,
        "device": "cpu",
        "phase1_epochs": 0,
        "phase2_epochs": 50,
        "log_dir": "runs/tox21/GCN/mean/[12, 6]",
        "file_path": "tox21/GCN/mean/[12, 6]",
        "save": true,
        "num_nodes": 20,
        "p": 0.8
    },
    "sparcity": 0.8694764120978721,
    "empty graph stats": 0.6213123202323914,
    "singular value ratio": [
        0.0,
        0.0
    ],
    "summary format:": "Key: (Num of active features, Num of accurate feature, Geometry, Collapsed). Loss, s.d. Loss, Count",
    "collapsed percentage": 0.0,
    "summary": {
        "(8, 0, 'Failed', 8)": [
            0.6310778175081525,
            0.0,
            1
        ]
    },
    "results": [
        {
            "Num of features": 12,
            "Num of active features": 8,
            "Num of accurate feature": 0,
            "Geometry": "Failed",
            "Collapsed": 8,
            "Loss": 0.6310778175081525,
            "Rank": 6,
            "Singular values": [
                10.682422637939453,
                1.0217676162719727,
                0.7592477202415466,
                0.1372993439435959,
                0.026304954662919044,
                0.0008565746829845011
            ]
        }
    ],
    "average embeddings summary": {
        "(8, 0, 'Failed', 8)": {
            "(0, 0, 0, 1, 0, 0, 0, 0, 0, 0, 0, 0)": [
                0.28305187821388245,
                -1.2766977548599243,
                2.0144031047821045,
                1.0119805335998535,
                -0.6890060305595398,
                0.7764158248901367
            ],
            "(0, 0, 0, 0, 0, 0, 0, 1, 0, 0, 0, 0)": [
                0.754763126373291,
                -2.0299007892608643,
                2.514265298843384,
                1.7187533378601074,
                -1.3145936727523804,
                0.9532590508460999
            ],
            "(1, 0, 0, 0, 0, 0, 0, 0, 0, 0, 0, 0)": [
                0.5837358236312866,
                -1.822914481163025,
                2.579653263092041,
                1.2332408428192139,
                -1.7494151592254639,
                0.9828861951828003
            ],
            "(0, 0, 1, 0, 0, 0, 0, 0, 0, 0, 0, 0)": [
                0.31858333945274353,
                -1.3258315324783325,
                1.9939519166946411,
                1.13160240650177,
                -0.6073392629623413,
                0.7591841816902161
            ],
            "(0, 0, 0, 0, 0, 0, 1, 0, 0, 0, 0, 0)": [
                0.23825335502624512,
                -1.3045759201049805,
                2.0974225997924805,
                1.0686075687408447,
                -0.7421600222587585,
                0.7673385143280029
            ],
            "(0, 0, 0, 0, 1, 0, 0, 0, 0, 0, 0, 0)": [
                0.6955984234809875,
                -1.9198209047317505,
                2.5565505027770996,
                1.357713222503662,
                -1.629339575767517,
                0.9915624856948853
            ],
            "(0, 0, 0, 0, 0, 0, 0, 0, 0, 0, 1, 0)": [
                0.4791238009929657,
                -1.4606571197509766,
                2.255615234375,
                0.7729259133338928,
                -1.4733996391296387,
                0.9566071033477783
            ],
            "(0, 1, 0, 0, 0, 0, 0, 0, 0, 0, 0, 0)": [
                0.1850462704896927,
                -1.1962332725524902,
                2.0162513256073,
                0.9119079113006592,
                -0.6904487013816833,
                0.7346784472465515
            ],
            "(0, 0, 0, 0, 0, 0, 0, 0, 0, 1, 0, 0)": [
                0.9804934859275818,
                -2.441509485244751,
                2.917551279067993,
                1.9146575927734375,
                -1.984903335571289,
                1.0844305753707886
            ]
        }
    },
    "model summary": {
        "(8, 0, 'Failed', 8)": {
            "convs.0.bias": [
                0.1361834704875946,
                0.062152199447155,
                0.026395240798592567,
                0.0,
                0.0,
                0.0,
                0.0,
                0.0,
                0.0,
                -0.00996592827141285,
                -0.02650577202439308,
                0.0
            ],
            "convs.0.lin.weight": [
                [
                    0.2562362551689148,
                    -1.3390727043151855,
                    -0.1450251340866089,
                    0.10389763861894608,
                    -0.293130099773407,
                    0.32436227798461914,
                    0.003994235303252935,
                    0.6113436818122864,
                    -0.5266984105110168
                ],
                [
                    -0.09280194342136383,
                    -1.6426771879196167,
                    -0.27150997519493103,
                    0.06389287859201431,
                    0.5263870358467102,
                    1.0111045837402344,
                    0.5711445808410645,
                    -0.4826020300388336,
                    -0.4456250071525574
                ],
                [
                    -0.10940361768007278,
                    0.08674406260251999,
                    0.5346553921699524,
                    0.14457391202449799,
                    0.20669890940189362,
                    -0.2669590711593628,
                    0.12570197880268097,
                    -0.6450029015541077,
                    -0.5183917284011841
                ],
                [
                    -0.3737963140010834,
                    -0.42241209745407104,
                    -0.031894367188215256,
                    0.04929459095001221,
                    0.22716571390628815,
                    0.4185164272785187,
                    0.33099186420440674,
                    -0.36439982056617737,
                    -0.21368835866451263
                ],
                [
                    -0.49910280108451843,
                    -0.09756036102771759,
                    -0.2091476023197174,
                    0.19254611432552338,
                    -0.09230919182300568,
                    0.1799248903989792,
                    0.23580099642276764,
                    0.25528544187545776,
                    0.2382173240184784
                ],
                [
                    -0.5284683108329773,
                    0.024884333834052086,
                    -0.12491396814584732,
                    0.4966765344142914,
                    -0.1382569521665573,
                    -0.3263794183731079,
                    -0.18892566859722137,
                    -0.07672154903411865,
                    -0.37143057584762573
                ],
                [
                    -0.2762109637260437,
                    -0.46706122159957886,
                    0.09975557774305344,
                    -0.14259041845798492,
                    -0.4401272237300873,
                    0.224036306142807,
                    0.19909703731536865,
                    -0.1258496344089508,
                    -0.5262079238891602
                ],
                [
                    -0.1853145807981491,
                    0.4930344820022583,
                    -0.32774627208709717,
                    -0.49952226877212524,
                    -0.04226945713162422,
                    0.1150999367237091,
                    -0.009439360350370407,
                    -0.18611420691013336,
                    0.5333741903305054
                ],
                [
                    -0.19693094491958618,
                    0.050443653017282486,
                    -0.4929785430431366,
                    0.21599915623664856,
                    0.15145349502563477,
                    0.03689715638756752,
                    -0.4515140652656555,
                    -0.1999538242816925,
                    -0.41085243225097656
                ],
                [
                    -0.0876518040895462,
                    -0.9315123558044434,
                    -0.15944042801856995,
                    0.4672968089580536,
                    0.07117852568626404,
                    0.9533647298812866,
                    -0.017305076122283936,
                    -0.16802656650543213,
                    -0.5409340858459473
                ],
                [
                    0.32613933086395264,
                    -0.9750464558601379,
                    -0.0014324276708066463,
                    -0.08208562433719635,
                    0.277231901884079,
                    0.1907147914171219,
                    -0.1951717734336853,
                    -0.3986361622810364,
                    -0.8185285329818726
                ],
                [
                    -0.05313805490732193,
                    0.3844910264015198,
                    0.3552808463573456,
                    -0.522792637348175,
                    -0.3602621853351593,
                    0.046383220702409744,
                    -0.05052056536078453,
                    0.4922885596752167,
                    -0.022346045821905136
                ]
            ],
            "convs.1.bias": [
                -0.26575878262519836,
                0.2653326988220215,
                0.05632106959819794,
                -0.2259047031402588,
                0.09330573678016663,
                0.19977901875972748
            ],
            "convs.1.lin.weight": [
                [
                    0.031185969710350037,
                    0.23114991188049316,
                    0.249556303024292,
                    -0.25669190287590027,
                    -0.29513758420944214,
                    0.3190320134162903,
                    0.20295068621635437,
                    0.2509700357913971,
                    -0.5272842645645142,
                    -0.529517412185669,
                    0.5752076506614685,
                    0.22140789031982422
                ],
                [
                    -0.35269591212272644,
                    -0.8812757134437561,
                    0.04019136726856232,
                    -0.541624903678894,
                    -0.5494993329048157,
                    -0.06751624494791031,
                    -0.2961970567703247,
                    0.5248594284057617,
                    0.40369516611099243,
                    -0.04340647906064987,
                    -0.5542547106742859,
                    0.45348861813545227
                ],
                [
                    0.3733890950679779,
                    0.7919054627418518,
                    0.16218675673007965,
                    0.44613757729530334,
                    -0.08651085197925568,
                    0.07188832014799118,
                    -0.3794557750225067,
                    -0.5579972863197327,
                    0.19514985382556915,
                    0.5707385540008545,
                    0.06007593497633934,
                    0.3844168484210968
                ],
                [
                    0.5635045766830444,
                    0.7742475867271423,
                    -0.6572995185852051,
                    -0.004268971271812916,
                    -0.03387151286005974,
                    0.1877279281616211,
                    -0.4501035213470459,
                    -0.29484257102012634,
                    -0.43567824363708496,
                    0.5667281746864319,
                    0.5502855777740479,
                    0.23446346819400787
                ],
                [
                    0.6215587258338928,
                    -1.2131026983261108,
                    -0.10181422531604767,
                    0.4756697714328766,
                    -0.5710746645927429,
                    0.09078071266412735,
                    -0.02286459319293499,
                    0.2186962366104126,
                    -0.5001764297485352,
                    -0.4842032194137573,
                    -0.43591371178627014,
                    -0.2814737856388092
                ],
                [
                    -0.04997945576906204,
                    -0.07933428138494492,
                    0.3944152891635895,
                    0.5655691623687744,
                    -0.04527576267719269,
                    -0.09797146916389465,
                    0.13013499975204468,
                    -0.2909560203552246,
                    -0.40800535678863525,
                    -0.04110078886151314,
                    0.177786722779274,
                    -0.3094581067562103
                ]
            ],
            "lin_out.weight": [
                [
                    -0.13497528433799744,
                    0.4149036407470703,
                    0.09321790188550949,
                    -0.41823920607566833,
                    0.30025410652160645,
                    0.5602169632911682
                ],
                [
                    -0.08468428999185562,
                    0.4784631133079529,
                    -0.5063281655311584,
                    -0.5607854127883911,
                    -0.31357163190841675,
                    0.28080031275749207
                ],
                [
                    -0.4141013026237488,
                    0.3575814664363861,
                    0.18040122091770172,
                    -0.01758625917136669,
                    0.6782737970352173,
                    -0.07473598420619965
                ],
                [
                    -0.16252243518829346,
                    0.22423069179058075,
                    0.16664768755435944,
                    -0.4214799106121063,
                    0.42489567399024963,
                    0.017621366307139397
                ],
                [
                    -0.11124760657548904,
                    0.6539888381958008,
                    0.07217781245708466,
                    0.43271300196647644,
                    0.025671416893601418,
                    0.07943026721477509
                ],
                [
                    0.014861298725008965,
                    0.3880571126937866,
                    0.02388598769903183,
                    -0.551239550113678,
                    0.025238927453756332,
                    -0.21568399667739868
                ],
                [
                    -0.6553456783294678,
                    -0.14743556082248688,
                    -0.45844322443008423,
                    0.1720864623785019,
                    0.34360218048095703,
                    0.3559306263923645
                ],
                [
                    0.5377702116966248,
                    0.053247615694999695,
                    -0.3072541654109955,
                    -0.03201482072472572,
                    0.4504773020744324,
                    0.22358104586601257
                ],
                [
                    0.12431050837039948,
                    0.34876105189323425,
                    -0.6579517126083374,
                    0.14014412462711334,
                    0.36165714263916016,
                    -0.48778125643730164
                ],
                [
                    0.21429716050624847,
                    0.1793844997882843,
                    -0.24041172862052917,
                    -0.16147702932357788,
                    0.14064985513687134,
                    0.012796417810022831
                ],
                [
                    -0.05515674501657486,
                    0.060050513595342636,
                    -0.07412178069353104,
                    0.03460251912474632,
                    0.9438052773475647,
                    -0.20334258675575256
                ],
                [
                    0.26834678649902344,
                    -0.16966593265533447,
                    -0.5156468749046326,
                    -0.21781226992607117,
                    0.5193753838539124,
                    -0.1854507327079773
                ]
            ],
            "lin_out.bias": [
                0.06777643412351608,
                0.6083279252052307,
                0.09888511896133423,
                -0.01856870763003826,
                -0.2074149250984192,
                0.4725566506385803,
                -0.289302259683609,
                -0.05826737731695175,
                0.07665383815765381,
                -0.06970855593681335,
                -0.1806323528289795,
                -0.35314780473709106
            ]
        }
    }
}