{
    "experiment_config": {
        "mode": "simple",
        "num_categories": 5,
        "p": 0.8,
        "num_nodes": 20,
        "motif_dim": 0,
        "num_train_samples": 5000,
        "num_test_samples": 1500,
        "batch_size": 16,
        "in_dim": 5,
        "hidden_dims": [
            5,
            2
        ],
        "lr": 0.01,
        "use_weighting": true,
        "importance": [
            15.0,
            10.0
        ],
        "phase1_epochs": 0,
        "phase2_epochs": 50,
        "device": "cpu",
        "model_type": "GCN",
        "loss": "BCE",
        "pooling": "gm",
        "gm_p": 0.9,
        "log_dir": "runs/T/BCE/2/GCN/small_compression/p_gm=0.9/5/low",
        "file_path": "T/BCE/2/GCN/small_compression/p_gm=0.9/5.0/low",
        "add_graph": false,
        "track_embeddings": false,
        "save": true
    },
    "sparcity": 0.6470893870894227,
    "summary format:": "Key: (Num of active features, Num of accurate feature, Geometry, Collapsed). Loss, s.d. Loss, Count",
    "summary": {
        "(2, 2, 2, 0)": [
            0.42763005719866065,
            0.006441803426712725,
            14
        ],
        "(1, 1, 1, 0)": [
            0.5385665680832333,
            0.004458633173137756,
            3
        ],
        "(2, 0, 'Failed', 2)": [
            0.5812098236083985,
            0.0,
            1
        ],
        "(4, 1, 'Failed', 3)": [
            0.49121922969818116,
            0.0,
            1
        ],
        "(0, 0, 'Failed', 0)": [
            0.6515360991160075,
            0.0,
            1
        ]
    },
    "results": [
        {
            "Num of features": 5,
            "Num of active features": 2,
            "Num of accurate feature": 2,
            "Geometry": 2,
            "Collapsed": 0,
            "Loss": 0.42525431219736737,
            "Rank": 2,
            "Singular values": [
                1.2712986469268799,
                1.106331467628479
            ]
        },
        {
            "Num of features": 5,
            "Num of active features": 2,
            "Num of accurate feature": 2,
            "Geometry": 2,
            "Collapsed": 0,
            "Loss": 0.4371397291024526,
            "Rank": 2,
            "Singular values": [
                1.218483567237854,
                0.9533568620681763
            ]
        },
        {
            "Num of features": 5,
            "Num of active features": 1,
            "Num of accurate feature": 1,
            "Geometry": 1,
            "Collapsed": 0,
            "Loss": 0.5368408795992533,
            "Rank": 2,
            "Singular values": [
                1.2258483171463013,
                1.9237650121795014e-06
            ]
        },
        {
            "Num of features": 5,
            "Num of active features": 2,
            "Num of accurate feature": 2,
            "Geometry": 2,
            "Collapsed": 0,
            "Loss": 0.4216691066424052,
            "Rank": 2,
            "Singular values": [
                1.5703154802322388,
                1.3023372888565063
            ]
        },
        {
            "Num of features": 5,
            "Num of active features": 2,
            "Num of accurate feature": 2,
            "Geometry": 2,
            "Collapsed": 0,
            "Loss": 0.43194250504175824,
            "Rank": 2,
            "Singular values": [
                1.4106919765472412,
                1.1616941690444946
            ]
        },
        {
            "Num of features": 5,
            "Num of active features": 2,
            "Num of accurate feature": 2,
            "Geometry": 2,
            "Collapsed": 0,
            "Loss": 0.4216809325218201,
            "Rank": 2,
            "Singular values": [
                1.54332435131073,
                1.0048072338104248
            ]
        },
        {
            "Num of features": 5,
            "Num of active features": 1,
            "Num of accurate feature": 1,
            "Geometry": 1,
            "Collapsed": 0,
            "Loss": 0.5446816132068634,
            "Rank": 2,
            "Singular values": [
                1.763132929801941,
                1.9083881852566265e-06
            ]
        },
        {
            "Num of features": 5,
            "Num of active features": 2,
            "Num of accurate feature": 0,
            "Geometry": "Failed",
            "Collapsed": 2,
            "Loss": 0.5812098236083985,
            "Rank": 1,
            "Singular values": [
                4.995090484619141,
                3.1755192253513087e-07
            ]
        },
        {
            "Num of features": 5,
            "Num of active features": 1,
            "Num of accurate feature": 1,
            "Geometry": 1,
            "Collapsed": 0,
            "Loss": 0.5341772114435832,
            "Rank": 2,
            "Singular values": [
                1.558110237121582,
                1.9445169527898543e-06
            ]
        },
        {
            "Num of features": 5,
            "Num of active features": 2,
            "Num of accurate feature": 2,
            "Geometry": 2,
            "Collapsed": 0,
            "Loss": 0.4206195980707804,
            "Rank": 2,
            "Singular values": [
                1.8121967315673828,
                1.3076362609863281
            ]
        },
        {
            "Num of features": 5,
            "Num of active features": 2,
            "Num of accurate feature": 2,
            "Geometry": 2,
            "Collapsed": 0,
            "Loss": 0.4350895325342814,
            "Rank": 2,
            "Singular values": [
                1.485194444656372,
                1.0335062742233276
            ]
        },
        {
            "Num of features": 5,
            "Num of active features": 2,
            "Num of accurate feature": 2,
            "Geometry": 2,
            "Collapsed": 0,
            "Loss": 0.41679568982124326,
            "Rank": 2,
            "Singular values": [
                1.4406605958938599,
                1.0838528871536255
            ]
        },
        {
            "Num of features": 5,
            "Num of active features": 4,
            "Num of accurate feature": 1,
            "Geometry": "Failed",
            "Collapsed": 3,
            "Loss": 0.49121922969818116,
            "Rank": 2,
            "Singular values": [
                4.35072660446167,
                1.0713425874710083
            ]
        },
        {
            "Num of features": 5,
            "Num of active features": 0,
            "Num of accurate feature": 0,
            "Geometry": "Failed",
            "Collapsed": 0,
            "Loss": 0.6515360991160075,
            "Rank": 1,
            "Singular values": [
                3.1622760161553742e-06,
                1.664762450804703e-22
            ]
        },
        {
            "Num of features": 5,
            "Num of active features": 2,
            "Num of accurate feature": 2,
            "Geometry": 2,
            "Collapsed": 0,
            "Loss": 0.4365892318089803,
            "Rank": 2,
            "Singular values": [
                1.369402289390564,
                1.0425200462341309
            ]
        },
        {
            "Num of features": 5,
            "Num of active features": 2,
            "Num of accurate feature": 2,
            "Geometry": 2,
            "Collapsed": 0,
            "Loss": 0.4328976538181305,
            "Rank": 2,
            "Singular values": [
                1.502953052520752,
                0.9614590406417847
            ]
        },
        {
            "Num of features": 5,
            "Num of active features": 2,
            "Num of accurate feature": 2,
            "Geometry": 2,
            "Collapsed": 0,
            "Loss": 0.4226551543871562,
            "Rank": 2,
            "Singular values": [
                1.6695106029510498,
                1.0571401119232178
            ]
        },
        {
            "Num of features": 5,
            "Num of active features": 2,
            "Num of accurate feature": 2,
            "Geometry": 2,
            "Collapsed": 0,
            "Loss": 0.42585557238260907,
            "Rank": 2,
            "Singular values": [
                2.4953291416168213,
                1.102560043334961
            ]
        },
        {
            "Num of features": 5,
            "Num of active features": 2,
            "Num of accurate feature": 2,
            "Geometry": 2,
            "Collapsed": 0,
            "Loss": 0.43328984745343524,
            "Rank": 2,
            "Singular values": [
                1.5959755182266235,
                1.0577552318572998
            ]
        },
        {
            "Num of features": 5,
            "Num of active features": 2,
            "Num of accurate feature": 2,
            "Geometry": 2,
            "Collapsed": 0,
            "Loss": 0.42534193499883016,
            "Rank": 2,
            "Singular values": [
                1.1831778287887573,
                1.0399446487426758
            ]
        }
    ],
    "average embeddings summary": {
        "(2, 2, 2, 0)": {
            "(0, 0, 0, 1, 0)": [
                0.04681137949228287,
                0.01986546441912651
            ],
            "(0, 1, 0, 0, 0)": [
                0.05859122425317764,
                1.2550362348556519
            ],
            "(0, 0, 1, 0, 0)": [
                0.05743089318275452,
                0.03403244912624359
            ],
            "(0, 0, 0, 0, 1)": [
                1.1181710958480835,
                0.03288445621728897
            ],
            "(1, 0, 0, 0, 0)": [
                0.04275282844901085,
                0.036908701062202454
            ]
        },
        "(1, 1, 1, 0)": {
            "(0, 0, 0, 1, 0)": [
                0.05801099166274071,
                9.99999429041054e-07
            ],
            "(0, 0, 0, 0, 1)": [
                0.04284972324967384,
                9.99999429041054e-07
            ],
            "(0, 0, 1, 0, 0)": [
                0.04241681471467018,
                9.99999429041054e-07
            ],
            "(1, 0, 0, 0, 0)": [
                1.2225878238677979,
                9.99999429041054e-07
            ],
            "(0, 1, 0, 0, 0)": [
                0.03134597837924957,
                9.999995427278918e-07
            ]
        },
        "(2, 0, 'Failed', 2)": {
            "(1, 0, 0, 0, 0)": [
                2.513789653778076,
                9.999995427278918e-07
            ],
            "(0, 0, 0, 1, 0)": [
                1.8126814365386963,
                9.99999429041054e-07
            ],
            "(0, 1, 0, 0, 0)": [
                2.437321186065674,
                9.99999429041054e-07
            ],
            "(0, 0, 1, 0, 0)": [
                1.8353413343429565,
                9.99999429041054e-07
            ],
            "(0, 0, 0, 0, 1)": [
                2.4570233821868896,
                9.99999429041054e-07
            ]
        },
        "(4, 1, 'Failed', 3)": {
            "(0, 0, 0, 1, 0)": [
                1.5534005165100098,
                0.03592590242624283
            ],
            "(0, 1, 0, 0, 0)": [
                1.9335508346557617,
                1.2488123178482056
            ],
            "(0, 0, 0, 0, 1)": [
                2.3961243629455566,
                0.0382763147354126
            ],
            "(1, 0, 0, 0, 0)": [
                2.047804594039917,
                0.041243113577365875
            ],
            "(0, 0, 1, 0, 0)": [
                1.5573086738586426,
                0.028465066105127335
            ]
        },
        "(0, 0, 'Failed', 0)": {
            "(0, 0, 1, 0, 0)": [
                9.99999429041054e-07,
                9.99999429041054e-07
            ],
            "(1, 0, 0, 0, 0)": [
                9.99999429041054e-07,
                9.99999429041054e-07
            ],
            "(0, 0, 0, 1, 0)": [
                9.99999429041054e-07,
                9.99999429041054e-07
            ],
            "(0, 1, 0, 0, 0)": [
                9.999995427278918e-07,
                9.999995427278918e-07
            ],
            "(0, 0, 0, 0, 1)": [
                9.99999429041054e-07,
                9.99999429041054e-07
            ]
        }
    },
    "model summary": {
        "(2, 2, 2, 0)": {
            "convs.0.bias": [
                -2.275081157684326,
                1.5083726644515991,
                -1.7388688325881958,
                -1.9363834857940674,
                1.6290127038955688
            ],
            "convs.0.lin.weight": [
                [
                    -0.6871429085731506,
                    5.092367172241211,
                    -0.7415165305137634,
                    -0.7105924487113953,
                    1.2547297477722168
                ],
                [
                    -0.9187617301940918,
                    -5.951486110687256,
                    -0.9443573951721191,
                    -1.2334034442901611,
                    0.7135899066925049
                ],
                [
                    0.06468934565782547,
                    4.699800491333008,
                    0.04110589623451233,
                    -0.09468720108270645,
                    -1.1083035469055176
                ],
                [
                    -0.9399887323379517,
                    -0.939323365688324,
                    -1.0915745496749878,
                    -1.3939253091812134,
                    6.635607719421387
                ],
                [
                    -1.1709028482437134,
                    1.3547511100769043,
                    -1.1617790460586548,
                    -1.7066028118133545,
                    1.2566907405853271
                ]
            ],
            "convs.1.bias": [
                0.35278448462486267,
                -2.0680813789367676
            ],
            "convs.1.lin.weight": [
                [
                    -3.1317508220672607,
                    -1.4959853887557983,
                    4.509794235229492,
                    7.198746681213379,
                    -1.9305018186569214
                ],
                [
                    8.206645965576172,
                    3.7885642051696777,
                    6.655216693878174,
                    -0.24327735602855682,
                    -2.225321054458618
                ]
            ],
            "lin_out.weight": [
                [
                    -0.3382374048233032,
                    -0.3222585916519165
                ],
                [
                    0.045315347611904144,
                    14.739239692687988
                ],
                [
                    -0.22893697023391724,
                    -0.27091869711875916
                ],
                [
                    -0.17194174230098724,
                    -0.11209043115377426
                ],
                [
                    13.501626968383789,
                    -0.12709097564220428
                ]
            ],
            "lin_out.bias": [
                -0.281753808259964,
                -6.134324550628662,
                -0.20949675142765045,
                -0.2575758397579193,
                -4.678023338317871
            ]
        },
        "(1, 1, 1, 0)": {
            "convs.0.bias": [
                -0.10445541888475418,
                -0.37339338660240173,
                -1.978492259979248,
                1.1351569890975952,
                0.0
            ],
            "convs.0.lin.weight": [
                [
                    -0.6624804735183716,
                    -0.2588265538215637,
                    -0.02887578122317791,
                    -0.2977232038974762,
                    -0.5296862721443176
                ],
                [
                    -0.28599461913108826,
                    -1.298264503479004,
                    -4.342701435089111,
                    -4.670096397399902,
                    1.5857527256011963
                ],
                [
                    6.4320807456970215,
                    -0.8923822641372681,
                    -0.8116893172264099,
                    -0.6729207038879395,
                    -0.8157995939254761
                ],
                [
                    3.2757978439331055,
                    -1.2069545984268188,
                    -1.2498794794082642,
                    -1.3911190032958984,
                    -1.3331115245819092
                ],
                [
                    -0.5221845507621765,
                    -0.20198166370391846,
                    -0.44997167587280273,
                    -0.5954043865203857,
                    -0.3518167734146118
                ]
            ],
            "convs.1.bias": [
                -0.020475948229432106,
                -0.06005501747131348
            ],
            "convs.1.lin.weight": [
                [
                    0.4997309744358063,
                    -0.14979664981365204,
                    8.515068054199219,
                    -2.848710536956787,
                    0.031246481463313103
                ],
                [
                    -0.668411135673523,
                    -0.5252848267555237,
                    -0.4686999022960663,
                    -0.052005570381879807,
                    0.6602483987808228
                ]
            ],
            "lin_out.weight": [
                [
                    14.770243644714355,
                    -2.7576935291290283
                ],
                [
                    -0.285806268453598,
                    1.4389984607696533
                ],
                [
                    -0.13831116259098053,
                    0.10293933749198914
                ],
                [
                    -0.33138152956962585,
                    -1.2077308893203735
                ],
                [
                    -0.3628787696361542,
                    -1.3823916912078857
                ]
            ],
            "lin_out.bias": [
                -5.229181289672852,
                -0.3560574948787689,
                -0.38545292615890503,
                -0.33304813504219055,
                -0.3854634761810303
            ]
        },
        "(2, 0, 'Failed', 2)": {
            "convs.0.bias": [
                -0.9951976537704468,
                0.7210283875465393,
                -1.2741848230361938,
                -1.6503733396530151,
                -1.5868568420410156
            ],
            "convs.0.lin.weight": [
                [
                    0.7833749055862427,
                    -0.5517368912696838,
                    1.3872473239898682,
                    1.3305914402008057,
                    -0.9749740958213806
                ],
                [
                    1.5055752992630005,
                    0.48853760957717896,
                    0.5951800346374512,
                    0.39039042592048645,
                    0.953059732913971
                ],
                [
                    0.18318094313144684,
                    0.12584680318832397,
                    0.005401310510933399,
                    2.509291648864746,
                    0.22076621651649475
                ],
                [
                    0.3602536916732788,
                    0.14555425941944122,
                    3.3355960845947266,
                    -0.11019670218229294,
                    0.11164910346269608
                ],
                [
                    0.2634602189064026,
                    0.11149872839450836,
                    -0.008657765574753284,
                    3.142805814743042,
                    0.2550995647907257
                ]
            ],
            "convs.1.bias": [
                1.4841862916946411,
                0.0
            ],
            "convs.1.lin.weight": [
                [
                    -0.31821951270103455,
                    0.8682221174240112,
                    -2.3876702785491943,
                    -7.095432758331299,
                    -5.440703868865967
                ],
                [
                    -0.8210497498512268,
                    -0.6674214601516724,
                    -0.0031972029246389866,
                    -0.13778875768184662,
                    -0.9188236594200134
                ]
            ],
            "lin_out.weight": [
                [
                    1.4282715320587158,
                    -3.3534724712371826
                ],
                [
                    0.5685304403305054,
                    -0.3715776801109314
                ],
                [
                    -3.0851566791534424,
                    6.791442394256592
                ],
                [
                    -3.240297555923462,
                    5.4636759757995605
                ],
                [
                    0.9920786023139954,
                    -3.447427988052368
                ]
            ],
            "lin_out.bias": [
                -3.7684929370880127,
                -1.8124371767044067,
                6.021657466888428,
                6.1504998207092285,
                -2.511665105819702
            ]
        },
        "(4, 1, 'Failed', 3)": {
            "convs.0.bias": [
                0.9312463998794556,
                0.6471550464630127,
                -0.16339926421642303,
                -2.102339506149292,
                -1.3674737215042114
            ],
            "convs.0.lin.weight": [
                [
                    0.47207266092300415,
                    -0.5157052278518677,
                    0.3084019422531128,
                    0.33440616726875305,
                    2.6269824504852295
                ],
                [
                    0.2952723801136017,
                    -3.83379864692688,
                    1.7147419452667236,
                    1.761856198310852,
                    0.9302534461021423
                ],
                [
                    -0.4595518708229065,
                    -0.23901735246181488,
                    -0.6002715229988098,
                    -0.3974023759365082,
                    0.020425431430339813
                ],
                [
                    -0.18414047360420227,
                    5.739276885986328,
                    -0.03332848474383354,
                    -0.1247711256146431,
                    0.28417155146598816
                ],
                [
                    0.28181272745132446,
                    -0.0318203829228878,
                    2.7723114490509033,
                    2.895540475845337,
                    0.6479358673095703
                ]
            ],
            "convs.1.bias": [
                0.34873849153518677,
                -3.3027215003967285
            ],
            "convs.1.lin.weight": [
                [
                    1.6870659589767456,
                    -0.31905126571655273,
                    0.37952548265457153,
                    -0.053889863193035126,
                    -3.921684741973877
                ],
                [
                    -0.7467929720878601,
                    3.036139726638794,
                    0.4945759177207947,
                    7.439353942871094,
                    -2.698747158050537
                ]
            ],
            "lin_out.weight": [
                [
                    0.42212381958961487,
                    -0.3223145306110382
                ],
                [
                    0.21418175101280212,
                    15.255586624145508
                ],
                [
                    -1.5639805793762207,
                    -0.48009154200553894
                ],
                [
                    -1.7130894660949707,
                    -0.5160269737243652
                ],
                [
                    2.173994541168213,
                    -0.3263865113258362
                ]
            ],
            "lin_out.bias": [
                -1.1449905633926392,
                -5.711296558380127,
                2.6303622722625732,
                3.0402352809906006,
                -4.720952987670898
            ]
        },
        "(0, 0, 'Failed', 0)": {
            "convs.0.bias": [
                0.14694853127002716,
                -0.08850733190774918,
                -0.15679894387722015,
                0.16244208812713623,
                -0.06831812858581543
            ],
            "convs.0.lin.weight": [
                [
                    0.4002183973789215,
                    0.4834003150463104,
                    0.5725900530815125,
                    -0.1781817078590393,
                    -0.74554842710495
                ],
                [
                    -0.5188000202178955,
                    -0.49733346700668335,
                    0.6723734736442566,
                    -0.7461485862731934,
                    -0.6065734624862671
                ],
                [
                    -0.5634980797767639,
                    -0.0395343080163002,
                    0.46078693866729736,
                    0.5923523902893066,
                    -0.40040117502212524
                ],
                [
                    0.7814669609069824,
                    0.8422508239746094,
                    0.7910237908363342,
                    0.41249802708625793,
                    0.5429741740226746
                ],
                [
                    -0.1007906049489975,
                    -0.49583420157432556,
                    -0.6823082566261292,
                    -0.6825991868972778,
                    0.21251462399959564
                ]
            ],
            "convs.1.bias": [
                0.0,
                -0.155827134847641
            ],
            "convs.1.lin.weight": [
                [
                    -0.5185704827308655,
                    -0.2696583569049835,
                    -0.2836896479129791,
                    -0.8940507173538208,
                    0.34243205189704895
                ],
                [
                    -0.8766919374465942,
                    -0.03191505745053291,
                    0.5448417067527771,
                    -0.3275153934955597,
                    0.226969912648201
                ]
            ],
            "lin_out.weight": [
                [
                    0.33715030550956726,
                    -0.08138543367385864
                ],
                [
                    -0.12386912852525711,
                    0.8224877119064331
                ],
                [
                    -0.7833271622657776,
                    0.48098132014274597
                ],
                [
                    -0.8362919688224792,
                    -0.4412589371204376
                ],
                [
                    0.4755863845348358,
                    -0.9851354360580444
                ]
            ],
            "lin_out.bias": [
                -0.47238630056381226,
                -0.49017295241355896,
                -0.49401628971099854,
                -0.5027519464492798,
                -0.4453049600124359
            ]
        }
    }
}