{
    "experiment_config": {
        "mode": "simple",
        "num_categories": 10,
        "p": 0.5,
        "num_nodes": 20,
        "motif_dim": 0,
        "chain_length_min": 2,
        "chain_length_max": 7,
        "num_train_samples": 10000,
        "num_test_samples": 3000,
        "batch_size": 16,
        "in_dim": 10,
        "hidden_dims": [
            7,
            7
        ],
        "lr": 0.01,
        "use_weighting": true,
        "importance": [
            15.0,
            10.0
        ],
        "phase1_epochs": 0,
        "phase2_epochs": 60,
        "num_epochs": 5,
        "device": "cpu",
        "model_type": "GIN",
        "save": true
    },
    "sparcity": 0.955515738519077,
    "summary": {
        "(6, 6, 6, 0)": [
            0.1040686963862843,
            0.0036631826988434407,
            3
        ],
        "(4, 4, 4, 0)": [
            0.14033291455109914,
            0.0,
            1
        ],
        "(6, 6, 'Failed', 0)": [
            0.10973943241437276,
            0.0,
            1
        ],
        "(5, 5, 'Failed', 0)": [
            0.12959599526723226,
            0.0,
            1
        ],
        "(5, 5, 5, 0)": [
            0.1204858410225974,
            0.0009990775094529647,
            3
        ],
        "(3, 3, 3, 0)": [
            0.14635993818442028,
            0.0,
            1
        ]
    },
    "model summary": {
        "(6, 6, 6, 0)": {
            "convs.0.eps": [
                -0.11441242694854736
            ],
            "convs.0.nn.0.weight": [
                [
                    -0.4967871904373169,
                    0.2940451502799988,
                    0.13590513169765472,
                    -0.5643137693405151,
                    -0.04807119444012642,
                    -0.23250041902065277,
                    -0.33986952900886536,
                    1.6478272676467896,
                    -0.017334235832095146,
                    -0.19006900489330292
                ],
                [
                    -0.15826965868473053,
                    1.2426122426986694,
                    0.07703375816345215,
                    0.35093995928764343,
                    -0.7451525926589966,
                    0.21822665631771088,
                    -0.5635656714439392,
                    -0.7180889844894409,
                    -0.775488555431366,
                    -0.8098224997520447
                ],
                [
                    0.009629548527300358,
                    -0.08236802369356155,
                    0.04398493468761444,
                    -0.059218283742666245,
                    -0.2637186348438263,
                    -0.32484784722328186,
                    -0.3525375425815582,
                    0.011011128313839436,
                    -0.13737839460372925,
                    1.6045283079147339
                ],
                [
                    -0.7017884254455566,
                    0.1616058200597763,
                    0.08919848501682281,
                    -1.1931923627853394,
                    -0.18083344399929047,
                    -0.20613573491573334,
                    -0.531204104423523,
                    0.8222440481185913,
                    0.1898808628320694,
                    0.3875711262226105
                ],
                [
                    -0.4748016595840454,
                    1.6174931526184082,
                    -0.47141873836517334,
                    0.08608275651931763,
                    1.5042763948440552,
                    -0.021613530814647675,
                    -0.36712050437927246,
                    0.1152540072798729,
                    -0.6188691854476929,
                    -0.48474472761154175
                ],
                [
                    -0.1814069002866745,
                    -0.1954997032880783,
                    1.613826036453247,
                    0.23805838823318481,
                    0.3667893409729004,
                    -0.24767175316810608,
                    -0.4965707063674927,
                    -0.01704467087984085,
                    0.11181679368019104,
                    0.20230484008789062
                ],
                [
                    -0.3441632091999054,
                    1.6724299192428589,
                    -0.04033173620700836,
                    -0.17426720261573792,
                    -0.36333417892456055,
                    -0.10769359022378922,
                    -0.3269299566745758,
                    -0.5167831182479858,
                    1.6577829122543335,
                    -0.342055082321167
                ]
            ],
            "convs.0.nn.0.bias": [
                -2.245701789855957,
                1.858660340309143,
                -2.3222897052764893,
                -2.561314821243286,
                -2.573683500289917,
                -2.9307291507720947,
                -3.247716188430786
            ],
            "convs.0.nn.2.weight": [
                [
                    1.627859115600586,
                    -1.4329769611358643,
                    0.06732148677110672,
                    -0.07980602234601974,
                    -1.77365243434906,
                    0.6696984171867371,
                    -2.281437635421753
                ],
                [
                    -0.25487005710601807,
                    0.48279428482055664,
                    0.22761929035186768,
                    -0.03981107845902443,
                    0.9890890121459961,
                    -1.4645800590515137,
                    0.5396251678466797
                ],
                [
                    -0.7162249684333801,
                    0.11501643806695938,
                    -0.8827419877052307,
                    -0.5352743864059448,
                    0.41932204365730286,
                    -1.5590745210647583,
                    -3.083559036254883
                ],
                [
                    -0.3636084198951721,
                    0.41498222947120667,
                    -2.808701753616333,
                    -2.5848922729492188,
                    -4.854158878326416,
                    -1.2032734155654907,
                    1.3472135066986084
                ],
                [
                    0.020220069214701653,
                    0.5567929744720459,
                    -1.251357078552246,
                    -0.38408374786376953,
                    0.2308879792690277,
                    1.7005683183670044,
                    0.6260282397270203
                ],
                [
                    -2.2835805416107178,
                    -2.906007766723633,
                    -3.305131196975708,
                    -0.9128005504608154,
                    1.0716935396194458,
                    0.6509173512458801,
                    1.539155125617981
                ],
                [
                    0.2655506730079651,
                    -0.438237726688385,
                    1.5547488927841187,
                    -0.2630942165851593,
                    -1.2450268268585205,
                    -0.8263195753097534,
                    -2.384660243988037
                ]
            ],
            "convs.0.nn.2.bias": [
                -1.0357364416122437,
                -1.0417239665985107,
                1.1460301876068115,
                -0.4424195885658264,
                -1.6167513132095337,
                0.32045647501945496,
                -1.1403745412826538
            ],
            "convs.1.eps": [
                0.7139552235603333
            ],
            "convs.1.nn.0.weight": [
                [
                    -0.054398443549871445,
                    -1.2757434844970703,
                    -0.6727697253227234,
                    -1.0417152643203735,
                    0.6874586939811707,
                    -0.11849421262741089,
                    -0.4778140187263489
                ],
                [
                    1.1849348545074463,
                    0.6085314750671387,
                    -0.9801941514015198,
                    -0.8048243522644043,
                    0.3969835638999939,
                    -1.5146600008010864,
                    0.2866973578929901
                ],
                [
                    -0.5407713651657104,
                    -0.19323453307151794,
                    -0.8126592636108398,
                    0.04718639701604843,
                    -1.2713888883590698,
                    -2.510192632675171,
                    1.1073671579360962
                ],
                [
                    -2.9981420040130615,
                    0.19355496764183044,
                    -0.1808629035949707,
                    -4.259390830993652,
                    -1.3109935522079468,
                    1.7166873216629028,
                    -3.5345659255981445
                ],
                [
                    -0.5068172812461853,
                    0.40902629494667053,
                    -1.2717032432556152,
                    -0.7435192465782166,
                    0.7105247378349304,
                    1.8362118005752563,
                    -3.4107000827789307
                ],
                [
                    -0.3243619501590729,
                    -1.2978137731552124,
                    -0.7185803651809692,
                    -0.8469538688659668,
                    0.6904077529907227,
                    -0.02483776956796646,
                    -0.8683329820632935
                ],
                [
                    1.153368353843689,
                    -0.9874050617218018,
                    -1.4214056730270386,
                    0.2772060036659241,
                    -0.13844771683216095,
                    1.2503360509872437,
                    -0.0906403660774231
                ]
            ],
            "convs.1.nn.0.bias": [
                0.8756154775619507,
                1.2647384405136108,
                0.8701163530349731,
                -1.8316421508789062,
                1.806374430656433,
                1.0168098211288452,
                0.9077626466751099
            ],
            "convs.1.nn.2.weight": [
                [
                    -1.3216499090194702,
                    1.2553728818893433,
                    -2.2689080238342285,
                    -1.4167418479919434,
                    -0.46420687437057495,
                    -1.6266684532165527,
                    -0.8202248215675354
                ],
                [
                    -1.336359977722168,
                    0.8885538578033447,
                    1.9101369380950928,
                    -0.2851833999156952,
                    0.025981567800045013,
                    -1.0355963706970215,
                    0.44352757930755615
                ],
                [
                    -2.8587586879730225,
                    -1.359331727027893,
                    -0.48324111104011536,
                    -0.16524583101272583,
                    0.04372449219226837,
                    -1.5979533195495605,
                    0.7557234764099121
                ],
                [
                    0.5156187415122986,
                    -0.12312915921211243,
                    0.164991095662117,
                    -0.33604446053504944,
                    -0.8380063772201538,
                    -0.5623146295547485,
                    -1.4600518941879272
                ],
                [
                    0.16763277351856232,
                    -1.2435053586959839,
                    0.7436276078224182,
                    -3.0210235118865967,
                    0.6535143256187439,
                    1.034392237663269,
                    0.6080493330955505
                ],
                [
                    0.5979687571525574,
                    -0.282804936170578,
                    1.8475013971328735,
                    0.738854706287384,
                    -0.2998846173286438,
                    -0.08986008167266846,
                    -0.3129493296146393
                ],
                [
                    1.4576027393341064,
                    -0.050384704023599625,
                    -0.20926286280155182,
                    1.0161960124969482,
                    -1.9775288105010986,
                    1.2728863954544067,
                    1.9020140171051025
                ]
            ],
            "convs.1.nn.2.bias": [
                0.2779519855976105,
                -0.49219807982444763,
                0.3062388598918915,
                0.08279231190681458,
                0.16714608669281006,
                0.9239885807037354,
                0.22424165904521942
            ],
            "lin_out.weight": [
                [
                    0.27688124775886536,
                    -0.06851396709680557,
                    0.30615630745887756,
                    0.6147022247314453,
                    0.027954909950494766,
                    -0.5668842196464539,
                    0.11432493478059769
                ],
                [
                    1.9912681579589844,
                    2.1800198554992676,
                    -1.8557167053222656,
                    -0.17397357523441315,
                    -1.0835464000701904,
                    -3.0856378078460693,
                    -4.670496940612793
                ],
                [
                    -3.749277114868164,
                    -2.769226312637329,
                    -5.250275135040283,
                    2.0576274394989014,
                    1.7438154220581055,
                    -3.5484368801116943,
                    0.8524667024612427
                ],
                [
                    0.34371498227119446,
                    -0.36778566241264343,
                    0.33245086669921875,
                    0.6674594879150391,
                    0.26144614815711975,
                    -0.2802421748638153,
                    0.13754701614379883
                ],
                [
                    -5.054462909698486,
                    -1.8643649816513062,
                    1.975335717201233,
                    0.06312516331672668,
                    -8.145210266113281,
                    -1.5193486213684082,
                    -1.0210665464401245
                ],
                [
                    0.4049288034439087,
                    0.048718612641096115,
                    0.3130151033401489,
                    0.6918317675590515,
                    0.09249051660299301,
                    -0.41797593235969543,
                    0.18411192297935486
                ],
                [
                    0.26618844270706177,
                    -0.31554895639419556,
                    0.5106887221336365,
                    0.7190093398094177,
                    0.14904214441776276,
                    -0.48149925470352173,
                    0.014234022237360477
                ],
                [
                    1.4669309854507446,
                    4.245080947875977,
                    -1.2028366327285767,
                    -0.8668878078460693,
                    -2.0291779041290283,
                    -3.751131296157837,
                    5.1696391105651855
                ],
                [
                    -3.1172523498535156,
                    1.0447969436645508,
                    3.1465675830841064,
                    -2.7014708518981934,
                    3.8527722358703613,
                    -3.765688419342041,
                    -0.582144021987915
                ],
                [
                    -5.306421279907227,
                    7.565885543823242,
                    -0.04815724119544029,
                    5.165027618408203,
                    1.2941558361053467,
                    0.5674482583999634,
                    -0.8257561922073364
                ]
            ],
            "lin_out.bias": [
                -1.2838945388793945,
                -6.0262579917907715,
                -4.442654609680176,
                -1.320668339729309,
                -4.6852922439575195,
                -1.4926759004592896,
                -1.1973991394042969,
                -4.855222225189209,
                -4.743295192718506,
                -5.152907848358154
            ]
        },
        "(4, 4, 4, 0)": {
            "convs.0.eps": [
                -0.10901859402656555
            ],
            "convs.0.nn.0.weight": [
                [
                    -0.4880674183368683,
                    -0.5129873752593994,
                    -0.492685467004776,
                    -0.2887780964374542,
                    -0.37289339303970337,
                    -0.25146642327308655,
                    -0.47090834379196167,
                    -0.058081887662410736,
                    -0.4450973570346832,
                    -0.5360751152038574
                ],
                [
                    -0.6373255252838135,
                    0.10915907472372055,
                    -1.2822093963623047,
                    -1.0819302797317505,
                    -1.1095640659332275,
                    -0.5566621422767639,
                    -0.17264509201049805,
                    -1.1280161142349243,
                    0.08807770162820816,
                    -1.5775234699249268
                ],
                [
                    -0.22986860573291779,
                    -0.07808221131563187,
                    -0.1387547254562378,
                    -0.36992865800857544,
                    1.6762440204620361,
                    -0.2112618237733841,
                    -0.34531790018081665,
                    -0.06521162390708923,
                    0.04922934249043465,
                    -0.2036789208650589
                ],
                [
                    -0.5501402616500854,
                    -0.1990506798028946,
                    -1.1583080291748047,
                    -0.3288156986236572,
                    -0.2543213963508606,
                    -0.41296014189720154,
                    -0.26840391755104065,
                    1.6087511777877808,
                    -0.40645068883895874,
                    -0.4016367495059967
                ],
                [
                    -1.334944486618042,
                    -0.11997951567173004,
                    -1.490543007850647,
                    1.8335624933242798,
                    -0.8655397891998291,
                    -0.4366834759712219,
                    -0.6981635093688965,
                    -1.2629269361495972,
                    -0.7162235975265503,
                    -1.1998422145843506
                ],
                [
                    -0.35801962018013,
                    -0.02795993909239769,
                    -0.527191162109375,
                    -0.30183494091033936,
                    -0.5824373364448547,
                    2.0771608352661133,
                    -0.3749089539051056,
                    -0.06067032366991043,
                    -0.23164796829223633,
                    -0.7129833698272705
                ],
                [
                    -0.04892309010028839,
                    -0.012413025833666325,
                    0.009933642111718655,
                    -0.26140159368515015,
                    -0.1361282914876938,
                    -0.16890555620193481,
                    -0.13011851906776428,
                    -0.2824726700782776,
                    -0.09669673442840576,
                    -0.018781878054142
                ]
            ],
            "convs.0.nn.0.bias": [
                0.07811327278614044,
                2.8608317375183105,
                -2.078838586807251,
                -2.5105185508728027,
                -1.0998823642730713,
                -2.894310474395752,
                -0.2804267406463623
            ],
            "convs.0.nn.2.weight": [
                [
                    0.3470512330532074,
                    -0.0817151740193367,
                    -0.80287104845047,
                    -2.100498676300049,
                    0.3148915469646454,
                    1.7484650611877441,
                    -0.17420253157615662
                ],
                [
                    -0.5169320106506348,
                    -0.6493436098098755,
                    0.029082292690873146,
                    -0.32381340861320496,
                    -0.3163074851036072,
                    -0.13174918293952942,
                    0.23023740947246552
                ],
                [
                    -0.6156054735183716,
                    -4.261362552642822,
                    -1.2411524057388306,
                    -1.2750368118286133,
                    1.2641041278839111,
                    -3.7289834022521973,
                    -0.11686872690916061
                ],
                [
                    -0.004993660841137171,
                    -1.4524973630905151,
                    -2.1231529712677,
                    1.7838940620422363,
                    -1.8026922941207886,
                    -2.2415575981140137,
                    -0.28703588247299194
                ],
                [
                    -0.21991825103759766,
                    -1.275295615196228,
                    0.43413177132606506,
                    1.0418365001678467,
                    -0.7034627199172974,
                    -0.8279165029525757,
                    -0.1131383627653122
                ],
                [
                    -0.28484344482421875,
                    -0.7965313196182251,
                    1.508325457572937,
                    -2.000941276550293,
                    -0.8453155159950256,
                    2.1849024295806885,
                    0.3314576745033264
                ],
                [
                    -0.30677151679992676,
                    -0.39163169264793396,
                    -0.38198554515838623,
                    -0.31127965450286865,
                    -0.5871373414993286,
                    -0.42031317949295044,
                    0.07773920893669128
                ]
            ],
            "convs.0.nn.2.bias": [
                -1.3706583976745605,
                -0.849481463432312,
                -1.1222742795944214,
                -0.422727108001709,
                -1.880196213722229,
                -1.2170695066452026,
                -0.006652583368122578
            ],
            "convs.1.eps": [
                -1.6752125024795532
            ],
            "convs.1.nn.0.weight": [
                [
                    -0.06170305982232094,
                    -0.21497473120689392,
                    -0.5509416460990906,
                    1.0805796384811401,
                    -2.044727087020874,
                    -0.09096845239400864,
                    -0.23877352476119995
                ],
                [
                    -0.08978808671236038,
                    0.057027947157621384,
                    -0.3029002547264099,
                    -0.05660931393504143,
                    -0.6470639109611511,
                    -0.5507408380508423,
                    0.06933753192424774
                ],
                [
                    -2.189493417739868,
                    0.44814518094062805,
                    -0.7518356442451477,
                    -1.1048215627670288,
                    -0.33746543526649475,
                    1.2819355726242065,
                    -0.589779794216156
                ],
                [
                    -0.21213309466838837,
                    -0.18146148324012756,
                    1.2492966651916504,
                    -0.21796324849128723,
                    -0.12928633391857147,
                    -0.05894153565168381,
                    0.21779662370681763
                ],
                [
                    0.636782169342041,
                    0.2577665448188782,
                    -3.2920570373535156,
                    -0.7154000997543335,
                    -0.35267144441604614,
                    1.0863357782363892,
                    -0.05589212477207184
                ],
                [
                    -0.29509028792381287,
                    0.3080945312976837,
                    -0.21722911298274994,
                    -0.13681834936141968,
                    -0.7154924869537354,
                    -0.1553487330675125,
                    -0.06030777096748352
                ],
                [
                    0.014974288642406464,
                    -0.011256694793701172,
                    -0.026401571929454803,
                    -0.10473671555519104,
                    -0.14095596969127655,
                    -0.33267131447792053,
                    -0.1515638530254364
                ]
            ],
            "convs.1.nn.0.bias": [
                -0.15356114506721497,
                -0.39506256580352783,
                -0.0446087084710598,
                -0.33814579248428345,
                -0.23039409518241882,
                -1.1076737642288208,
                -0.2470172494649887
            ],
            "convs.1.nn.2.weight": [
                [
                    -1.6256330013275146,
                    -0.17781250178813934,
                    0.01503780297935009,
                    -0.10848364233970642,
                    1.2005162239074707,
                    0.3546973466873169,
                    -0.21828848123550415
                ],
                [
                    1.3275492191314697,
                    0.5703223347663879,
                    0.9981851577758789,
                    -0.7496843338012695,
                    0.6526668071746826,
                    0.2986954152584076,
                    -0.021965261548757553
                ],
                [
                    -0.028422046452760696,
                    -0.25470924377441406,
                    -0.5733028650283813,
                    -0.11947449296712875,
                    0.3986213505268097,
                    -0.049564965069293976,
                    -0.24718104302883148
                ],
                [
                    0.6119349598884583,
                    0.06425825506448746,
                    -1.1948858499526978,
                    0.15076865255832672,
                    -0.03871969133615494,
                    0.3416258692741394,
                    -0.1648024171590805
                ],
                [
                    -1.183843731880188,
                    0.48854878544807434,
                    -2.426305055618286,
                    -1.9604829549789429,
                    -0.1443592607975006,
                    -0.47222521901130676,
                    -0.1579219549894333
                ],
                [
                    -0.9776557683944702,
                    -0.22633293271064758,
                    1.1885719299316406,
                    0.7515891790390015,
                    -0.945532500743866,
                    -0.08618898689746857,
                    -0.2350272536277771
                ],
                [
                    0.5327810645103455,
                    0.16686232388019562,
                    -1.390869140625,
                    1.2914535999298096,
                    1.2562037706375122,
                    0.32038751244544983,
                    -0.04823588207364082
                ]
            ],
            "convs.1.nn.2.bias": [
                0.07751479744911194,
                -0.14092999696731567,
                0.03729894384741783,
                0.013846753165125847,
                -0.039705790579319,
                -0.2643890976905823,
                -0.20804035663604736
            ],
            "lin_out.weight": [
                [
                    -0.12950031459331512,
                    -0.11514616012573242,
                    0.14922522008419037,
                    0.10944481939077377,
                    0.9497387409210205,
                    0.6208534836769104,
                    -0.21738450229167938
                ],
                [
                    -0.5107593536376953,
                    -0.2937493324279785,
                    -0.20262658596038818,
                    0.1692442148923874,
                    1.0380222797393799,
                    0.7652584314346313,
                    -0.3113384246826172
                ],
                [
                    -0.26307162642478943,
                    -0.35529059171676636,
                    0.004252119921147823,
                    0.058099765330553055,
                    0.8870492577552795,
                    0.8287975788116455,
                    -0.018115920946002007
                ],
                [
                    -1.8406071662902832,
                    -3.0897107124328613,
                    2.052783489227295,
                    0.6452829837799072,
                    -3.805177688598633,
                    11.142534255981445,
                    11.00331974029541
                ],
                [
                    3.1273956298828125,
                    9.448270797729492,
                    -5.394439697265625,
                    -10.39746379852295,
                    -3.798766613006592,
                    6.852802276611328,
                    -3.815753936767578
                ],
                [
                    6.04899263381958,
                    5.722690105438232,
                    3.0212690830230713,
                    -0.6478792428970337,
                    5.704117774963379,
                    -0.7485131621360779,
                    9.149352073669434
                ],
                [
                    -0.2726672887802124,
                    -0.05785991623997688,
                    -0.0004980200901627541,
                    0.02647382952272892,
                    1.107312798500061,
                    0.3967684507369995,
                    -0.3881518542766571
                ],
                [
                    -12.884954452514648,
                    11.34791088104248,
                    -0.23316827416419983,
                    7.045387268066406,
                    -0.9787456393241882,
                    0.20645208656787872,
                    3.1690726280212402
                ],
                [
                    -0.37899112701416016,
                    -0.0379377081990242,
                    -0.15743568539619446,
                    0.06556596606969833,
                    0.8590719699859619,
                    0.5727289319038391,
                    -0.3053304851055145
                ],
                [
                    -0.2659412920475006,
                    -0.10522089898586273,
                    -0.005437829997390509,
                    -0.04975380748510361,
                    0.7751514315605164,
                    0.6027798056602478,
                    -0.42329686880111694
                ]
            ],
            "lin_out.bias": [
                -1.525467038154602,
                -1.5256866216659546,
                -1.6122162342071533,
                -6.2716383934021,
                -7.142504692077637,
                -6.522726058959961,
                -1.4331313371658325,
                -6.206188201904297,
                -1.6366856098175049,
                -1.5017417669296265
            ]
        },
        "(6, 6, 'Failed', 0)": {
            "convs.0.eps": [
                -0.042326029390096664
            ],
            "convs.0.nn.0.weight": [
                [
                    -0.066409632563591,
                    -0.20277991890907288,
                    -0.33993786573410034,
                    -0.033457886427640915,
                    -0.3569895625114441,
                    -0.2795011103153229,
                    -0.28676676750183105,
                    -0.22914741933345795,
                    -0.131713405251503,
                    -0.0943034291267395
                ],
                [
                    1.4901890754699707,
                    -0.9146302342414856,
                    -0.05037909746170044,
                    0.2826215326786041,
                    -0.03774986416101456,
                    1.3160828351974487,
                    0.043376777321100235,
                    -0.24334804713726044,
                    0.11353267729282379,
                    -0.0017263750778511167
                ],
                [
                    -0.034253641963005066,
                    -0.31563177704811096,
                    -0.31520751118659973,
                    0.20867177844047546,
                    1.5870856046676636,
                    -0.10266561806201935,
                    0.23766188323497772,
                    -0.08726519346237183,
                    -0.13314397633075714,
                    -0.31904834508895874
                ],
                [
                    1.4754376411437988,
                    1.3808648586273193,
                    -0.19574706256389618,
                    -0.3025203049182892,
                    0.08482156693935394,
                    -1.020195722579956,
                    -0.3807907700538635,
                    -0.1618930548429489,
                    0.08270125836133957,
                    -0.11830683797597885
                ],
                [
                    -0.31917744874954224,
                    -0.01987474039196968,
                    -0.2249576300382614,
                    1.684598445892334,
                    -0.21564602851867676,
                    -0.16044870018959045,
                    -0.08879541605710983,
                    -0.14985933899879456,
                    -0.04744710400700569,
                    -0.15108855068683624
                ],
                [
                    -1.095292568206787,
                    1.2973048686981201,
                    -0.003106222487986088,
                    -0.011850135400891304,
                    -0.16247063875198364,
                    1.4747116565704346,
                    -0.12066195905208588,
                    -0.0542745441198349,
                    -0.04825169965624809,
                    0.18111029267311096
                ],
                [
                    0.025174599140882492,
                    -0.2930484414100647,
                    -0.28144603967666626,
                    -0.12236533313989639,
                    -0.581896960735321,
                    -0.45232468843460083,
                    -0.26789847016334534,
                    1.6593507528305054,
                    -0.15923520922660828,
                    -0.4730411171913147
                ]
            ],
            "convs.0.nn.0.bias": [
                -0.04638565331697464,
                -1.4867583513259888,
                -2.5715017318725586,
                -2.0383262634277344,
                -2.6031455993652344,
                -1.8425182104110718,
                -2.392817497253418
            ],
            "convs.0.nn.2.weight": [
                [
                    0.4012737572193146,
                    0.6769248247146606,
                    -0.4079679846763611,
                    1.1632860898971558,
                    2.1951634883880615,
                    -1.4158111810684204,
                    -0.6317623853683472
                ],
                [
                    0.13103017210960388,
                    1.0595592260360718,
                    1.1378767490386963,
                    1.3891445398330688,
                    0.37105387449264526,
                    1.132717490196228,
                    1.6003265380859375
                ],
                [
                    0.35093459486961365,
                    0.4757421016693115,
                    2.225187063217163,
                    0.48511165380477905,
                    0.5503840446472168,
                    0.7557010650634766,
                    2.66121768951416
                ],
                [
                    0.10242666304111481,
                    -4.484127521514893,
                    -0.12294445931911469,
                    0.7505367398262024,
                    -1.6580126285552979,
                    0.15911713242530823,
                    1.0676668882369995
                ],
                [
                    0.2781057059764862,
                    -0.0743265375494957,
                    -0.26122725009918213,
                    -0.14491476118564606,
                    -0.049531519412994385,
                    -0.2998303771018982,
                    -0.24814894795417786
                ],
                [
                    0.0463651567697525,
                    -3.2147438526153564,
                    2.3024582862854004,
                    1.4293044805526733,
                    -0.16943185031414032,
                    0.9003006219863892,
                    0.36783847212791443
                ],
                [
                    -0.11645431816577911,
                    -2.9443700313568115,
                    0.5861051082611084,
                    1.1705790758132935,
                    -0.7890602350234985,
                    -5.1417765617370605,
                    -2.197144031524658
                ]
            ],
            "convs.0.nn.2.bias": [
                -1.9433764219284058,
                -3.207616090774536,
                -3.016085147857666,
                -0.4226580560207367,
                -0.5499042868614197,
                -1.9916670322418213,
                -1.3798844814300537
            ],
            "convs.1.eps": [
                -1.1745589971542358
            ],
            "convs.1.nn.0.weight": [
                [
                    0.2148146629333496,
                    -0.871468722820282,
                    -2.7458572387695312,
                    -0.30632534623146057,
                    -0.3240271508693695,
                    0.11399221420288086,
                    0.21344640851020813
                ],
                [
                    1.3505080938339233,
                    -1.9590541124343872,
                    0.7737643718719482,
                    0.7834623456001282,
                    0.029602762311697006,
                    -0.47173482179641724,
                    -1.9200488328933716
                ],
                [
                    -0.1490810364484787,
                    -0.4424448311328888,
                    -0.24529655277729034,
                    0.06994982808828354,
                    -0.41987526416778564,
                    -0.4237267076969147,
                    -0.24039551615715027
                ],
                [
                    -0.8054381012916565,
                    -0.04280519485473633,
                    -1.403076171875,
                    0.9055795669555664,
                    0.351291686296463,
                    1.919508695602417,
                    -2.7339041233062744
                ],
                [
                    -1.799700140953064,
                    1.1604763269424438,
                    -2.793510675430298,
                    1.0926353931427002,
                    -0.17844201624393463,
                    1.1594314575195312,
                    -1.5524399280548096
                ],
                [
                    -0.011423487216234207,
                    -0.44772136211395264,
                    -0.1591927409172058,
                    -0.29441213607788086,
                    0.36699455976486206,
                    -0.04010871797800064,
                    -0.15960681438446045
                ],
                [
                    1.5212247371673584,
                    -0.07674675434827805,
                    -0.4012397527694702,
                    -0.7549424767494202,
                    0.02868683822453022,
                    0.265298992395401,
                    -1.512900710105896
                ]
            ],
            "convs.1.nn.0.bias": [
                1.9434939622879028,
                -0.2556508481502533,
                -0.3606955111026764,
                -0.06222809851169586,
                -0.19287267327308655,
                -0.2765205502510071,
                -0.37767747044563293
            ],
            "convs.1.nn.2.weight": [
                [
                    0.6540177464485168,
                    0.35795387625694275,
                    -0.02716200426220894,
                    1.1993392705917358,
                    -1.131350040435791,
                    -0.3658939003944397,
                    -1.294113278388977
                ],
                [
                    -1.0082197189331055,
                    -1.0949633121490479,
                    -0.20895074307918549,
                    0.41830015182495117,
                    0.7420849800109863,
                    -0.16022689640522003,
                    1.4110568761825562
                ],
                [
                    2.790172576904297,
                    -0.9760903716087341,
                    -0.05022560432553291,
                    1.1603074073791504,
                    -0.3064391314983368,
                    0.16313348710536957,
                    1.3883939981460571
                ],
                [
                    1.696291446685791,
                    -0.5768406987190247,
                    0.1852523535490036,
                    -1.7471908330917358,
                    1.0524933338165283,
                    0.31979265809059143,
                    -0.5426924824714661
                ],
                [
                    1.2800772190093994,
                    3.1877541542053223,
                    0.030679045245051384,
                    1.0834980010986328,
                    0.09850963950157166,
                    -0.23173673450946808,
                    -1.848942756652832
                ],
                [
                    -0.18641529977321625,
                    2.058974027633667,
                    0.0701223686337471,
                    -1.6727862358093262,
                    0.4267548620700836,
                    0.07153873145580292,
                    0.21889814734458923
                ],
                [
                    0.03600655123591423,
                    -0.6383067965507507,
                    -0.20184576511383057,
                    2.0370826721191406,
                    -2.981346607208252,
                    0.10384507477283478,
                    0.5440644025802612
                ]
            ],
            "convs.1.nn.2.bias": [
                -1.2654474973678589,
                -0.16697780787944794,
                -4.326535224914551,
                -2.8875088691711426,
                -2.577693462371826,
                -0.09175216406583786,
                -0.16709208488464355
            ],
            "lin_out.weight": [
                [
                    -1.0889482498168945,
                    4.2374749183654785,
                    -2.0737931728363037,
                    -1.3473047018051147,
                    -4.720935344696045,
                    0.8974116444587708,
                    1.9475771188735962
                ],
                [
                    1.8905093669891357,
                    4.510848522186279,
                    2.7663514614105225,
                    0.8631499409675598,
                    3.562107801437378,
                    -1.9428268671035767,
                    -2.080310821533203
                ],
                [
                    0.5210445523262024,
                    -0.06701244413852692,
                    0.31856492161750793,
                    0.9648652076721191,
                    0.0673309862613678,
                    -0.0010587244760245085,
                    0.38014712929725647
                ],
                [
                    -0.08877930790185928,
                    2.5366079807281494,
                    5.044357776641846,
                    2.0475378036499023,
                    3.147965669631958,
                    4.489531517028809,
                    1.6032755374908447
                ],
                [
                    2.8189570903778076,
                    1.8804211616516113,
                    -2.707136869430542,
                    -2.608537197113037,
                    0.18721742928028107,
                    -1.4035768508911133,
                    4.3262038230896
                ],
                [
                    -0.25031352043151855,
                    1.9319970607757568,
                    -4.430790901184082,
                    2.970036506652832,
                    -2.143035411834717,
                    1.086895227432251,
                    -2.8932719230651855
                ],
                [
                    0.41754084825515747,
                    -0.17191314697265625,
                    0.3095681667327881,
                    0.822503387928009,
                    0.02419356442987919,
                    -0.07022330164909363,
                    0.1970250904560089
                ],
                [
                    1.6291087865829468,
                    1.2561644315719604,
                    -7.590451240539551,
                    -1.9621366262435913,
                    2.1341958045959473,
                    2.1988108158111572,
                    0.960606038570404
                ],
                [
                    0.49272438883781433,
                    -0.07507641613483429,
                    0.3756718933582306,
                    1.1371822357177734,
                    -0.015866152942180634,
                    -0.03432606905698776,
                    0.27532994747161865
                ],
                [
                    0.4969748258590698,
                    -0.22512151300907135,
                    0.3173414468765259,
                    0.9680960774421692,
                    0.1641126126050949,
                    -0.06818366050720215,
                    0.11227001249790192
                ]
            ],
            "lin_out.bias": [
                -1.9142788648605347,
                -7.108025074005127,
                -2.050492525100708,
                -6.478917121887207,
                -2.1622214317321777,
                -1.3317500352859497,
                -2.2488460540771484,
                -2.3770172595977783,
                -2.314500570297241,
                -2.350125551223755
            ]
        },
        "(5, 5, 'Failed', 0)": {
            "convs.0.eps": [
                -0.23233798146247864
            ],
            "convs.0.nn.0.weight": [
                [
                    0.8470242023468018,
                    -0.7592827081680298,
                    -0.758284866809845,
                    -0.20349305868148804,
                    -0.16966204345226288,
                    -0.7128315567970276,
                    1.786111831665039,
                    -0.3783673048019409,
                    -0.36458638310432434,
                    -0.5071011185646057
                ],
                [
                    1.4029898643493652,
                    0.026084713637828827,
                    -0.20754261314868927,
                    -0.5211196541786194,
                    -0.23544394969940186,
                    -0.18711021542549133,
                    -0.5962331295013428,
                    1.5873887538909912,
                    -0.6674737930297852,
                    0.162033811211586
                ],
                [
                    -0.9218937158584595,
                    0.0352211557328701,
                    -0.029630344361066818,
                    -0.010689793154597282,
                    0.06228550150990486,
                    -0.979784369468689,
                    -0.12279921770095825,
                    0.024439934641122818,
                    -0.12991732358932495,
                    0.059175629168748856
                ],
                [
                    -0.4462893605232239,
                    -0.68378746509552,
                    -0.20803430676460266,
                    -0.48164206743240356,
                    0.015754496678709984,
                    -0.08028499037027359,
                    0.5763793587684631,
                    1.6517223119735718,
                    0.09327271580696106,
                    -0.31193622946739197
                ],
                [
                    1.2611087560653687,
                    -0.46972668170928955,
                    -0.4108960032463074,
                    -0.4100184440612793,
                    -0.7027448415756226,
                    -0.9815973043441772,
                    -0.7041534185409546,
                    -0.9368530511856079,
                    -0.9591842293739319,
                    -0.6178600192070007
                ],
                [
                    -0.15121014416217804,
                    -0.28995102643966675,
                    1.5302711725234985,
                    0.11813618987798691,
                    -0.45775163173675537,
                    0.2742912471294403,
                    0.14515835046768188,
                    -0.2909683585166931,
                    -0.1592792272567749,
                    -0.1916053742170334
                ],
                [
                    0.008626437745988369,
                    -0.24451923370361328,
                    1.9698984622955322,
                    0.024934783577919006,
                    -0.4067341983318329,
                    0.11440785229206085,
                    0.09635388106107712,
                    -0.06589724123477936,
                    -0.19895152747631073,
                    -0.05905573070049286
                ]
            ],
            "convs.0.nn.0.bias": [
                -2.732182741165161,
                -2.721342086791992,
                2.4654417037963867,
                -2.7174136638641357,
                2.170334577560425,
                -3.06384539604187,
                -3.3398125171661377
            ],
            "convs.0.nn.2.weight": [
                [
                    -0.11602236330509186,
                    1.3813203573226929,
                    -0.024563683196902275,
                    1.3446027040481567,
                    -1.1938636302947998,
                    -1.021225094795227,
                    -0.5342061519622803
                ],
                [
                    -2.3855533599853516,
                    -1.025609016418457,
                    0.03312695026397705,
                    -0.0052175684832036495,
                    -0.04046887531876564,
                    0.3232029378414154,
                    1.6278396844863892
                ],
                [
                    2.1190195083618164,
                    -0.6358141303062439,
                    -0.18361850082874298,
                    0.30539143085479736,
                    -1.423248052597046,
                    0.30739420652389526,
                    -1.7427650690078735
                ],
                [
                    -0.12044356018304825,
                    0.7186446785926819,
                    -4.179218292236328,
                    -2.74265456199646,
                    0.9559330940246582,
                    -0.3762193024158478,
                    -0.6751024723052979
                ],
                [
                    -1.7781716585159302,
                    -1.7867217063903809,
                    -5.878899097442627,
                    0.5071784853935242,
                    -4.812316417694092,
                    -2.077120780944824,
                    -1.1458989381790161
                ],
                [
                    0.4585123658180237,
                    1.3026587963104248,
                    -0.8547644019126892,
                    0.908907949924469,
                    -2.714017391204834,
                    -0.3282472789287567,
                    0.16669847071170807
                ],
                [
                    0.7646821141242981,
                    -0.5961911678314209,
                    -1.1529579162597656,
                    0.008536476641893387,
                    -0.014175261370837688,
                    -0.0749935433268547,
                    -0.47586455941200256
                ]
            ],
            "convs.0.nn.2.bias": [
                -1.5751628875732422,
                -0.7226622104644775,
                -1.0968188047409058,
                -2.319354295730591,
                0.900815486907959,
                -2.7563395500183105,
                -1.3148564100265503
            ],
            "convs.1.eps": [
                -1.2737963199615479
            ],
            "convs.1.nn.0.weight": [
                [
                    -0.2654859721660614,
                    -0.039382051676511765,
                    -0.20853322744369507,
                    -0.3619343042373657,
                    -0.25742655992507935,
                    -0.3930196166038513,
                    -0.3041446805000305
                ],
                [
                    1.0656858682632446,
                    1.1921104192733765,
                    0.3932023048400879,
                    -0.9823881387710571,
                    -2.7526867389678955,
                    -1.7599694728851318,
                    1.0642645359039307
                ],
                [
                    -2.0206732749938965,
                    0.24354630708694458,
                    0.022120360285043716,
                    1.1214454174041748,
                    -4.610478401184082,
                    -1.176024079322815,
                    0.26732540130615234
                ],
                [
                    -0.22312630712985992,
                    0.7744134664535522,
                    -0.32590702176094055,
                    -0.5953882932662964,
                    -3.6411590576171875,
                    0.26584118604660034,
                    0.3932548463344574
                ],
                [
                    -0.25790610909461975,
                    0.005391026847064495,
                    -0.4114992916584015,
                    -0.3169662058353424,
                    0.057845424860715866,
                    0.09008204191923141,
                    -0.07635068148374557
                ],
                [
                    -0.34544065594673157,
                    -0.18264034390449524,
                    -0.6484238505363464,
                    -0.3888375759124756,
                    -0.08663684874773026,
                    -0.08991076052188873,
                    -0.3244248032569885
                ],
                [
                    -0.018908681347966194,
                    -0.026390977203845978,
                    1.3202593326568604,
                    -0.4955260455608368,
                    -2.940671920776367,
                    0.03470166027545929,
                    0.31794095039367676
                ]
            ],
            "convs.1.nn.0.bias": [
                -0.634588360786438,
                -0.11873826384544373,
                -0.33752402663230896,
                2.143214702606201,
                -0.486472487449646,
                -0.4901609420776367,
                -0.3595944046974182
            ],
            "convs.1.nn.2.weight": [
                [
                    -0.38580262660980225,
                    -1.0825856924057007,
                    1.348975658416748,
                    1.7415817975997925,
                    -0.023523734882473946,
                    -0.13448290526866913,
                    -1.0732967853546143
                ],
                [
                    0.13055011630058289,
                    0.8289358019828796,
                    0.8936548829078674,
                    -0.6616932153701782,
                    -0.282733291387558,
                    -0.5885675549507141,
                    -2.3241443634033203
                ],
                [
                    0.08319170773029327,
                    1.5318610668182373,
                    1.5686959028244019,
                    1.3346846103668213,
                    -0.16065534949302673,
                    0.005356063600629568,
                    0.7740656733512878
                ],
                [
                    -0.5171159505844116,
                    -0.23658646643161774,
                    1.0734537839889526,
                    -0.7260730266571045,
                    -0.006837740074843168,
                    -0.03664431348443031,
                    1.699184536933899
                ],
                [
                    -0.2240736335515976,
                    0.4209553301334381,
                    -0.6352947354316711,
                    -1.8900593519210815,
                    -0.12403862923383713,
                    0.32399728894233704,
                    -1.279740333557129
                ],
                [
                    -0.6853805184364319,
                    -0.9764392375946045,
                    -0.911230742931366,
                    1.0042937994003296,
                    0.5160883665084839,
                    0.08237124979496002,
                    -0.1232699528336525
                ],
                [
                    -0.17633363604545593,
                    1.2823840379714966,
                    -0.5255741477012634,
                    1.539845585823059,
                    0.15468157827854156,
                    0.22292359173297882,
                    -0.1382771134376526
                ]
            ],
            "convs.1.nn.2.bias": [
                -3.463029146194458,
                1.0996617078781128,
                -2.1407628059387207,
                1.0735353231430054,
                3.9336509704589844,
                -1.6054108142852783,
                -3.496035099029541
            ],
            "lin_out.weight": [
                [
                    6.498230934143066,
                    5.693287372589111,
                    -0.6957012414932251,
                    8.346607208251953,
                    -1.9853324890136719,
                    -6.015532970428467,
                    -2.0511629581451416
                ],
                [
                    0.5159890055656433,
                    -0.07746036350727081,
                    -1.0130183696746826,
                    -0.158596932888031,
                    -0.35458242893218994,
                    0.2781885862350464,
                    0.2716948390007019
                ],
                [
                    4.177796840667725,
                    1.085655689239502,
                    1.7636911869049072,
                    -0.752895176410675,
                    -8.088839530944824,
                    -0.3584689497947693,
                    8.53594970703125
                ],
                [
                    0.4312095046043396,
                    -0.049063216894865036,
                    -0.9929100871086121,
                    -0.11552826315164566,
                    -0.4141254723072052,
                    0.19667404890060425,
                    0.4268140494823456
                ],
                [
                    0.4852980971336365,
                    -0.09030311554670334,
                    -0.7497261762619019,
                    -0.08683733642101288,
                    -0.3739054799079895,
                    0.24580465257167816,
                    0.3099047541618347
                ],
                [
                    -2.034208059310913,
                    0.710029125213623,
                    -3.676482915878296,
                    0.835055947303772,
                    2.7285914421081543,
                    -0.9007464647293091,
                    -1.4894366264343262
                ],
                [
                    -5.778454303741455,
                    -6.483137130737305,
                    -2.2910914421081543,
                    8.432514190673828,
                    -5.493342876434326,
                    -2.34133243560791,
                    1.9410401582717896
                ],
                [
                    -5.476100921630859,
                    4.135367393493652,
                    -2.1510825157165527,
                    0.5942352414131165,
                    3.3641629219055176,
                    -4.929568290710449,
                    4.487392902374268
                ],
                [
                    0.6506048440933228,
                    -0.020922040566802025,
                    -1.0212411880493164,
                    -0.09353073686361313,
                    -0.47593414783477783,
                    0.08573134243488312,
                    0.4487534761428833
                ],
                [
                    0.47476932406425476,
                    -0.012940964661538601,
                    -0.722393810749054,
                    -0.12503169476985931,
                    -0.25961604714393616,
                    0.18893636763095856,
                    0.21641016006469727
                ]
            ],
            "lin_out.bias": [
                -6.444093704223633,
                -1.1979563236236572,
                -6.681046009063721,
                -1.2625198364257812,
                -1.1197279691696167,
                -0.7458811402320862,
                -4.16566801071167,
                -6.7014970779418945,
                -1.0173649787902832,
                -1.281595230102539
            ]
        },
        "(5, 5, 5, 0)": {
            "convs.0.eps": [
                0.035248175263404846
            ],
            "convs.0.nn.0.weight": [
                [
                    -1.2046260833740234,
                    -0.10255184024572372,
                    1.8027620315551758,
                    0.12443364411592484,
                    -0.6160356402397156,
                    -0.5112928152084351,
                    -0.4600079357624054,
                    -0.46249455213546753,
                    0.09563262015581131,
                    1.694705605506897
                ],
                [
                    -0.19100111722946167,
                    -0.5498620271682739,
                    -0.8768121004104614,
                    -0.7422934770584106,
                    0.14958526194095612,
                    -0.09662020951509476,
                    0.9165113568305969,
                    -0.10450832545757294,
                    -0.11565981805324554,
                    0.39754518866539
                ],
                [
                    1.591403841972351,
                    0.07497183978557587,
                    1.4212135076522827,
                    0.0028587093111127615,
                    -0.03137272223830223,
                    0.00688388803973794,
                    -0.05306698754429817,
                    -0.3348696231842041,
                    -0.35761788487434387,
                    -1.3676621913909912
                ],
                [
                    -0.20239411294460297,
                    -0.37049582600593567,
                    -0.09508980810642242,
                    -0.0048967162147164345,
                    -0.35656651854515076,
                    -0.2142927050590515,
                    0.08170170336961746,
                    0.07900962978601456,
                    -0.2113221436738968,
                    -0.3680635988712311
                ],
                [
                    1.543265700340271,
                    -0.4365179240703583,
                    -1.2698078155517578,
                    -0.02011130377650261,
                    -0.027371130883693695,
                    -0.5061007738113403,
                    -0.6358008980751038,
                    -0.1670169234275818,
                    -0.6883016228675842,
                    1.6563888788223267
                ],
                [
                    -0.3754710853099823,
                    -0.3924476206302643,
                    -0.3148825168609619,
                    -0.3192945122718811,
                    -0.18959948420524597,
                    -0.18496334552764893,
                    1.9680001735687256,
                    -0.4294189512729645,
                    -0.2685037851333618,
                    -0.4182247817516327
                ],
                [
                    0.00427083158865571,
                    0.107148177921772,
                    -0.06494032591581345,
                    0.20048034191131592,
                    -0.9964969754219055,
                    0.3729952275753021,
                    -0.08874717354774475,
                    0.05534111335873604,
                    0.21306179463863373,
                    0.030745822936296463
                ]
            ],
            "convs.0.nn.0.bias": [
                -2.5910959243774414,
                -2.6158761978149414,
                -1.7128850221633911,
                -0.4729917645454407,
                -1.5619559288024902,
                -2.4112794399261475,
                2.5944902896881104
            ],
            "convs.0.nn.2.weight": [
                [
                    1.54806387424469,
                    0.6931394934654236,
                    1.071150541305542,
                    -0.012647470459342003,
                    1.2456207275390625,
                    -0.25465598702430725,
                    -0.4001518785953522
                ],
                [
                    0.6885110139846802,
                    -0.9227611422538757,
                    -0.9079549312591553,
                    0.0183176938444376,
                    -0.0632299929857254,
                    -0.7751379609107971,
                    -5.177540302276611
                ],
                [
                    -0.5073348879814148,
                    -0.07861743122339249,
                    -0.417025089263916,
                    -0.35532253980636597,
                    0.05904191732406616,
                    -0.166391059756279,
                    -0.32897356152534485
                ],
                [
                    1.6259957551956177,
                    -0.006942769046872854,
                    -2.5224530696868896,
                    -0.22023700177669525,
                    0.7902510166168213,
                    1.882860541343689,
                    -0.4219629764556885
                ],
                [
                    -0.2674711346626282,
                    -0.3332443833351135,
                    -0.2621743381023407,
                    0.11821036040782928,
                    0.12166321277618408,
                    -0.25306686758995056,
                    -0.30245155096054077
                ],
                [
                    2.0232458114624023,
                    0.7081995606422424,
                    0.9932400584220886,
                    0.026394473388791084,
                    -6.118697166442871,
                    -0.8225873112678528,
                    -0.9673168063163757
                ],
                [
                    -0.3907039165496826,
                    -0.1575690060853958,
                    -0.003990164026618004,
                    -0.36612969636917114,
                    0.09720971435308456,
                    0.001831062021665275,
                    -0.22800849378108978
                ]
            ],
            "convs.0.nn.2.bias": [
                -2.928999662399292,
                1.3126296997070312,
                -0.24794551730155945,
                -1.8433705568313599,
                -0.4979460835456848,
                -0.7384254336357117,
                -0.23603172600269318
            ],
            "convs.1.eps": [
                -1.6383410692214966
            ],
            "convs.1.nn.0.weight": [
                [
                    0.9000943899154663,
                    -1.6926991939544678,
                    0.11676841229200363,
                    -0.19080179929733276,
                    0.07973136007785797,
                    -4.157899856567383,
                    0.43924209475517273
                ],
                [
                    0.7553687691688538,
                    -0.12530256807804108,
                    -0.4649696946144104,
                    -1.6444569826126099,
                    -0.49391862750053406,
                    -1.1750965118408203,
                    0.2203853875398636
                ],
                [
                    0.6048422455787659,
                    -0.08406767249107361,
                    0.16585540771484375,
                    -0.9590816497802734,
                    0.25556454062461853,
                    0.4572674334049225,
                    0.2210652381181717
                ],
                [
                    -0.021710630506277084,
                    -1.6806244850158691,
                    -0.3997422456741333,
                    -0.9874903559684753,
                    0.30855512619018555,
                    -0.04413989186286926,
                    0.04723108187317848
                ],
                [
                    -0.0010978510836139321,
                    2.5310616493225098,
                    -0.3175462782382965,
                    -0.14873991906642914,
                    -0.07935673743486404,
                    -0.6528418064117432,
                    0.09680841863155365
                ],
                [
                    0.6134942173957825,
                    -0.47644558548927307,
                    0.38704147934913635,
                    0.67371666431427,
                    0.14979077875614166,
                    -2.6852290630340576,
                    -0.22109296917915344
                ],
                [
                    -1.6819493770599365,
                    0.26814886927604675,
                    0.17667131125926971,
                    0.9981388449668884,
                    0.2974739670753479,
                    -1.4004746675491333,
                    -0.5214727520942688
                ]
            ],
            "convs.1.nn.0.bias": [
                -3.9439351558685303,
                -0.1677107810974121,
                -0.22222189605236053,
                -0.07590584456920624,
                -0.2930287718772888,
                -0.1968066394329071,
                -0.646666944026947
            ],
            "convs.1.nn.2.weight": [
                [
                    0.13536791503429413,
                    -0.8355723023414612,
                    0.6029734015464783,
                    0.10920296609401703,
                    -2.0439212322235107,
                    -1.5028969049453735,
                    2.418760299682617
                ],
                [
                    1.2935398817062378,
                    0.5316779613494873,
                    -0.8463931083679199,
                    0.666137158870697,
                    -1.8136829137802124,
                    -0.4864628314971924,
                    -2.5134286880493164
                ],
                [
                    -2.4336934089660645,
                    2.4341723918914795,
                    0.19486874341964722,
                    0.3248463273048401,
                    0.4068434238433838,
                    0.32387828826904297,
                    0.4793640077114105
                ],
                [
                    1.260086178779602,
                    1.1084116697311401,
                    -1.170972228050232,
                    -0.16426289081573486,
                    1.5290497541427612,
                    -1.688228726387024,
                    0.6666917204856873
                ],
                [
                    1.7255988121032715,
                    -0.13937565684318542,
                    -1.0774073600769043,
                    0.38388508558273315,
                    -2.155932903289795,
                    0.2286471128463745,
                    -0.09054777026176453
                ],
                [
                    0.3450281023979187,
                    -0.5630754232406616,
                    1.499588131904602,
                    0.04157540947198868,
                    0.3214436173439026,
                    -0.516810953617096,
                    -1.3527926206588745
                ],
                [
                    0.02555229142308235,
                    3.610809326171875,
                    -0.05738503113389015,
                    0.4474671185016632,
                    -0.6584553122520447,
                    -0.8276212215423584,
                    1.1604363918304443
                ]
            ],
            "convs.1.nn.2.bias": [
                0.3522084951400757,
                0.4252493381500244,
                0.07029682397842407,
                -0.01782652735710144,
                -0.2658958435058594,
                -0.3120630085468292,
                0.08247070759534836
            ],
            "lin_out.weight": [
                [
                    -5.120589733123779,
                    -0.11505146324634552,
                    5.319222450256348,
                    -0.04632626846432686,
                    3.2014241218566895,
                    3.331831932067871,
                    11.800169944763184
                ],
                [
                    0.1643369346857071,
                    0.18912990391254425,
                    -0.7012010216712952,
                    0.550305187702179,
                    0.8512725830078125,
                    0.14923961460590363,
                    -0.08301085233688354
                ],
                [
                    3.5998475551605225,
                    -5.203054904937744,
                    -1.051792860031128,
                    -4.826744079589844,
                    -0.9931992292404175,
                    11.584590911865234,
                    -0.4381692707538605
                ],
                [
                    0.023233633488416672,
                    0.40002894401550293,
                    -0.811060905456543,
                    0.5932515859603882,
                    0.9000507593154907,
                    0.28239181637763977,
                    -0.0857422947883606
                ],
                [
                    -3.2889394760131836,
                    -3.3415162563323975,
                    -1.2312744855880737,
                    5.010212421417236,
                    -0.9633073806762695,
                    1.7426193952560425,
                    -1.1811991930007935
                ],
                [
                    0.21137557923793793,
                    0.37208816409111023,
                    -0.49964508414268494,
                    0.42170628905296326,
                    0.950599193572998,
                    0.13169234991073608,
                    -0.02245217375457287
                ],
                [
                    3.8513941764831543,
                    -11.593717575073242,
                    0.2492073029279709,
                    0.43731698393821716,
                    5.5087175369262695,
                    -4.066081523895264,
                    2.151313543319702
                ],
                [
                    0.33202388882637024,
                    0.3622302711009979,
                    -0.5961592197418213,
                    0.5475299954414368,
                    0.45541033148765564,
                    0.31957030296325684,
                    -0.09080725163221359
                ],
                [
                    0.41492587327957153,
                    0.6052380800247192,
                    -0.5749173164367676,
                    0.6031277775764465,
                    0.7577522993087769,
                    0.26253560185432434,
                    -0.07272536307573318
                ],
                [
                    -6.383999347686768,
                    -1.239974856376648,
                    -1.5956485271453857,
                    -6.822357654571533,
                    4.23537540435791,
                    -0.0997660681605339,
                    -4.546988010406494
                ]
            ],
            "lin_out.bias": [
                -5.523852348327637,
                -1.5173155069351196,
                -5.577286720275879,
                -1.197271704673767,
                -3.695746898651123,
                -1.6449588537216187,
                -5.125362396240234,
                -1.6288303136825562,
                -1.4899680614471436,
                -6.681111812591553
            ]
        },
        "(3, 3, 3, 0)": {
            "convs.0.eps": [
                -0.0066214874386787415
            ],
            "convs.0.nn.0.weight": [
                [
                    -0.02442854456603527,
                    -0.09081531316041946,
                    -0.3322962820529938,
                    0.053659360855817795,
                    -0.09668562561273575,
                    -0.1094275489449501,
                    -0.10743987560272217,
                    -0.07507326453924179,
                    -0.07988063991069794,
                    -0.20528270304203033
                ],
                [
                    -0.5193106532096863,
                    -0.31194818019866943,
                    -0.4422840476036072,
                    1.6705958843231201,
                    -0.3178974390029907,
                    0.0784963071346283,
                    -0.041431352496147156,
                    -0.3693395256996155,
                    0.0713619813323021,
                    -0.2915050685405731
                ],
                [
                    0.014417569153010845,
                    -0.03465655446052551,
                    -0.2799629867076874,
                    -0.1709340661764145,
                    -0.033567242324352264,
                    -0.06895788758993149,
                    -0.005671288818120956,
                    -0.15380340814590454,
                    -0.01788483001291752,
                    -0.1096900999546051
                ],
                [
                    -0.7013145685195923,
                    0.20585329830646515,
                    -0.637957751750946,
                    0.0014864305267110467,
                    -0.6519965529441833,
                    -0.5886772871017456,
                    1.699708342552185,
                    -0.8174694776535034,
                    -0.6324802041053772,
                    -0.6357599496841431
                ],
                [
                    1.5489599704742432,
                    -0.07326368242502213,
                    -0.06778326630592346,
                    -0.001021275413222611,
                    -0.20382536947727203,
                    -0.6895074844360352,
                    0.06328213214874268,
                    -0.32138001918792725,
                    0.0037453905679285526,
                    -0.6052307486534119
                ],
                [
                    -0.38054367899894714,
                    1.6931318044662476,
                    1.7780451774597168,
                    -0.3077739179134369,
                    1.6274641752243042,
                    -1.1067901849746704,
                    -0.17511962354183197,
                    1.7184125185012817,
                    0.03316484019160271,
                    -0.729143500328064
                ],
                [
                    -0.20945560932159424,
                    -0.09955056011676788,
                    0.13967306911945343,
                    0.2191399484872818,
                    -0.06839936971664429,
                    -0.16579538583755493,
                    -0.4248352646827698,
                    -0.30228522419929504,
                    1.520042896270752,
                    -0.26579198241233826
                ]
            ],
            "convs.0.nn.0.bias": [
                -0.6608052849769592,
                -2.4526546001434326,
                -0.3096187114715576,
                -3.0922508239746094,
                -2.674180746078491,
                -3.181936025619507,
                -3.4240856170654297
            ],
            "convs.0.nn.2.weight": [
                [
                    0.4246622622013092,
                    1.5333067178726196,
                    -0.2031136006116867,
                    -0.3515350818634033,
                    0.8352535963058472,
                    -0.11339014768600464,
                    1.3937205076217651
                ],
                [
                    -0.3723542094230652,
                    -0.47674089670181274,
                    0.020938526839017868,
                    -1.0261672735214233,
                    -0.9502257704734802,
                    -0.6535279154777527,
                    1.2863788604736328
                ],
                [
                    0.1674797385931015,
                    -1.0237597227096558,
                    -0.09526139497756958,
                    -2.8453049659729004,
                    -1.8269364833831787,
                    -0.37966594099998474,
                    -0.9798389673233032
                ],
                [
                    -0.3957253098487854,
                    -0.20396916568279266,
                    0.27213916182518005,
                    -0.36744406819343567,
                    -0.3105323910713196,
                    -0.06120139732956886,
                    -0.27360883355140686
                ],
                [
                    -0.10412044078111649,
                    1.4957973957061768,
                    -0.18201632797718048,
                    -1.168789267539978,
                    -0.9237463474273682,
                    0.08129879087209702,
                    -0.05861686170101166
                ],
                [
                    0.23313573002815247,
                    -0.4605977535247803,
                    -0.24043071269989014,
                    0.10141103714704514,
                    -0.35922911763191223,
                    0.08615416288375854,
                    -0.20371566712856293
                ],
                [
                    -0.05835605785250664,
                    -0.3601914644241333,
                    -0.08253062516450882,
                    -0.5198184847831726,
                    1.2536205053329468,
                    -0.17224375903606415,
                    -0.3203730881214142
                ]
            ],
            "convs.0.nn.2.bias": [
                -1.962821364402771,
                1.2313343286514282,
                0.34286007285118103,
                -0.38466235995292664,
                -1.2033025026321411,
                -0.4656718075275421,
                -0.40145015716552734
            ],
            "convs.1.eps": [
                -0.8879532217979431
            ],
            "convs.1.nn.0.weight": [
                [
                    0.06560564041137695,
                    1.1647614240646362,
                    0.0958770364522934,
                    -0.4769178032875061,
                    0.43073299527168274,
                    0.2342258244752884,
                    0.6050029993057251
                ],
                [
                    -0.4289870858192444,
                    -0.26034078001976013,
                    -0.3924054503440857,
                    -0.3155134320259094,
                    -0.38466647267341614,
                    0.13202416896820068,
                    -0.4401921331882477
                ],
                [
                    0.6014673113822937,
                    -0.2064695954322815,
                    0.6172857284545898,
                    0.0311126671731472,
                    1.2574210166931152,
                    0.2677571773529053,
                    -0.07647377997636795
                ],
                [
                    -0.6872010231018066,
                    -0.7694061398506165,
                    -0.48937323689460754,
                    -0.3572109341621399,
                    0.0519997775554657,
                    -0.3225613534450531,
                    -0.09309205412864685
                ],
                [
                    -2.09222149848938,
                    1.049350619316101,
                    -2.8680684566497803,
                    -0.20400390028953552,
                    0.05937570706009865,
                    0.2633470594882965,
                    -0.7583427429199219
                ],
                [
                    -1.8620914220809937,
                    -0.8028640747070312,
                    2.648158073425293,
                    0.2569273114204407,
                    0.625436007976532,
                    -0.03290708735585213,
                    1.3682942390441895
                ],
                [
                    -0.13316528499126434,
                    -0.1521604061126709,
                    -0.23358064889907837,
                    0.20572338998317719,
                    -0.07566306740045547,
                    0.23072409629821777,
                    -0.3753453493118286
                ]
            ],
            "convs.1.nn.0.bias": [
                -1.5150960683822632,
                -0.4621281921863556,
                -0.7054873108863831,
                -0.7228903770446777,
                -2.483712673187256,
                -0.42985326051712036,
                -0.5209894776344299
            ],
            "convs.1.nn.2.weight": [
                [
                    -0.8251816034317017,
                    0.018547119572758675,
                    0.26341843605041504,
                    -0.27262353897094727,
                    0.7462533116340637,
                    2.2812795639038086,
                    0.39876657724380493
                ],
                [
                    -1.1730172634124756,
                    -0.4860824942588806,
                    0.7499093413352966,
                    -0.3842756152153015,
                    1.9135600328445435,
                    0.5283600091934204,
                    -0.4230349063873291
                ],
                [
                    -0.8140467405319214,
                    0.32233452796936035,
                    -1.1899118423461914,
                    -0.405812531709671,
                    1.4190576076507568,
                    0.06629803031682968,
                    0.2582661509513855
                ],
                [
                    0.22090458869934082,
                    0.3063882291316986,
                    0.2628534436225891,
                    0.07771027088165283,
                    3.5842177867889404,
                    0.38194018602371216,
                    -0.021728603169322014
                ],
                [
                    -0.7474069595336914,
                    0.04683491960167885,
                    -1.128797173500061,
                    0.21422675251960754,
                    -0.1673421561717987,
                    -1.6364160776138306,
                    0.44250813126564026
                ],
                [
                    0.0026814399752765894,
                    0.19423912465572357,
                    0.06477729976177216,
                    0.1034533828496933,
                    0.1537645310163498,
                    -0.11091047525405884,
                    -0.6187460422515869
                ],
                [
                    0.855624794960022,
                    -0.0901053324341774,
                    -1.0176149606704712,
                    -0.20197714865207672,
                    -1.308010220527649,
                    0.37008121609687805,
                    0.014102151617407799
                ]
            ],
            "convs.1.nn.2.bias": [
                1.4979281425476074,
                2.497474431991577,
                1.8857325315475464,
                -0.6397141218185425,
                1.4240915775299072,
                0.007790733594447374,
                -1.6892365217208862
            ],
            "lin_out.weight": [
                [
                    14.932538986206055,
                    -5.171403884887695,
                    -1.1140087842941284,
                    0.8665750622749329,
                    -1.4854786396026611,
                    0.4349578022956848,
                    4.070013999938965
                ],
                [
                    0.046711698174476624,
                    0.14234024286270142,
                    0.1057032123208046,
                    -0.172464981675148,
                    1.0079773664474487,
                    0.11420149356126785,
                    -0.3824698328971863
                ],
                [
                    0.3880569338798523,
                    0.2153322845697403,
                    0.07783360034227371,
                    -0.23443791270256042,
                    0.9400601387023926,
                    0.11111534386873245,
                    -0.29880887269973755
                ],
                [
                    2.9491207599639893,
                    -0.40776196122169495,
                    -11.025525093078613,
                    -0.7942708730697632,
                    -0.8340207934379578,
                    -0.34896862506866455,
                    -10.178030014038086
                ],
                [
                    0.31643015146255493,
                    -0.06515240669250488,
                    0.2995077669620514,
                    -0.20175784826278687,
                    1.0441884994506836,
                    -0.16615404188632965,
                    -0.004608988296240568
                ],
                [
                    -0.6756986975669861,
                    -1.1660200357437134,
                    -0.11710413545370102,
                    -0.19902965426445007,
                    0.17020852863788605,
                    7.042952347546816e-05,
                    0.46729516983032227
                ],
                [
                    0.2576529383659363,
                    0.10047540813684464,
                    0.17428283393383026,
                    -0.3562810719013214,
                    1.035425066947937,
                    -0.14645881950855255,
                    -0.25983136892318726
                ],
                [
                    0.34260979294776917,
                    0.23697684705257416,
                    0.2064761072397232,
                    -0.30889758467674255,
                    0.9111060500144958,
                    -0.03911023959517479,
                    -0.25965359807014465
                ],
                [
                    1.4493333101272583,
                    -2.576115369796753,
                    0.30227890610694885,
                    12.148524284362793,
                    2.9927175045013428,
                    0.3752594292163849,
                    -2.401564836502075
                ],
                [
                    -0.4793148636817932,
                    -1.068346381187439,
                    -0.054365649819374084,
                    -0.2370745837688446,
                    0.3309018313884735,
                    0.06677041947841644,
                    0.36150243878364563
                ]
            ],
            "lin_out.bias": [
                -5.670454978942871,
                -1.5175904035568237,
                -1.5025893449783325,
                -7.436872959136963,
                -1.3918706178665161,
                -2.6312577724456787,
                -1.5391225814819336,
                -1.4620451927185059,
                -6.819571495056152,
                -2.666280746459961
            ]
        }
    },
    "average embeddings summary": {
        "(6, 6, 6, 0)": {
            "(0, 0, 0, 1, 0, 0, 0, 0, 0, 0)": [
                0.2773425281047821,
                -0.49130314588546753,
                0.30543121695518494,
                0.08134464174509048,
                0.16403143107891083,
                0.9241010546684265,
                0.2264041155576706
            ],
            "(0, 0, 0, 0, 0, 0, 0, 0, 1, 0)": [
                -1.526234745979309,
                0.15169411897659302,
                1.3971374034881592,
                -3.1479759216308594,
                1.9570579528808594,
                0.05383419245481491,
                -0.11508745700120926
            ],
            "(0, 0, 0, 0, 0, 1, 0, 0, 0, 0)": [
                0.2754516899585724,
                -0.4928802251815796,
                0.3051920533180237,
                0.08150133490562439,
                0.16602160036563873,
                0.9243894219398499,
                0.2268504947423935
            ],
            "(0, 0, 0, 0, 0, 0, 1, 0, 0, 0)": [
                0.2739032506942749,
                -0.4925450384616852,
                0.3015028238296509,
                0.08180009573698044,
                0.16878636181354523,
                0.9251722693443298,
                0.22526124119758606
            ],
            "(0, 0, 0, 0, 0, 0, 0, 1, 0, 0)": [
                1.0130642652511597,
                1.3260737657546997,
                -0.6700665950775146,
                -1.9424139261245728,
                -0.8249726295471191,
                0.1278754621744156,
                2.5678048133850098
            ],
            "(1, 0, 0, 0, 0, 0, 0, 0, 0, 0)": [
                0.2796091139316559,
                -0.4892464280128479,
                0.3028198480606079,
                0.0796443372964859,
                0.16421298682689667,
                0.9226692914962769,
                0.22412598133087158
            ],
            "(0, 0, 0, 0, 0, 0, 0, 0, 0, 1)": [
                -1.8212296962738037,
                1.8434679508209229,
                -0.6157321929931641,
                0.22521862387657166,
                0.6121810078620911,
                2.848792314529419,
                -0.016848701983690262
            ],
            "(0, 0, 0, 0, 1, 0, 0, 0, 0, 0)": [
                -1.581372618675232,
                -0.7800212502479553,
                0.15530067682266235,
                -0.8664087057113647,
                -2.655229091644287,
                1.5168499946594238,
                -0.048806387931108475
            ],
            "(0, 1, 0, 0, 0, 0, 0, 0, 0, 0)": [
                1.49811589717865,
                0.9206344485282898,
                -1.7261160612106323,
                -1.4050402641296387,
                -0.7431166768074036,
                0.023031190037727356,
                -2.915078639984131
            ],
            "(0, 0, 1, 0, 0, 0, 0, 0, 0, 0)": [
                -1.5658386945724487,
                -1.7235525846481323,
                -3.2109858989715576,
                -0.6223967671394348,
                0.9743310809135437,
                0.9308995008468628,
                0.6011260747909546
            ]
        },
        "(4, 4, 4, 0)": {
            "(0, 1, 0, 0, 0, 0, 0, 0, 0, 0)": [
                0.0804198756814003,
                -0.1387881487607956,
                0.034741222858428955,
                0.008574646897614002,
                -0.06547228246927261,
                -0.2561323940753937,
                -0.20302100479602814
            ],
            "(0, 0, 0, 1, 0, 0, 0, 0, 0, 0)": [
                -0.032827820628881454,
                -0.9241306185722351,
                -0.08937547355890274,
                0.16786499321460724,
                -2.112828493118286,
                0.5282136797904968,
                1.1498979330062866
            ],
            "(0, 0, 0, 0, 0, 1, 0, 0, 0, 0)": [
                2.0170061588287354,
                0.9150048494338989,
                0.6789821982383728,
                -0.05254260450601578,
                -0.28734108805656433,
                -1.785711646080017,
                1.820491909980774
            ],
            "(0, 0, 0, 0, 0, 0, 0, 0, 0, 1)": [
                0.07884424924850464,
                -0.13720770180225372,
                0.034570664167404175,
                0.0081877950578928,
                -0.057881779968738556,
                -0.25742143392562866,
                -0.20967750251293182
            ],
            "(0, 0, 1, 0, 0, 0, 0, 0, 0, 0)": [
                0.0819823145866394,
                -0.13343940675258636,
                0.03406468778848648,
                0.005114852450788021,
                -0.06589359045028687,
                -0.25633224844932556,
                -0.2090253084897995
            ],
            "(0, 0, 0, 0, 0, 0, 1, 0, 0, 0)": [
                0.07875271886587143,
                -0.14048784971237183,
                0.03648267313838005,
                0.012166164815425873,
                -0.04954245686531067,
                -0.26143744587898254,
                -0.20523177087306976
            ],
            "(1, 0, 0, 0, 0, 0, 0, 0, 0, 0)": [
                0.08118870854377747,
                -0.1377716213464737,
                0.036904025822877884,
                0.011007910594344139,
                -0.050040945410728455,
                -0.26298245787620544,
                -0.20503060519695282
            ],
            "(0, 0, 0, 0, 0, 0, 0, 0, 1, 0)": [
                0.08292626589536667,
                -0.13636326789855957,
                0.03694915026426315,
                0.01002476830035448,
                -0.053349632769823074,
                -0.26298290491104126,
                -0.203644260764122
            ],
            "(0, 0, 0, 0, 0, 0, 0, 1, 0, 0)": [
                -1.0028934478759766,
                0.7496681809425354,
                0.017111962661147118,
                0.4173419773578644,
                -0.845207154750824,
                -0.9133917093276978,
                0.1494556963443756
            ],
            "(0, 0, 0, 0, 1, 0, 0, 0, 0, 0)": [
                0.9012764692306519,
                1.1444523334503174,
                -0.1816558986902237,
                -1.0277457237243652,
                -2.2142865657806396,
                0.11237281560897827,
                -0.5332204699516296
            ]
        },
        "(6, 6, 'Failed', 0)": {
            "(0, 0, 0, 0, 0, 0, 0, 0, 0, 1)": [
                0.0021656446624547243,
                -2.0735206604003906,
                1.0709667205810547,
                0.3300652801990509,
                -0.0546785369515419,
                -0.4790974259376526,
                -0.10525079816579819
            ],
            "(0, 0, 0, 0, 0, 0, 0, 0, 1, 0)": [
                0.004196167923510075,
                -2.0846219062805176,
                1.0909602642059326,
                0.3470943868160248,
                -0.05618696287274361,
                -0.47445613145828247,
                -0.09945744276046753
            ],
            "(0, 0, 0, 0, 0, 0, 0, 1, 0, 0)": [
                0.05194362998008728,
                -2.593496322631836,
                -0.7958430051803589,
                -0.7840674519538879,
                2.072753667831421,
                1.2768059968948364,
