{
    "experiment_config": {
        "mode": "simple",
        "num_categories": 6,
        "p": 0.35,
        "p_count": 0.9,
        "num_nodes": 20,
        "motif_dim": 0,
        "chain_length_min": 2,
        "chain_length_max": 7,
        "num_train_samples": 5000,
        "num_test_samples": 1500,
        "batch_size": 16,
        "in_dim": 6,
        "hidden_dims": [
            8,
            8,
            2
        ],
        "lr": 0.01,
        "use_weighting": true,
        "importance": [
            15.0,
            10.0
        ],
        "phase1_epochs": 0,
        "phase2_epochs": 50,
        "num_epochs": 5,
        "device": "cpu",
        "model_type": "GCN",
        "pooling": "mean",
        "log_dir": "runs/simple/6",
        "save": true
    },
    "sparcity": 0.9403116071663947,
    "summary format:": "Key: (Num of active features, Num of accurate feature, Geometry, Collapsed). Loss, s.d. Loss, Count",
    "summary": {
        "(4, 4, 4, 0)": [
            0.13102589016388624,
            0.008712140049436224,
            13
        ],
        "(4, 3, 4, 0)": [
            0.1772016107638677,
            0.0,
            1
        ],
        "(5, 5, 5, 0)": [
            0.11243094742298126,
            0.0,
            1
        ]
    },
    "results": [
        {
            "Num of features": 6,
            "Num of active features": 4,
            "Num of accurate feature": 4,
            "Geometry": 4,
            "Collapsed": 0,
            "Loss": 0.12432290577888488,
            "Rank": 2,
            "Singular values": [
                3.3814399242401123,
                3.101109027862549
            ]
        },
        {
            "Num of features": 6,
            "Num of active features": 4,
            "Num of accurate feature": 4,
            "Geometry": 4,
            "Collapsed": 0,
            "Loss": 0.11050841263930003,
            "Rank": 2,
            "Singular values": [
                4.302460193634033,
                3.825007677078247
            ]
        },
        {
            "Num of features": 6,
            "Num of active features": 4,
            "Num of accurate feature": 4,
            "Geometry": 4,
            "Collapsed": 0,
            "Loss": 0.1315062421162923,
            "Rank": 2,
            "Singular values": [
                4.476499557495117,
                3.4749555587768555
            ]
        },
        {
            "Num of features": 6,
            "Num of active features": 4,
            "Num of accurate feature": 3,
            "Geometry": 4,
            "Collapsed": 0,
            "Loss": 0.1772016107638677,
            "Rank": 2,
            "Singular values": [
                3.8318300247192383,
                3.3938581943511963
            ]
        },
        {
            "Num of features": 6,
            "Num of active features": 4,
            "Num of accurate feature": 4,
            "Geometry": 4,
            "Collapsed": 0,
            "Loss": 0.13511288380622863,
            "Rank": 2,
            "Singular values": [
                3.2654199600219727,
                3.1764655113220215
            ]
        },
        {
            "Num of features": 6,
            "Num of active features": 4,
            "Num of accurate feature": 4,
            "Geometry": 4,
            "Collapsed": 0,
            "Loss": 0.13559584085146587,
            "Rank": 2,
            "Singular values": [
                3.9867966175079346,
                3.4754152297973633
            ]
        },
        {
            "Num of features": 6,
            "Num of active features": 5,
            "Num of accurate feature": 5,
            "Geometry": 5,
            "Collapsed": 0,
            "Loss": 0.11243094742298126,
            "Rank": 2,
            "Singular values": [
                4.368105411529541,
                3.871919870376587
            ]
        },
        {
            "Num of features": 6,
            "Num of active features": 4,
            "Num of accurate feature": 4,
            "Geometry": 4,
            "Collapsed": 0,
            "Loss": 0.13785349490245183,
            "Rank": 2,
            "Singular values": [
                4.4249162673950195,
                3.2646989822387695
            ]
        },
        {
            "Num of features": 6,
            "Num of active features": 4,
            "Num of accurate feature": 4,
            "Geometry": 4,
            "Collapsed": 0,
            "Loss": 0.1394652517636617,
            "Rank": 2,
            "Singular values": [
                4.228683948516846,
                3.179701328277588
            ]
        },
        {
            "Num of features": 6,
            "Num of active features": 4,
            "Num of accurate feature": 4,
            "Geometry": 4,
            "Collapsed": 0,
            "Loss": 0.1269057731628418,
            "Rank": 2,
            "Singular values": [
                3.6873068809509277,
                3.166010856628418
            ]
        },
        {
            "Num of features": 6,
            "Num of active features": 4,
            "Num of accurate feature": 4,
            "Geometry": 4,
            "Collapsed": 0,
            "Loss": 0.11872665894031524,
            "Rank": 2,
            "Singular values": [
                4.811742782592773,
                4.2135772705078125
            ]
        },
        {
            "Num of features": 6,
            "Num of active features": 4,
            "Num of accurate feature": 4,
            "Geometry": 4,
            "Collapsed": 0,
            "Loss": 0.12889273834228515,
            "Rank": 2,
            "Singular values": [
                3.8179914951324463,
                3.2559590339660645
            ]
        },
        {
            "Num of features": 6,
            "Num of active features": 4,
            "Num of accurate feature": 4,
            "Geometry": 4,
            "Collapsed": 0,
            "Loss": 0.1418742580016454,
            "Rank": 2,
            "Singular values": [
                4.03782844543457,
                3.83554744720459
            ]
        },
        {
            "Num of features": 6,
            "Num of active features": 4,
            "Num of accurate feature": 4,
            "Geometry": 4,
            "Collapsed": 0,
            "Loss": 0.1393957853913307,
            "Rank": 2,
            "Singular values": [
                3.912266254425049,
                2.8790926933288574
            ]
        },
        {
            "Num of features": 6,
            "Num of active features": 4,
            "Num of accurate feature": 4,
            "Geometry": 4,
            "Collapsed": 0,
            "Loss": 0.13317632643381755,
            "Rank": 2,
            "Singular values": [
                3.617384910583496,
                2.9118597507476807
            ]
        }
    ],
    "average embeddings summary": {
        "(4, 4, 4, 0)": {
            "(0, 0, 0, 0, 1, 0)": [
                -1.7635893821716309,
                -0.6985157132148743
            ],
            "(0, 0, 0, 1, 0, 0)": [
                0.12783685326576233,
                -0.37662816047668457
            ],
            "(0, 1, 0, 0, 0, 0)": [
                -0.02053152769804001,
                1.3065845966339111
            ],
            "(0, 0, 0, 0, 0, 1)": [
                2.819812774658203,
                0.12722060084342957
            ],
            "(0, 0, 1, 0, 0, 0)": [
                0.13057972490787506,
                -0.3459222614765167
            ],
            "(1, 0, 0, 0, 0, 0)": [
                0.5791310667991638,
                -2.6734678745269775
            ]
        },
        "(4, 3, 4, 0)": {
            "(0, 0, 1, 0, 0, 0)": [
                -1.3212313652038574,
                2.4078266620635986
            ],
            "(1, 0, 0, 0, 0, 0)": [
                0.28302761912345886,
                0.42531096935272217
            ],
            "(0, 1, 0, 0, 0, 0)": [
                2.73225474357605,
                2.418604612350464
            ],
            "(0, 0, 0, 1, 0, 0)": [
                0.24410735070705414,
                0.3782057762145996
            ],
            "(0, 0, 0, 0, 0, 1)": [
                1.8505898714065552,
                -1.1505012512207031
            ],
            "(0, 0, 0, 0, 1, 0)": [
                -0.31644463539123535,
                -0.1759379357099533
            ]
        },
        "(5, 5, 5, 0)": {
            "(1, 0, 0, 0, 0, 0)": [
                1.861505150794983,
                0.2728213369846344
            ],
            "(0, 0, 0, 1, 0, 0)": [
                -3.082852363586426,
                0.46928995847702026
            ],
            "(0, 0, 1, 0, 0, 0)": [
                -0.7132230401039124,
                1.825520396232605
            ],
            "(0, 1, 0, 0, 0, 0)": [
                -0.4827383756637573,
                -0.41210952401161194
            ],
            "(0, 0, 0, 0, 1, 0)": [
                -2.0482280254364014,
                -2.4126715660095215
            ],
            "(0, 0, 0, 0, 0, 1)": [
                1.062697172164917,
                -2.327796220779419
            ]
        }
    },
    "model summary": {
        "(4, 4, 4, 0)": {
            "convs.0.bias": [
                -0.022171106189489365,
                -1.9975931644439697,
                -0.9864833354949951,
                -1.3998404741287231,
                -1.3181461095809937,
                -1.3866050243377686,
                -1.14486825466156,
                -0.11425303667783737
            ],
            "convs.0.lin.weight": [
                [
                    -0.5155353546142578,
                    -0.44989848136901855,
                    -0.3229556083679199,
                    -0.021298754960298538,
                    -0.6455819606781006,
                    -0.5368648767471313
                ],
                [
                    4.146048545837402,
                    -0.1872137188911438,
                    0.5850556492805481,
                    -0.07722200453281403,
                    0.03152448311448097,
                    0.2177870273590088
                ],
                [
                    0.31386324763298035,
                    -1.03152596950531,
                    1.916109323501587,
                    0.5870587229728699,
                    -0.8915802836418152,
                    0.19504569470882416
                ],
                [
                    -0.11293787509202957,
                    0.2310337871313095,
                    -0.17257940769195557,
                    0.05925903469324112,
                    -0.28779181838035583,
                    3.9659368991851807
                ],
                [
                    0.16662760078907013,
                    3.082056760787964,
                    -0.40123650431632996,
                    -0.07621684670448303,
                    -0.45970749855041504,
                    -0.24756188690662384
                ],
                [
                    -0.10076195001602173,
                    -0.08088038861751556,
                    0.2428685873746872,
                    -0.0819968730211258,
                    3.14648175239563,
                    -0.058547187596559525
                ],
                [
                    0.1565895974636078,
                    2.2893080711364746,
                    -0.14814531803131104,
                    0.339580774307251,
                    2.2926459312438965,
                    0.052274685353040695
                ],
                [
                    0.09461791068315506,
                    -0.5274838805198669,
                    0.06565181165933609,
                    -0.09595943242311478,
                    0.04089851304888725,
                    -0.6264291405677795
                ]
            ],
            "convs.1.bias": [
                -0.6156609654426575,
                -0.459134578704834,
                -1.3468070030212402,
                -0.6877238154411316,
                -0.9127758145332336,
                -0.06514427065849304,
                -0.7119009494781494,
                -1.235037088394165
            ],
            "convs.1.lin.weight": [
                [
                    -0.10866569727659225,
                    0.29800599813461304,
                    0.43215274810791016,
                    0.5232579708099365,
                    2.9846887588500977,
                    -1.118482232093811,
                    1.4368664026260376,
                    0.4874049723148346
                ],
                [
                    0.4241149127483368,
                    -0.3957071900367737,
                    0.6451950669288635,
                    -0.06990335136651993,
                    3.2992937564849854,
                    -0.9532100558280945,
                    1.9818750619888306,
                    0.186583012342453
                ],
                [
                    0.032451774924993515,
                    4.376802921295166,
                    -0.06066242605447769,
                    -1.3831712007522583,
                    -1.135209560394287,
                    -2.3444559574127197,
                    2.458871603012085,
                    -0.34942826628685
                ],
                [
                    -0.21908529102802277,
                    3.7806642055511475,
                    -1.7915374040603638,
                    1.6217873096466064,
                    -1.67080819606781,
                    -0.6926078200340271,
                    2.442814588546753,
                    0.5822585225105286
                ],
                [
                    -0.3477010726928711,
                    -1.7974411249160767,
                    1.3171038627624512,
                    -0.46945446729660034,
                    -3.9576852321624756,
                    4.794848442077637,
                    0.8143892884254456,
                    -0.4030053913593292
                ],
                [
                    0.7112583518028259,
                    3.7362773418426514,
                    -3.7550811767578125,
                    0.8536442518234253,
                    -1.3442100286483765,
                    -1.3375121355056763,
                    0.9410610198974609,
                    0.04292250797152519
                ],
                [
                    0.2072412073612213,
                    3.209716796875,
                    0.16934849321842194,
                    -0.5187801718711853,
                    -0.08928633481264114,
                    4.00205659866333,
                    0.31556805968284607,
                    -0.1544891744852066
                ],
                [
                    -0.18858833611011505,
                    0.17678290605545044,
                    1.797753095626831,
                    4.648491382598877,
                    -1.6904963254928589,
                    -0.1660413295030594,
                    1.663055419921875,
                    -0.2827921211719513
                ]
            ],
            "convs.2.bias": [
                0.08659147471189499,
                -0.3525324761867523
            ],
            "convs.2.lin.weight": [
                [
                    0.2749602198600769,
                    -0.6842760443687439,
                    1.3712917566299438,
                    2.2005579471588135,
                    -4.3140082359313965,
                    0.721524715423584,
                    -3.060930013656616,
                    5.197271823883057
                ],
                [
                    2.903186082839966,
                    3.774531841278076,
                    -6.149215221405029,
                    -3.0008294582366943,
                    1.1560022830963135,
                    -1.4083408117294312,
                    -2.8698043823242188,
                    2.168370246887207
                ]
            ],
            "lin_out.weight": [
                [
                    1.0521554946899414,
                    -4.1246795654296875
                ],
                [
                    -0.940321683883667,
                    4.541136741638184
                ],
                [
                    0.046549759805202484,
                    0.11785846203565598
                ],
                [
                    0.0750909149646759,
                    0.09533026814460754
                ],
                [
                    -3.713327646255493,
                    -0.3535148799419403
                ],
                [
                    4.903825759887695,
                    0.5865440964698792
                ]
            ],
            "lin_out.bias": [
                -6.103445529937744,
                -2.8413166999816895,
                -1.6029523611068726,
                -1.674647331237793,
                -4.328755855560303,
                -4.893118858337402
            ]
        },
        "(4, 3, 4, 0)": {
            "convs.0.bias": [
                -0.5787400603294373,
                -1.173369288444519,
                -1.424980878829956,
                -0.5524492263793945,
                1.531739354133606,
                -1.5685744285583496,
                -1.3638947010040283,
                -1.2515186071395874
            ],
            "convs.0.lin.weight": [
                [
                    1.6441599130630493,
                    -0.5413058400154114,
                    1.8900835514068604,
                    -0.5573476552963257,
                    -0.2631009817123413,
                    -2.732787609100342
                ],
                [
                    -1.0217807292938232,
                    0.12700194120407104,
                    -1.711165428161621,
                    -0.2803989350795746,
                    -0.6144828200340271,
                    3.870863676071167
                ],
                [
                    0.4419650137424469,
                    0.1118098571896553,
                    2.984726905822754,
                    0.7498610615730286,
                    0.04027550294995308,
                    3.1259002685546875
                ],
                [
                    1.3768188953399658,
                    -0.12047509104013443,
                    -1.8628829717636108,
                    0.09139090031385422,
                    -0.12616658210754395,
                    2.2541656494140625
                ],
                [
                    0.03421678766608238,
                    -0.1229385957121849,
                    -0.17876888811588287,
                    0.1711110919713974,
                    -2.2555556297302246,
                    -0.26181760430336
                ],
                [
                    0.16933563351631165,
                    -0.9124590754508972,
                    4.062729835510254,
                    -0.12552501261234283,
                    -0.6780229806900024,
                    -1.2679260969161987
                ],
                [
                    -0.33030498027801514,
                    3.4816503524780273,
                    -0.02034095488488674,
                    -0.1368294060230255,
                    -0.3635729253292084,
                    -0.2909092307090759
                ],
                [
                    0.43946993350982666,
                    0.8859776854515076,
                    2.8620409965515137,
                    0.3440164625644684,
                    -0.5837206244468689,
                    -0.3641550540924072
                ]
            ],
            "convs.1.bias": [
                -0.4180428087711334,
                -0.5160849094390869,
                -0.034746117889881134,
                -0.3193190395832062,
                -0.33600369095802307,
                -0.14007596671581268,
                -0.9818840026855469,
                -1.2629560232162476
            ],
            "convs.1.lin.weight": [
                [
                    0.656728982925415,
                    0.25778308510780334,
                    0.4919358789920807,
                    0.5012081861495972,
                    1.4607257843017578,
                    0.1653493195772171,
                    2.9753520488739014,
                    -0.5977938175201416
                ],
                [
                    0.9105886816978455,
                    0.3932943344116211,
                    -5.883496284484863,
                    0.4157904386520386,
                    -0.4907262623310089,
                    -2.5672078132629395,
                    5.678898334503174,
                    1.4774861335754395
                ],
                [
                    1.226216197013855,
                    3.098534107208252,
                    2.321150541305542,
                    0.15268626809120178,
                    -0.7188273668289185,
                    -1.3276208639144897,
                    0.07366862148046494,
                    -1.1187291145324707
                ],
                [
                    -0.3233044445514679,
                    -1.6070685386657715,
                    1.2482551336288452,
                    1.360948085784912,
                    -0.031237097457051277,
                    2.953249216079712,
                    2.8003790378570557,
                    0.7492338418960571
                ],
                [
                    0.8405150771141052,
                    0.25687727332115173,
                    -0.17955008149147034,
                    0.5044143199920654,
                    1.1498013734817505,
                    0.3975597620010376,
                    3.0014474391937256,
                    -0.7833700180053711
                ],
                [
                    -0.151106059551239,
                    -0.47876811027526855,
                    0.2146630734205246,
                    -0.21671618521213531,
                    -0.6041283011436462,
                    -0.5240119099617004,
                    -0.46099013090133667,
                    -0.5151497721672058
                ],
                [
                    1.4127686023712158,
                    3.4421238899230957,
                    2.4867770671844482,
                    1.5364664793014526,
                    -1.9289036989212036,
                    2.0433144569396973,
                    2.078096389770508,
                    1.0314204692840576
                ],
                [
                    1.5179105997085571,
                    2.3440914154052734,
                    2.6098084449768066,
                    1.5999699831008911,
                    -2.2480151653289795,
                    5.06611442565918,
                    -1.2394239902496338,
                    2.509753704071045
                ]
            ],
            "convs.2.bias": [
                -2.5868563652038574,
                -2.204188108444214
            ],
            "convs.2.lin.weight": [
                [
                    0.994845986366272,
                    4.716549396514893,
                    2.3653252124786377,
                    -0.4934745132923126,
                    0.7672744989395142,
                    -0.626489520072937,
                    2.350043535232544,
                    -4.006076335906982
                ],
                [
                    0.8987110257148743,
                    2.9798765182495117,
                    -1.4997272491455078,
                    1.0515344142913818,
                    0.7225654721260071,
                    -0.4761379361152649,
                    -4.204064846038818,
                    5.234238147735596
                ]
            ],
            "lin_out.weight": [
                [
                    -0.08811379224061966,
                    -0.1482197791337967
                ],
                [
                    4.042325973510742,
                    3.414735794067383
                ],
                [
                    -2.799489974975586,
                    3.572719097137451
                ],
                [
                    -0.11199546605348587,
                    -0.1847708821296692
                ],
                [
                    -2.296408176422119,
                    -2.033435821533203
                ],
                [
                    2.7844929695129395,
                    -3.285930871963501
                ]
            ],
            "lin_out.bias": [
                -1.7533609867095947,
                -9.840423583984375,
                -5.238598346710205,
                -1.394925594329834,
                -0.6830341219902039,
                -3.5751988887786865
            ]
        },
        "(5, 5, 5, 0)": {
            "convs.0.bias": [
                -1.5954164266586304,
                -1.3404202461242676,
                0.016162313520908356,
                -1.7433477640151978,
                -1.3227317333221436,
                -1.4698134660720825,
                -0.01840398460626602,
                -1.5514702796936035
            ],
            "convs.0.lin.weight": [
                [
                    -0.0484808124601841,
                    -0.07687396556138992,
                    0.1893426775932312,
                    -0.3784918189048767,
                    3.6446423530578613,
                    -0.19365614652633667
                ],
                [
                    3.272649049758911,
                    0.03632872924208641,
                    -0.10786016285419464,
                    0.1850506216287613,
                    0.4144779145717621,
                    0.1945490539073944
                ],
                [
                    -0.5983383655548096,
                    -0.1523357778787613,
                    -0.7223666310310364,
                    -0.864258348941803,
                    1.594538927078247,
                    1.8313432931900024
                ],
                [
                    0.19856247305870056,
                    -0.28773537278175354,
                    -0.22676442563533783,
                    3.857504367828369,
                    -0.24441346526145935,
                    -0.475677490234375
                ],
                [
                    0.2684834599494934,
                    -0.2195104956626892,
                    2.7663872241973877,
                    -0.053661756217479706,
                    0.2639012932777405,
                    0.12870433926582336
                ],
                [
                    -0.4396038353443146,
                    -0.9211452007293701,
                    -0.43479856848716736,
                    2.251683235168457,
                    -0.5170899629592896,
                    -0.8234599828720093
                ],
                [
                    -0.0622246116399765,
                    0.028901778161525726,
                    0.6911280155181885,
                    1.7231199741363525,
                    1.7697466611862183,
                    -1.0221688747406006
                ],
                [
                    0.4269067943096161,
                    -0.2582024037837982,
                    0.4888923466205597,
                    -0.08586329221725464,
                    0.2892068922519684,
                    3.323504686355591
                ]
            ],
            "convs.1.bias": [
                -0.19227808713912964,
                0.7577633261680603,
                0.4164201319217682,
                0.7472033500671387,
                -0.07945169508457184,
                -0.18213993310928345,
                0.900124192237854,
                0.405525803565979
            ],
            "convs.1.lin.weight": [
                [
                    -1.0544915199279785,
                    -0.6721585988998413,
                    -0.7776800394058228,
                    -0.2559908330440521,
                    0.10079304873943329,
                    -0.1672039031982422,
                    -0.012472446076571941,
                    -0.5129035115242004
                ],
                [
                    0.37360864877700806,
                    -1.6915287971496582,
                    1.4379186630249023,
                    5.8398213386535645,
                    3.6171977519989014,
                    -3.558593511581421,
                    0.4895443022251129,
                    -5.082609176635742
                ],
                [
                    -4.2233099937438965,
                    -2.6826012134552,
                    1.0423163175582886,
                    2.346482515335083,
                    5.93453311920166,
                    -2.5059831142425537,
                    0.8287936449050903,
                    -3.4412877559661865
                ],
                [
                    3.363966226577759,
                    -1.867295503616333,
                    1.2960408926010132,
                    3.623608112335205,
                    -3.625044345855713,
                    0.21903467178344727,
                    1.5796236991882324,
                    2.4310972690582275
                ],
                [
                    -1.5781773328781128,
                    5.259143352508545,
                    -0.15535429120063782,
                    1.3773669004440308,
                    0.4372388422489166,
                    4.205902576446533,
                    -0.6441139578819275,
                    3.568894386291504
                ],
                [
                    -0.3337651789188385,
                    -0.1423484981060028,
                    -0.4812440574169159,
                    -0.050161346793174744,
                    -0.5244494676589966,
                    -0.5636852979660034,
                    -0.10405062139034271,
                    0.24166902899742126
                ],
                [
                    0.5571140646934509,
                    -3.486293315887451,
                    1.5563325881958008,
                    -3.3855926990509033,
                    -3.53836727142334,
                    -0.5951935052871704,
                    0.9031467437744141,
                    4.557790756225586
                ],
                [
                    -6.075289726257324,
                    -2.5215609073638916,
                    1.4941762685775757,
                    -3.214768171310425,
                    3.1960670948028564,
                    -0.7878185510635376,
                    1.4472242593765259,
                    -2.148618459701538
                ]
            ],
            "convs.2.bias": [
                0.4769870936870575,
                0.3237062692642212
            ],
            "convs.2.lin.weight": [
                [
                    -0.23090821504592896,
                    -2.391385316848755,
                    -0.4906774163246155,
                    -1.3305715322494507,
                    4.294949054718018,
                    0.21345357596874237,
                    0.9615446925163269,
                    2.607295036315918
                ],
                [
                    0.1468406319618225,
                    1.3496919870376587,
                    2.081429958343506,
                    -1.7121331691741943,
                    0.9971510171890259,
                    -0.7662734389305115,
                    -2.1053097248077393,
                    1.4372844696044922
                ]
            ],
            "lin_out.weight": [
                [
                    2.4516611099243164,
                    0.9485286474227905
                ],
                [
                    -0.0067354841157794,
                    0.058470554649829865
                ],
                [
                    0.06581022590398788,
                    3.060626268386841
                ],
                [
                    -2.8711791038513184,
                    0.7765277624130249
                ],
                [
                    -1.7215076684951782,
                    -2.512505292892456
                ],
                [
                    1.3286917209625244,
                    -2.2671611309051514
                ]
            ],
            "lin_out.bias": [
                -2.9187428951263428,
                -1.5514254570007324,
                -3.840789794921875,
                -6.726950168609619,
                -6.4251322746276855,
                -4.236315727233887
            ]
        }
    }
}