{
    "experiment_config": {
        "mode": "count",
        "num_categories": 3,
        "p": 0.7,
        "p_count": 0.9,
        "num_nodes": 10,
        "motif_dim": 0,
        "chain_length_min": 2,
        "chain_length_max": 7,
        "num_train_samples": 10000,
        "num_test_samples": 3000,
        "batch_size": 16,
        "in_dim": 2,
        "hidden_dims": [
            2,
            2
        ],
        "lr": 0.01,
        "use_weighting": true,
        "importance": [
            15.0,
            10.0
        ],
        "phase1_epochs": 0,
        "phase2_epochs": 20,
        "num_epochs": 5,
        "device": "cpu",
        "model_type": "GIN",
        "pooling": "mean",
        "save": true
    },
    "sparcity": 0.38744714622656257,
    "summary": {
        "(2, 2, 2, 0)": [
            0.16252393533786139,
            0.013628450294335681,
            2
        ],
        "(3, 3, 'Failed', 0)": [
            0.0023926686687627805,
            0.0,
            1
        ],
        "(3, 3, 3, 0)": [
            0.002382684661934566,
            0.00041831945086660285,
            3
        ],
        "(0, 0, 'Failed', 0)": [
            0.6287010247310003,
            0.0011538635361173057,
            4
        ]
    },
    "results": [
        {
            "Num of features": 3,
            "Num of active features": 2,
            "Num of accurate feature": 2,
            "Geometry": 2,
            "Collapsed": 0,
            "Loss": 0.17615238563219707,
            "Rank": 2,
            "Singular values": [
                37.85653305053711,
                4.335442066192627
            ]
        },
        {
            "Num of features": 3,
            "Num of active features": 3,
            "Num of accurate feature": 3,
            "Geometry": "Failed",
            "Collapsed": 0,
            "Loss": 0.0023926686687627805,
            "Rank": 2,
            "Singular values": [
                22.523242950439453,
                5.740413665771484
            ]
        },
        {
            "Num of features": 3,
            "Num of active features": 3,
            "Num of accurate feature": 3,
            "Geometry": 3,
            "Collapsed": 0,
            "Loss": 0.00215260904514192,
            "Rank": 2,
            "Singular values": [
                41.939910888671875,
                4.839511394500732
            ]
        },
        {
            "Num of features": 3,
            "Num of active features": 3,
            "Num of accurate feature": 3,
            "Geometry": 3,
            "Collapsed": 0,
            "Loss": 0.002025720719933588,
            "Rank": 2,
            "Singular values": [
                18.065637588500977,
                10.31270980834961
            ]
        },
        {
            "Num of features": 3,
            "Num of active features": 0,
            "Num of accurate feature": 0,
            "Geometry": "Failed",
            "Collapsed": 0,
            "Loss": 0.6303122614224752,
            "Rank": 1,
            "Singular values": [
                0.013789125718176365,
                2.936303422629294e-10
            ]
        },
        {
            "Num of features": 3,
            "Num of active features": 2,
            "Num of accurate feature": 2,
            "Geometry": 2,
            "Collapsed": 0,
            "Loss": 0.1488954850435257,
            "Rank": 2,
            "Singular values": [
                470.104248046875,
                2.6556124687194824
            ]
        },
        {
            "Num of features": 3,
            "Num of active features": 0,
            "Num of accurate feature": 0,
            "Geometry": "Failed",
            "Collapsed": 0,
            "Loss": 0.6273328485488892,
            "Rank": 1,
            "Singular values": [
                0.016254030168056488,
                4.733425457148499e-11
            ]
        },
        {
            "Num of features": 3,
            "Num of active features": 0,
            "Num of accurate feature": 0,
            "Geometry": "Failed",
            "Collapsed": 0,
            "Loss": 0.6279360369046529,
            "Rank": 1,
            "Singular values": [
                0.3239441514015198,
                1.4592886898867619e-09
            ]
        },
        {
            "Num of features": 3,
            "Num of active features": 3,
            "Num of accurate feature": 3,
            "Geometry": 3,
            "Collapsed": 0,
            "Loss": 0.0029697242207281913,
            "Rank": 2,
            "Singular values": [
                138.53561401367188,
                7.590732097625732
            ]
        },
        {
            "Num of features": 3,
            "Num of active features": 0,
            "Num of accurate feature": 0,
            "Geometry": "Failed",
            "Collapsed": 0,
            "Loss": 0.6292229520479838,
            "Rank": 1,
            "Singular values": [
                0.0022769286297261715,
                1.4032980333311684e-10
            ]
        }
    ],
    "average embeddings summary": {
        "(2, 2, 2, 0)": {
            "(1, 0, 0)": [
                3.4295573234558105,
                0.2527593970298767
            ],
            "(0, 0, 1)": [
                1.0736631155014038,
                5.082059860229492
            ],
            "(0, 1, 0)": [
                -13.552251815795898,
                35.06342697143555
            ]
        },
        "(3, 3, 'Failed', 0)": {
            "(0, 0, 1)": [
                -4.168959140777588,
                -3.5234854221343994
            ],
            "(1, 0, 0)": [
                3.337650775909424,
                0.46323758363723755
            ],
            "(0, 1, 0)": [
                -18.20746612548828,
                12.945550918579102
            ]
        },
        "(3, 3, 3, 0)": {
            "(1, 0, 0)": [
                2.1002583503723145,
                -1.5658704042434692
            ],
            "(0, 1, 0)": [
                9.848846435546875,
                40.74845886230469
            ],
            "(0, 0, 1)": [
                -4.239258289337158,
                0.32576048374176025
            ]
        },
        "(0, 0, 'Failed', 0)": {
            "(0, 0, 1)": [
                0.0035319854505360126,
                -0.00713477935642004
            ],
            "(1, 0, 0)": [
                0.003531985217705369,
                -0.00713477935642004
            ],
            "(0, 1, 0)": [
                0.003531985217705369,
                -0.0071347798220813274
            ]
        }
    },
    "model summary": {
        "(2, 2, 2, 0)": {
            "convs.0.eps": [
                0.3503865599632263
            ],
            "convs.0.nn.0.weight": [
                [
                    -0.4365425407886505,
                    -0.648343026638031
                ],
                [
                    -0.8290783166885376,
                    1.2581710815429688
                ]
            ],
            "convs.0.nn.0.bias": [
                -0.08203470706939697,
                0.4904750883579254
            ],
            "convs.0.nn.2.weight": [
                [
                    -0.4985886812210083,
                    -0.2579042911529541
                ],
                [
                    0.39970460534095764,
                    1.0120958089828491
                ]
            ],
            "convs.0.nn.2.bias": [
                2.007011890411377,
                -0.00167654559481889
            ],
            "convs.1.eps": [
                2.514248847961426
            ],
            "convs.1.nn.0.weight": [
                [
                    -0.2540472149848938,
                    -0.4738117456436157
                ],
                [
                    -1.2132173776626587,
                    0.7321917414665222
                ]
            ],
            "convs.1.nn.0.bias": [
                -0.6767790913581848,
                -0.3039609491825104
            ],
            "convs.1.nn.2.weight": [
                [
                    0.5058316588401794,
                    -0.33368605375289917
                ],
                [
                    -0.658860445022583,
                    0.6840162873268127
                ]
            ],
            "convs.1.nn.2.bias": [
                3.4375691413879395,
                0.23633702099323273
            ],
            "lin_out.weight": [
                [
                    2.093212127685547,
                    -8.378021240234375
                ],
                [
                    -3.724416971206665,
                    -0.18239045143127441
                ],
                [
                    -0.10282334685325623,
                    -0.11520151793956757
                ]
            ],
            "lin_out.bias": [
                -0.8593908548355103,
                -5.413785457611084,
                -0.14780297875404358
            ]
        },
        "(3, 3, 'Failed', 0)": {
            "convs.0.eps": [
                -1.1611377000808716
            ],
            "convs.0.nn.0.weight": [
                [
                    -0.31884869933128357,
                    0.6160351634025574
                ],
                [
                    1.137977957725525,
                    -0.9631043672561646
                ]
            ],
            "convs.0.nn.0.bias": [
                -0.848544180393219,
                1.1834125518798828
            ],
            "convs.0.nn.2.weight": [
                [
                    0.01822655275464058,
                    -0.04999301955103874
                ],
                [
                    0.22952793538570404,
                    -0.7085610032081604
                ]
            ],
            "convs.0.nn.2.bias": [
                -0.4597964882850647,
                1.9432077407836914
            ],
            "convs.1.eps": [
                -1.1105746030807495
            ],
            "convs.1.nn.0.weight": [
                [
                    0.47517940402030945,
                    0.6298383474349976
                ],
                [
                    0.30479276180267334,
                    1.1278762817382812
                ]
            ],
            "convs.1.nn.0.bias": [
                -4.845695972442627,
                -0.2604437470436096
            ],
            "convs.1.nn.2.weight": [
                [
                    0.38799747824668884,
                    -1.108500361442566
                ],
                [
                    3.52519154548645,
                    -0.6760097742080688
                ]
            ],
            "convs.1.nn.2.bias": [
                3.5651257038116455,
                0.6019613146781921
            ],
            "lin_out.weight": [
                [
                    2.7086541652679443,
                    1.6708850860595703
                ],
                [
                    -0.6538795232772827,
                    1.0624245405197144
                ],
                [
                    -0.5321704745292664,
                    -3.4342963695526123
                ]
            ],
            "lin_out.bias": [
                0.29610398411750793,
                -7.818953514099121,
                -3.9844746589660645
            ]
        },
        "(3, 3, 3, 0)": {
            "convs.0.eps": [
                -1.1840547323226929
            ],
            "convs.0.nn.0.weight": [
                [
                    -0.8326899409294128,
                    1.3766047954559326
                ],
                [
                    -0.13050805032253265,
                    -0.06185825541615486
                ]
            ],
            "convs.0.nn.0.bias": [
                -1.259275197982788,
                0.173196479678154
            ],
            "convs.0.nn.2.weight": [
                [
                    -0.6999332308769226,
                    -0.4778333902359009
                ],
                [
                    0.8116844296455383,
                    -0.2408447116613388
                ]
            ],
            "convs.0.nn.2.bias": [
                -0.4153415858745575,
                -0.6952499747276306
            ],
            "convs.1.eps": [
                -1.567711353302002
            ],
            "convs.1.nn.0.weight": [
                [
                    0.29527372121810913,
                    1.0080815553665161
                ],
                [
                    0.21288760006427765,
                    1.0681649446487427
                ]
            ],
            "convs.1.nn.0.bias": [
                -4.554165840148926,
                -0.02742958255112171
            ],
            "convs.1.nn.2.weight": [
                [
                    2.5406861305236816,
                    -1.6841660737991333
                ],
                [
                    1.6827880144119263,
                    0.26900312304496765
                ]
            ],
            "convs.1.nn.2.bias": [
                2.162471055984497,
                -1.5758072137832642
            ],
            "lin_out.weight": [
                [
                    4.429878234863281,
                    -2.1572234630584717
                ],
                [
                    0.45634424686431885,
                    1.31299889087677
                ],
                [
                    -4.104948997497559,
                    -1.3221187591552734
                ]
            ],
            "lin_out.bias": [
                -3.052011251449585,
                -8.76482105255127,
                -1.2451045513153076
            ]
        },
        "(0, 0, 'Failed', 0)": {
            "convs.0.eps": [
                -0.09286246448755264
            ],
            "convs.0.nn.0.weight": [
                [
                    0.511381208896637,
                    0.8480017781257629
                ],
                [
                    0.46938034892082214,
                    -0.4839495122432709
                ]
            ],
            "convs.0.nn.0.bias": [
                -0.3376104533672333,
                0.33074185252189636
            ],
            "convs.0.nn.2.weight": [
                [
                    -0.3544952869415283,
                    -0.7023687958717346
                ],
                [
                    -0.510923445224762,
                    0.3993575870990753
                ]
            ],
            "convs.0.nn.2.bias": [
                0.07613296806812286,
                0.07184121012687683
            ],
            "convs.1.eps": [
                -0.13427145779132843
            ],
            "convs.1.nn.0.weight": [
                [
                    0.30430370569229126,
                    0.047150857746601105
                ],
                [
                    0.6047731041908264,
                    -0.6907703876495361
                ]
            ],
            "convs.1.nn.0.bias": [
                -0.02043060027062893,
                -0.49376288056373596
            ],
            "convs.1.nn.2.weight": [
                [
                    -0.05265822261571884,
                    -0.341442734003067
                ],
                [
                    0.0027000245172530413,
                    0.07673980295658112
                ]
            ],
            "convs.1.nn.2.bias": [
                0.0035319856833666563,
                -0.007134778890758753
            ],
            "lin_out.weight": [
                [
                    -0.4878612458705902,
                    0.00958720501512289
                ],
                [
                    -0.5441206097602844,
                    0.006841203663498163
                ],
                [
                    -0.46729034185409546,
                    -0.02823123149573803
                ]
            ],
            "lin_out.bias": [
                -0.5474308133125305,
                -0.5191706418991089,
                -1.0379958152770996
            ]
        }
    }
}