{
    "experiment_config": {
        "mode": "simple",
        "num_categories": 5,
        "p": 0.6,
        "num_nodes": 20,
        "motif_dim": 0,
        "num_train_samples": 5000,
        "num_test_samples": 1500,
        "batch_size": 16,
        "in_dim": 5,
        "hidden_dims": [
            5,
            5
        ],
        "lr": 0.01,
        "use_weighting": true,
        "importance": [
            15.0,
            10.0
        ],
        "phase1_epochs": 0,
        "phase2_epochs": 50,
        "device": "cpu",
        "model_type": "GCN",
        "loss": "BCE",
        "pooling": "gm",
        "gm_p": 1.0,
        "log_dir": "runs/T/BCE/2/GCN/same/p_gm=1.0/5/medium",
        "file_path": "T/BCE/2/GCN/same/p_gm=1.0/5.0/medium",
        "add_graph": false,
        "track_embeddings": false,
        "track_singular_values": true,
        "save": true
    },
    "sparcity": 0.778761115202586,
    "empty_graph_stats": [
        {
            "mean": [
                0.35181698203086853,
                -0.14960768818855286,
                0.5212796926498413,
                -0.8957387208938599,
                -0.008552155457437038
            ],
            "std": [
                0.22239841520786285,
                0.21305648982524872,
                0.2075745165348053,
                0.20596669614315033,
                0.26724085211753845
            ]
        },
        {
            "mean": [
                -0.1663161963224411,
                -0.30501165986061096,
                0.7436906099319458,
                -0.6718520522117615,
                0.03037845343351364
            ],
            "std": [
                0.202265202999115,
                0.2127259522676468,
                0.1883242428302765,
                0.1718827337026596,
                0.1993127018213272
            ]
        },
        {
            "mean": [
                0.41165655851364136,
                0.08752887696027756,
                -0.17122882604599,
                1.126036286354065,
                0.05141732841730118
            ],
            "std": [
                0.14768235385417938,
                0.2603025734424591,
                0.23482060432434082,
                0.2551213502883911,
                0.2912420928478241
            ]
        }
    ],
    "summary format:": "Key: (Num of active features, Num of accurate feature, Geometry, Collapsed). Loss, s.d. Loss, Count",
    "summary": {
        "(5, 5, 5, 0)": [
            0.14470273109028736,
            0.0458934190099438,
            2
        ],
        "(5, 4, 5, 0)": [
            0.18993667223056157,
            0.0,
            1
        ]
    },
    "results": [
        {
            "Num of features": 5,
            "Num of active features": 5,
            "Num of accurate feature": 5,
            "Geometry": 5,
            "Collapsed": 0,
            "Loss": 0.19059615010023118,
            "Rank": 5,
            "Singular values": [
                1.7423906326293945,
                1.5969605445861816,
                1.3836545944213867,
                1.2976570129394531,
                0.4061472713947296
            ]
        },
        {
            "Num of features": 5,
            "Num of active features": 5,
            "Num of accurate feature": 4,
            "Geometry": 5,
            "Collapsed": 0,
            "Loss": 0.18993667223056157,
            "Rank": 5,
            "Singular values": [
                1.616013526916504,
                1.3659971952438354,
                1.240696907043457,
                1.1533626317977905,
                0.28940704464912415
            ]
        },
        {
            "Num of features": 5,
            "Num of active features": 5,
            "Num of accurate feature": 5,
            "Geometry": 5,
            "Collapsed": 0,
            "Loss": 0.09880931208034356,
            "Rank": 5,
            "Singular values": [
                1.6638107299804688,
                1.4410120248794556,
                1.3368539810180664,
                1.3031105995178223,
                0.9072788953781128
            ]
        }
    ],
    "average embeddings summary": {
        "(5, 5, 5, 0)": {
            "(0, 1, 0, 0, 0)": [
                0.9516862034797668,
                0.0056940787471830845,
                0.3329610526561737,
                -0.1835344284772873,
                -0.9612167477607727
            ],
            "(0, 0, 1, 0, 0)": [
                -0.14603136479854584,
                -0.5512012839317322,
                1.4065839052200317,
                -0.03273323178291321,
                0.2962036728858948
            ],
            "(0, 0, 0, 0, 1)": [
                -0.6993955373764038,
                -0.12777581810951233,
                -0.152043879032135,
                -0.9134215116500854,
                -0.7288596630096436
            ],
            "(0, 0, 0, 1, 0)": [
                0.29502514004707336,
                0.9422650337219238,
                0.15923434495925903,
                -0.4478517472743988,
                0.7589359879493713
            ],
            "(1, 0, 0, 0, 0)": [
                0.38523757457733154,
                -0.16170954704284668,
                0.5514389276504517,
                -0.9124566316604614,
                0.026667147874832153
            ]
        },
        "(5, 4, 5, 0)": {
            "(0, 0, 0, 0, 1)": [
                -0.25638067722320557,
                -0.950404703617096,
                -0.16223880648612976,
                -0.6255553364753723,
                -0.08254243433475494
            ],
            "(1, 0, 0, 0, 0)": [
                -0.14624060690402985,
                -0.31644803285598755,
                0.7721618413925171,
                -0.6969571709632874,
                0.030141018331050873
            ],
            "(0, 0, 1, 0, 0)": [
                -0.2271716147661209,
                0.46592989563941956,
                0.3319116234779358,
                -0.8375539779663086,
                -0.7218298316001892
            ],
            "(0, 1, 0, 0, 0)": [
                -0.8929334282875061,
                0.0466478131711483,
                0.6099126935005188,
                0.3561117947101593,
                0.5687509179115295
            ],
            "(0, 0, 0, 1, 0)": [
                0.7754903435707092,
                0.13456971943378448,
                0.3244803845882416,
                -0.665360152721405,
                0.6650039553642273
            ]
        }
    },
    "model summary": {
        "(5, 5, 5, 0)": {
            "convs.0.bias": [
                -2.57000994682312,
                0.0,
                -2.1997578144073486,
                -2.3166441917419434,
                -2.343827724456787
            ],
            "convs.0.lin.weight": [
                [
                    0.028367014601826668,
                    0.0029442417435348034,
                    0.10999935865402222,
                    -0.05017547309398651,
                    5.187590599060059
                ],
                [
                    -0.06879061460494995,
                    -0.46051836013793945,
                    -0.33761656284332275,
                    -0.6328703761100769,
                    -0.3638879656791687
                ],
                [
                    -0.0646650493144989,
                    0.00965894851833582,
                    -0.016157351434230804,
                    4.439859390258789,
                    0.06311404705047607
                ],
                [
                    -0.041948821395635605,
                    -0.16618886590003967,
                    4.656424045562744,
                    0.026522649452090263,
                    0.08844023942947388
                ],
                [
                    0.010164833627641201,
                    4.705431938171387,
                    0.07183472067117691,
                    -0.06657187640666962,
                    0.18677587807178497
                ]
            ],
            "convs.1.bias": [
                0.4427814185619354,
                -0.2375458925962448,
                0.5664867758750916,
                -1.052223801612854,
                0.033311665058135986
            ],
            "convs.1.lin.weight": [
                [
                    -7.664907932281494,
                    -0.7672948837280273,
                    -0.40296274423599243,
                    -4.153563022613525,
                    4.5847063064575195
                ],
                [
                    0.3512181341648102,
                    0.48771482706069946,
                    9.508400917053223,
                    -2.9382333755493164,
                    1.4787904024124146
                ],
                [
                    -4.718803882598877,
                    0.49552515149116516,
                    -3.323291301727295,
                    6.817435264587402,
                    -1.76199209690094
                ],
                [
                    0.13501699268817902,
                    -0.40951356291770935,
                    3.8582241535186768,
                    6.820611476898193,
                    6.03251838684082
                ],
                [
                    -4.843276500701904,
                    -0.7646852731704712,
                    6.387810230255127,
                    2.5644524097442627,
                    -7.902376174926758
                ]
            ],
            "lin_out.weight": [
                [
                    0.7917060852050781,
                    -1.5939509868621826,
                    -1.0385483503341675,
                    -0.8956637978553772,
                    0.9096852540969849
                ],
                [
                    5.837569713592529,
                    1.1255301237106323,
                    -1.6759806871414185,
                    7.724238872528076,
                    -6.943447589874268
                ],
                [
                    -5.042314529418945,
                    -3.996467113494873,
                    5.8320536613464355,
                    9.142778396606445,
                    2.293804168701172
                ],
                [
                    -0.7366248369216919,
                    9.416585922241211,
                    -3.3566246032714844,
                    4.570835113525391,
                    5.744042873382568
                ],
                [
                    -12.588440895080566,
                    0.2738833427429199,
                    -6.238154411315918,
                    0.539172351360321,
                    -5.044284820556641
                ]
            ],
            "lin_out.bias": [
                -0.6776597499847412,
                -1.5814787149429321,
                -1.343437910079956,
                -0.4223408102989197,
                -1.321813702583313
            ]
        },
        "(5, 4, 5, 0)": {
            "convs.0.bias": [
                -2.230746030807495,
                -0.1509304791688919,
                -2.259782314300537,
                -2.2163193225860596,
                -2.3782095909118652
            ],
            "convs.0.lin.weight": [
                [
                    -0.10316464304924011,
                    -0.09090124070644379,
                    0.021740799769759178,
                    4.605632305145264,
                    0.1058800145983696
                ],
                [
                    0.1001041904091835,
                    -0.5024437308311462,
                    -0.7207789421081543,
                    -0.6126048564910889,
                    -0.7008998394012451
                ],
                [
                    0.0203744787722826,
                    0.1414491981267929,
                    0.014470518566668034,
                    0.10157470405101776,
                    4.487737655639648
                ],
                [
                    -0.021045973524451256,
                    0.036868173629045486,
                    4.444913864135742,
                    0.09237252175807953,
                    0.020542265847325325
                ],
                [
                    0.05628204345703125,
                    4.79095983505249,
                    0.09184248745441437,
                    -0.06249575316905975,
                    0.004409441724419594
                ]
            ],
            "convs.1.bias": [
                -0.17652912437915802,
                -0.3832619786262512,
                0.9080474972724915,
                -0.7445370554924011,
                0.008766353130340576
            ],
            "convs.1.lin.weight": [
                [
                    7.313174724578857,
                    0.5633887052536011,
                    -0.9085353016853333,
                    -0.5145453810691833,
                    -5.40661096572876
                ],
                [
                    3.371154308319092,
                    0.31619343161582947,
                    -5.52037239074707,
                    6.872239589691162,
                    3.027794599533081
                ],
                [
                    -3.5932540893554688,
                    -0.08392933011054993,
                    -7.952579975128174,
                    -3.6638858318328857,
                    -1.4147758483886719
                ],
                [
                    0.38557618856430054,
                    -0.3459497094154358,
                    0.39544105529785156,
                    -1.1669772863388062,
                    7.837744235992432
                ],
                [
                    5.294309139251709,
                    0.6761955618858337,
                    -1.1828927993774414,
                    -6.233518123626709,
                    3.957012414932251
                ]
            ],
            "lin_out.weight": [
                [
                    0.5897889733314514,
                    -0.7601200938224792,
                    1.475890040397644,
                    0.4791121184825897,
                    -0.7628871202468872
                ],
                [
                    -7.16357946395874,
                    3.8742947578430176,
                    -1.8257132768630981,
                    9.039212226867676,
                    4.656707286834717
                ],
                [
                    -0.5612731575965881,
                    9.573935508728027,
                    -4.57683801651001,
                    -0.5511508584022522,
                    -9.144525527954102
                ],
                [
                    10.925294876098633,
                    4.52407169342041,
                    -5.1545491218566895,
                    0.8322827816009521,
                    7.000491619110107
                ],
                [
                    -1.1921799182891846,
                    -8.195270538330078,
                    -11.784768104553223,
                    0.6699361205101013,
                    -1.804613709449768
                ]
            ],
            "lin_out.bias": [
                -0.8698403835296631,
                -0.6772948503494263,
                -0.6114378571510315,
                -1.2064807415008545,
                -0.9009304046630859
            ]
        }
    }
}