{
    "experiment_config": {
        "mode": "simple",
        "num_categories": 5,
        "p": 0.6,
        "num_nodes": 20,
        "motif_dim": 0,
        "num_train_samples": 5000,
        "num_test_samples": 1500,
        "batch_size": 16,
        "in_dim": 5,
        "hidden_dims": [
            5,
            5
        ],
        "lr": 0.01,
        "use_weighting": true,
        "importance": [
            15.0,
            10.0
        ],
        "phase1_epochs": 0,
        "phase2_epochs": 50,
        "device": "cpu",
        "model_type": "GCN",
        "loss": "BCE",
        "pooling": "gm",
        "gm_p": 1.0,
        "log_dir": "runs/T/BCE/2/GCN/same/p_gm=1.0/5/medium",
        "file_path": "T/BCE/2/GCN/same/p_gm=1.0/5.0/medium",
        "add_graph": false,
        "track_embeddings": false,
        "track_singular_values": true,
        "get_elements": true,
        "save": true
    },
    "sparcity": 0.778761115202586,
    "empty_graph_stats": [
        {
            "mean": [
                -0.34918463230133057,
                0.2863607108592987,
                1.0128899812698364,
                -0.4490368962287903,
                -0.06602339446544647
            ],
            "std": [
                0.22093814611434937,
                0.1999557763338089,
                0.24429358541965485,
                0.2026267796754837,
                0.26386651396751404
            ]
        },
        {
            "mean": [
                -0.09954448789358139,
                -0.2733882665634155,
                -0.6137204766273499,
                -0.5858010649681091,
                -0.6650270223617554
            ],
            "std": [
                0.25268909335136414,
                0.2676621973514557,
                0.23459458351135254,
                0.23086030781269073,
                0.23571841418743134
            ]
        },
        {
            "mean": [
                0.4458580017089844,
                0.13130304217338562,
                0.7302787899971008,
                0.6079866886138916,
                0.2648073732852936
            ],
            "std": [
                0.3418406546115875,
                0.15066567063331604,
                0.24231119453907013,
                0.21804466843605042,
                0.2606205940246582
            ]
        }
    ],
    "summary format:": "Key: (Num of active features, Num of accurate feature, Geometry, Collapsed). Loss, s.d. Loss, Count",
    "summary": {
        "(5, 5, 5, 0)": [
            0.09756432911256949,
            0.004221480603019398,
            2
        ],
        "(5, 4, 'Failed', 0)": [
            0.24965157262484233,
            0.0,
            1
        ]
    },
    "results": [
        {
            "Num of features": 5,
            "Num of active features": 5,
            "Num of accurate feature": 5,
            "Geometry": 5,
            "Collapsed": 0,
            "Loss": 0.09334284850955009,
            "Rank": 5,
            "Singular values": [
                1.5931154489517212,
                1.3502634763717651,
                1.2957993745803833,
                1.2239551544189453,
                1.1425621509552002
            ]
        },
        {
            "Num of features": 5,
            "Num of active features": 5,
            "Num of accurate feature": 5,
            "Geometry": 5,
            "Collapsed": 0,
            "Loss": 0.10178580971558888,
            "Rank": 5,
            "Singular values": [
                1.5812885761260986,
                1.4941961765289307,
                1.3391894102096558,
                1.2124155759811401,
                1.1553897857666016
            ]
        },
        {
            "Num of features": 5,
            "Num of active features": 5,
            "Num of accurate feature": 4,
            "Geometry": "Failed",
            "Collapsed": 0,
            "Loss": 0.24965157262484233,
            "Rank": 5,
            "Singular values": [
                1.8536105155944824,
                1.4831433296203613,
                1.4394195079803467,
                0.6306102275848389,
                0.3724283277988434
            ]
        }
    ],
    "average embeddings summary": {
        "(5, 5, 5, 0)": {
            "(0, 1, 0, 0, 0)": [
                0.3277716338634491,
                -0.3003527820110321,
                1.024391770362854,
                -0.3147292733192444,
                -0.5779363512992859
            ],
            "(1, 0, 0, 0, 0)": [
                -0.6978973150253296,
                0.0605902336537838,
                0.963855504989624,
                0.5810761451721191,
                0.32680436968803406
            ],
            "(0, 0, 0, 1, 0)": [
                -0.9841146469116211,
                0.14388959109783173,
                0.08013711869716644,
                -0.5527989864349365,
                -0.7182455062866211
            ],
            "(0, 0, 1, 0, 0)": [
                0.2807178497314453,
                1.213559865951538,
                0.4078581631183624,
                -0.16151444613933563,
                -0.1541178673505783
            ],
            "(0, 0, 0, 0, 1)": [
                -0.04567234218120575,
                -0.11485440284013748,
                0.19979242980480194,
                -0.8534483909606934,
                0.9649828672409058
            ]
        },
        "(5, 4, 'Failed', 0)": {
            "(0, 0, 0, 1, 0)": [
                0.1103816106915474,
                -0.5228332877159119,
                1.0094865560531616,
                -0.5403807759284973,
                -0.037684354931116104
            ],
            "(1, 0, 0, 0, 0)": [
                -0.16722381114959717,
                0.2789651155471802,
                0.24819226562976837,
                1.0920671224594116,
                -0.7841421365737915
            ],
            "(0, 1, 0, 0, 0)": [
                0.9592995047569275,
                -0.4568089544773102,
                -0.4711802899837494,
                0.4507140517234802,
                0.49800464510917664
            ],
            "(0, 0, 1, 0, 0)": [
                0.8073846697807312,
                0.18782126903533936,
                0.8415287733078003,
                0.6526660919189453,
                0.10388467460870743
            ],
            "(0, 0, 0, 0, 1)": [
                0.17528603971004486,
                0.13275964558124542,
                0.635963499546051,
                0.645570695400238,
                0.408953458070755
            ]
        }
    },
    "model summary": {
        "(5, 5, 5, 0)": {
            "convs.0.bias": [
                -2.4658734798431396,
                -2.5073587894439697,
                -2.5479061603546143,
                -2.475022315979004,
                -2.5975258350372314
            ],
            "convs.0.lin.weight": [
                [
                    0.0244771596044302,
                    -0.03179240599274635,
                    5.1418232917785645,
                    -0.028074180707335472,
                    0.1568305939435959
                ],
                [
                    -0.10117186605930328,
                    -0.034233082085847855,
                    -0.09668928384780884,
                    -0.08808769285678864,
                    5.064915657043457
                ],
                [
                    5.081989288330078,
                    0.20676760375499725,
                    0.01949400082230568,
                    -0.03417578339576721,
                    0.06450260430574417
                ],
                [
                    0.1729905605316162,
                    0.1629268378019333,
                    0.05438118800520897,
                    5.087188243865967,
                    0.008014699444174767
                ],
                [
                    -0.012003917247056961,
                    5.218967914581299,
                    -0.14308729767799377,
                    -0.004885457456111908,
                    -0.06840460747480392
                ]
            ],
            "convs.1.bias": [
                -0.4071471095085144,
                0.3649064302444458,
                1.214746356010437,
                -0.5468484163284302,
                -0.06774189323186874
            ],
            "convs.1.lin.weight": [
                [
                    4.100392818450928,
                    2.5458362102508545,
                    -2.345828056335449,
                    -4.337024211883545,
                    5.290235996246338
                ],
                [
                    5.8534040451049805,
                    -3.4184489250183105,
                    -1.7750778198242188,
                    -1.1822614669799805,
                    -4.755710601806641
                ],
                [
                    -4.223271369934082,
                    -6.25421142578125,
                    -0.6753138303756714,
                    -6.8876543045043945,
                    0.008780304342508316
                ],
                [
                    2.0292985439300537,
                    -2.8685190677642822,
                    7.8166022300720215,
                    -0.6333796381950378,
                    1.4656881093978882
                ],
                [
                    -0.6942498087882996,
                    8.044026374816895,
                    3.0409951210021973,
                    -4.488116264343262,
                    -4.251687049865723
                ]
            ],
            "lin_out.weight": [
                [
                    -3.6777665615081787,
                    -2.776664972305298,
                    -0.9068009257316589,
                    13.177233695983887,
                    3.8121252059936523
                ],
                [
                    8.54498291015625,
                    -7.962967872619629,
                    -0.38007381558418274,
                    2.3457984924316406,
                    -5.494226932525635
                ],
                [
                    6.089715003967285,
                    9.575081825256348,
                    -4.925973892211914,
                    3.5472412109375,
                    -0.9488025307655334
                ],
                [
                    -6.645364284515381,
                    -1.9514827728271484,
                    -8.440485954284668,
                    -1.0474369525909424,
                    -5.930933475494385
                ],
                [
                    3.264129877090454,
                    -4.161331653594971,
                    -5.421492576599121,
                    -4.068272590637207,
                    8.131749153137207
                ]
            ],
            "lin_out.bias": [
                -0.678459882736206,
                -0.6929760575294495,
                -0.6739456057548523,
                -0.43422335386276245,
                -0.901558518409729
            ]
        },
        "(5, 4, 'Failed', 0)": {
            "convs.0.bias": [
                1.0215874910354614,
                -2.45369291305542,
                -2.399414539337158,
                0.0,
                -2.4479496479034424
            ],
            "convs.0.lin.weight": [
                [
                    -0.1341000497341156,
                    -0.13336080312728882,
                    1.522626280784607,
                    0.022927578538656235,
                    -1.3899863958358765
                ],
                [
                    0.018973547965288162,
                    4.952938079833984,
                    -0.05798064172267914,
                    0.03036966174840927,
                    -0.13215163350105286
                ],
                [
                    0.057671427726745605,
                    0.11681351810693741,
                    -0.2249017208814621,
                    5.061823844909668,
                    -0.08815701305866241
                ],
                [
                    -0.4452112317085266,
                    -0.32053622603416443,
                    -0.4301825761795044,
                    -0.16352242231369019,
                    -0.6383571624755859
                ],
                [
                    5.1900129318237305,
                    0.07114320248365402,
                    -0.17041105031967163,
                    0.2976227104663849,
                    -0.17624716460704803
                ]
            ],
            "convs.1.bias": [
                -1.8162386417388916,
                0.007791069336235523,
                0.10327882319688797,
                0.6263513565063477,
                1.5005236864089966
            ],
            "convs.1.lin.weight": [
                [
                    2.299943208694458,
                    3.8586645126342773,
                    -1.9408302307128906,
                    -0.3997746407985687,
                    -3.788166046142578
                ],
                [
                    0.2103881686925888,
                    -4.545164108276367,
                    -4.016087532043457,
                    -0.003788397181779146,
                    0.730627715587616
                ],
                [
                    0.7395294904708862,
                    -9.211833000183105,
                    1.603804588317871,
                    0.4947001039981842,
                    -3.2766330242156982
                ],
                [
                    0.04587124288082123,
                    -1.2591099739074707,
                    -6.974114418029785,
                    -0.6052767634391785,
                    2.901611804962158
                ],
                [
                    -1.1210873126983643,
                    1.5556890964508057,
                    -2.1232237815856934,
                    -0.6151193380355835,
                    -6.921040058135986
                ]
            ],
            "lin_out.weight": [
                [
                    -3.313436508178711,
                    1.2768281698226929,
                    -3.2235286235809326,
                    2.8327176570892334,
                    -8.344202041625977
                ],
                [
                    4.192700386047363,
                    -2.623302698135376,
                    -10.077404975891113,
                    -1.9570927619934082,
                    1.5384262800216675
                ],
                [
                    2.8839573860168457,
                    1.251365065574646,
                    1.1103928089141846,
                    -0.06706216931343079,
                    -1.1588598489761353
                ],
                [
                    -2.4718408584594727,
                    -3.5669233798980713,
                    2.0854344367980957,
                    -11.00649642944336,
                    -4.501336097717285
                ],
                [
                    -2.421551465988159,
                    0.7757236361503601,
                    -0.4064011573791504,
                    0.24416415393352509,
                    2.5995049476623535
                ]
            ],
            "lin_out.bias": [
                -0.998897135257721,
                -0.8601719737052917,
                -2.579491376876831,
                0.18537898361682892,
                -0.16454969346523285
            ]
        }
    }
}