{
    "experiment_config": {
        "mode": "simple",
        "num_categories": 5,
        "p": 0.3,
        "num_nodes": 20,
        "motif_dim": 0,
        "num_train_samples": 5000,
        "num_test_samples": 1500,
        "batch_size": 16,
        "in_dim": 5,
        "hidden_dims": [
            5,
            5
        ],
        "lr": 0.01,
        "use_weighting": true,
        "importance": [
            15.0,
            10.0
        ],
        "phase1_epochs": 0,
        "phase2_epochs": 50,
        "device": "cpu",
        "model_type": "GCN",
        "loss": "BCE",
        "pooling": "gm",
        "gm_p": 1.0,
        "log_dir": "runs/T/BCE/2/GCN/same/p_gm=1.0/5/high",
        "file_path": "T/BCE/2/GCN/same/p_gm=1.0/5.0/high",
        "add_graph": false,
        "track_embeddings": false,
        "track_singular_values": true,
        "get_elements": true,
        "save": true
    },
    "sparcity": 0.9370393313871229,
    "empty_graph_stats": [
        {
            "mean": [
                -0.24304473400115967,
                -0.31982049345970154,
                0.8961026072502136,
                0.46721282601356506,
                -1.171717882156372
            ],
            "std": [
                0.3469158113002777,
                0.6268014311790466,
                0.374769002199173,
                0.18633636832237244,
                0.4440750479698181
            ]
        },
        {
            "mean": [
                -0.06043918803334236,
                0.841053307056427,
                -0.6596918702125549,
                0.8570563793182373,
                -0.13635621964931488
            ],
            "std": [
                0.5573664903640747,
                0.5324736833572388,
                0.5329893231391907,
                0.7737575769424438,
                0.5771310925483704
            ]
        },
        {
            "mean": [
                0.34549644589424133,
                1.0149158239364624,
                -0.6999420523643494,
                -0.8238824009895325,
                0.1064496785402298
            ],
            "std": [
                0.18154489994049072,
                0.17944398522377014,
                0.1778000444173813,
                0.14903989434242249,
                0.22320866584777832
            ]
        }
    ],
    "summary format:": "Key: (Num of active features, Num of accurate feature, Geometry, Collapsed). Loss, s.d. Loss, Count",
    "summary": {
        "(4, 2, 'Failed', 0)": [
            0.1825381487607956,
            0.0,
            1
        ],
        "(5, 2, 'Failed', 0)": [
            0.2788681958516439,
            0.0,
            1
        ],
        "(5, 5, 5, 0)": [
            0.05747260323663553,
            0.0,
            1
        ]
    },
    "results": [
        {
            "Num of features": 5,
            "Num of active features": 4,
            "Num of accurate feature": 2,
            "Geometry": "Failed",
            "Collapsed": 0,
            "Loss": 0.1825381487607956,
            "Rank": 5,
            "Singular values": [
                3.3304083347320557,
                1.8675001859664917,
                1.6507582664489746,
                1.1651418209075928,
                0.5429933667182922
            ]
        },
        {
            "Num of features": 5,
            "Num of active features": 5,
            "Num of accurate feature": 2,
            "Geometry": "Failed",
            "Collapsed": 0,
            "Loss": 0.2788681958516439,
            "Rank": 5,
            "Singular values": [
                3.138611078262329,
                1.688201904296875,
                1.5670496225357056,
                1.0119576454162598,
                0.6643826961517334
            ]
        },
        {
            "Num of features": 5,
            "Num of active features": 5,
            "Num of accurate feature": 5,
            "Geometry": 5,
            "Collapsed": 0,
            "Loss": 0.05747260323663553,
            "Rank": 5,
            "Singular values": [
                2.566847801208496,
                1.7142945528030396,
                1.5818674564361572,
                1.3102630376815796,
                1.2772350311279297
            ]
        }
    ],
    "average embeddings summary": {
        "(4, 2, 'Failed', 0)": {
            "(1, 0, 0, 0, 0)": [
                -0.43048495054244995,
                0.3374693691730499,
                1.3077054023742676,
                0.27390626072883606,
                -1.630834937095642
            ],
            "(0, 1, 0, 0, 0)": [
                0.10353410243988037,
                -0.42985987663269043,
                0.7008191347122192,
                0.6172216534614563,
                -1.0341832637786865
            ],
            "(0, 0, 0, 1, 0)": [
                -0.21163390576839447,
                0.2849022448062897,
                1.9751203060150146,
                0.9505318999290466,
                0.22160252928733826
            ],
            "(0, 0, 1, 0, 0)": [
                -0.7869609594345093,
                -1.4190653562545776,
                0.3696101903915405,
                0.5766879916191101,
                -0.5615871548652649
            ],
            "(0, 0, 0, 0, 1)": [
                -0.3053227663040161,
                0.4908006191253662,
                -0.0868840217590332,
                1.3881131410598755,
                -1.1873008012771606
            ]
        },
        "(5, 2, 'Failed', 0)": {
            "(0, 0, 1, 0, 0)": [
                -0.493863970041275,
                1.069757342338562,
                -0.3027520477771759,
                1.3405823707580566,
                0.14695870876312256
            ],
            "(0, 1, 0, 0, 0)": [
                0.042025960981845856,
                0.7352972626686096,
                -0.8156196475028992,
                0.4446873962879181,
                0.315489798784256
            ],
            "(1, 0, 0, 0, 0)": [
                -0.5894083976745605,
                1.1365622282028198,
                -0.699909508228302,
                -0.4849946200847626,
                -0.6506692171096802
            ],
            "(0, 0, 0, 1, 0)": [
                0.24139206111431122,
                0.1847384124994278,
                -1.2292072772979736,
                1.6126824617385864,
                -0.8553985357284546
            ],
            "(0, 0, 0, 0, 1)": [
                0.9117333292961121,
                1.5841208696365356,
                0.13053707778453827,
                0.8584398031234741,
                -0.016526147723197937
            ]
        },
        "(5, 5, 5, 0)": {
            "(0, 0, 0, 1, 0)": [
                -0.03851759433746338,
                1.4055426120758057,
                0.19657239317893982,
                -0.6724528670310974,
                -0.6552885174751282
            ],
            "(0, 0, 1, 0, 0)": [
                0.4323151707649231,
                0.7980495691299438,
                -0.1942465752363205,
                -1.0913145542144775,
                0.9243727922439575
            ],
            "(1, 0, 0, 0, 0)": [
                1.5215002298355103,
                0.05159915238618851,
                -0.5172314047813416,
                -0.5380113124847412,
                -0.6421383619308472
            ],
            "(0, 1, 0, 0, 0)": [
                -0.7053796052932739,
                -0.07768604904413223,
                -1.1515074968338013,
                -1.1358833312988281,
                -0.27643266320228577
            ],
            "(0, 0, 0, 0, 1)": [
                0.2309475988149643,
                1.2927042245864868,
                -1.1232091188430786,
                0.21247172355651855,
                0.243713840842247
            ]
        }
    },
    "model summary": {
        "(4, 2, 'Failed', 0)": {
            "convs.0.bias": [
                -2.351956367492676,
                -2.2453339099884033,
                0.24840576946735382,
                0.9674426913261414,
                -0.07176221907138824
            ],
            "convs.0.lin.weight": [
                [
                    -0.10262767225503922,
                    -0.20722883939743042,
                    0.6139245629310608,
                    -0.18354269862174988,
                    5.341368675231934
                ],
                [
                    -0.24088798463344574,
                    -0.3562295436859131,
                    -0.05329548940062523,
                    5.383017063140869,
                    0.17407727241516113
                ],
                [
                    -2.8287782669067383,
                    -2.3357014656066895,
                    4.007452487945557,
                    0.13446174561977386,
                    -0.20287132263183594
                ],
                [
                    2.4816668033599854,
                    -1.3742904663085938,
                    -1.4437764883041382,
                    -0.1340644210577011,
                    -0.06584665179252625
                ],
                [
                    -0.04495963826775551,
                    -0.6035718321800232,
                    -0.263088196516037,
                    -0.5373541116714478,
                    -0.36340421438217163
                ]
            ],
            "convs.1.bias": [
                2.277097463607788,
                -1.0427321195602417,
                0.05284763127565384,
                1.1872373819351196,
                -0.316943496465683
            ],
            "convs.1.lin.weight": [
                [
                    -1.4602783918380737,
                    0.09665843099355698,
                    -2.0792341232299805,
                    -1.8525797128677368,
                    -0.2528235614299774
                ],
                [
                    5.077475070953369,
                    4.057681083679199,
                    -2.332240343093872,
                    1.630448579788208,
                    0.14426691830158234
                ],
                [
                    -6.975244045257568,
                    6.9039835929870605,
                    -0.9139180779457092,
                    1.240862250328064,
                    -0.1268371343612671
                ],
                [
                    6.3179707527160645,
                    2.822666883468628,
                    0.014746314845979214,
                    -0.8240175843238831,
                    -0.026785043999552727
                ],
                [
                    0.13018836081027985,
                    8.299777030944824,
                    1.1749247312545776,
                    -1.4324233531951904,
                    0.298797070980072
                ]
            ],
            "lin_out.weight": [
                [
                    -2.8136868476867676,
                    1.1256459951400757,
                    0.23345786333084106,
                    -3.597268581390381,
                    -0.9801509976387024
                ],
                [
                    4.915889263153076,
                    -1.0157043933868408,
                    -0.7596514821052551,
                    -1.4602913856506348,
                    -0.3995479643344879
                ],
                [
                    -2.1058847904205322,
                    -2.232740640640259,
                    -1.059632658958435,
                    -1.9584563970565796,
                    0.7831334471702576
                ],
                [
                    0.5173354744911194,
                    4.490095138549805,
                    4.1962785720825195,
                    0.09323236346244812,
                    9.945253372192383
                ],
                [
                    -2.6759891510009766,
                    5.922356605529785,
                    -7.747453689575195,
                    2.7610785961151123,
                    0.34312981367111206
                ]
            ],
            "lin_out.bias": [
                -2.1723031997680664,
                -0.3281655013561249,
                -1.3375846147537231,
                -1.7180442810058594,
                -1.2669155597686768
            ]
        },
        "(5, 2, 'Failed', 0)": {
            "convs.0.bias": [
                0.0,
                0.23794852197170258,
                1.266540288925171,
                0.3868567645549774,
                0.559403657913208
            ],
            "convs.0.lin.weight": [
                [
                    -0.17218318581581116,
                    -0.3282143175601959,
                    -0.28519120812416077,
                    -0.29678255319595337,
                    -0.6551285982131958
                ],
                [
                    4.418326377868652,
                    -2.5840604305267334,
                    -2.9268252849578857,
                    -0.23909616470336914,
                    -2.267059803009033
                ],
                [
                    -1.2297390699386597,
                    -1.8253631591796875,
                    2.101242780685425,
                    1.5352355241775513,
                    -0.42553967237472534
                ],
                [
                    -0.9356532692909241,
                    -2.664163589477539,
                    -0.6142392158508301,
                    -3.1386375427246094,
                    4.208866596221924
                ],
                [
                    0.4180830419063568,
                    -2.802513599395752,
                    -0.6772972941398621,
                    3.7775044441223145,
                    -3.2075107097625732
                ]
            ],
            "convs.1.bias": [
                0.7884550094604492,
                -0.4828552305698395,
                -2.2873499393463135,
                -1.2625750303268433,
                1.8442883491516113
            ],
            "convs.1.lin.weight": [
                [
                    0.17069421708583832,
                    -1.7292159795761108,
                    -1.8211488723754883,
                    2.4864954948425293,
                    1.847941279411316
                ],
                [
                    0.6903576254844666,
                    1.1247382164001465,
                    0.9959827661514282,
                    1.719146490097046,
                    -1.7923084497451782
                ],
                [
                    0.7687549591064453,
                    0.42833608388900757,
                    1.423897624015808,
                    1.6974961757659912,
                    -1.7849311828613281
                ],
                [
                    -0.06498227268457413,
                    -2.640296697616577,
                    1.960476279258728,
                    -0.26574549078941345,
                    1.0928782224655151
                ],
                [
                    0.0706210508942604,
                    -1.454171895980835,
                    0.09786555171012878,
                    -0.5914254784584045,
                    -2.3872640132904053
                ]
            ],
            "lin_out.weight": [
                [
                    -1.8534082174301147,
                    -0.3839164972305298,
                    1.3580970764160156,
                    -1.7203090190887451,
                    -1.9404215812683105
                ],
                [
                    1.3804839849472046,
                    -1.833659052848816,
                    -1.746963620185852,
                    -1.3564766645431519,
                    3.2560436725616455
                ],
                [
                    -3.376272678375244,
                    -0.41436079144477844,
                    2.963853359222412,
                    1.5610198974609375,
                    0.5166170597076416
                ],
                [
                    1.0959036350250244,
                    -1.6528133153915405,
                    0.01801859773695469,
                    1.135141134262085,
                    -2.0725131034851074
                ],
                [
                    2.7032151222229004,
                    -0.35952943563461304,
                    2.3986074924468994,
                    -0.37864989042282104,
                    -1.2134207487106323
                ]
            ],
            "lin_out.bias": [
                -0.790772020816803,
                0.4568132162094116,
                -2.4851036071777344,
                -1.5089781284332275,
                -0.7788583636283875
            ]
        },
        "(5, 5, 5, 0)": {
            "convs.0.bias": [
                -1.724885106086731,
                -1.2082868814468384,
                -2.3001949787139893,
                -2.382606267929077,
                -2.397477865219116
            ],
            "convs.0.lin.weight": [
                [
                    -0.5231466889381409,
                    -0.7005813717842102,
                    -0.3482649624347687,
                    -0.5922655463218689,
                    5.14896297454834
                ],
                [
                    -0.8747237920761108,
                    -0.21699608862400055,
                    4.478787422180176,
                    -1.2066798210144043,
                    -0.2514249384403229
                ],
                [
                    6.063480854034424,
                    -0.5386158227920532,
                    -0.4250961244106293,
                    -0.06221025064587593,
                    -0.12052188813686371
                ],
                [
                    0.3868657946586609,
                    5.243837356567383,
                    -0.10051967203617096,
                    -0.2678726613521576,
                    -0.10581602901220322
                ],
                [
                    -0.16596192121505737,
                    -0.6400855779647827,
                    -0.016319498419761658,
                    5.628347396850586,
                    0.15835998952388763
                ]
            ],
            "convs.1.bias": [
                0.3344787061214447,
                1.1047184467315674,
                -0.8206264972686768,
                -0.8267455101013184,
                0.0046638078056275845
            ],
            "convs.1.lin.weight": [
                [
                    -0.48503386974334717,
                    0.343243271112442,
                    5.158559322357178,
                    -7.534685134887695,
                    -2.5986690521240234
                ],
                [
                    1.2490681409835815,
                    -0.9441000819206238,
                    -4.29146146774292,
                    -7.664418697357178,
                    2.5064516067504883
                ],
                [
                    -1.903904676437378,
                    2.347745895385742,
                    1.049594759941101,
                    -3.008516311645508,
                    6.16487455368042
                ],
                [
                    4.804199695587158,
                    -1.1407232284545898,
                    1.005500078201294,
                    -2.2820241451263428,
                    0.6089041233062744
                ],
                [
                    0.42830535769462585,
                    3.550062417984009,
                    -3.0558366775512695,
                    -2.123070478439331,
                    -4.408998489379883
                ]
            ],
            "lin_out.weight": [
                [
                    6.365311622619629,
                    -5.5291666984558105,
                    1.6073380708694458,
                    1.5053319931030273,
                    -3.04780912399292
                ],
                [
                    -8.47538948059082,
                    -8.340943336486816,
                    -2.242947578430176,
                    -0.3433558940887451,
                    -0.6366771459579468
                ],
                [
                    0.45922574400901794,
                    -0.8307770490646362,
                    2.675863742828369,
                    -1.2084896564483643,
                    4.8152618408203125
                ],
                [
                    -3.7182161808013916,
                    1.7651346921920776,
                    8.324766159057617,
                    1.5130068063735962,
                    -5.335159778594971
                ],
                [
                    -0.6287714838981628,
                    1.1674226522445679,
                    -2.0340144634246826,
                    6.94220495223999,
                    1.9598320722579956
                ]
            ],
            "lin_out.bias": [
                -1.6039979457855225,
                -1.6853463649749756,
                -1.4710038900375366,
                -1.3776742219924927,
                -1.0732853412628174
            ]
        }
    }
}