{
    "experiment_config": {
        "mode": "simple",
        "num_categories": 5,
        "p": 0.3,
        "num_nodes": 20,
        "motif_dim": 0,
        "num_train_samples": 5000,
        "num_test_samples": 1500,
        "batch_size": 16,
        "in_dim": 5,
        "hidden_dims": [
            5,
            5
        ],
        "lr": 0.01,
        "use_weighting": true,
        "importance": [
            15.0,
            10.0
        ],
        "phase1_epochs": 0,
        "phase2_epochs": 50,
        "device": "cpu",
        "model_type": "GCN",
        "loss": "BCE",
        "pooling": "gm",
        "gm_p": 1.0,
        "log_dir": "runs/T/BCE/2/GCN/same/p_gm=1.0/5/high",
        "file_path": "T/BCE/2/GCN/same/p_gm=1.0/5.0/high",
        "add_graph": false,
        "track_embeddings": false,
        "track_singular_values": true,
        "save": true
    },
    "sparcity": 0.9370393313871229,
    "empty_graph_stats": [
        {
            "mean": [
                -0.11296474188566208,
                0.6485335230827332,
                0.13384002447128296,
                -0.4001210331916809,
                0.3107529282569885
            ],
            "std": [
                0.2873096168041229,
                0.4305688440799713,
                0.2387591451406479,
                0.46023041009902954,
                0.43347403407096863
            ]
        },
        {
            "mean": [
                -0.23459140956401825,
                -1.390870213508606,
                0.12708783149719238,
                0.0269931610673666,
                1.2139211893081665
            ],
            "std": [
                0.149072527885437,
                0.19680237770080566,
                0.1784132421016693,
                0.18517060577869415,
                0.19195818901062012
            ]
        },
        {
            "mean": [
                -0.09151347726583481,
                -0.8386946320533752,
                -0.08575453609228134,
                0.928374171257019,
                0.16669349372386932
            ],
            "std": [
                0.6263437867164612,
                0.8293508291244507,
                0.5836144089698792,
                0.7458745837211609,
                0.3781854510307312
            ]
        }
    ],
    "summary format:": "Key: (Num of active features, Num of accurate feature, Geometry, Collapsed). Loss, s.d. Loss, Count",
    "summary": {
        "(0, 0, 'Failed', 0)": [
            0.2586562996705373,
            0.0,
            1
        ],
        "(5, 5, 'Failed', 0)": [
            0.03596271523957451,
            0.0,
            1
        ],
        "(5, 2, 'Failed', 0)": [
            0.23874469828605652,
            0.0,
            1
        ]
    },
    "results": [
        {
            "Num of features": 5,
            "Num of active features": 0,
            "Num of accurate feature": 0,
            "Geometry": "Failed",
            "Collapsed": 0,
            "Loss": 0.2586562996705373,
            "Rank": 3,
            "Singular values": [
                2.064413547515869,
                1.1235162019729614,
                0.9042375683784485,
                2.6671065711525443e-07,
                6.836569355073152e-08
            ]
        },
        {
            "Num of features": 5,
            "Num of active features": 5,
            "Num of accurate feature": 5,
            "Geometry": "Failed",
            "Collapsed": 0,
            "Loss": 0.03596271523957451,
            "Rank": 5,
            "Singular values": [
                2.9974217414855957,
                1.7308526039123535,
                1.6630569696426392,
                1.4763975143432617,
                1.1236120462417603
            ]
        },
        {
            "Num of features": 5,
            "Num of active features": 5,
            "Num of accurate feature": 2,
            "Geometry": "Failed",
            "Collapsed": 0,
            "Loss": 0.23874469828605652,
            "Rank": 5,
            "Singular values": [
                3.182053565979004,
                1.895840048789978,
                1.3872292041778564,
                1.2629507780075073,
                0.5946080684661865
            ]
        }
    ],
    "average embeddings summary": {
        "(0, 0, 'Failed', 0)": {
            "(0, 0, 1, 0, 0)": [
                -0.26806947588920593,
                0.3383947014808655,
                0.4648071229457855,
                -0.9903964400291443,
                -0.10434114933013916
            ],
            "(1, 0, 0, 0, 0)": [
                -0.24183280766010284,
                0.46173885464668274,
                0.13167865574359894,
                -0.3522328734397888,
                0.423708438873291
            ],
            "(0, 0, 0, 0, 1)": [
                0.24264557659626007,
                1.1252973079681396,
                0.29108959436416626,
                -0.8261200785636902,
                -0.2508663535118103
            ],
            "(0, 1, 0, 0, 0)": [
                0.18295013904571533,
                1.1424293518066406,
                -0.11521488428115845,
                -0.016688676550984383,
                0.47100746631622314
            ],
            "(0, 0, 0, 1, 0)": [
                -0.3770439028739929,
                0.27018341422080994,
                0.11207868158817291,
                -0.2683214247226715,
                0.570856511592865
            ]
        },
        "(5, 5, 'Failed', 0)": {
            "(0, 0, 0, 1, 0)": [
                0.6907437443733215,
                -1.5230305194854736,
                0.2777627110481262,
                0.39202433824539185,
                0.8871109485626221
            ],
            "(1, 0, 0, 0, 0)": [
                -0.0855192244052887,
                -0.8811566233634949,
                -1.1221784353256226,
                -0.602373480796814,
                0.6747788786888123
            ],
            "(0, 0, 0, 0, 1)": [
                -0.7975691556930542,
                -1.577437162399292,
                0.17481891810894012,
                0.5705713033676147,
                0.07379335165023804
            ],
            "(0, 0, 1, 0, 0)": [
                -0.3989331126213074,
                -0.08141738921403885,
                0.21858960390090942,
                0.5489779710769653,
                1.8906288146972656
            ],
            "(0, 1, 0, 0, 0)": [
                -0.2543374001979828,
                -0.8501672744750977,
                1.0708760023117065,
                -1.187773585319519,
                0.7695359587669373
            ]
        },
        "(5, 2, 'Failed', 0)": {
            "(0, 0, 1, 0, 0)": [
                -0.5007781386375427,
                -0.5268977284431458,
                0.864835798740387,
                1.621957540512085,
                0.028181131929159164
            ],
            "(1, 0, 0, 0, 0)": [
                -0.06983338296413422,
                -0.7898467779159546,
                -0.3547404408454895,
                0.7739174962043762,
                -0.13095711171627045
            ],
            "(0, 0, 0, 0, 1)": [
                1.1207468509674072,
                -0.3312000036239624,
                -0.1723828911781311,
                1.625596523284912,
                0.38171422481536865
            ],
            "(0, 1, 0, 0, 0)": [
                0.05265594273805618,
                -1.7891674041748047,
                -0.0028939282055944204,
                0.220241516828537,
                0.6016648411750793
            ],
            "(0, 0, 0, 1, 0)": [
                -0.5034408569335938,
                0.2477739304304123,
                -0.7305536866188049,
                1.6401488780975342,
                0.9885979294776917
            ]
        }
    },
    "model summary": {
        "(0, 0, 'Failed', 0)": {
            "convs.0.bias": [
                1.0503555536270142,
                -0.14228852093219757,
                0.0,
                -0.16162103414535522,
                0.736301600933075
            ],
            "convs.0.lin.weight": [
                [
                    -1.5091009140014648,
                    1.8993009328842163,
                    -1.142674446105957,
                    -1.5140764713287354,
                    2.888456106185913
                ],
                [
                    -0.5447515845298767,
                    -0.5447717308998108,
                    0.018852271139621735,
                    0.11464516818523407,
                    -0.5507313013076782
                ],
                [
                    -0.7125656604766846,
                    -0.45773565769195557,
                    -0.6915789246559143,
                    -0.21476463973522186,
                    -0.4442373216152191
                ],
                [
                    0.11393754184246063,
                    -0.01122555136680603,
                    0.09135045111179352,
                    -0.6021165251731873,
                    -0.012710308656096458
                ],
                [
                    -2.862013578414917,
                    -1.0510644912719727,
                    1.846003532409668,
                    -1.9859133958816528,
                    3.4990391731262207
                ]
            ],
            "convs.1.bias": [
                -1.6268908977508545,
                -1.5595505237579346,
                0.1617807298898697,
                0.05887474864721298,
                1.5496386289596558
            ],
            "convs.1.lin.weight": [
                [
                    1.4837311506271362,
                    -0.48531147837638855,
                    -0.20732736587524414,
                    0.19311389327049255,
                    -0.11720010638237
                ],
                [
                    2.3891234397888184,
                    -0.019222024828195572,
                    0.6584320664405823,
                    0.3131381571292877,
                    -0.4929323196411133
                ],
                [
                    -0.9074272513389587,
                    -0.5839886665344238,
                    0.41435787081718445,
                    -0.2807598412036896,
                    1.2611241340637207
                ],
                [
                    1.259531021118164,
                    0.42926520109176636,
                    0.7377195954322815,
                    -0.31377890706062317,
                    -2.4098377227783203
                ],
                [
                    0.2396319955587387,
                    0.32460537552833557,
                    0.6336974501609802,
                    -0.5816418528556824,
                    -1.983863353729248
                ]
            ],
            "lin_out.weight": [
                [
                    0.11891601234674454,
                    -1.7609093189239502,
                    -0.5204592347145081,
                    1.0213152170181274,
                    -0.2477465122938156
                ],
                [
                    1.5714606046676636,
                    1.0451233386993408,
                    -0.8204922676086426,
                    2.5347766876220703,
                    -0.04284811019897461
                ],
                [
                    -0.45630091428756714,
                    -1.9556238651275635,
                    0.06940044462680817,
                    -0.9149900078773499,
                    -1.6985182762145996
                ],
                [
                    -0.8222072720527649,
                    -1.086166501045227,
                    -0.29927554726600647,
                    0.6569184064865112,
                    -0.01998491957783699
                ],
                [
                    1.7665144205093384,
                    0.839195966720581,
                    -0.25249287486076355,
                    -0.5082551836967468,
                    -2.139308214187622
                ]
            ],
            "lin_out.bias": [
                -0.08318482339382172,
                -1.8078206777572632,
                -0.8063867688179016,
                -0.847125768661499,
                -2.302055597305298
            ]
        },
        "(5, 5, 'Failed', 0)": {
            "convs.0.bias": [
                -2.219060182571411,
                -2.0080652236938477,
                -2.1715197563171387,
                -2.393221139907837,
                -2.0328006744384766
            ],
            "convs.0.lin.weight": [
                [
                    0.19079908728599548,
                    5.064571380615234,
                    -0.41371163725852966,
                    -0.4358958303928375,
                    -0.10905677080154419
                ],
                [
                    0.6821654438972473,
                    -0.4451252520084381,
                    -0.21053780615329742,
                    5.263883590698242,
                    0.3204788565635681
                ],
                [
                    5.1861419677734375,
                    0.18068592250347137,
                    0.12864546477794647,
                    -0.43499621748924255,
                    0.6069068312644958
                ],
                [
                    0.48531270027160645,
                    0.25323018431663513,
                    5.6740007400512695,
                    0.10804001241922379,
                    0.12448722124099731
                ],
                [
                    -0.2700980007648468,
                    -0.40156176686286926,
                    -0.02943454682826996,
                    -0.059181541204452515,
                    5.360780715942383
                ]
            ],
            "convs.1.bias": [
                -0.2561299502849579,
                -1.4742729663848877,
                0.1284724622964859,
                0.02521457150578499,
                1.2921080589294434
            ],
            "convs.1.lin.weight": [
                [
                    -0.01782219111919403,
                    5.168262481689453,
                    0.977057158946991,
                    -1.1213819980621338,
                    -3.114961624145508
                ],
                [
                    3.797128200531006,
                    -0.5538133382797241,
                    3.383167028427124,
                    8.022058486938477,
                    -0.8167002201080322
                ],
                [
                    6.468728542327881,
                    0.8345849514007568,
                    -7.6867265701293945,
                    0.6375328898429871,
                    0.27129271626472473
                ],
                [
                    -8.491673469543457,
                    2.11384916305542,
                    -3.858219861984253,
                    3.1373071670532227,
                    2.894462823867798
                ],
                [
                    -3.110597610473633,
                    -1.6913084983825684,
                    -3.247525453567505,
                    4.085826873779297,
                    -6.459839344024658
                ]
            ],
            "lin_out.weight": [
                [
                    1.086976408958435,
                    3.2150750160217285,
                    -9.56390380859375,
                    -3.8956856727600098,
                    -2.6465678215026855
                ],
                [
                    -0.047325294464826584,
                    3.157529592514038,
                    7.192551612854004,
                    -8.392770767211914,
                    -2.700669765472412
                ],
                [
                    -1.9321931600570679,
                    9.923125267028809,
                    0.9783538579940796,
                    4.748037815093994,
                    2.8492422103881836
                ],
                [
                    12.08985710144043,
                    -0.1746082603931427,
                    1.395975947380066,
                    3.5656192302703857,
                    -1.9562573432922363
                ],
                [
                    -6.676675796508789,
                    -0.38428840041160583,
                    0.5687780380249023,
                    5.015365123748779,
                    -7.247737407684326
                ]
            ],
            "lin_out.bias": [
                -1.1428437232971191,
                -2.6274123191833496,
                -1.4524037837982178,
                -1.5561820268630981,
                -1.3009697198867798
            ]
        },
        "(5, 2, 'Failed', 0)": {
            "convs.0.bias": [
                0.47572144865989685,
                0.24442827701568604,
                0.6373944878578186,
                0.9597172737121582,
                -0.0872570276260376
            ],
            "convs.0.lin.weight": [
                [
                    -1.9864380359649658,
                    -2.8425588607788086,
                    3.8860628604888916,
                    2.4465222358703613,
                    -0.605854868888855
                ],
                [
                    -1.9316527843475342,
                    -3.4989969730377197,
                    -1.9356950521469116,
                    3.689204216003418,
                    3.047558546066284
                ],
                [
                    -3.4682745933532715,
                    -0.4937012493610382,
                    3.0609357357025146,
                    -0.6927506327629089,
                    3.3988802433013916
                ],
                [
                    -1.3970080614089966,
                    3.1103477478027344,
                    -0.6084179282188416,
                    -2.989873170852661,
                    -0.09128004312515259
                ],
                [
                    -0.016313472762703896,
                    -0.7499542236328125,
                    -0.40808194875717163,
                    -0.7242380976676941,
                    -0.020878193899989128
                ]
            ],
            "convs.1.bias": [
                -0.3657219111919403,
                -0.00869724527001381,
                -1.5253170728683472,
                0.37617310881614685,
                -2.2932615280151367
            ],
            "convs.1.lin.weight": [
                [
                    -2.7547569274902344,
                    0.7578541040420532,
                    2.082014560699463,
                    -0.019322574138641357,
                    0.12485213577747345
                ],
                [
                    0.4815942645072937,
                    1.6866620779037476,
                    0.4275912642478943,
                    -2.5512261390686035,
                    0.40333178639411926
                ],
                [
                    1.1133251190185547,
                    -1.851351022720337,
                    1.5196290016174316,
                    0.37673699855804443,
                    -0.5993200540542603
                ],
                [
                    0.6945112347602844,
                    1.1116433143615723,
                    1.4239351749420166,
                    -1.7535266876220703,
                    -0.675313413143158
                ],
                [
                    1.044694185256958,
                    2.280440092086792,
                    -1.092265248298645,
                    1.9243080615997314,
                    -0.591268002986908
                ]
            ],
            "lin_out.weight": [
                [
                    -0.22211000323295593,
                    0.9787226915359497,
                    -1.511055827140808,
                    -1.4147348403930664,
                    -4.39324951171875
                ],
                [
                    0.0860975980758667,
                    -0.6294869780540466,
                    1.3803359270095825,
                    -1.7003637552261353,
                    3.6316981315612793
                ],
                [
                    -0.763512134552002,
                    0.7068946361541748,
                    2.9686484336853027,
                    -0.08058784902095795,
                    -0.37668415904045105
                ],
                [
                    -1.4640167951583862,
                    1.189128041267395,
                    -0.7120440006256104,
                    -0.7080788612365723,
                    3.0576272010803223
                ],
                [
                    3.0113213062286377,
                    1.117600440979004,
                    0.38758596777915955,
                    0.09883416444063187,
                    -0.1386595368385315
                ]
            ],
            "lin_out.bias": [
                1.06783926486969,
                -2.216198682785034,
                -2.4547576904296875,
                -2.1940159797668457,
                -1.70846426486969
            ]
        }
    }
}