{
    "experiment_config": {
        "mode": "simple",
        "num_categories": 12,
        "p": 0.8,
        "num_nodes": 20,
        "motif_dim": 0,
        "num_train_samples": 5000,
        "num_test_samples": 1500,
        "batch_size": 16,
        "in_dim": 12,
        "hidden_dims": [
            12,
            12
        ],
        "lr": 0.01,
        "use_weighting": true,
        "importance": [
            15.0,
            10.0
        ],
        "phase1_epochs": 0,
        "phase2_epochs": 50,
        "device": "cpu",
        "model_type": "GCN",
        "loss": "BCE",
        "pooling": "gm",
        "gm_p": 1.0,
        "log_dir": "runs/SD/BCE/2/GCN/same/p_gm=7.0/12/high",
        "file_path": "SD/BCE/2/GCN/same/p_gm=7.0/12/high",
        "add_graph": false,
        "track_embeddings": false,
        "track_singular_values": true,
        "get_elements": false,
        "save": true
    },
    "sparcity": 0.9232159992225947,
    "empty_graph_stats": 0.2257915437221527,
    "summary format:": "Key: (Num of active features, Num of accurate feature, Geometry, Collapsed). Loss, s.d. Loss, Count",
    "collapsed percentage": 0.0,
    "summary": {
        "(12, 12, 'Failed', 0)": [
            0.04582815471953816,
            0.01265036490247445,
            3
        ],
        "(11, 11, 'Failed', 0)": [
            0.07764413596192996,
            0.01846933161218961,
            2
        ]
    },
    "results": [
        {
            "Num of features": 12,
            "Num of active features": 12,
            "Num of accurate feature": 12,
            "Geometry": "Failed",
            "Collapsed": 0,
            "Loss": 0.02849608175456524,
            "Rank": 12,
            "Singular values": [
                7.4448161125183105,
                1.9629456996917725,
                1.9121116399765015,
                1.793052315711975,
                1.7423418760299683,
                1.643818974494934,
                1.5972461700439453,
                1.5357396602630615,
                1.4870768785476685,
                1.4317654371261597,
                1.3416364192962646,
                1.3183465003967285
            ]
        },
        {
            "Num of features": 12,
            "Num of active features": 12,
            "Num of accurate feature": 12,
            "Geometry": "Failed",
            "Collapsed": 0,
            "Loss": 0.058334377825260166,
            "Rank": 12,
            "Singular values": [
                6.948311805725098,
                1.9523922204971313,
                1.8826496601104736,
                1.7946362495422363,
                1.738656997680664,
                1.7030963897705078,
                1.5750728845596313,
                1.549333095550537,
                1.4262757301330566,
                1.3408534526824951,
                1.0793946981430054,
                1.0297672748565674
            ]
        },
        {
            "Num of features": 12,
            "Num of active features": 11,
            "Num of accurate feature": 11,
            "Geometry": "Failed",
            "Collapsed": 0,
            "Loss": 0.09611346757411957,
            "Rank": 12,
            "Singular values": [
                6.212934494018555,
                1.7708462476730347,
                1.6218801736831665,
                1.539961814880371,
                1.4476572275161743,
                1.34174644947052,
                1.247859239578247,
                1.1643952131271362,
                1.0852010250091553,
                1.0394620895385742,
                0.9886150360107422,
                0.24362339079380035
            ]
        },
        {
            "Num of features": 12,
            "Num of active features": 11,
            "Num of accurate feature": 11,
            "Geometry": "Failed",
            "Collapsed": 0,
            "Loss": 0.059174804349740345,
            "Rank": 12,
            "Singular values": [
                7.836625576019287,
                2.005399465560913,
                1.8395824432373047,
                1.8369337320327759,
                1.6889078617095947,
                1.62671959400177,
                1.5868191719055176,
                1.5106942653656006,
                1.4376624822616577,
                1.3197754621505737,
                1.2643932104110718,
                0.35659968852996826
            ]
        },
        {
            "Num of features": 12,
            "Num of active features": 12,
            "Num of accurate feature": 12,
            "Geometry": "Failed",
            "Collapsed": 0,
            "Loss": 0.050654004578789075,
            "Rank": 12,
            "Singular values": [
                6.907186508178711,
                1.98537015914917,
                1.635330080986023,
                1.6005710363388062,
                1.597464919090271,
                1.5401016473770142,
                1.5108081102371216,
                1.449044108390808,
                1.2799075841903687,
                1.1835404634475708,
                1.0905382633209229,
                1.0591769218444824
            ]
        }
    ],
    "average embeddings summary": {
        "(12, 12, 'Failed', 0)": {
            "(0, 0, 0, 0, 0, 0, 0, 0, 0, 0, 0, 1)": [
                0.322290301322937,
                -0.05965252220630646,
                -0.5258335471153259,
                -0.5357519388198853,
                1.4318525791168213,
                0.5112031698226929,
                1.52987539768219,
                0.01634950190782547,
                1.0138602256774902,
                0.27782413363456726,
                0.46990102529525757,
                -0.8414454460144043
            ],
            "(1, 0, 0, 0, 0, 0, 0, 0, 0, 0, 0, 0)": [
                -0.2205810397863388,
                0.573197603225708,
                -0.5635619163513184,
                0.21470536291599274,
                1.3341236114501953,
                -0.03571407496929169,
                0.6997370719909668,
                -0.596184492111206,
                1.2129452228546143,
                0.9269485473632812,
                0.7189491987228394,
                0.31124773621559143
            ],
            "(0, 0, 0, 1, 0, 0, 0, 0, 0, 0, 0, 0)": [
                0.702278733253479,
                0.8296158313751221,
                -0.6350054144859314,
                0.46124282479286194,
                1.2640483379364014,
                0.8620882630348206,
                -0.20848922431468964,
                -0.245331808924675,
                0.3010180592536926,
                0.35763436555862427,
                1.4397865533828735,
                -0.6324293613433838
            ],
            "(0, 1, 0, 0, 0, 0, 0, 0, 0, 0, 0, 0)": [
                0.4152650535106659,
                1.1625012159347534,
                -0.7119043469429016,
                -0.17919950187206268,
                0.4972057640552521,
                -0.19749465584754944,
                0.8354442119598389,
                0.9498623013496399,
                0.8777713179588318,
                1.0646564960479736,
                0.8321134448051453,
                -0.20496368408203125
            ],
            "(0, 0, 0, 0, 0, 0, 1, 0, 0, 0, 0, 0)": [
                0.7205691337585449,
                0.5000224113464355,
                0.13757120072841644,
                0.59775310754776,
                0.38590753078460693,
                -0.16408932209014893,
                1.196832537651062,
                -0.6402065753936768,
                1.2130649089813232,
                0.9990144371986389,
                0.7141200304031372,
                -0.7809008955955505
            ],
            "(0, 0, 1, 0, 0, 0, 0, 0, 0, 0, 0, 0)": [
                -0.0656718760728836,
                0.9870741963386536,
                -0.6018427610397339,
                -0.33211368322372437,
                0.07004953920841217,
                0.47369834780693054,
                1.2359223365783691,
                -0.5778986215591431,
                0.907710611820221,
                0.3002758324146271,
                1.490714192390442,
                -0.3328167498111725
            ],
            "(0, 0, 0, 0, 0, 0, 0, 0, 0, 1, 0, 0)": [
                0.3679763674736023,
                1.0445793867111206,
                0.5091686844825745,
                -0.8685845136642456,
                1.0972926616668701,
                0.006986897438764572,
                0.9072240591049194,
                -0.4842703342437744,
                -0.06521990150213242,
                1.081905722618103,
                1.1534833908081055,
                -0.07489418238401413
            ],
            "(0, 0, 0, 0, 0, 0, 0, 1, 0, 0, 0, 0)": [
                0.43152984976768494,
                1.0901813507080078,
                -0.37228572368621826,
                0.18000522255897522,
                0.5693536400794983,
                1.1986862421035767,
                1.5114668607711792,
                -0.2881084680557251,
                0.28679168224334717,
                0.9925684928894043,
                -0.0589723065495491,
                0.12501291930675507
            ],
            "(0, 0, 0, 0, 1, 0, 0, 0, 0, 0, 0, 0)": [
                -0.18629349768161774,
                0.7103800177574158,
                -0.22925907373428345,
                0.7021880149841309,
                1.1052312850952148,
                0.08416286110877991,
                1.8790916204452515,
                0.05854307860136032,
                -0.11291128396987915,
                0.29995834827423096,
                1.259681224822998,
                -0.37300577759742737
            ],
            "(0, 0, 0, 0, 0, 0, 0, 0, 0, 0, 1, 0)": [
                -0.33528703451156616,
                0.43008822202682495,
                0.4868324398994446,
                0.1321878880262375,
                0.6044015288352966,
                1.0717648267745972,
                0.8443490266799927,
                0.24546384811401367,
                1.2576967477798462,
                1.0717769861221313,
                1.2157742977142334,
                -0.4157257080078125
            ],
            "(0, 0, 0, 0, 0, 1, 0, 0, 0, 0, 0, 0)": [
                0.7308407425880432,
                -0.33306318521499634,
                -0.40233084559440613,
                0.11992988735437393,
                0.3719122111797333,
                0.5679148435592651,
                1.3082213401794434,
                -0.13850772380828857,
                0.35075750946998596,
                1.1675087213516235,
                1.7349448204040527,
                0.4817708432674408
            ],
            "(0, 0, 0, 0, 0, 0, 0, 0, 1, 0, 0, 0)": [
                0.7293667793273926,
                0.9566478729248047,
                0.2683936655521393,
                0.19652438163757324,
                0.9304870367050171,
                0.3063620626926422,
                1.2541533708572388,
                0.10825324058532715,
                1.4299166202545166,
                -0.23903247714042664,
                1.0401922464370728,
                0.40894025564193726
            ]
        },
        "(11, 11, 'Failed', 0)": {
            "(0, 0, 0, 0, 0, 0, 0, 1, 0, 0, 0, 0)": [
                0.44174134731292725,
                -0.7299202084541321,
                0.6080572009086609,
                -0.006259244401007891,
                0.5680649876594543,
                1.4078457355499268,
                0.7652050852775574,
                0.3386861979961395,
                -0.921114981174469,
                -0.10195354372262955,
                -0.1645856499671936,
                0.6722912788391113
            ],
            "(0, 0, 0, 0, 0, 0, 0, 0, 0, 0, 1, 0)": [
                0.5867569446563721,
                -1.2206482887268066,
                -0.33602213859558105,
                -0.2900097370147705,
                -0.32833319902420044,
                0.8872489929199219,
                -0.15262016654014587,
                0.5325144529342651,
                -0.956069827079773,
                0.058879006654024124,
                0.5183706879615784,
                0.455874502658844
            ],
            "(0, 0, 0, 0, 1, 0, 0, 0, 0, 0, 0, 0)": [
                0.21566428244113922,
                -0.8466320037841797,
                -0.7325959801673889,
                0.013581016100943089,
                0.31531137228012085,
                1.1856529712677002,
                0.2937507629394531,
                0.46836358308792114,
                0.20531368255615234,
                0.09989126771688461,
                0.3493785560131073,
                1.1223877668380737
            ],
            "(0, 0, 0, 0, 0, 0, 1, 0, 0, 0, 0, 0)": [
                0.7607312798500061,
                -0.6740290522575378,
                -0.44146156311035156,
                0.5764693021774292,
                -0.16910959780216217,
                1.5444949865341187,
                0.12310005724430084,
                -0.3114546239376068,
                -0.47008833289146423,
                -0.507672905921936,
                0.2563992142677307,
                0.4137025475502014
            ],
            "(1, 0, 0, 0, 0, 0, 0, 0, 0, 0, 0, 0)": [
                1.2688078880310059,
                -0.6401114463806152,
                -0.8721365332603455,
                0.1500684767961502,
                0.37398168444633484,
                0.4567074477672577,
                0.3851756751537323,
                0.6025755405426025,
                -0.6113579273223877,
                -0.23256231844425201,
                -0.13401754200458527,
                0.3712654709815979
            ],
            "(0, 0, 0, 1, 0, 0, 0, 0, 0, 0, 0, 0)": [
                -0.18938380479812622,
                -0.674068033695221,
                -0.6375252604484558,
                0.3711787760257721,
                0.4499126374721527,
                0.7992798089981079,
                0.3742711842060089,
                0.6173293590545654,
                -0.735094428062439,
                -0.5649092197418213,
                0.9005157351493835,
                -0.014364387840032578
            ],
            "(0, 0, 0, 0, 0, 0, 0, 0, 1, 0, 0, 0)": [
                0.14969898760318756,
                0.10785967111587524,
                -0.7225458025932312,
                -0.3707881271839142,
                0.2226385772228241,
                0.7488831877708435,
                -0.15736712515354156,
                -0.06927795708179474,
                -1.0420771837234497,
                -0.7165282964706421,
                0.08083608746528625,
                1.50985848903656
            ],
            "(0, 0, 0, 0, 0, 0, 0, 0, 0, 1, 0, 0)": [
                0.315812349319458,
                -0.3407098948955536,
                -0.32551977038383484,
                0.7682010531425476,
                0.12307600677013397,
                1.2462372779846191,
                -0.3793145418167114,
                0.7206973433494568,
                -0.7513121366500854,
                -0.04222995415329933,
                -0.08970875293016434,
                0.7545864582061768
            ],
            "(0, 1, 0, 0, 0, 0, 0, 0, 0, 0, 0, 0)": [
                0.7002295851707458,
                -0.4855027496814728,
                -0.41125208139419556,
                0.2907441556453705,
                0.17202703654766083,
                1.199374794960022,
                0.0349891223013401,
                0.3518909215927124,
                -0.5946231484413147,
                -0.1293105036020279,
                0.4410947859287262,
                0.662270724773407
            ],
            "(0, 0, 1, 0, 0, 0, 0, 0, 0, 0, 0, 0)": [
                0.659114420413971,
                -0.2322300225496292,
                -0.6405243277549744,
                -0.05246123671531677,
                0.6000095009803772,
                1.9084241390228271,
                -0.30276593565940857,
                0.23288537561893463,
                -0.5487630367279053,
                0.06632063537836075,
                0.34784644842147827,
                0.2627080976963043
            ],
            "(0, 0, 0, 0, 0, 1, 0, 0, 0, 0, 0, 0)": [
                0.5237568616867065,
                0.19713369011878967,
                -0.7138413190841675,
                -0.052120957523584366,
                -0.7132005095481873,
                1.684206247329712,
                0.8501277565956116,
                0.8678913712501526,
                -0.6064114570617676,
                0.035952698439359665,
                0.17523151636123657,
                0.2729504108428955
            ],
            "(0, 0, 0, 0, 0, 0, 0, 0, 0, 0, 0, 1)": [
                0.6364494562149048,
                -0.45300719141960144,
                -0.4783709645271301,
                0.392770916223526,
                0.1554938554763794,
                0.7380584478378296,
                0.48426544666290283,
                0.05074527859687805,
                -1.068838119506836,
                0.4550294578075409,
                0.7381258010864258,
                0.8194801211357117
            ]
        }
    },
    "model summary": {
        "(12, 12, 'Failed', 0)": {
            "convs.0.bias": [
                -2.2833006381988525,
                -2.508781671524048,
                -2.4140450954437256,
                -2.3971810340881348,
                -2.3307206630706787,
                -2.1584389209747314,
                -2.2865383625030518,
                -2.3102548122406006,
                -2.3592729568481445,
                -2.4712486267089844,
                -2.421814441680908,
                -2.377859354019165
            ],
            "convs.0.lin.weight": [
                [
                    -0.2697238028049469,
                    4.951921463012695,
                    -0.06189136207103729,
                    -0.11032315343618393,
                    -0.32635262608528137,
                    -0.670770525932312,
                    -0.4392225742340088,
                    -0.028854461386799812,
                    -0.5018465518951416,
                    -0.14510852098464966,
                    -0.43237948417663574,
                    0.009511091746389866
                ],
                [
                    0.05724082514643669,
                    -0.31468042731285095,
                    -0.09240637719631195,
                    -0.08177705109119415,
                    5.317441940307617,
                    -0.2665535807609558,
                    -0.25037649273872375,
                    -0.3803425133228302,
                    -0.019512619823217392,
                    0.007376332767307758,
                    -0.3241272270679474,
                    -0.190971240401268
                ],
                [
                    4.9844255447387695,
                    -0.42613455653190613,
                    -0.2648697793483734,
                    0.5351327657699585,
                    -0.2633883059024811,
                    0.6826678514480591,
                    -0.18725620210170746,
                    -0.01749837026000023,
                    -0.2535421550273895,
                    0.16489863395690918,
                    0.562343955039978,
                    -0.3852715492248535
                ],
                [
                    -0.3310084044933319,
                    0.19027456641197205,
                    -0.44178470969200134,
                    -0.5291028618812561,
                    0.1816849410533905,
                    -0.26281553506851196,
                    0.5581648945808411,
                    5.455739974975586,
                    -0.3206193447113037,
                    -0.052355360239744186,
                    0.1811763197183609,
                    -0.387571781873703
                ],
                [
                    -0.12145566195249557,
                    -0.11012093722820282,
                    0.0945296585559845,
                    0.11290375143289566,
                    -0.24730874598026276,
                    -0.0864885076880455,
                    0.3622443974018097,
                    0.2494363635778427,
                    4.883136749267578,
                    0.11325981467962265,
                    0.038423579186201096,
                    -0.2310725450515747
                ],
                [
                    -0.2886877655982971,
                    -0.04259217530488968,
                    -0.527550220489502,
                    -0.14238996803760529,
                    -0.2451440393924713,
                    0.10070715099573135,
                    -0.5647198557853699,
                    -0.4993559718132019,
                    0.11706426739692688,
                    -0.3050207495689392,
                    5.279707431793213,
                    -0.1285477578639984
                ],
                [
                    -0.20505200326442719,
                    -0.4210631251335144,
                    -0.19573697447776794,
                    5.537757396697998,
                    -0.019219912588596344,
                    -0.15888050198554993,
                    0.010787411592900753,
                    -0.083270363509655,
                    -0.11810930073261261,
                    -0.013459568843245506,
                    -0.20544017851352692,
                    -0.27914169430732727
                ],
                [
                    -0.5550926923751831,
                    -0.1755378395318985,
                    -0.5694075226783752,
                    0.21320880949497223,
                    -0.5299017429351807,
                    5.273755073547363,
                    -0.6257292032241821,
                    -0.4003755748271942,
                    -0.46348243951797485,
                    -0.1811915934085846,
                    -0.19588236510753632,
                    -0.5151333808898926
                ],
                [
                    0.23148854076862335,
                    -0.14434050023555756,
                    0.10027813911437988,
                    -0.1884056180715561,
                    -0.14010562002658844,
                    -0.24658633768558502,
                    4.801368713378906,
                    0.09639435261487961,
                    -0.2360588014125824,
                    0.519209086894989,
                    0.17886726558208466,
                    0.11870990693569183
                ],
                [
                    0.2575710117816925,
                    -0.3725316524505615,
                    0.5791292190551758,
                    -0.14271917939186096,
                    -0.1356469839811325,
                    -0.042101822793483734,
                    -0.2963242828845978,
                    0.05657469853758812,
                    -0.29574134945869446,
                    0.0464840866625309,
                    -0.10680175572633743,
                    5.238439559936523
                ],
                [
                    0.023550761863589287,
                    -0.22163796424865723,
                    5.123316287994385,
                    0.2718333899974823,
                    0.20557962357997894,
                    0.07801733165979385,
                    -0.228193998336792,
                    0.10497236996889114,
                    -0.04635646194219589,
                    0.6324694156646729,
                    -0.17915652692317963,
                    0.2671384811401367
                ],
                [
                    -0.2355743944644928,
                    0.1996854990720749,
                    -0.25198203325271606,
                    -0.06582064926624298,
                    -0.06152018904685974,
                    -0.12073244899511337,
                    0.22344627976417542,
                    0.039203669875860214,
                    -0.09923046827316284,
                    5.303404808044434,
                    0.40548744797706604,
                    0.316397488117218
                ]
            ],
            "convs.1.bias": [
                0.3400077521800995,
                0.8247762322425842,
                -0.28842467069625854,
                0.064237579703331,
                0.9755058288574219,
                0.4356558620929718,
                1.280885934829712,
                -0.15376295149326324,
                0.9044122099876404,
                0.838444173336029,
                1.1728558540344238,
                -0.2639366686344147
            ],
            "convs.1.lin.weight": [
                [
                    0.5735588669776917,
                    -3.988452911376953,
                    -5.18671178817749,
                    0.6933715343475342,
                    3.646754264831543,
                    -4.521460056304932,
                    2.106518268585205,
                    2.5446043014526367,
                    3.637415647506714,
                    0.034833114594221115,
                    -3.214303970336914,
                    0.3452399969100952
                ],
                [
                    2.713420867919922,
                    -0.9170971512794495,
                    -1.767531156539917,
                    2.1457600593566895,
                    1.2952213287353516,
                    -2.1371185779571533,
                    0.21226662397384644,
                    -7.151087284088135,
                    -2.6569221019744873,
                    -6.163512706756592,
                    1.9622763395309448,
                    1.7690892219543457
                ],
                [
                    -3.4838850498199463,
                    0.467166543006897,
                    -2.777243137359619,
                    -0.8098016977310181,
                    4.837586879730225,
                    4.930425643920898,
                    -2.008838653564453,
                    -0.9443508982658386,
                    3.900905132293701,
                    -1.7942781448364258,
                    -3.0441629886627197,
                    4.704041957855225
                ],
                [
                    -1.6770833730697632,
                    5.186336517333984,
                    1.5462605953216553,
                    0.9610821008682251,
                    1.3093624114990234,
                    0.3705731928348541,
                    2.2592811584472656,
                    0.2088538557291031,
                    5.230529308319092,
                    -4.2839035987854,
                    -3.1132500171661377,
                    -5.770805835723877
                ],
                [
                    -3.348755359649658,
                    1.5865652561187744,
                    3.8115217685699463,
                    -2.618119478225708,
                    -0.1879127025604248,
                    -2.06927227973938,
                    2.1228187084198,
                    -3.3138134479522705,
                    -4.969281196594238,
                    4.024059772491455,
                    -6.738209247589111,
                    1.4448763132095337
                ],
                [
                    -4.686387062072754,
                    -2.7423410415649414,
                    -3.846147298812866,
                    5.36493444442749,
                    -1.018054485321045,
                    3.973872661590576,
                    2.3312184810638428,
                    0.7414661645889282,
                    -5.711068630218506,
                    0.3823896050453186,
                    0.4200773239135742,
                    -2.680633544921875
                ],
                [
                    -2.956148624420166,
                    4.836371421813965,
                    -4.5565505027771,
                    2.1602044105529785,
                    0.6952168345451355,
                    -2.6594817638397217,
                    -8.363859176635742,
                    0.4430459141731262,
                    -0.4733920991420746,
                    2.422513723373413,
                    0.057032983750104904,
                    -1.9400991201400757
                ],
                [
                    8.683930397033691,
                    1.5715161561965942,
                    -4.163528919219971,
                    -1.002365231513977,
                    2.2364416122436523,
                    2.5226447582244873,
                    -0.46932563185691833,
                    -0.05709986388683319,
                    -4.578102111816406,
                    1.1177641153335571,
                    -3.3430585861206055,
                    -2.0836689472198486
                ],
                [
                    0.25424429774284363,
                    -7.513062000274658,
                    3.376300096511841,
                    -3.9750986099243164,
                    4.6716179847717285,
                    2.783437967300415,
                    -3.1102099418640137,
                    -3.1937527656555176,
                    3.2430903911590576,
                    0.9872758984565735,
                    0.6291904449462891,
                    -5.459778308868408
                ],
                [
                    2.1396849155426025,
                    -3.6925370693206787,
                    1.0025405883789062,
                    1.1829725503921509,
                    -8.71098804473877,
                    1.8893661499023438,
                    -2.6202104091644287,
                    2.44832444190979,
                    2.132819890975952,
                    -3.5372915267944336,
                    -4.28989315032959,
                    1.7080340385437012
                ],
                [
                    -2.1287264823913574,
                    1.0275118350982666,
                    -3.927788019180298,
                    -8.219785690307617,
                    -0.9199106693267822,
                    0.6413787007331848,
                    1.7963193655014038,
                    3.7314352989196777,
                    -3.470282793045044,
                    -4.852454662322998,
                    2.569864273071289,
                    -0.041438937187194824
                ],
                [
                    0.09419877827167511,
                    -1.0965408086776733,
                    5.068638324737549,
                    2.3349366188049316,
                    5.442575454711914,
                    -1.0625301599502563,
                    -2.3218905925750732,
                    4.635370254516602,
                    -5.177761554718018,
                    -4.262185573577881,
                    -0.874581515789032,
                    0.9186986684799194
                ]
            ],
            "lin_out.weight": [
                [
                    -6.783651351928711,
                    -1.7761199474334717,
                    -2.672415018081665,
                    1.681434988975525,
                    2.1789586544036865,
                    -3.4805757999420166,
                    -3.092602014541626,
                    -4.18888521194458,
                    1.3703473806381226,
                    0.1845366656780243,
                    -3.577136278152466,
                    5.530214309692383
                ],
                [
                    -0.29373860359191895,
                    2.042620897293091,
                    -3.38124680519104,
                    -1.5952116250991821,
                    -3.349086046218872,
                    -4.398186683654785,
                    -2.7477104663848877,
                    9.356549263000488,
                    0.06556849181652069,
                    0.5867658853530884,
                    -2.5825295448303223,
                    0.4233871400356293
                ],
                [
                    -4.372722148895264,
                    1.697161078453064,
                    -3.1376259326934814,
                    -3.6530261039733887,
                    -7.02935266494751,
                    -0.08890252560377121,
                    -0.7030158638954163,
                    -4.321534156799316,
                    -0.0830041691660881,
                    -5.294010639190674,
                    1.4890336990356445,
                    -0.9017494320869446
                ],
                [
                    3.066706657409668,
                    -0.22470028698444366,
                    -2.5482890605926514,
                    3.845139503479004,
                    1.9799093008041382,
                    2.4059572219848633,
                    -9.824673652648926,
                    -0.1399337500333786,
                    -4.11831521987915,
                    -3.896184206008911,
                    0.9058734774589539,
                    -2.3572444915771484
                ],
                [
                    -5.467545032501221,
                    -1.3064237833023071,
                    1.332187294960022,
                    5.52419376373291,
                    0.22211480140686035,
                    -3.6308095455169678,
                    2.6296260356903076,
                    2.7744553089141846,
                    -6.493929386138916,
                    -3.6229617595672607,
                    0.03471563011407852,
                    -0.8792684078216553
                ],
                [
                    2.90805721282959,
                    -9.543092727661133,
                    -1.8445185422897339,
                    0.1631557196378708,
                    -4.3074259757995605,
                    0.23663794994354248,
                    -0.1800680309534073,
                    0.521199107170105,
                    -3.108074426651001,
                    1.5749053955078125,
                    2.4151229858398438,
                    6.182109355926514
                ],
                [
                    2.829277276992798,
                    -2.1636550426483154,
                    2.547548532485962,
                    4.276987075805664,
                    -4.223711013793945,
                    -5.291787147521973,
                    -1.1299738883972168,
                    -3.623936891555786,
                    1.1142995357513428,
                    0.9698018431663513,
                    -2.9668898582458496,
                    -4.521906852722168
                ],
                [
                    0.5514364838600159,
                    1.554781436920166,
                    -0.1077839657664299,
                    1.184791088104248,
                    -2.690767765045166,
                    5.259860992431641,
                    1.1500263214111328,
                    -1.354201316833496,
                    -4.315409183502197,
                    0.3141387701034546,
                    -8.479109764099121,
                    3.2585060596466064
                ],
                [
                    3.668917179107666,
                    0.1335025578737259,
                    5.224360466003418,
                    1.1090999841690063,
                    -1.1330186128616333,
                    -1.3253837823867798,
                    -0.0913236141204834,
                    1.630587100982666,
                    2.4572091102600098,
                    -8.71618938446045,
                    -1.0600802898406982,
                    7.269247055053711
                ],
                [
                    0.23772554099559784,
                    0.8136823773384094,
                    6.451130390167236,
                    -6.990894794464111,
                    0.6396678686141968,
                    -3.696040153503418,
                    -2.403984785079956,
                    -1.9364413022994995,
                    -5.676150798797607,
                    0.912415623664856,
                    -0.668534517288208,
                    1.121778130531311
                ],
                [
                    -6.081301689147949,
                    -2.4816184043884277,
                    5.500459671020508,
                    0.2916782796382904,
                    -2.60050106048584,
                    3.9482674598693848,
                    -2.575428009033203,
                    2.4326841831207275,
                    1.7363146543502808,
                    0.555902898311615,
                    0.057611096650362015,
                    -0.9996235370635986
                ],
                [
                    0.26061639189720154,
                    -6.84591817855835,
                    -1.678606629371643,
                    -5.619309425354004,
                    2.140688180923462,
                    0.3202623724937439,
                    0.9118783473968506,
                    1.6854897737503052,
                    0.3397652804851532,
                    -3.810451030731201,
                    -5.220883369445801,
                    -4.260758876800537
                ]
            ],
            "lin_out.bias": [
                -1.3610055446624756,
                -0.9479464292526245,
                -1.3603363037109375,
                -1.121348261833191,
                -1.1797847747802734,
                -0.6150370240211487,
                -1.5071066617965698,
                -1.1150034666061401,
                -1.33504319190979,
                -1.2620803117752075,
                -1.3342539072036743,
                -1.1120001077651978
            ]
        },
        "(11, 11, 'Failed', 0)": {
            "convs.0.bias": [
                -2.6469900608062744,
                -2.432853937149048,
                -1.4525469541549683,
                -1.5806097984313965,
                -2.385099172592163,
                -1.3966987133026123,
                -1.466201663017273,
                -0.17566238343715668,
                -1.5959138870239258,
                -2.1994173526763916,
                -2.2690646648406982,
                -1.546114444732666
            ],
            "convs.0.lin.weight": [
                [
                    0.10263656824827194,
                    -0.0035085310228168964,
                    -0.07510805130004883,
                    -0.07072395831346512,
                    0.1124630719423294,
                    0.1865004301071167,
                    0.46123233437538147,
                    5.260337829589844,
                    -0.31090548634529114,
                    -0.08614010363817215,
                    0.022307027131319046,
                    0.16943205893039703
                ],
                [
                    -0.13961252570152283,
                    0.2123635709285736,
                    0.3098503053188324,
                    -0.05681519955396652,
                    5.102771282196045,
                    0.3558773696422577,
                    0.0008948740432970226,
                    0.25350823998451233,
                    0.1181250512599945,
                    0.010056041181087494,
                    -0.0576607845723629,
                    -0.18955935537815094
                ],
                [
                    -0.27990370988845825,
                    -0.10949741303920746,
                    3.758018970489502,
                    -0.175646111369133,
                    -0.17095597088336945,
                    -0.05837646871805191,
                    3.8786745071411133,
                    -0.17532145977020264,
                    -0.030683478340506554,
                    2.329390048980713,
                    -0.17570915818214417,
                    -0.04684406891465187
                ],
                [
                    3.835038185119629,
                    -0.27887800335884094,
                    -0.09122075885534286,
                    -0.12375126034021378,
                    -0.0929296612739563,
                    -0.08108234405517578,
                    -0.211250439286232,
                    -0.08511492609977722,
                    -0.2748261094093323,
                    -0.03799070790410042,
                    3.818592071533203,
                    2.4762094020843506
                ],
                [
                    -0.09728426486253738,
                    -0.041350703686475754,
                    -0.04096687585115433,
                    5.1750898361206055,
                    -0.22570329904556274,
                    -0.04805109277367592,
                    0.0901888757944107,
                    -0.2635163962841034,
                    0.03307795897126198,
                    -0.35914790630340576,
                    -0.0021217879839241505,
                    -0.14293624460697174
                ],
                [
                    -0.4325069189071655,
                    -0.3523496091365814,
                    2.205662965774536,
                    -0.4334198236465454,
                    -0.33265432715415955,
                    -0.20676615834236145,
                    3.591923713684082,
                    -0.6356580257415771,
                    -0.35637226700782776,
                    3.8763275146484375,
                    -0.21492470800876617,
                    -0.46959811449050903
                ],
                [
                    0.1260463148355484,
                    -0.2312358319759369,
                    3.599557638168335,
                    -0.10569413006305695,
                    -0.13872474431991577,
                    -0.20598208904266357,
                    2.2803008556365967,
                    -0.15093235671520233,
                    -0.1307556927204132,
                    3.751183032989502,
                    -0.24995684623718262,
                    -0.07239305227994919
                ],
                [
                    0.1586277335882187,
                    -0.47206568717956543,
                    0.11871010810136795,
                    -0.17313580214977264,
                    -0.008254091255366802,
                    0.15323950350284576,
                    -0.03247498720884323,
                    -0.5684369802474976,
                    -0.02550502121448517,
                    -0.13907237350940704,
                    -0.3341098129749298,
                    -0.2038552165031433
                ],
                [
                    3.8042149543762207,
                    -0.29617053270339966,
                    0.02397088333964348,
                    -0.20005998015403748,
                    -0.13317357003688812,
                    -0.21040859818458557,
                    -0.005253641400486231,
                    -0.036733705550432205,
                    -0.19923406839370728,
                    -0.22894306480884552,
                    2.479597806930542,
                    4.052325248718262
                ],
                [
                    0.22502072155475616,
                    -0.3512139618396759,
                    -0.15984594821929932,
                    -0.029841937124729156,
                    -0.5020093321800232,
                    -0.09700877964496613,
                    -0.27941733598709106,
                    -0.4477956295013428,
                    5.138392925262451,
                    0.3032384216785431,
                    -0.09524470567703247,
                    -0.40695229172706604
                ],
                [
                    0.06125384196639061,
                    0.43636471033096313,
                    -0.0848635584115982,
                    0.10795646160840988,
                    0.04839186742901802,
                    4.7455925941467285,
                    -0.1752096265554428,
                    -0.31323057413101196,
                    0.047249726951122284,
                    0.07406284660100937,
                    -0.09226903319358826,
                    0.49779239296913147
                ],
                [
                    2.4224894046783447,
                    -0.1385112702846527,
                    -0.3317519426345825,
                    -0.029674945399165154,
                    -0.26217105984687805,
                    -0.230348140001297,
                    -0.25696536898612976,
                    -0.28649407625198364,
                    -0.11077478528022766,
                    -0.3656361997127533,
                    3.906304359436035,
                    3.9211180210113525
                ]
            ],
            "convs.1.bias": [
                0.8190656900405884,
                -0.3876839876174927,
                -0.30826979875564575,
                0.2310275137424469,
                0.20830997824668884,
                1.1187275648117065,
                0.08200554549694061,
                0.5388439893722534,
                -0.5028278827667236,
                -0.312959223985672,
                0.631094217300415,
                0.7416567802429199
            ],
            "convs.1.lin.weight": [
                [
                    -2.2788279056549072,
                    -3.783740520477295,
                    1.4786208868026733,
                    2.526679515838623,
                    -6.4740753173828125,
                    -0.9821783900260925,
                    -2.008713960647583,
                    0.13077101111412048,
                    2.1743597984313965,
                    -3.445409059524536,
                    -1.4254240989685059,
                    -3.733619213104248
                ],
                [
                    -2.232088565826416,
                    -3.209038019180298,
                    -0.517909586429596,
                    -3.5853078365325928,
                    -1.8148243427276611,
                    -1.6738886833190918,
                    2.7031545639038086,
                    0.30535170435905457,
                    3.164102792739868,
                    3.671410083770752,
                    5.656449794769287,
                    -1.852099895477295
                ],
                [
                    8.700416564941406,
                    -2.663512706756592,
                    -0.9926413297653198,
                    -1.334601640701294,
                    -1.6281334161758423,
                    1.5108513832092285,
                    -0.8820353746414185,
                    0.311138391494751,
                    -2.297029495239258,
                    -2.16546630859375,
                    -2.6252753734588623,
                    2.2769575119018555
                ],
                [
                    -2.240689516067505,
                    -1.6741342544555664,
                    -1.9357274770736694,
                    -3.323371648788452,
                    1.1414289474487305,
                    4.972745418548584,
                    -1.1577574014663696,
                    0.29227182269096375,
                    3.106714963912964,
                    -3.757072687149048,
                    -2.6680209636688232,
                    -0.9342743158340454
                ],
                [
                    3.3942441940307617,
                    0.7951749563217163,
                    0.44154512882232666,
                    -0.5986445546150208,
                    2.004420042037964,
                    -3.708015203475952,
                    3.624525308609009,
                    0.15972158312797546,
                    2.8119657039642334,
                    0.2635885775089264,
                    -7.207955837249756,
                    -3.113616704940796
                ],
                [
                    2.2836196422576904,
                    0.10424156486988068,
                    3.9336888790130615,
                    -2.027259588241577,
                    -3.009739637374878,
                    -2.4568448066711426,
                    2.3434484004974365,
                    0.09406975656747818,
                    -2.5093626976013184,
                    -2.7290635108947754,
                    4.377335548400879,
                    1.0681936740875244
                ],
                [
                    5.649205684661865,
                    1.6070679426193237,
                    1.077526569366455,
                    -1.221908688545227,
                    2.4588279724121094,
                    0.23986774682998657,
                    -3.807889461517334,
                    -0.062421202659606934,
                    3.552360773086548,
                    -1.1833381652832031,
                    6.79289436340332,
                    -1.1767123937606812
                ],
                [
                    -0.4950994849205017,
                    0.07836776226758957,
                    -4.767202854156494,
                    2.73567533493042,
                    1.7915030717849731,
                    -0.3378859758377075,
                    3.6461026668548584,
                    -0.048143088817596436,
                    -1.5615507364273071,
                    -3.168670415878296,
                    4.221862316131592,
                    -1.4149904251098633
                ],
                [
                    -2.59273099899292,
                    6.497604846954346,
                    1.2927303314208984,
                    0.8051592707633972,
                    -0.8356434106826782,
                    -0.10420609265565872,
                    -1.0959080457687378,
                    0.2568214237689972,
                    -0.14440679550170898,
                    -2.8174026012420654,
                    0.204287588596344,
                    -2.6463098526000977
                ],
                [
                    0.6300877332687378,
                    2.627992630004883,
                    -1.04864501953125,
                    -2.463083028793335,
                    -2.9273200035095215,
                    -2.303270101547241,
                    3.9452836513519287,
                    -0.595375657081604,
                    1.2489650249481201,
                    -3.4289791584014893,
                    1.661433458328247,
                    3.338099241256714
                ],
                [
                    -5.359785556793213,
                    -1.069731593132019,
                    1.1588373184204102,
                    -4.253158092498779,
                    3.2557713985443115,
                    -2.151895761489868,
                    -1.5275540351867676,
                    -0.2090827375650406,
                    -0.8788459897041321,
                    -2.2075047492980957,
                    -2.6715450286865234,
                    4.466745853424072
                ],
                [
                    0.3440464437007904,
                    4.412010192871094,
                    -2.773756504058838,
                    -2.664323091506958,
                    -4.943544864654541,
                    1.8337825536727905,
                    -0.46121737360954285,
                    0.3831663429737091,
                    0.6136572360992432,
                    5.267251014709473,
                    -3.2504937648773193,
                    1.4216632843017578
                ]
            ],
            "lin_out.weight": [
                [
                    3.8305647373199463,
                    0.8030874133110046,
                    -2.1348330974578857,
                    0.46234434843063354,
                    2.7952327728271484,
                    -3.1058738231658936,
                    0.8554112315177917,
                    0.46069344878196716,
                    1.9759182929992676,
                    -1.4396486282348633,
                    -4.802058696746826,
                    -2.618457794189453
                ],
                [
                    1.097083330154419,
                    0.9260619878768921,
                    0.9988023042678833,
                    0.008570599369704723,
                    -0.1466474086046219,
                    -0.28872451186180115,
                    -0.9446427226066589,
                    0.5895310640335083,
                    1.0563105344772339,
                    -0.48899388313293457,
                    1.3474022150039673,
                    0.02488449402153492
                ],
                [
                    -0.11064086854457855,
                    2.672625780105591,
                    -0.8308993577957153,
                    -4.406346321105957,
                    3.967254638671875,
                    1.8555443286895752,
                    -3.266105890274048,
                    -1.8595588207244873,
                    1.2710802555084229,
                    2.9688899517059326,
                    0.7869235277175903,
                    -3.435319423675537
                ],
                [
                    -7.588394641876221,
                    -1.2766693830490112,
                    -1.2400442361831665,
                    1.4959686994552612,
                    2.6429624557495117,
                    -3.310659646987915,
                    2.122880220413208,
                    1.338136911392212,
                    0.229576975107193,
                    -3.6112616062164307,
                    3.4869422912597656,
                    -6.696496963500977
                ],
                [
                    -3.7918448448181152,
                    -2.4283299446105957,
                    -1.3546380996704102,
                    -1.3818780183792114,
                    0.6969632506370544,
                    -1.08684241771698,
                    1.1400576829910278,
                    -0.5124925971031189,
                    9.542118072509766,
                    3.3725266456604004,
                    -1.4531248807907104,
                    3.1788270473480225
                ],
                [
                    -1.8001577854156494,
                    6.430812835693359,
                    -1.2696281671524048,
                    -3.085869550704956,
                    -6.968926906585693,
                    -0.04570746794342995,
                    4.511085033416748,
                    2.2280707359313965,
                    1.548681378364563,
                    2.5146377086639404,
                    -2.24885892868042,
                    -3.7315151691436768
                ],
                [
                    0.922721266746521,
                    -1.0118268728256226,
                    1.12566339969635,
                    2.6647448539733887,
                    -4.4083476066589355,
                    -0.35260486602783203,
                    1.6470067501068115,
                    -6.067309379577637,
                    1.8810137510299683,
                    -3.3558225631713867,
                    -0.5344876646995544,
                    -1.5002521276474
                ],
                [
                    -1.9724525213241577,
                    -0.5458501577377319,
                    12.495670318603516,
                    -3.449828863143921,
                    3.3995416164398193,
                    -0.4027867317199707,
                    5.078653812408447,
                    -1.5581629276275635,
                    -0.6141136884689331,
                    0.9479730725288391,
                    -6.391432285308838,
                    -1.790290117263794
                ],
                [
                    -3.567441463470459,
                    4.695894718170166,
                    -1.190022587776184,
                    -4.1652140617370605,
                    -0.2907106876373291,
                    -3.7748618125915527,
                    -2.5591089725494385,
                    -4.15814208984375,
                    -1.466261386871338,
                    -3.510652780532837,
                    -2.844327926635742,
                    2.4314374923706055
                ],
                [
                    -1.9500120878219604,
                    1.4906753301620483,
                    1.9123774766921997,
                    3.7105953693389893,
                    -0.6177271008491516,
                    -2.057683229446411,
                    -3.4804940223693848,
                    3.5832245349884033,
                    -0.5912754535675049,
                    1.8682849407196045,
                    -2.373044013977051,
                    0.8449870944023132
                ],
                [
                    -0.9574741125106812,
                    -3.4375133514404297,
                    2.2126107215881348,
                    -4.052428245544434,
                    -4.327144622802734,
                    -0.6497620940208435,
                    -4.193759441375732,
                    0.26723647117614746,
                    -0.12024026364088058,
                    0.7857236862182617,
                    0.8500382900238037,
                    -1.7862166166305542
                ],
                [
                    -0.7775047421455383,
                    3.0357275009155273,
                    1.0710811614990234,
                    3.4064478874206543,
                    0.31242552399635315,
                    -1.4613476991653442,
                    1.6363043785095215,
                    -4.136250019073486,
                    -0.7733796834945679,
                    5.0123162269592285,
                    3.48944091796875,
                    0.43203556537628174
                ]
            ],
            "lin_out.bias": [
                -1.2061177492141724,
                -1.5190088748931885,
                -0.9080477356910706,
                -1.3190503120422363,
                -0.9746970534324646,
                -1.5279943943023682,
                -1.1094591617584229,
                -1.6957755088806152,
                -1.2317572832107544,
                -1.2590038776397705,
                -1.0842804908752441,
                -1.3617315292358398
            ]
        }
    }
}